<?xml version="1.0"?>
<opencv_storage>
<opencv_ml_boost>
  <format>3</format>
  <is_classifier>1</is_classifier>
  <var_all>785</var_all>
  <var_count>784</var_count>
  <ord_var_count>784</ord_var_count>
  <cat_var_count>1</cat_var_count>
  <training_params>
    <boosting_type>RealAdaboost</boosting_type>
    <use_surrogates>0</use_surrogates>
    <max_categories>10</max_categories>
    <regression_accuracy>9.9999997764825821e-03</regression_accuracy>
    <max_depth>2</max_depth>
    <min_sample_count>10</min_sample_count>
    <cross_validation_folds>0</cross_validation_folds>
    <weight_trimming_rate>9.4999999999999996e-01</weight_trimming_rate></training_params>
  <global_var_idx>1</global_var_idx>
  <var_idx>
    0 1 2 3 4 5 6 7 8 9 10 11 12 13 14 15 16 17 18 19 20 21 22 23 24 25
    26 27 28 29 30 31 32 33 34 35 36 37 38 39 40 41 42 43 44 45 46 47 48
    49 50 51 52 53 54 55 56 57 58 59 60 61 62 63 64 65 66 67 68 69 70 71
    72 73 74 75 76 77 78 79 80 81 82 83 84 85 86 87 88 89 90 91 92 93 94
    95 96 97 98 99 100 101 102 103 104 105 106 107 108 109 110 111 112
    113 114 115 116 117 118 119 120 121 122 123 124 125 126 127 128 129
    130 131 132 133 134 135 136 137 138 139 140 141 142 143 144 145 146
    147 148 149 150 151 152 153 154 155 156 157 158 159 160 161 162 163
    164 165 166 167 168 169 170 171 172 173 174 175 176 177 178 179 180
    181 182 183 184 185 186 187 188 189 190 191 192 193 194 195 196 197
    198 199 200 201 202 203 204 205 206 207 208 209 210 211 212 213 214
    215 216 217 218 219 220 221 222 223 224 225 226 227 228 229 230 231
    232 233 234 235 236 237 238 239 240 241 242 243 244 245 246 247 248
    249 250 251 252 253 254 255 256 257 258 259 260 261 262 263 264 265
    266 267 268 269 270 271 272 273 274 275 276 277 278 279 280 281 282
    283 284 285 286 287 288 289 290 291 292 293 294 295 296 297 298 299
    300 301 302 303 304 305 306 307 308 309 310 311 312 313 314 315 316
    317 318 319 320 321 322 323 324 325 326 327 328 329 330 331 332 333
    334 335 336 337 338 339 340 341 342 343 344 345 346 347 348 349 350
    351 352 353 354 355 356 357 358 359 360 361 362 363 364 365 366 367
    368 369 370 371 372 373 374 375 376 377 378 379 380 381 382 383 384
    385 386 387 388 389 390 391 392 393 394 395 396 397 398 399 400 401
    402 403 404 405 406 407 408 409 410 411 412 413 414 415 416 417 418
    419 420 421 422 423 424 425 426 427 428 429 430 431 432 433 434 435
    436 437 438 439 440 441 442 443 444 445 446 447 448 449 450 451 452
    453 454 455 456 457 458 459 460 461 462 463 464 465 466 467 468 469
    470 471 472 473 474 475 476 477 478 479 480 481 482 483 484 485 486
    487 488 489 490 491 492 493 494 495 496 497 498 499 500 501 502 503
    504 505 506 507 508 509 510 511 512 513 514 515 516 517 518 519 520
    521 522 523 524 525 526 527 528 529 530 531 532 533 534 535 536 537
    538 539 540 541 542 543 544 545 546 547 548 549 550 551 552 553 554
    555 556 557 558 559 560 561 562 563 564 565 566 567 568 569 570 571
    572 573 574 575 576 577 578 579 580 581 582 583 584 585 586 587 588
    589 590 591 592 593 594 595 596 597 598 599 600 601 602 603 604 605
    606 607 608 609 610 611 612 613 614 615 616 617 618 619 620 621 622
    623 624 625 626 627 628 629 630 631 632 633 634 635 636 637 638 639
    640 641 642 643 644 645 646 647 648 649 650 651 652 653 654 655 656
    657 658 659 660 661 662 663 664 665 666 667 668 669 670 671 672 673
    674 675 676 677 678 679 680 681 682 683 684 685 686 687 688 689 690
    691 692 693 694 695 696 697 698 699 700 701 702 703 704 705 706 707
    708 709 710 711 712 713 714 715 716 717 718 719 720 721 722 723 724
    725 726 727 728 729 730 731 732 733 734 735 736 737 738 739 740 741
    742 743 744 745 746 747 748 749 750 751 752 753 754 755 756 757 758
    759 760 761 762 763 764 765 766 767 768 769 770 771 772 773 774 775
    776 777 778 779 780 781 782 783</var_idx>
  <var_type>
    0 0 0 0 0 0 0 0 0 0 0 0 0 0 0 0 0 0 0 0 0 0 0 0 0 0 0 0 0 0 0 0 0 0
    0 0 0 0 0 0 0 0 0 0 0 0 0 0 0 0 0 0 0 0 0 0 0 0 0 0 0 0 0 0 0 0 0 0
    0 0 0 0 0 0 0 0 0 0 0 0 0 0 0 0 0 0 0 0 0 0 0 0 0 0 0 0 0 0 0 0 0 0
    0 0 0 0 0 0 0 0 0 0 0 0 0 0 0 0 0 0 0 0 0 0 0 0 0 0 0 0 0 0 0 0 0 0
    0 0 0 0 0 0 0 0 0 0 0 0 0 0 0 0 0 0 0 0 0 0 0 0 0 0 0 0 0 0 0 0 0 0
    0 0 0 0 0 0 0 0 0 0 0 0 0 0 0 0 0 0 0 0 0 0 0 0 0 0 0 0 0 0 0 0 0 0
    0 0 0 0 0 0 0 0 0 0 0 0 0 0 0 0 0 0 0 0 0 0 0 0 0 0 0 0 0 0 0 0 0 0
    0 0 0 0 0 0 0 0 0 0 0 0 0 0 0 0 0 0 0 0 0 0 0 0 0 0 0 0 0 0 0 0 0 0
    0 0 0 0 0 0 0 0 0 0 0 0 0 0 0 0 0 0 0 0 0 0 0 0 0 0 0 0 0 0 0 0 0 0
    0 0 0 0 0 0 0 0 0 0 0 0 0 0 0 0 0 0 0 0 0 0 0 0 0 0 0 0 0 0 0 0 0 0
    0 0 0 0 0 0 0 0 0 0 0 0 0 0 0 0 0 0 0 0 0 0 0 0 0 0 0 0 0 0 0 0 0 0
    0 0 0 0 0 0 0 0 0 0 0 0 0 0 0 0 0 0 0 0 0 0 0 0 0 0 0 0 0 0 0 0 0 0
    0 0 0 0 0 0 0 0 0 0 0 0 0 0 0 0 0 0 0 0 0 0 0 0 0 0 0 0 0 0 0 0 0 0
    0 0 0 0 0 0 0 0 0 0 0 0 0 0 0 0 0 0 0 0 0 0 0 0 0 0 0 0 0 0 0 0 0 0
    0 0 0 0 0 0 0 0 0 0 0 0 0 0 0 0 0 0 0 0 0 0 0 0 0 0 0 0 0 0 0 0 0 0
    0 0 0 0 0 0 0 0 0 0 0 0 0 0 0 0 0 0 0 0 0 0 0 0 0 0 0 0 0 0 0 0 0 0
    0 0 0 0 0 0 0 0 0 0 0 0 0 0 0 0 0 0 0 0 0 0 0 0 0 0 0 0 0 0 0 0 0 0
    0 0 0 0 0 0 0 0 0 0 0 0 0 0 0 0 0 0 0 0 0 0 0 0 0 0 0 0 0 0 0 0 0 0
    0 0 0 0 0 0 0 0 0 0 0 0 0 0 0 0 0 0 0 0 0 0 0 0 0 0 0 0 0 0 0 0 0 0
    0 0 0 0 0 0 0 0 0 0 0 0 0 0 0 0 0 0 0 0 0 0 0 0 0 0 0 0 0 0 0 0 0 0
    0 0 0 0 0 0 0 0 0 0 0 0 0 0 0 0 0 0 0 0 0 0 0 0 0 0 0 0 0 0 0 0 0 0
    0 0 0 0 0 0 0 0 0 0 0 0 0 0 0 0 0 0 0 0 0 0 0 0 0 0 0 0 0 0 0 0 0 0
    0 0 0 0 0 0 0 0 0 0 0 0 0 0 0 0 0 0 0 0 0 0 0 0 0 0 0 0 0 0 0 0 0 0
    0 0 1</var_type>
  <cat_ofs>
    0 0 0 0 0 0 0 0 0 0 0 0 0 0 0 0 0 0 0 0 0 0 0 0 0 0 0 0 0 0 0 0 0 0
    0 0 0 0 0 0 0 0 0 0 0 0 0 0 0 0 0 0 0 0 0 0 0 0 0 0 0 0 0 0 0 0 0 0
    0 0 0 0 0 0 0 0 0 0 0 0 0 0 0 0 0 0 0 0 0 0 0 0 0 0 0 0 0 0 0 0 0 0
    0 0 0 0 0 0 0 0 0 0 0 0 0 0 0 0 0 0 0 0 0 0 0 0 0 0 0 0 0 0 0 0 0 0
    0 0 0 0 0 0 0 0 0 0 0 0 0 0 0 0 0 0 0 0 0 0 0 0 0 0 0 0 0 0 0 0 0 0
    0 0 0 0 0 0 0 0 0 0 0 0 0 0 0 0 0 0 0 0 0 0 0 0 0 0 0 0 0 0 0 0 0 0
    0 0 0 0 0 0 0 0 0 0 0 0 0 0 0 0 0 0 0 0 0 0 0 0 0 0 0 0 0 0 0 0 0 0
    0 0 0 0 0 0 0 0 0 0 0 0 0 0 0 0 0 0 0 0 0 0 0 0 0 0 0 0 0 0 0 0 0 0
    0 0 0 0 0 0 0 0 0 0 0 0 0 0 0 0 0 0 0 0 0 0 0 0 0 0 0 0 0 0 0 0 0 0
    0 0 0 0 0 0 0 0 0 0 0 0 0 0 0 0 0 0 0 0 0 0 0 0 0 0 0 0 0 0 0 0 0 0
    0 0 0 0 0 0 0 0 0 0 0 0 0 0 0 0 0 0 0 0 0 0 0 0 0 0 0 0 0 0 0 0 0 0
    0 0 0 0 0 0 0 0 0 0 0 0 0 0 0 0 0 0 0 0 0 0 0 0 0 0 0 0 0 0 0 0 0 0
    0 0 0 0 0 0 0 0 0 0 0 0 0 0 0 0 0 0 0 0 0 0 0 0 0 0 0 0 0 0 0 0 0 0
    0 0 0 0 0 0 0 0 0 0 0 0 0 0 0 0 0 0 0 0 0 0 0 0 0 0 0 0 0 0 0 0 0 0
    0 0 0 0 0 0 0 0 0 0 0 0 0 0 0 0 0 0 0 0 0 0 0 0 0 0 0 0 0 0 0 0 0 0
    0 0 0 0 0 0 0 0 0 0 0 0 0 0 0 0 0 0 0 0 0 0 0 0 0 0 0 0 0 0 0 0 0 0
    0 0 0 0 0 0 0 0 0 0 0 0 0 0 0 0 0 0 0 0 0 0 0 0 0 0 0 0 0 0 0 0 0 0
    0 0 0 0 0 0 0 0 0 0 0 0 0 0 0 0 0 0 0 0 0 0 0 0 0 0 0 0 0 0 0 0 0 0
    0 0 0 0 0 0 0 0 0 0 0 0 0 0 0 0 0 0 0 0 0 0 0 0 0 0 0 0 0 0 0 0 0 0
    0 0 0 0 0 0 0 0 0 0 0 0 0 0 0 0 0 0 0 0 0 0 0 0 0 0 0 0 0 0 0 0 0 0
    0 0 0 0 0 0 0 0 0 0 0 0 0 0 0 0 0 0 0 0 0 0 0 0 0 0 0 0 0 0 0 0 0 0
    0 0 0 0 0 0 0 0 0 0 0 0 0 0 0 0 0 0 0 0 0 0 0 0 0 0 0 0 0 0 0 0 0 0
    0 0 0 0 0 0 0 0 0 0 0 0 0 0 0 0 0 0 0 0 0 0 0 0 0 0 0 0 0 0 0 0 0 0
    0 0 0 0 0 0 0 0 0 0 0 0 0 0 0 0 0 0 0 0 0 0 0 0 0 0 0 0 0 0 0 0 0 0
    0 0 0 0 0 0 0 0 0 0 0 0 0 0 0 0 0 0 0 0 0 0 0 0 0 0 0 0 0 0 0 0 0 0
    0 0 0 0 0 0 0 0 0 0 0 0 0 0 0 0 0 0 0 0 0 0 0 0 0 0 0 0 0 0 0 0 0 0
    0 0 0 0 0 0 0 0 0 0 0 0 0 0 0 0 0 0 0 0 0 0 0 0 0 0 0 0 0 0 0 0 0 0
    0 0 0 0 0 0 0 0 0 0 0 0 0 0 0 0 0 0 0 0 0 0 0 0 0 0 0 0 0 0 0 0 0 0
    0 0 0 0 0 0 0 0 0 0 0 0 0 0 0 0 0 0 0 0 0 0 0 0 0 0 0 0 0 0 0 0 0 0
    0 0 0 0 0 0 0 0 0 0 0 0 0 0 0 0 0 0 0 0 0 0 0 0 0 0 0 0 0 0 0 0 0 0
    0 0 0 0 0 0 0 0 0 0 0 0 0 0 0 0 0 0 0 0 0 0 0 0 0 0 0 0 0 0 0 0 0 0
    0 0 0 0 0 0 0 0 0 0 0 0 0 0 0 0 0 0 0 0 0 0 0 0 0 0 0 0 0 0 0 0 0 0
    0 0 0 0 0 0 0 0 0 0 0 0 0 0 0 0 0 0 0 0 0 0 0 0 0 0 0 0 0 0 0 0 0 0
    0 0 0 0 0 0 0 0 0 0 0 0 0 0 0 0 0 0 0 0 0 0 0 0 0 0 0 0 0 0 0 0 0 0
    0 0 0 0 0 0 0 0 0 0 0 0 0 0 0 0 0 0 0 0 0 0 0 0 0 0 0 0 0 0 0 0 0 0
    0 0 0 0 0 0 0 0 0 0 0 0 0 0 0 0 0 0 0 0 0 0 0 0 0 0 0 0 0 0 0 0 0 0
    0 0 0 0 0 0 0 0 0 0 0 0 0 0 0 0 0 0 0 0 0 0 0 0 0 0 0 0 0 0 0 0 0 0
    0 0 0 0 0 0 0 0 0 0 0 0 0 0 0 0 0 0 0 0 0 0 0 0 0 0 0 0 0 0 0 0 0 0
    0 0 0 0 0 0 0 0 0 0 0 0 0 0 0 0 0 0 0 0 0 0 0 0 0 0 0 0 0 0 0 0 0 0
    0 0 0 0 0 0 0 0 0 0 0 0 0 0 0 0 0 0 0 0 0 0 0 0 0 0 0 0 0 0 0 0 0 0
    0 0 0 0 0 0 0 0 0 0 0 0 0 0 0 0 0 0 0 0 0 0 0 0 0 0 0 0 0 0 0 0 0 0
    0 0 0 0 0 0 0 0 0 0 0 0 0 0 0 0 0 0 0 0 0 0 0 0 0 0 0 0 0 0 0 0 0 0
    0 0 0 0 0 0 0 0 0 0 0 0 0 0 0 0 0 0 0 0 0 0 0 0 0 0 0 0 0 0 0 0 0 0
    0 0 0 0 0 0 0 0 0 0 0 0 0 0 0 0 0 0 0 0 0 0 0 0 0 0 0 0 0 0 0 0 0 0
    0 0 0 0 0 0 0 0 0 0 0 0 0 0 0 0 0 0 0 0 0 0 0 0 0 0 0 0 0 0 0 0 0 0
    0 0 0 0 0 0 0 0 0 0 0 0 0 0 0 0 0 0 0 0 0 0 0 0 0 0 0 0 0 0 0 0 0 0
    0 0 0 0</cat_ofs>
  <class_labels>
    0 1</class_labels>
  <missing_subst>
    0. 0. 0. 0. 0. 0. 0. 0. 0. 0. 0. 0. 0. 0. 0. 0. 0. 0. 0. 0. 0. 0. 0.
    0. 0. 0. 0. 0. 0. 0. 0. 0. 0. 0. 0. 0. 0. 0. 0. 0. 0. 0. 0. 0. 0. 0.
    0. 0. 0. 0. 0. 0. 0. 0. 0. 0. 0. 0. 0. 0. 0. 0. 0. 0. 0. 0. 0. 0. 0.
    0. 0. 0. 0. 0. 0. 0. 0. 0. 0. 0. 0. 0. 0. 0. 0. 0. 0. 0. 0. 0. 0. 0.
    0. 0. 0. 0. 0. 0. 0. 0. 0. 0. 0. 0. 0. 0. 0. 0. 0. 0. 0. 0. 0. 0. 0.
    0. 0. 0. 0. 0. 0. 0. 0. 0. 0. 0. 0. 0. 0. 0. 0. 0. 0. 0. 0. 0. 0. 0.
    0. 0. 0. 0. 0. 0. 0. 0. 0. 0. 0. 0. 0. 0. 0. 0. 0. 0. 0. 0. 0. 0. 0.
    0. 0. 0. 0. 0. 0. 0. 0. 0. 0. 0. 0. 0. 0. 0. 0. 0. 0. 0. 0. 0. 0. 0.
    0. 0. 0. 0. 0. 0. 0. 0. 0. 0. 0. 0. 0. 0. 0. 0. 0. 0. 0. 0. 0. 0. 0.
    0. 0. 0. 0. 0. 0. 0. 0. 0. 0. 0. 0. 0. 0. 0. 0. 0. 0. 0. 0. 0. 0. 0.
    0. 0. 0. 0. 0. 0. 0. 0. 0. 0. 0. 0. 0. 0. 0. 0. 0. 0. 0. 0. 0. 0. 0.
    0. 0. 0. 0. 0. 0. 0. 0. 0. 0. 0. 0. 0. 0. 0. 0. 0. 0. 0. 0. 0. 0. 0.
    0. 0. 0. 0. 0. 0. 0. 0. 0. 0. 0. 0. 0. 0. 0. 0. 0. 0. 0. 0. 0. 0. 0.
    0. 0. 0. 0. 0. 0. 0. 0. 0. 0. 0. 0. 0. 0. 0. 0. 0. 0. 0. 0. 0. 0. 0.
    0. 0. 0. 0. 0. 0. 0. 0. 0. 0. 0. 0. 0. 0. 0. 0. 0. 0. 0. 0. 0. 0. 0.
    0. 0. 0. 0. 0. 0. 0. 0. 0. 0. 0. 0. 0. 0. 0. 0. 0. 0. 0. 0. 0. 0. 0.
    0. 0. 0. 0. 0. 0. 0. 0. 0. 0. 0. 0. 0. 0. 0. 0. 0. 0. 0. 0. 0. 0. 0.
    0. 0. 0. 0. 0. 0. 0. 0. 0. 0. 0. 0. 0. 0. 0. 0. 0. 0. 0. 0. 0. 0. 0.
    0. 0. 0. 0. 0. 0. 0. 0. 0. 0. 0. 0. 0. 0. 0. 0. 0. 0. 0. 0. 0. 0. 0.
    0. 0. 0. 0. 0. 0. 0. 0. 0. 0. 0. 0. 0. 0. 0. 0. 0. 0. 0. 0. 0. 0. 0.
    0. 0. 0. 0. 0. 0. 0. 0. 0. 0. 0. 0. 0. 0. 0. 0. 0. 0. 0. 0. 0. 0. 0.
    0. 0. 0. 0. 0. 0. 0. 0. 0. 0. 0. 0. 0. 0. 0. 0. 0. 0. 0. 0. 0. 0. 0.
    0. 0. 0. 0. 0. 0. 0. 0. 0. 0. 0. 0. 0. 0. 0. 0. 0. 0. 0. 0. 0. 0. 0.
    0. 0. 0. 0. 0. 0. 0. 0. 0. 0. 0. 0. 0. 0. 0. 0. 0. 0. 0. 0. 0. 0. 0.
    0. 0. 0. 0. 0. 0. 0. 0. 0. 0. 0. 0. 0. 0. 0. 0. 0. 0. 0. 0. 0. 0. 0.
    0. 0. 0. 0. 0. 0. 0. 0. 0. 0. 0. 0. 0. 0. 0. 0. 0. 0. 0. 0. 0. 0. 0.
    0. 0. 0. 0. 0. 0. 0. 0. 0. 0. 0. 0. 0. 0. 0. 0. 0. 0. 0. 0. 0. 0. 0.
    0. 0. 0. 0. 0. 0. 0. 0. 0. 0. 0. 0. 0. 0. 0. 0. 0. 0. 0. 0. 0. 0. 0.
    0. 0. 0. 0. 0. 0. 0. 0. 0. 0. 0. 0. 0. 0. 0. 0. 0. 0. 0. 0. 0. 0. 0.
    0. 0. 0. 0. 0. 0. 0. 0. 0. 0. 0. 0. 0. 0. 0. 0. 0. 0. 0. 0. 0. 0. 0.
    0. 0. 0. 0. 0. 0. 0. 0. 0. 0. 0. 0. 0. 0. 0. 0. 0. 0. 0. 0. 0. 0. 0.
    0. 0. 0. 0. 0. 0. 0. 0. 0. 0. 0. 0. 0. 0. 0. 0. 0. 0. 0. 0. 0. 0. 0.
    0. 0. 0. 0. 0. 0. 0. 0. 0. 0. 0. 0. 0. 0. 0. 0. 0. 0. 0. 0. 0. 0. 0.
    0. 0. 0. 0. 0. 0. 0. 0. 0. 0. 0. 0. 0. 0. 0. 0. 0. 0. 0. 0. 0. 0. 0.
    0. 0. 0.</missing_subst>
  <ntrees>10</ntrees>
  <trees>
    <_>
      <nodes>
        <_>
          <depth>0</depth>
          <value>-7.0362974479247087e-01</value>
          <splits>
            <_><var>432</var>
              <quality>4.0894120931625366e-01</quality>
              <le>2.8823530673980713e-01</le></_></splits></_>
        <_>
          <depth>1</depth>
          <value>-1.1009299138688564e+00</value>
          <splits>
            <_><var>718</var>
              <quality>3.4248802065849304e-01</quality>
              <le>1.9607844296842813e-03</le></_></splits></_>
        <_>
          <depth>2</depth>
          <value>-1.1721864607950394e+00</value></_>
        <_>
          <depth>2</depth>
          <value>-1.0208055020095912e-01</value></_>
        <_>
          <depth>1</depth>
          <value>-4.1894219706235197e-01</value>
          <splits>
            <_><var>290</var>
              <quality>1.2268095463514328e-01</quality>
              <le>9.8039228469133377e-03</le></_></splits></_>
        <_>
          <depth>2</depth>
          <value>-9.1497942768694895e-01</value></_>
        <_>
          <depth>2</depth>
          <value>-9.4259873292313501e-02</value></_></nodes></_>
    <_>
      <nodes>
        <_>
          <depth>0</depth>
          <value>6.6637874773818035e-09</value>
          <splits>
            <_><var>468</var>
              <quality>9.3793533742427826e-02</quality>
              <le>5.8823535218834877e-03</le></_></splits></_>
        <_>
          <depth>1</depth>
          <value>1.9036689510438029e-01</value>
          <splits>
            <_><var>210</var>
              <quality>1.1331543326377869e-01</quality>
              <le>1.9607844296842813e-03</le></_></splits></_>
        <_>
          <depth>2</depth>
          <value>-4.8818517661922978e-01</value></_>
        <_>
          <depth>2</depth>
          <value>3.9586421201645111e-01</value></_>
        <_>
          <depth>1</depth>
          <value>-5.4748934304214392e-01</value>
          <splits>
            <_><var>287</var>
              <quality>9.5147356390953064e-02</quality>
              <le>1.9607844296842813e-03</le></_></splits></_>
        <_>
          <depth>2</depth>
          <value>-9.6705780572335986e-01</value></_>
        <_>
          <depth>2</depth>
          <value>-1.0209557418127416e-01</value></_></nodes></_>
    <_>
      <nodes>
        <_>
          <depth>0</depth>
          <value>3.7918978405419974e-02</value>
          <splits>
            <_><var>353</var>
              <quality>8.3067871630191803e-02</quality>
              <le>1.9607844296842813e-03</le></_></splits></_>
        <_>
          <depth>1</depth>
          <value>-4.5885977121762650e-01</value>
          <splits>
            <_><var>383</var>
              <quality>8.1012509763240814e-02</quality>
              <le>9.8039228469133377e-03</le></_></splits></_>
        <_>
          <depth>2</depth>
          <value>-7.6943556513528943e-01</value></_>
        <_>
          <depth>2</depth>
          <value>1.0588629492357388e-01</value></_>
        <_>
          <depth>1</depth>
          <value>2.2304725588360591e-01</value>
          <splits>
            <_><var>376</var>
              <quality>7.0132508873939514e-02</quality>
              <le>1.9607844296842813e-03</le></_></splits></_>
        <_>
          <depth>2</depth>
          <value>-5.7405420827170768e-02</value></_>
        <_>
          <depth>2</depth>
          <value>4.3643558448919834e-01</value></_></nodes></_>
    <_>
      <nodes>
        <_>
          <depth>0</depth>
          <value>6.0704250355994053e-03</value>
          <splits>
            <_><var>487</var>
              <quality>4.0852766484022141e-02</quality>
              <le>9.8039228469133377e-03</le></_></splits></_>
        <_>
          <depth>1</depth>
          <value>-2.3031983884208254e-01</value>
          <splits>
            <_><var>624</var>
              <quality>4.3854154646396637e-02</quality>
              <le>4.1176471859216690e-02</le></_></splits></_>
        <_>
          <depth>2</depth>
          <value>-8.5132341720338886e-02</value></_>
        <_>
          <depth>2</depth>
          <value>-6.9403160761786287e-01</value></_>
        <_>
          <depth>1</depth>
          <value>1.9312812366616361e-01</value>
          <splits>
            <_><var>658</var>
              <quality>7.5003236532211304e-02</quality>
              <le>1.9607844296842813e-03</le></_></splits></_>
        <_>
          <depth>2</depth>
          <value>-1.5375932822560101e-01</value></_>
        <_>
          <depth>2</depth>
          <value>5.4540279770534150e-01</value></_></nodes></_>
    <_>
      <nodes>
        <_>
          <depth>0</depth>
          <value>2.3859062415667572e-03</value>
          <splits>
            <_><var>574</var>
              <quality>3.7515904754400253e-02</quality>
              <le>4.3725493550300598e-01</le></_></splits></_>
        <_>
          <depth>1</depth>
          <value>1.8709826135389018e-01</value>
          <splits>
            <_><var>432</var>
              <quality>3.2827638089656830e-02</quality>
              <le>2.9607844352722168e-01</le></_></splits></_>
        <_>
          <depth>2</depth>
          <value>4.0422176455440711e-01</value></_>
        <_>
          <depth>2</depth>
          <value>3.6788811652750629e-02</value></_>
        <_>
          <depth>1</depth>
          <value>-2.1666803798128462e-01</value>
          <splits>
            <_><var>212</var>
              <quality>4.8930387943983078e-02</quality>
              <le>1.9607844296842813e-03</le></_></splits></_>
        <_>
          <depth>2</depth>
          <value>-7.8124177436967890e-01</value></_>
        <_>
          <depth>2</depth>
          <value>-6.2163894819456444e-02</value></_></nodes></_>
    <_>
      <nodes>
        <_>
          <depth>0</depth>
          <value>-3.4767526052068036e-03</value>
          <splits>
            <_><var>406</var>
              <quality>2.7387516573071480e-02</quality>
              <le>5.8823535218834877e-03</le></_></splits></_>
        <_>
          <depth>1</depth>
          <value>-3.0572627816270481e-01</value>
          <splits>
            <_><var>693</var>
              <quality>3.4300707280635834e-02</quality>
              <le>2.9411766678094864e-02</le></_></splits></_>
        <_>
          <depth>2</depth>
          <value>-3.7237720122438889e-01</value></_>
        <_>
          <depth>2</depth>
          <value>7.5888258521864305e-01</value></_>
        <_>
          <depth>1</depth>
          <value>9.5114419658869270e-02</value>
          <splits>
            <_><var>319</var>
              <quality>4.5495498925447464e-02</quality>
              <le>1.9607844296842813e-03</le></_></splits></_>
        <_>
          <depth>2</depth>
          <value>-1.6959547234012379e-01</value></_>
        <_>
          <depth>2</depth>
          <value>3.1380707970192756e-01</value></_></nodes></_>
    <_>
      <nodes>
        <_>
          <depth>0</depth>
          <value>2.5885296793195984e-03</value>
          <splits>
            <_><var>572</var>
              <quality>3.2193064689636230e-02</quality>
              <le>9.1568636894226074e-01</le></_></splits></_>
        <_>
          <depth>1</depth>
          <value>1.0073964815977149e-01</value>
          <splits>
            <_><var>604</var>
              <quality>2.7641583234071732e-02</quality>
              <le>7.9411768913269043e-01</le></_></splits></_>
        <_>
          <depth>2</depth>
          <value>2.2336071995243062e-01</value></_>
        <_>
          <depth>2</depth>
          <value>-1.2848380721630603e-01</value></_>
        <_>
          <depth>1</depth>
          <value>-3.5831291290063289e-01</value>
          <splits>
            <_><var>128</var>
              <quality>3.7370305508375168e-02</quality>
              <le>1.4705882966518402e-01</le></_></splits></_>
        <_>
          <depth>2</depth>
          <value>-1.8573087695603413e-01</value></_>
        <_>
          <depth>2</depth>
          <value>-9.1008877099986929e-01</value></_></nodes></_>
    <_>
      <nodes>
        <_>
          <depth>0</depth>
          <value>8.1789719252326550e-04</value>
          <splits>
            <_><var>328</var>
              <quality>1.9831063225865364e-02</quality>
              <le>1.9607844296842813e-03</le></_></splits></_>
        <_>
          <depth>1</depth>
          <value>-1.2038761256438427e-01</value>
          <splits>
            <_><var>316</var>
              <quality>2.1128777414560318e-02</quality>
              <le>1.9411766529083252e-01</le></_></splits></_>
        <_>
          <depth>2</depth>
          <value>-2.2457341659192939e-01</value></_>
        <_>
          <depth>2</depth>
          <value>1.1207827692464489e-01</value></_>
        <_>
          <depth>1</depth>
          <value>1.7563277440107883e-01</value>
          <splits>
            <_><var>213</var>
              <quality>4.0177144110202789e-02</quality>
              <le>1.9607844296842813e-03</le></_></splits></_>
        <_>
          <depth>2</depth>
          <value>-2.4890864538789359e-01</value></_>
        <_>
          <depth>2</depth>
          <value>3.6309359039423511e-01</value></_></nodes></_>
    <_>
      <nodes>
        <_>
          <depth>0</depth>
          <value>-3.9570085140409224e-03</value>
          <splits>
            <_><var>202</var>
              <quality>1.7398603260517120e-02</quality>
              <le>2.5294119119644165e-01</le></_></splits></_>
        <_>
          <depth>1</depth>
          <value>3.0172465879465652e-02</value>
          <splits>
            <_><var>350</var>
              <quality>1.6561105847358704e-02</quality>
              <le>1.9803923368453979e-01</le></_></splits></_>
        <_>
          <depth>2</depth>
          <value>-9.0796212597159670e-02</value></_>
        <_>
          <depth>2</depth>
          <value>1.7808025570126704e-01</value></_>
        <_>
          <depth>1</depth>
          <value>-6.0446264417600282e-01</value>
          <splits>
            <_><var>313</var>
              <quality>2.0519038662314415e-02</quality>
              <le>1.7647059634327888e-02</le></_></splits></_>
        <_>
          <depth>2</depth>
          <value>-9.2285558668896950e-01</value></_>
        <_>
          <depth>2</depth>
          <value>-1.7186708747464641e-01</value></_></nodes></_>
    <_>
      <nodes>
        <_>
          <depth>0</depth>
          <value>2.7183963770574803e-04</value>
          <splits>
            <_><var>267</var>
              <quality>1.7485242336988449e-02</quality>
              <le>9.7843146324157715e-01</le></_></splits></_>
        <_>
          <depth>1</depth>
          <value>6.5777093332563319e-02</value>
          <splits>
            <_><var>402</var>
              <quality>2.1351700648665428e-02</quality>
              <le>9.8627460002899170e-01</le></_></splits></_>
        <_>
          <depth>2</depth>
          <value>1.5101862430701743e-01</value></_>
        <_>
          <depth>2</depth>
          <value>-2.1532604047733789e-01</value></_>
        <_>
          <depth>1</depth>
          <value>-2.8888093743363336e-01</value>
          <splits>
            <_><var>430</var>
              <quality>2.3384753614664078e-02</quality>
              <le>2.5490198284387589e-02</le></_></splits></_>
        <_>
          <depth>2</depth>
          <value>-5.8433112666914377e-01</value></_>
        <_>
          <depth>2</depth>
          <value>-7.0839900161763017e-02</value></_></nodes></_></trees></opencv_ml_boost>
</opencv_storage>
