<?xml version="1.0"?>
<opencv_storage>
<opencv_ml_boost>
  <format>3</format>
  <is_classifier>1</is_classifier>
  <var_all>785</var_all>
  <var_count>784</var_count>
  <ord_var_count>784</ord_var_count>
  <cat_var_count>1</cat_var_count>
  <training_params>
    <boosting_type>RealAdaboost</boosting_type>
    <use_surrogates>0</use_surrogates>
    <max_categories>10</max_categories>
    <regression_accuracy>9.9999997764825821e-03</regression_accuracy>
    <max_depth>2</max_depth>
    <min_sample_count>10</min_sample_count>
    <cross_validation_folds>0</cross_validation_folds>
    <weight_trimming_rate>9.4999999999999996e-01</weight_trimming_rate></training_params>
  <global_var_idx>1</global_var_idx>
  <var_idx>
    0 1 2 3 4 5 6 7 8 9 10 11 12 13 14 15 16 17 18 19 20 21 22 23 24 25
    26 27 28 29 30 31 32 33 34 35 36 37 38 39 40 41 42 43 44 45 46 47 48
    49 50 51 52 53 54 55 56 57 58 59 60 61 62 63 64 65 66 67 68 69 70 71
    72 73 74 75 76 77 78 79 80 81 82 83 84 85 86 87 88 89 90 91 92 93 94
    95 96 97 98 99 100 101 102 103 104 105 106 107 108 109 110 111 112
    113 114 115 116 117 118 119 120 121 122 123 124 125 126 127 128 129
    130 131 132 133 134 135 136 137 138 139 140 141 142 143 144 145 146
    147 148 149 150 151 152 153 154 155 156 157 158 159 160 161 162 163
    164 165 166 167 168 169 170 171 172 173 174 175 176 177 178 179 180
    181 182 183 184 185 186 187 188 189 190 191 192 193 194 195 196 197
    198 199 200 201 202 203 204 205 206 207 208 209 210 211 212 213 214
    215 216 217 218 219 220 221 222 223 224 225 226 227 228 229 230 231
    232 233 234 235 236 237 238 239 240 241 242 243 244 245 246 247 248
    249 250 251 252 253 254 255 256 257 258 259 260 261 262 263 264 265
    266 267 268 269 270 271 272 273 274 275 276 277 278 279 280 281 282
    283 284 285 286 287 288 289 290 291 292 293 294 295 296 297 298 299
    300 301 302 303 304 305 306 307 308 309 310 311 312 313 314 315 316
    317 318 319 320 321 322 323 324 325 326 327 328 329 330 331 332 333
    334 335 336 337 338 339 340 341 342 343 344 345 346 347 348 349 350
    351 352 353 354 355 356 357 358 359 360 361 362 363 364 365 366 367
    368 369 370 371 372 373 374 375 376 377 378 379 380 381 382 383 384
    385 386 387 388 389 390 391 392 393 394 395 396 397 398 399 400 401
    402 403 404 405 406 407 408 409 410 411 412 413 414 415 416 417 418
    419 420 421 422 423 424 425 426 427 428 429 430 431 432 433 434 435
    436 437 438 439 440 441 442 443 444 445 446 447 448 449 450 451 452
    453 454 455 456 457 458 459 460 461 462 463 464 465 466 467 468 469
    470 471 472 473 474 475 476 477 478 479 480 481 482 483 484 485 486
    487 488 489 490 491 492 493 494 495 496 497 498 499 500 501 502 503
    504 505 506 507 508 509 510 511 512 513 514 515 516 517 518 519 520
    521 522 523 524 525 526 527 528 529 530 531 532 533 534 535 536 537
    538 539 540 541 542 543 544 545 546 547 548 549 550 551 552 553 554
    555 556 557 558 559 560 561 562 563 564 565 566 567 568 569 570 571
    572 573 574 575 576 577 578 579 580 581 582 583 584 585 586 587 588
    589 590 591 592 593 594 595 596 597 598 599 600 601 602 603 604 605
    606 607 608 609 610 611 612 613 614 615 616 617 618 619 620 621 622
    623 624 625 626 627 628 629 630 631 632 633 634 635 636 637 638 639
    640 641 642 643 644 645 646 647 648 649 650 651 652 653 654 655 656
    657 658 659 660 661 662 663 664 665 666 667 668 669 670 671 672 673
    674 675 676 677 678 679 680 681 682 683 684 685 686 687 688 689 690
    691 692 693 694 695 696 697 698 699 700 701 702 703 704 705 706 707
    708 709 710 711 712 713 714 715 716 717 718 719 720 721 722 723 724
    725 726 727 728 729 730 731 732 733 734 735 736 737 738 739 740 741
    742 743 744 745 746 747 748 749 750 751 752 753 754 755 756 757 758
    759 760 761 762 763 764 765 766 767 768 769 770 771 772 773 774 775
    776 777 778 779 780 781 782 783</var_idx>
  <var_type>
    0 0 0 0 0 0 0 0 0 0 0 0 0 0 0 0 0 0 0 0 0 0 0 0 0 0 0 0 0 0 0 0 0 0
    0 0 0 0 0 0 0 0 0 0 0 0 0 0 0 0 0 0 0 0 0 0 0 0 0 0 0 0 0 0 0 0 0 0
    0 0 0 0 0 0 0 0 0 0 0 0 0 0 0 0 0 0 0 0 0 0 0 0 0 0 0 0 0 0 0 0 0 0
    0 0 0 0 0 0 0 0 0 0 0 0 0 0 0 0 0 0 0 0 0 0 0 0 0 0 0 0 0 0 0 0 0 0
    0 0 0 0 0 0 0 0 0 0 0 0 0 0 0 0 0 0 0 0 0 0 0 0 0 0 0 0 0 0 0 0 0 0
    0 0 0 0 0 0 0 0 0 0 0 0 0 0 0 0 0 0 0 0 0 0 0 0 0 0 0 0 0 0 0 0 0 0
    0 0 0 0 0 0 0 0 0 0 0 0 0 0 0 0 0 0 0 0 0 0 0 0 0 0 0 0 0 0 0 0 0 0
    0 0 0 0 0 0 0 0 0 0 0 0 0 0 0 0 0 0 0 0 0 0 0 0 0 0 0 0 0 0 0 0 0 0
    0 0 0 0 0 0 0 0 0 0 0 0 0 0 0 0 0 0 0 0 0 0 0 0 0 0 0 0 0 0 0 0 0 0
    0 0 0 0 0 0 0 0 0 0 0 0 0 0 0 0 0 0 0 0 0 0 0 0 0 0 0 0 0 0 0 0 0 0
    0 0 0 0 0 0 0 0 0 0 0 0 0 0 0 0 0 0 0 0 0 0 0 0 0 0 0 0 0 0 0 0 0 0
    0 0 0 0 0 0 0 0 0 0 0 0 0 0 0 0 0 0 0 0 0 0 0 0 0 0 0 0 0 0 0 0 0 0
    0 0 0 0 0 0 0 0 0 0 0 0 0 0 0 0 0 0 0 0 0 0 0 0 0 0 0 0 0 0 0 0 0 0
    0 0 0 0 0 0 0 0 0 0 0 0 0 0 0 0 0 0 0 0 0 0 0 0 0 0 0 0 0 0 0 0 0 0
    0 0 0 0 0 0 0 0 0 0 0 0 0 0 0 0 0 0 0 0 0 0 0 0 0 0 0 0 0 0 0 0 0 0
    0 0 0 0 0 0 0 0 0 0 0 0 0 0 0 0 0 0 0 0 0 0 0 0 0 0 0 0 0 0 0 0 0 0
    0 0 0 0 0 0 0 0 0 0 0 0 0 0 0 0 0 0 0 0 0 0 0 0 0 0 0 0 0 0 0 0 0 0
    0 0 0 0 0 0 0 0 0 0 0 0 0 0 0 0 0 0 0 0 0 0 0 0 0 0 0 0 0 0 0 0 0 0
    0 0 0 0 0 0 0 0 0 0 0 0 0 0 0 0 0 0 0 0 0 0 0 0 0 0 0 0 0 0 0 0 0 0
    0 0 0 0 0 0 0 0 0 0 0 0 0 0 0 0 0 0 0 0 0 0 0 0 0 0 0 0 0 0 0 0 0 0
    0 0 0 0 0 0 0 0 0 0 0 0 0 0 0 0 0 0 0 0 0 0 0 0 0 0 0 0 0 0 0 0 0 0
    0 0 0 0 0 0 0 0 0 0 0 0 0 0 0 0 0 0 0 0 0 0 0 0 0 0 0 0 0 0 0 0 0 0
    0 0 0 0 0 0 0 0 0 0 0 0 0 0 0 0 0 0 0 0 0 0 0 0 0 0 0 0 0 0 0 0 0 0
    0 0 1</var_type>
  <cat_ofs>
    0 0 0 0 0 0 0 0 0 0 0 0 0 0 0 0 0 0 0 0 0 0 0 0 0 0 0 0 0 0 0 0 0 0
    0 0 0 0 0 0 0 0 0 0 0 0 0 0 0 0 0 0 0 0 0 0 0 0 0 0 0 0 0 0 0 0 0 0
    0 0 0 0 0 0 0 0 0 0 0 0 0 0 0 0 0 0 0 0 0 0 0 0 0 0 0 0 0 0 0 0 0 0
    0 0 0 0 0 0 0 0 0 0 0 0 0 0 0 0 0 0 0 0 0 0 0 0 0 0 0 0 0 0 0 0 0 0
    0 0 0 0 0 0 0 0 0 0 0 0 0 0 0 0 0 0 0 0 0 0 0 0 0 0 0 0 0 0 0 0 0 0
    0 0 0 0 0 0 0 0 0 0 0 0 0 0 0 0 0 0 0 0 0 0 0 0 0 0 0 0 0 0 0 0 0 0
    0 0 0 0 0 0 0 0 0 0 0 0 0 0 0 0 0 0 0 0 0 0 0 0 0 0 0 0 0 0 0 0 0 0
    0 0 0 0 0 0 0 0 0 0 0 0 0 0 0 0 0 0 0 0 0 0 0 0 0 0 0 0 0 0 0 0 0 0
    0 0 0 0 0 0 0 0 0 0 0 0 0 0 0 0 0 0 0 0 0 0 0 0 0 0 0 0 0 0 0 0 0 0
    0 0 0 0 0 0 0 0 0 0 0 0 0 0 0 0 0 0 0 0 0 0 0 0 0 0 0 0 0 0 0 0 0 0
    0 0 0 0 0 0 0 0 0 0 0 0 0 0 0 0 0 0 0 0 0 0 0 0 0 0 0 0 0 0 0 0 0 0
    0 0 0 0 0 0 0 0 0 0 0 0 0 0 0 0 0 0 0 0 0 0 0 0 0 0 0 0 0 0 0 0 0 0
    0 0 0 0 0 0 0 0 0 0 0 0 0 0 0 0 0 0 0 0 0 0 0 0 0 0 0 0 0 0 0 0 0 0
    0 0 0 0 0 0 0 0 0 0 0 0 0 0 0 0 0 0 0 0 0 0 0 0 0 0 0 0 0 0 0 0 0 0
    0 0 0 0 0 0 0 0 0 0 0 0 0 0 0 0 0 0 0 0 0 0 0 0 0 0 0 0 0 0 0 0 0 0
    0 0 0 0 0 0 0 0 0 0 0 0 0 0 0 0 0 0 0 0 0 0 0 0 0 0 0 0 0 0 0 0 0 0
    0 0 0 0 0 0 0 0 0 0 0 0 0 0 0 0 0 0 0 0 0 0 0 0 0 0 0 0 0 0 0 0 0 0
    0 0 0 0 0 0 0 0 0 0 0 0 0 0 0 0 0 0 0 0 0 0 0 0 0 0 0 0 0 0 0 0 0 0
    0 0 0 0 0 0 0 0 0 0 0 0 0 0 0 0 0 0 0 0 0 0 0 0 0 0 0 0 0 0 0 0 0 0
    0 0 0 0 0 0 0 0 0 0 0 0 0 0 0 0 0 0 0 0 0 0 0 0 0 0 0 0 0 0 0 0 0 0
    0 0 0 0 0 0 0 0 0 0 0 0 0 0 0 0 0 0 0 0 0 0 0 0 0 0 0 0 0 0 0 0 0 0
    0 0 0 0 0 0 0 0 0 0 0 0 0 0 0 0 0 0 0 0 0 0 0 0 0 0 0 0 0 0 0 0 0 0
    0 0 0 0 0 0 0 0 0 0 0 0 0 0 0 0 0 0 0 0 0 0 0 0 0 0 0 0 0 0 0 0 0 0
    0 0 0 0 0 0 0 0 0 0 0 0 0 0 0 0 0 0 0 0 0 0 0 0 0 0 0 0 0 0 0 0 0 0
    0 0 0 0 0 0 0 0 0 0 0 0 0 0 0 0 0 0 0 0 0 0 0 0 0 0 0 0 0 0 0 0 0 0
    0 0 0 0 0 0 0 0 0 0 0 0 0 0 0 0 0 0 0 0 0 0 0 0 0 0 0 0 0 0 0 0 0 0
    0 0 0 0 0 0 0 0 0 0 0 0 0 0 0 0 0 0 0 0 0 0 0 0 0 0 0 0 0 0 0 0 0 0
    0 0 0 0 0 0 0 0 0 0 0 0 0 0 0 0 0 0 0 0 0 0 0 0 0 0 0 0 0 0 0 0 0 0
    0 0 0 0 0 0 0 0 0 0 0 0 0 0 0 0 0 0 0 0 0 0 0 0 0 0 0 0 0 0 0 0 0 0
    0 0 0 0 0 0 0 0 0 0 0 0 0 0 0 0 0 0 0 0 0 0 0 0 0 0 0 0 0 0 0 0 0 0
    0 0 0 0 0 0 0 0 0 0 0 0 0 0 0 0 0 0 0 0 0 0 0 0 0 0 0 0 0 0 0 0 0 0
    0 0 0 0 0 0 0 0 0 0 0 0 0 0 0 0 0 0 0 0 0 0 0 0 0 0 0 0 0 0 0 0 0 0
    0 0 0 0 0 0 0 0 0 0 0 0 0 0 0 0 0 0 0 0 0 0 0 0 0 0 0 0 0 0 0 0 0 0
    0 0 0 0 0 0 0 0 0 0 0 0 0 0 0 0 0 0 0 0 0 0 0 0 0 0 0 0 0 0 0 0 0 0
    0 0 0 0 0 0 0 0 0 0 0 0 0 0 0 0 0 0 0 0 0 0 0 0 0 0 0 0 0 0 0 0 0 0
    0 0 0 0 0 0 0 0 0 0 0 0 0 0 0 0 0 0 0 0 0 0 0 0 0 0 0 0 0 0 0 0 0 0
    0 0 0 0 0 0 0 0 0 0 0 0 0 0 0 0 0 0 0 0 0 0 0 0 0 0 0 0 0 0 0 0 0 0
    0 0 0 0 0 0 0 0 0 0 0 0 0 0 0 0 0 0 0 0 0 0 0 0 0 0 0 0 0 0 0 0 0 0
    0 0 0 0 0 0 0 0 0 0 0 0 0 0 0 0 0 0 0 0 0 0 0 0 0 0 0 0 0 0 0 0 0 0
    0 0 0 0 0 0 0 0 0 0 0 0 0 0 0 0 0 0 0 0 0 0 0 0 0 0 0 0 0 0 0 0 0 0
    0 0 0 0 0 0 0 0 0 0 0 0 0 0 0 0 0 0 0 0 0 0 0 0 0 0 0 0 0 0 0 0 0 0
    0 0 0 0 0 0 0 0 0 0 0 0 0 0 0 0 0 0 0 0 0 0 0 0 0 0 0 0 0 0 0 0 0 0
    0 0 0 0 0 0 0 0 0 0 0 0 0 0 0 0 0 0 0 0 0 0 0 0 0 0 0 0 0 0 0 0 0 0
    0 0 0 0 0 0 0 0 0 0 0 0 0 0 0 0 0 0 0 0 0 0 0 0 0 0 0 0 0 0 0 0 0 0
    0 0 0 0 0 0 0 0 0 0 0 0 0 0 0 0 0 0 0 0 0 0 0 0 0 0 0 0 0 0 0 0 0 0
    0 0 0 0 0 0 0 0 0 0 0 0 0 0 0 0 0 0 0 0 0 0 0 0 0 0 0 0 0 0 0 0 0 0
    0 0 0 0</cat_ofs>
  <class_labels>
    0 1</class_labels>
  <missing_subst>
    0. 0. 0. 0. 0. 0. 0. 0. 0. 0. 0. 0. 0. 0. 0. 0. 0. 0. 0. 0. 0. 0. 0.
    0. 0. 0. 0. 0. 0. 0. 0. 0. 0. 0. 0. 0. 0. 0. 0. 0. 0. 0. 0. 0. 0. 0.
    0. 0. 0. 0. 0. 0. 0. 0. 0. 0. 0. 0. 0. 0. 0. 0. 0. 0. 0. 0. 0. 0. 0.
    0. 0. 0. 0. 0. 0. 0. 0. 0. 0. 0. 0. 0. 0. 0. 0. 0. 0. 0. 0. 0. 0. 0.
    0. 0. 0. 0. 0. 0. 0. 0. 0. 0. 0. 0. 0. 0. 0. 0. 0. 0. 0. 0. 0. 0. 0.
    0. 0. 0. 0. 0. 0. 0. 0. 0. 0. 0. 0. 0. 0. 0. 0. 0. 0. 0. 0. 0. 0. 0.
    0. 0. 0. 0. 0. 0. 0. 0. 0. 0. 0. 0. 0. 0. 0. 0. 0. 0. 0. 0. 0. 0. 0.
    0. 0. 0. 0. 0. 0. 0. 0. 0. 0. 0. 0. 0. 0. 0. 0. 0. 0. 0. 0. 0. 0. 0.
    0. 0. 0. 0. 0. 0. 0. 0. 0. 0. 0. 0. 0. 0. 0. 0. 0. 0. 0. 0. 0. 0. 0.
    0. 0. 0. 0. 0. 0. 0. 0. 0. 0. 0. 0. 0. 0. 0. 0. 0. 0. 0. 0. 0. 0. 0.
    0. 0. 0. 0. 0. 0. 0. 0. 0. 0. 0. 0. 0. 0. 0. 0. 0. 0. 0. 0. 0. 0. 0.
    0. 0. 0. 0. 0. 0. 0. 0. 0. 0. 0. 0. 0. 0. 0. 0. 0. 0. 0. 0. 0. 0. 0.
    0. 0. 0. 0. 0. 0. 0. 0. 0. 0. 0. 0. 0. 0. 0. 0. 0. 0. 0. 0. 0. 0. 0.
    0. 0. 0. 0. 0. 0. 0. 0. 0. 0. 0. 0. 0. 0. 0. 0. 0. 0. 0. 0. 0. 0. 0.
    0. 0. 0. 0. 0. 0. 0. 0. 0. 0. 0. 0. 0. 0. 0. 0. 0. 0. 0. 0. 0. 0. 0.
    0. 0. 0. 0. 0. 0. 0. 0. 0. 0. 0. 0. 0. 0. 0. 0. 0. 0. 0. 0. 0. 0. 0.
    0. 0. 0. 0. 0. 0. 0. 0. 0. 0. 0. 0. 0. 0. 0. 0. 0. 0. 0. 0. 0. 0. 0.
    0. 0. 0. 0. 0. 0. 0. 0. 0. 0. 0. 0. 0. 0. 0. 0. 0. 0. 0. 0. 0. 0. 0.
    0. 0. 0. 0. 0. 0. 0. 0. 0. 0. 0. 0. 0. 0. 0. 0. 0. 0. 0. 0. 0. 0. 0.
    0. 0. 0. 0. 0. 0. 0. 0. 0. 0. 0. 0. 0. 0. 0. 0. 0. 0. 0. 0. 0. 0. 0.
    0. 0. 0. 0. 0. 0. 0. 0. 0. 0. 0. 0. 0. 0. 0. 0. 0. 0. 0. 0. 0. 0. 0.
    0. 0. 0. 0. 0. 0. 0. 0. 0. 0. 0. 0. 0. 0. 0. 0. 0. 0. 0. 0. 0. 0. 0.
    0. 0. 0. 0. 0. 0. 0. 0. 0. 0. 0. 0. 0. 0. 0. 0. 0. 0. 0. 0. 0. 0. 0.
    0. 0. 0. 0. 0. 0. 0. 0. 0. 0. 0. 0. 0. 0. 0. 0. 0. 0. 0. 0. 0. 0. 0.
    0. 0. 0. 0. 0. 0. 0. 0. 0. 0. 0. 0. 0. 0. 0. 0. 0. 0. 0. 0. 0. 0. 0.
    0. 0. 0. 0. 0. 0. 0. 0. 0. 0. 0. 0. 0. 0. 0. 0. 0. 0. 0. 0. 0. 0. 0.
    0. 0. 0. 0. 0. 0. 0. 0. 0. 0. 0. 0. 0. 0. 0. 0. 0. 0. 0. 0. 0. 0. 0.
    0. 0. 0. 0. 0. 0. 0. 0. 0. 0. 0. 0. 0. 0. 0. 0. 0. 0. 0. 0. 0. 0. 0.
    0. 0. 0. 0. 0. 0. 0. 0. 0. 0. 0. 0. 0. 0. 0. 0. 0. 0. 0. 0. 0. 0. 0.
    0. 0. 0. 0. 0. 0. 0. 0. 0. 0. 0. 0. 0. 0. 0. 0. 0. 0. 0. 0. 0. 0. 0.
    0. 0. 0. 0. 0. 0. 0. 0. 0. 0. 0. 0. 0. 0. 0. 0. 0. 0. 0. 0. 0. 0. 0.
    0. 0. 0. 0. 0. 0. 0. 0. 0. 0. 0. 0. 0. 0. 0. 0. 0. 0. 0. 0. 0. 0. 0.
    0. 0. 0. 0. 0. 0. 0. 0. 0. 0. 0. 0. 0. 0. 0. 0. 0. 0. 0. 0. 0. 0. 0.
    0. 0. 0. 0. 0. 0. 0. 0. 0. 0. 0. 0. 0. 0. 0. 0. 0. 0. 0. 0. 0. 0. 0.
    0. 0. 0.</missing_subst>
  <ntrees>10</ntrees>
  <trees>
    <_>
      <nodes>
        <_>
          <depth>0</depth>
          <value>-1.9330563624581690e-01</value>
          <splits>
            <_><var>100</var>
              <quality>1.3220752775669098e-01</quality>
              <le>1.9607844296842813e-03</le></_></splits></_>
        <_>
          <depth>1</depth>
          <value>-2.9350511717328437e-01</value>
          <splits>
            <_><var>150</var>
              <quality>1.4410191774368286e-01</quality>
              <le>2.9215687513351440e-01</le></_></splits></_>
        <_>
          <depth>2</depth>
          <value>-4.2507852373362881e-01</value></_>
        <_>
          <depth>2</depth>
          <value>3.9015177931869466e-01</value></_>
        <_>
          <depth>1</depth>
          <value>1.1664369659923142e+00</value>
          <splits>
            <_><var>459</var>
              <quality>6.0701929032802582e-02</quality>
              <le>1.7647059634327888e-02</le></_></splits></_>
        <_>
          <depth>2</depth>
          <value>5.7209244297345774e-01</value></_>
        <_>
          <depth>2</depth>
          <value>1.7181047138109713e+00</value></_></nodes></_>
    <_>
      <nodes>
        <_>
          <depth>0</depth>
          <value>-2.4063321804640894e-02</value>
          <splits>
            <_><var>345</var>
              <quality>7.8621208667755127e-02</quality>
              <le>1.7647059634327888e-02</le></_></splits></_>
        <_>
          <depth>1</depth>
          <value>2.4247575228282819e-01</value>
          <splits>
            <_><var>437</var>
              <quality>1.1214377731084824e-01</quality>
              <le>1.9607844296842813e-03</le></_></splits></_>
        <_>
          <depth>2</depth>
          <value>-2.7935034676879156e-01</value></_>
        <_>
          <depth>2</depth>
          <value>6.1157550218999668e-01</value></_>
        <_>
          <depth>1</depth>
          <value>-3.4201636107214262e-01</value>
          <splits>
            <_><var>431</var>
              <quality>8.1437043845653534e-02</quality>
              <le>9.8039228469133377e-03</le></_></splits></_>
        <_>
          <depth>2</depth>
          <value>-4.4729676572363028e-02</value></_>
        <_>
          <depth>2</depth>
          <value>-6.6679656960445999e-01</value></_></nodes></_>
    <_>
      <nodes>
        <_>
          <depth>0</depth>
          <value>2.0026665673607346e-02</value>
          <splits>
            <_><var>381</var>
              <quality>3.9581898599863052e-02</quality>
              <le>1.9607844296842813e-03</le></_></splits></_>
        <_>
          <depth>1</depth>
          <value>-2.8462174980870975e-01</value>
          <splits>
            <_><var>465</var>
              <quality>4.5289568603038788e-02</quality>
              <le>8.4313727915287018e-02</le></_></splits></_>
        <_>
          <depth>2</depth>
          <value>-5.5165421577398066e-01</value></_>
        <_>
          <depth>2</depth>
          <value>3.8814133544017193e-02</value></_>
        <_>
          <depth>1</depth>
          <value>1.5427155679922180e-01</value>
          <splits>
            <_><var>432</var>
              <quality>6.3664183020591736e-02</quality>
              <le>5.8823535218834877e-03</le></_></splits></_>
        <_>
          <depth>2</depth>
          <value>4.7759945555543182e-01</value></_>
        <_>
          <depth>2</depth>
          <value>-8.5999980610639154e-02</value></_></nodes></_>
    <_>
      <nodes>
        <_>
          <depth>0</depth>
          <value>2.3114016789451612e-03</value>
          <splits>
            <_><var>96</var>
              <quality>4.1210077702999115e-02</quality>
              <le>1.9607844296842813e-03</le></_></splits></_>
        <_>
          <depth>1</depth>
          <value>-5.0090269423398837e-02</value>
          <splits>
            <_><var>371</var>
              <quality>3.2816946506500244e-02</quality>
              <le>4.6078434586524963e-01</le></_></splits></_>
        <_>
          <depth>2</depth>
          <value>3.6687271485835012e-02</value></_>
        <_>
          <depth>2</depth>
          <value>-4.6181388030368709e-01</value></_>
        <_>
          <depth>1</depth>
          <value>1.1080999777026008e+00</value>
          <splits>
            <_><var>100</var>
              <quality>4.2817346751689911e-02</quality>
              <le>1.9607844296842813e-03</le></_></splits></_>
        <_>
          <depth>2</depth>
          <value>1.5004977401997748e+00</value></_>
        <_>
          <depth>2</depth>
          <value>1.6680880305356996e-01</value></_></nodes></_>
    <_>
      <nodes>
        <_>
          <depth>0</depth>
          <value>2.3551715871752782e-02</value>
          <splits>
            <_><var>230</var>
              <quality>3.6776941269636154e-02</quality>
              <le>1.9607844296842813e-03</le></_></splits></_>
        <_>
          <depth>1</depth>
          <value>-5.5875278202527079e-02</value>
          <splits>
            <_><var>524</var>
              <quality>3.1299229711294174e-02</quality>
              <le>1.3725491240620613e-02</le></_></splits></_>
        <_>
          <depth>2</depth>
          <value>-1.8295057388683764e-01</value></_>
        <_>
          <depth>2</depth>
          <value>2.2933295699676348e-01</value></_>
        <_>
          <depth>1</depth>
          <value>5.5343458559471947e-01</value>
          <splits>
            <_><var>398</var>
              <quality>4.9808338284492493e-02</quality>
              <le>5.5882358551025391e-01</le></_></splits></_>
        <_>
          <depth>2</depth>
          <value>7.9069031379233246e-01</value></_>
        <_>
          <depth>2</depth>
          <value>-2.4117384893231303e-01</value></_></nodes></_>
    <_>
      <nodes>
        <_>
          <depth>0</depth>
          <value>-2.4757051138850752e-02</value>
          <splits>
            <_><var>710</var>
              <quality>2.8594044968485832e-02</quality>
              <le>9.8039228469133377e-03</le></_></splits></_>
        <_>
          <depth>1</depth>
          <value>-7.9800788377728069e-02</value>
          <splits>
            <_><var>104</var>
              <quality>3.4348241984844208e-02</quality>
              <le>4.9019612371921539e-02</le></_></splits></_>
        <_>
          <depth>2</depth>
          <value>-1.2386853847049333e-01</value></_>
        <_>
          <depth>2</depth>
          <value>8.3178734846203450e-01</value></_>
        <_>
          <depth>1</depth>
          <value>5.5958908293217224e-01</value>
          <splits>
            <_><var>404</var>
              <quality>4.0847469121217728e-02</quality>
              <le>5.8823535218834877e-03</le></_></splits></_>
        <_>
          <depth>2</depth>
          <value>1.1814370371803360e+00</value></_>
        <_>
          <depth>2</depth>
          <value>-1.1212613955915350e-01</value></_></nodes></_>
    <_>
      <nodes>
        <_>
          <depth>0</depth>
          <value>3.8189955288317539e-03</value>
          <splits>
            <_><var>319</var>
              <quality>3.7390083074569702e-02</quality>
              <le>2.9607844352722168e-01</le></_></splits></_>
        <_>
          <depth>1</depth>
          <value>1.8818059067334272e-01</value>
          <splits>
            <_><var>344</var>
              <quality>5.1253646612167358e-02</quality>
              <le>1.3921569287776947e-01</le></_></splits></_>
        <_>
          <depth>2</depth>
          <value>3.6247298517624510e-01</value></_>
        <_>
          <depth>2</depth>
          <value>-2.1427786968783749e-01</value></_>
        <_>
          <depth>1</depth>
          <value>-2.1213797688775241e-01</value>
          <splits>
            <_><var>294</var>
              <quality>5.8266151696443558e-02</quality>
              <le>6.7254900932312012e-01</le></_></splits></_>
        <_>
          <depth>2</depth>
          <value>-4.4089736704620264e-01</value></_>
        <_>
          <depth>2</depth>
          <value>2.1988028533029558e-01</value></_></nodes></_>
    <_>
      <nodes>
        <_>
          <depth>0</depth>
          <value>1.9282566353296206e-02</value>
          <splits>
            <_><var>549</var>
              <quality>3.5519059747457504e-02</quality>
              <le>2.9411766678094864e-02</le></_></splits></_>
        <_>
          <depth>1</depth>
          <value>-2.2245544259516722e-01</value>
          <splits>
            <_><var>349</var>
              <quality>4.3726973235607147e-02</quality>
              <le>2.5490198284387589e-02</le></_></splits></_>
        <_>
          <depth>2</depth>
          <value>7.8664705911107413e-02</value></_>
        <_>
          <depth>2</depth>
          <value>-4.8432416125998268e-01</value></_>
        <_>
          <depth>1</depth>
          <value>1.7652846220727128e-01</value>
          <splits>
            <_><var>219</var>
              <quality>3.7301823496818542e-02</quality>
              <le>5.8823535218834877e-03</le></_></splits></_>
        <_>
          <depth>2</depth>
          <value>2.3327257049379510e-01</value></_>
        <_>
          <depth>2</depth>
          <value>-4.9331242896640409e-01</value></_></nodes></_>
    <_>
      <nodes>
        <_>
          <depth>0</depth>
          <value>-1.0334755103864742e-02</value>
          <splits>
            <_><var>741</var>
              <quality>2.5132216513156891e-02</quality>
              <le>1.3725491240620613e-02</le></_></splits></_>
        <_>
          <depth>1</depth>
          <value>-4.4669363756387241e-02</value>
          <splits>
            <_><var>431</var>
              <quality>2.3907674476504326e-02</quality>
              <le>2.1568629890680313e-02</le></_></splits></_>
        <_>
          <depth>2</depth>
          <value>-2.0656969798336250e-01</value></_>
        <_>
          <depth>2</depth>
          <value>1.0855862937069770e-01</value></_>
        <_>
          <depth>1</depth>
          <value>9.9082861811432132e-01</value>
          <splits>
            <_><var>404</var>
              <quality>2.9192965477705002e-02</quality>
              <le>1.9411766529083252e-01</le></_></splits></_>
        <_>
          <depth>2</depth>
          <value>1.4658677494799497e+00</value></_>
        <_>
          <depth>2</depth>
          <value>-2.7386498958830563e-01</value></_></nodes></_>
    <_>
      <nodes>
        <_>
          <depth>0</depth>
          <value>4.3637727661287916e-03</value>
          <splits>
            <_><var>437</var>
              <quality>1.8130699172616005e-02</quality>
              <le>5.8823535218834877e-03</le></_></splits></_>
        <_>
          <depth>1</depth>
          <value>2.0146281297277446e-01</value>
          <splits>
            <_><var>626</var>
              <quality>3.4855652600526810e-02</quality>
              <le>9.6078440546989441e-02</le></_></splits></_>
        <_>
          <depth>2</depth>
          <value>5.2719116114524234e-01</value></_>
        <_>
          <depth>2</depth>
          <value>-4.6751544362167129e-02</value></_>
        <_>
          <depth>1</depth>
          <value>-9.3756687567398189e-02</value>
          <splits>
            <_><var>345</var>
              <quality>3.5699691623449326e-02</quality>
              <le>1.7647059634327888e-02</le></_></splits></_>
        <_>
          <depth>2</depth>
          <value>-3.3979350436504657e-01</value></_>
        <_>
          <depth>2</depth>
          <value>1.1065924125659721e-01</value></_></nodes></_></trees></opencv_ml_boost>
</opencv_storage>
