<?xml version="1.0"?>
<opencv_storage>
<opencv_ml_boost>
  <format>3</format>
  <is_classifier>1</is_classifier>
  <var_all>785</var_all>
  <var_count>784</var_count>
  <ord_var_count>784</ord_var_count>
  <cat_var_count>1</cat_var_count>
  <training_params>
    <boosting_type>RealAdaboost</boosting_type>
    <use_surrogates>0</use_surrogates>
    <max_categories>10</max_categories>
    <regression_accuracy>9.9999997764825821e-03</regression_accuracy>
    <max_depth>2</max_depth>
    <min_sample_count>10</min_sample_count>
    <cross_validation_folds>0</cross_validation_folds>
    <weight_trimming_rate>9.4999999999999996e-01</weight_trimming_rate></training_params>
  <global_var_idx>1</global_var_idx>
  <var_idx>
    0 1 2 3 4 5 6 7 8 9 10 11 12 13 14 15 16 17 18 19 20 21 22 23 24 25
    26 27 28 29 30 31 32 33 34 35 36 37 38 39 40 41 42 43 44 45 46 47 48
    49 50 51 52 53 54 55 56 57 58 59 60 61 62 63 64 65 66 67 68 69 70 71
    72 73 74 75 76 77 78 79 80 81 82 83 84 85 86 87 88 89 90 91 92 93 94
    95 96 97 98 99 100 101 102 103 104 105 106 107 108 109 110 111 112
    113 114 115 116 117 118 119 120 121 122 123 124 125 126 127 128 129
    130 131 132 133 134 135 136 137 138 139 140 141 142 143 144 145 146
    147 148 149 150 151 152 153 154 155 156 157 158 159 160 161 162 163
    164 165 166 167 168 169 170 171 172 173 174 175 176 177 178 179 180
    181 182 183 184 185 186 187 188 189 190 191 192 193 194 195 196 197
    198 199 200 201 202 203 204 205 206 207 208 209 210 211 212 213 214
    215 216 217 218 219 220 221 222 223 224 225 226 227 228 229 230 231
    232 233 234 235 236 237 238 239 240 241 242 243 244 245 246 247 248
    249 250 251 252 253 254 255 256 257 258 259 260 261 262 263 264 265
    266 267 268 269 270 271 272 273 274 275 276 277 278 279 280 281 282
    283 284 285 286 287 288 289 290 291 292 293 294 295 296 297 298 299
    300 301 302 303 304 305 306 307 308 309 310 311 312 313 314 315 316
    317 318 319 320 321 322 323 324 325 326 327 328 329 330 331 332 333
    334 335 336 337 338 339 340 341 342 343 344 345 346 347 348 349 350
    351 352 353 354 355 356 357 358 359 360 361 362 363 364 365 366 367
    368 369 370 371 372 373 374 375 376 377 378 379 380 381 382 383 384
    385 386 387 388 389 390 391 392 393 394 395 396 397 398 399 400 401
    402 403 404 405 406 407 408 409 410 411 412 413 414 415 416 417 418
    419 420 421 422 423 424 425 426 427 428 429 430 431 432 433 434 435
    436 437 438 439 440 441 442 443 444 445 446 447 448 449 450 451 452
    453 454 455 456 457 458 459 460 461 462 463 464 465 466 467 468 469
    470 471 472 473 474 475 476 477 478 479 480 481 482 483 484 485 486
    487 488 489 490 491 492 493 494 495 496 497 498 499 500 501 502 503
    504 505 506 507 508 509 510 511 512 513 514 515 516 517 518 519 520
    521 522 523 524 525 526 527 528 529 530 531 532 533 534 535 536 537
    538 539 540 541 542 543 544 545 546 547 548 549 550 551 552 553 554
    555 556 557 558 559 560 561 562 563 564 565 566 567 568 569 570 571
    572 573 574 575 576 577 578 579 580 581 582 583 584 585 586 587 588
    589 590 591 592 593 594 595 596 597 598 599 600 601 602 603 604 605
    606 607 608 609 610 611 612 613 614 615 616 617 618 619 620 621 622
    623 624 625 626 627 628 629 630 631 632 633 634 635 636 637 638 639
    640 641 642 643 644 645 646 647 648 649 650 651 652 653 654 655 656
    657 658 659 660 661 662 663 664 665 666 667 668 669 670 671 672 673
    674 675 676 677 678 679 680 681 682 683 684 685 686 687 688 689 690
    691 692 693 694 695 696 697 698 699 700 701 702 703 704 705 706 707
    708 709 710 711 712 713 714 715 716 717 718 719 720 721 722 723 724
    725 726 727 728 729 730 731 732 733 734 735 736 737 738 739 740 741
    742 743 744 745 746 747 748 749 750 751 752 753 754 755 756 757 758
    759 760 761 762 763 764 765 766 767 768 769 770 771 772 773 774 775
    776 777 778 779 780 781 782 783</var_idx>
  <var_type>
    0 0 0 0 0 0 0 0 0 0 0 0 0 0 0 0 0 0 0 0 0 0 0 0 0 0 0 0 0 0 0 0 0 0
    0 0 0 0 0 0 0 0 0 0 0 0 0 0 0 0 0 0 0 0 0 0 0 0 0 0 0 0 0 0 0 0 0 0
    0 0 0 0 0 0 0 0 0 0 0 0 0 0 0 0 0 0 0 0 0 0 0 0 0 0 0 0 0 0 0 0 0 0
    0 0 0 0 0 0 0 0 0 0 0 0 0 0 0 0 0 0 0 0 0 0 0 0 0 0 0 0 0 0 0 0 0 0
    0 0 0 0 0 0 0 0 0 0 0 0 0 0 0 0 0 0 0 0 0 0 0 0 0 0 0 0 0 0 0 0 0 0
    0 0 0 0 0 0 0 0 0 0 0 0 0 0 0 0 0 0 0 0 0 0 0 0 0 0 0 0 0 0 0 0 0 0
    0 0 0 0 0 0 0 0 0 0 0 0 0 0 0 0 0 0 0 0 0 0 0 0 0 0 0 0 0 0 0 0 0 0
    0 0 0 0 0 0 0 0 0 0 0 0 0 0 0 0 0 0 0 0 0 0 0 0 0 0 0 0 0 0 0 0 0 0
    0 0 0 0 0 0 0 0 0 0 0 0 0 0 0 0 0 0 0 0 0 0 0 0 0 0 0 0 0 0 0 0 0 0
    0 0 0 0 0 0 0 0 0 0 0 0 0 0 0 0 0 0 0 0 0 0 0 0 0 0 0 0 0 0 0 0 0 0
    0 0 0 0 0 0 0 0 0 0 0 0 0 0 0 0 0 0 0 0 0 0 0 0 0 0 0 0 0 0 0 0 0 0
    0 0 0 0 0 0 0 0 0 0 0 0 0 0 0 0 0 0 0 0 0 0 0 0 0 0 0 0 0 0 0 0 0 0
    0 0 0 0 0 0 0 0 0 0 0 0 0 0 0 0 0 0 0 0 0 0 0 0 0 0 0 0 0 0 0 0 0 0
    0 0 0 0 0 0 0 0 0 0 0 0 0 0 0 0 0 0 0 0 0 0 0 0 0 0 0 0 0 0 0 0 0 0
    0 0 0 0 0 0 0 0 0 0 0 0 0 0 0 0 0 0 0 0 0 0 0 0 0 0 0 0 0 0 0 0 0 0
    0 0 0 0 0 0 0 0 0 0 0 0 0 0 0 0 0 0 0 0 0 0 0 0 0 0 0 0 0 0 0 0 0 0
    0 0 0 0 0 0 0 0 0 0 0 0 0 0 0 0 0 0 0 0 0 0 0 0 0 0 0 0 0 0 0 0 0 0
    0 0 0 0 0 0 0 0 0 0 0 0 0 0 0 0 0 0 0 0 0 0 0 0 0 0 0 0 0 0 0 0 0 0
    0 0 0 0 0 0 0 0 0 0 0 0 0 0 0 0 0 0 0 0 0 0 0 0 0 0 0 0 0 0 0 0 0 0
    0 0 0 0 0 0 0 0 0 0 0 0 0 0 0 0 0 0 0 0 0 0 0 0 0 0 0 0 0 0 0 0 0 0
    0 0 0 0 0 0 0 0 0 0 0 0 0 0 0 0 0 0 0 0 0 0 0 0 0 0 0 0 0 0 0 0 0 0
    0 0 0 0 0 0 0 0 0 0 0 0 0 0 0 0 0 0 0 0 0 0 0 0 0 0 0 0 0 0 0 0 0 0
    0 0 0 0 0 0 0 0 0 0 0 0 0 0 0 0 0 0 0 0 0 0 0 0 0 0 0 0 0 0 0 0 0 0
    0 0 1</var_type>
  <cat_ofs>
    0 0 0 0 0 0 0 0 0 0 0 0 0 0 0 0 0 0 0 0 0 0 0 0 0 0 0 0 0 0 0 0 0 0
    0 0 0 0 0 0 0 0 0 0 0 0 0 0 0 0 0 0 0 0 0 0 0 0 0 0 0 0 0 0 0 0 0 0
    0 0 0 0 0 0 0 0 0 0 0 0 0 0 0 0 0 0 0 0 0 0 0 0 0 0 0 0 0 0 0 0 0 0
    0 0 0 0 0 0 0 0 0 0 0 0 0 0 0 0 0 0 0 0 0 0 0 0 0 0 0 0 0 0 0 0 0 0
    0 0 0 0 0 0 0 0 0 0 0 0 0 0 0 0 0 0 0 0 0 0 0 0 0 0 0 0 0 0 0 0 0 0
    0 0 0 0 0 0 0 0 0 0 0 0 0 0 0 0 0 0 0 0 0 0 0 0 0 0 0 0 0 0 0 0 0 0
    0 0 0 0 0 0 0 0 0 0 0 0 0 0 0 0 0 0 0 0 0 0 0 0 0 0 0 0 0 0 0 0 0 0
    0 0 0 0 0 0 0 0 0 0 0 0 0 0 0 0 0 0 0 0 0 0 0 0 0 0 0 0 0 0 0 0 0 0
    0 0 0 0 0 0 0 0 0 0 0 0 0 0 0 0 0 0 0 0 0 0 0 0 0 0 0 0 0 0 0 0 0 0
    0 0 0 0 0 0 0 0 0 0 0 0 0 0 0 0 0 0 0 0 0 0 0 0 0 0 0 0 0 0 0 0 0 0
    0 0 0 0 0 0 0 0 0 0 0 0 0 0 0 0 0 0 0 0 0 0 0 0 0 0 0 0 0 0 0 0 0 0
    0 0 0 0 0 0 0 0 0 0 0 0 0 0 0 0 0 0 0 0 0 0 0 0 0 0 0 0 0 0 0 0 0 0
    0 0 0 0 0 0 0 0 0 0 0 0 0 0 0 0 0 0 0 0 0 0 0 0 0 0 0 0 0 0 0 0 0 0
    0 0 0 0 0 0 0 0 0 0 0 0 0 0 0 0 0 0 0 0 0 0 0 0 0 0 0 0 0 0 0 0 0 0
    0 0 0 0 0 0 0 0 0 0 0 0 0 0 0 0 0 0 0 0 0 0 0 0 0 0 0 0 0 0 0 0 0 0
    0 0 0 0 0 0 0 0 0 0 0 0 0 0 0 0 0 0 0 0 0 0 0 0 0 0 0 0 0 0 0 0 0 0
    0 0 0 0 0 0 0 0 0 0 0 0 0 0 0 0 0 0 0 0 0 0 0 0 0 0 0 0 0 0 0 0 0 0
    0 0 0 0 0 0 0 0 0 0 0 0 0 0 0 0 0 0 0 0 0 0 0 0 0 0 0 0 0 0 0 0 0 0
    0 0 0 0 0 0 0 0 0 0 0 0 0 0 0 0 0 0 0 0 0 0 0 0 0 0 0 0 0 0 0 0 0 0
    0 0 0 0 0 0 0 0 0 0 0 0 0 0 0 0 0 0 0 0 0 0 0 0 0 0 0 0 0 0 0 0 0 0
    0 0 0 0 0 0 0 0 0 0 0 0 0 0 0 0 0 0 0 0 0 0 0 0 0 0 0 0 0 0 0 0 0 0
    0 0 0 0 0 0 0 0 0 0 0 0 0 0 0 0 0 0 0 0 0 0 0 0 0 0 0 0 0 0 0 0 0 0
    0 0 0 0 0 0 0 0 0 0 0 0 0 0 0 0 0 0 0 0 0 0 0 0 0 0 0 0 0 0 0 0 0 0
    0 0 0 0 0 0 0 0 0 0 0 0 0 0 0 0 0 0 0 0 0 0 0 0 0 0 0 0 0 0 0 0 0 0
    0 0 0 0 0 0 0 0 0 0 0 0 0 0 0 0 0 0 0 0 0 0 0 0 0 0 0 0 0 0 0 0 0 0
    0 0 0 0 0 0 0 0 0 0 0 0 0 0 0 0 0 0 0 0 0 0 0 0 0 0 0 0 0 0 0 0 0 0
    0 0 0 0 0 0 0 0 0 0 0 0 0 0 0 0 0 0 0 0 0 0 0 0 0 0 0 0 0 0 0 0 0 0
    0 0 0 0 0 0 0 0 0 0 0 0 0 0 0 0 0 0 0 0 0 0 0 0 0 0 0 0 0 0 0 0 0 0
    0 0 0 0 0 0 0 0 0 0 0 0 0 0 0 0 0 0 0 0 0 0 0 0 0 0 0 0 0 0 0 0 0 0
    0 0 0 0 0 0 0 0 0 0 0 0 0 0 0 0 0 0 0 0 0 0 0 0 0 0 0 0 0 0 0 0 0 0
    0 0 0 0 0 0 0 0 0 0 0 0 0 0 0 0 0 0 0 0 0 0 0 0 0 0 0 0 0 0 0 0 0 0
    0 0 0 0 0 0 0 0 0 0 0 0 0 0 0 0 0 0 0 0 0 0 0 0 0 0 0 0 0 0 0 0 0 0
    0 0 0 0 0 0 0 0 0 0 0 0 0 0 0 0 0 0 0 0 0 0 0 0 0 0 0 0 0 0 0 0 0 0
    0 0 0 0 0 0 0 0 0 0 0 0 0 0 0 0 0 0 0 0 0 0 0 0 0 0 0 0 0 0 0 0 0 0
    0 0 0 0 0 0 0 0 0 0 0 0 0 0 0 0 0 0 0 0 0 0 0 0 0 0 0 0 0 0 0 0 0 0
    0 0 0 0 0 0 0 0 0 0 0 0 0 0 0 0 0 0 0 0 0 0 0 0 0 0 0 0 0 0 0 0 0 0
    0 0 0 0 0 0 0 0 0 0 0 0 0 0 0 0 0 0 0 0 0 0 0 0 0 0 0 0 0 0 0 0 0 0
    0 0 0 0 0 0 0 0 0 0 0 0 0 0 0 0 0 0 0 0 0 0 0 0 0 0 0 0 0 0 0 0 0 0
    0 0 0 0 0 0 0 0 0 0 0 0 0 0 0 0 0 0 0 0 0 0 0 0 0 0 0 0 0 0 0 0 0 0
    0 0 0 0 0 0 0 0 0 0 0 0 0 0 0 0 0 0 0 0 0 0 0 0 0 0 0 0 0 0 0 0 0 0
    0 0 0 0 0 0 0 0 0 0 0 0 0 0 0 0 0 0 0 0 0 0 0 0 0 0 0 0 0 0 0 0 0 0
    0 0 0 0 0 0 0 0 0 0 0 0 0 0 0 0 0 0 0 0 0 0 0 0 0 0 0 0 0 0 0 0 0 0
    0 0 0 0 0 0 0 0 0 0 0 0 0 0 0 0 0 0 0 0 0 0 0 0 0 0 0 0 0 0 0 0 0 0
    0 0 0 0 0 0 0 0 0 0 0 0 0 0 0 0 0 0 0 0 0 0 0 0 0 0 0 0 0 0 0 0 0 0
    0 0 0 0 0 0 0 0 0 0 0 0 0 0 0 0 0 0 0 0 0 0 0 0 0 0 0 0 0 0 0 0 0 0
    0 0 0 0 0 0 0 0 0 0 0 0 0 0 0 0 0 0 0 0 0 0 0 0 0 0 0 0 0 0 0 0 0 0
    0 0 0 0</cat_ofs>
  <class_labels>
    0 1</class_labels>
  <missing_subst>
    0. 0. 0. 0. 0. 0. 0. 0. 0. 0. 0. 0. 0. 0. 0. 0. 0. 0. 0. 0. 0. 0. 0.
    0. 0. 0. 0. 0. 0. 0. 0. 0. 0. 0. 0. 0. 0. 0. 0. 0. 0. 0. 0. 0. 0. 0.
    0. 0. 0. 0. 0. 0. 0. 0. 0. 0. 0. 0. 0. 0. 0. 0. 0. 0. 0. 0. 0. 0. 0.
    0. 0. 0. 0. 0. 0. 0. 0. 0. 0. 0. 0. 0. 0. 0. 0. 0. 0. 0. 0. 0. 0. 0.
    0. 0. 0. 0. 0. 0. 0. 0. 0. 0. 0. 0. 0. 0. 0. 0. 0. 0. 0. 0. 0. 0. 0.
    0. 0. 0. 0. 0. 0. 0. 0. 0. 0. 0. 0. 0. 0. 0. 0. 0. 0. 0. 0. 0. 0. 0.
    0. 0. 0. 0. 0. 0. 0. 0. 0. 0. 0. 0. 0. 0. 0. 0. 0. 0. 0. 0. 0. 0. 0.
    0. 0. 0. 0. 0. 0. 0. 0. 0. 0. 0. 0. 0. 0. 0. 0. 0. 0. 0. 0. 0. 0. 0.
    0. 0. 0. 0. 0. 0. 0. 0. 0. 0. 0. 0. 0. 0. 0. 0. 0. 0. 0. 0. 0. 0. 0.
    0. 0. 0. 0. 0. 0. 0. 0. 0. 0. 0. 0. 0. 0. 0. 0. 0. 0. 0. 0. 0. 0. 0.
    0. 0. 0. 0. 0. 0. 0. 0. 0. 0. 0. 0. 0. 0. 0. 0. 0. 0. 0. 0. 0. 0. 0.
    0. 0. 0. 0. 0. 0. 0. 0. 0. 0. 0. 0. 0. 0. 0. 0. 0. 0. 0. 0. 0. 0. 0.
    0. 0. 0. 0. 0. 0. 0. 0. 0. 0. 0. 0. 0. 0. 0. 0. 0. 0. 0. 0. 0. 0. 0.
    0. 0. 0. 0. 0. 0. 0. 0. 0. 0. 0. 0. 0. 0. 0. 0. 0. 0. 0. 0. 0. 0. 0.
    0. 0. 0. 0. 0. 0. 0. 0. 0. 0. 0. 0. 0. 0. 0. 0. 0. 0. 0. 0. 0. 0. 0.
    0. 0. 0. 0. 0. 0. 0. 0. 0. 0. 0. 0. 0. 0. 0. 0. 0. 0. 0. 0. 0. 0. 0.
    0. 0. 0. 0. 0. 0. 0. 0. 0. 0. 0. 0. 0. 0. 0. 0. 0. 0. 0. 0. 0. 0. 0.
    0. 0. 0. 0. 0. 0. 0. 0. 0. 0. 0. 0. 0. 0. 0. 0. 0. 0. 0. 0. 0. 0. 0.
    0. 0. 0. 0. 0. 0. 0. 0. 0. 0. 0. 0. 0. 0. 0. 0. 0. 0. 0. 0. 0. 0. 0.
    0. 0. 0. 0. 0. 0. 0. 0. 0. 0. 0. 0. 0. 0. 0. 0. 0. 0. 0. 0. 0. 0. 0.
    0. 0. 0. 0. 0. 0. 0. 0. 0. 0. 0. 0. 0. 0. 0. 0. 0. 0. 0. 0. 0. 0. 0.
    0. 0. 0. 0. 0. 0. 0. 0. 0. 0. 0. 0. 0. 0. 0. 0. 0. 0. 0. 0. 0. 0. 0.
    0. 0. 0. 0. 0. 0. 0. 0. 0. 0. 0. 0. 0. 0. 0. 0. 0. 0. 0. 0. 0. 0. 0.
    0. 0. 0. 0. 0. 0. 0. 0. 0. 0. 0. 0. 0. 0. 0. 0. 0. 0. 0. 0. 0. 0. 0.
    0. 0. 0. 0. 0. 0. 0. 0. 0. 0. 0. 0. 0. 0. 0. 0. 0. 0. 0. 0. 0. 0. 0.
    0. 0. 0. 0. 0. 0. 0. 0. 0. 0. 0. 0. 0. 0. 0. 0. 0. 0. 0. 0. 0. 0. 0.
    0. 0. 0. 0. 0. 0. 0. 0. 0. 0. 0. 0. 0. 0. 0. 0. 0. 0. 0. 0. 0. 0. 0.
    0. 0. 0. 0. 0. 0. 0. 0. 0. 0. 0. 0. 0. 0. 0. 0. 0. 0. 0. 0. 0. 0. 0.
    0. 0. 0. 0. 0. 0. 0. 0. 0. 0. 0. 0. 0. 0. 0. 0. 0. 0. 0. 0. 0. 0. 0.
    0. 0. 0. 0. 0. 0. 0. 0. 0. 0. 0. 0. 0. 0. 0. 0. 0. 0. 0. 0. 0. 0. 0.
    0. 0. 0. 0. 0. 0. 0. 0. 0. 0. 0. 0. 0. 0. 0. 0. 0. 0. 0. 0. 0. 0. 0.
    0. 0. 0. 0. 0. 0. 0. 0. 0. 0. 0. 0. 0. 0. 0. 0. 0. 0. 0. 0. 0. 0. 0.
    0. 0. 0. 0. 0. 0. 0. 0. 0. 0. 0. 0. 0. 0. 0. 0. 0. 0. 0. 0. 0. 0. 0.
    0. 0. 0. 0. 0. 0. 0. 0. 0. 0. 0. 0. 0. 0. 0. 0. 0. 0. 0. 0. 0. 0. 0.
    0. 0. 0.</missing_subst>
  <ntrees>100</ntrees>
  <trees>
    <_>
      <nodes>
        <_>
          <depth>0</depth>
          <value>1.6934952087295917e-02</value>
          <splits>
            <_><var>513</var>
              <quality>2.3769846558570862e-01</quality>
              <le>1.9607844296842813e-03</le></_></splits></_>
        <_>
          <depth>1</depth>
          <value>4.2568007719804690e-01</value>
          <splits>
            <_><var>454</var>
              <quality>1.9326239824295044e-01</quality>
              <le>9.8039228469133377e-03</le></_></splits></_>
        <_>
          <depth>2</depth>
          <value>6.3738715452456707e-01</value></_>
        <_>
          <depth>2</depth>
          <value>-6.0774725225883930e-01</value></_>
        <_>
          <depth>1</depth>
          <value>-6.9328279584733965e-01</value>
          <splits>
            <_><var>155</var>
              <quality>1.5933787822723389e-01</quality>
              <le>1.9607844296842813e-03</le></_></splits></_>
        <_>
          <depth>2</depth>
          <value>-3.0288605053749884e-01</value></_>
        <_>
          <depth>2</depth>
          <value>-1.0426274177885320e+00</value></_></nodes></_>
    <_>
      <nodes>
        <_>
          <depth>0</depth>
          <value>4.2669825268687078e-09</value>
          <splits>
            <_><var>295</var>
              <quality>9.3119643628597260e-02</quality>
              <le>2.1568629890680313e-02</le></_></splits></_>
        <_>
          <depth>1</depth>
          <value>-3.0953613951656594e-01</value>
          <splits>
            <_><var>212</var>
              <quality>1.1625294387340546e-01</quality>
              <le>2.1764707565307617e-01</le></_></splits></_>
        <_>
          <depth>2</depth>
          <value>-8.6020951211240881e-01</value></_>
        <_>
          <depth>2</depth>
          <value>4.9750413775046604e-02</value></_>
        <_>
          <depth>1</depth>
          <value>3.2096945921430692e-01</value>
          <splits>
            <_><var>459</var>
              <quality>8.6128957569599152e-02</quality>
              <le>1.9607844296842813e-03</le></_></splits></_>
        <_>
          <depth>2</depth>
          <value>6.6150078138102597e-01</value></_>
        <_>
          <depth>2</depth>
          <value>1.7064777137404768e-02</value></_></nodes></_>
    <_>
      <nodes>
        <_>
          <depth>0</depth>
          <value>2.3147838174951370e-02</value>
          <splits>
            <_><var>543</var>
              <quality>6.4277291297912598e-02</quality>
              <le>9.2156872153282166e-02</le></_></splits></_>
        <_>
          <depth>1</depth>
          <value>2.6407851216090877e-01</value>
          <splits>
            <_><var>386</var>
              <quality>7.5610190629959106e-02</quality>
              <le>8.0392159521579742e-02</le></_></splits></_>
        <_>
          <depth>2</depth>
          <value>3.7396454792695549e-01</value></_>
        <_>
          <depth>2</depth>
          <value>-5.6144726855559002e-01</value></_>
        <_>
          <depth>1</depth>
          <value>-2.6018848913148923e-01</value>
          <splits>
            <_><var>576</var>
              <quality>7.3570422828197479e-02</quality>
              <le>1.9607844296842813e-03</le></_></splits></_>
        <_>
          <depth>2</depth>
          <value>1.3048676313232496e-01</value></_>
        <_>
          <depth>2</depth>
          <value>-5.6722458804305453e-01</value></_></nodes></_>
    <_>
      <nodes>
        <_>
          <depth>0</depth>
          <value>-8.2575335030012163e-03</value>
          <splits>
            <_><var>350</var>
              <quality>5.7752124965190887e-02</quality>
              <le>5.4313731193542480e-01</le></_></splits></_>
        <_>
          <depth>1</depth>
          <value>-1.9129370007980623e-01</value>
          <splits>
            <_><var>711</var>
              <quality>6.2910161912441254e-02</quality>
              <le>1.9607844296842813e-03</le></_></splits></_>
        <_>
          <depth>2</depth>
          <value>-2.8232801176644218e-01</value></_>
        <_>
          <depth>2</depth>
          <value>6.2147708496262388e-01</value></_>
        <_>
          <depth>1</depth>
          <value>3.2701059170868702e-01</value>
          <splits>
            <_><var>488</var>
              <quality>6.1256404966115952e-02</quality>
              <le>1.9607844296842813e-03</le></_></splits></_>
        <_>
          <depth>2</depth>
          <value>6.6792836961927804e-01</value></_>
        <_>
          <depth>2</depth>
          <value>3.9553511019051135e-02</value></_></nodes></_>
    <_>
      <nodes>
        <_>
          <depth>0</depth>
          <value>2.2036268602084836e-03</value>
          <splits>
            <_><var>513</var>
              <quality>4.1504327207803726e-02</quality>
              <le>1.9607844296842813e-03</le></_></splits></_>
        <_>
          <depth>1</depth>
          <value>-1.6672788937761579e-01</value>
          <splits>
            <_><var>743</var>
              <quality>4.2000718414783478e-02</quality>
              <le>5.8823535218834877e-03</le></_></splits></_>
        <_>
          <depth>2</depth>
          <value>-2.0962111468866254e-01</value></_>
        <_>
          <depth>2</depth>
          <value>1.6308666106494549e+00</value></_>
        <_>
          <depth>1</depth>
          <value>2.6889086535890189e-01</value>
          <splits>
            <_><var>430</var>
              <quality>5.7998314499855042e-02</quality>
              <le>1.6666667163372040e-01</le></_></splits></_>
        <_>
          <depth>2</depth>
          <value>6.0781801328449470e-01</value></_>
        <_>
          <depth>2</depth>
          <value>-4.7169880528955231e-02</value></_></nodes></_>
    <_>
      <nodes>
        <_>
          <depth>0</depth>
          <value>-2.2482420976224517e-02</value>
          <splits>
            <_><var>512</var>
              <quality>2.3934733122587204e-02</quality>
              <le>7.1176469326019287e-01</le></_></splits></_>
        <_>
          <depth>1</depth>
          <value>5.0641615638037471e-02</value>
          <splits>
            <_><var>463</var>
              <quality>2.9405748471617699e-02</quality>
              <le>5.1176476478576660e-01</le></_></splits></_>
        <_>
          <depth>2</depth>
          <value>2.5996827172378922e-01</value></_>
        <_>
          <depth>2</depth>
          <value>-1.2206498857357964e-01</value></_>
        <_>
          <depth>1</depth>
          <value>-3.7668337176063998e-01</value>
          <splits>
            <_><var>457</var>
              <quality>3.4043274819850922e-02</quality>
              <le>1.9607844296842813e-03</le></_></splits></_>
        <_>
          <depth>2</depth>
          <value>1.0791246045165055e-01</value></_>
        <_>
          <depth>2</depth>
          <value>-5.6652918750153636e-01</value></_></nodes></_>
    <_>
      <nodes>
        <_>
          <depth>0</depth>
          <value>3.9539299593956551e-03</value>
          <splits>
            <_><var>387</var>
              <quality>2.3017773404717445e-02</quality>
              <le>2.3333334922790527e-01</le></_></splits></_>
        <_>
          <depth>1</depth>
          <value>4.0448350125945685e-02</value>
          <splits>
            <_><var>375</var>
              <quality>2.3468771949410439e-02</quality>
              <le>1.9607844296842813e-03</le></_></splits></_>
        <_>
          <depth>2</depth>
          <value>2.2235179273315392e-01</value></_>
        <_>
          <depth>2</depth>
          <value>-9.6386022121922349e-02</value></_>
        <_>
          <depth>1</depth>
          <value>-7.8880812441730896e-01</value>
          <splits>
            <_><var>539</var>
              <quality>2.5916583836078644e-02</quality>
              <le>6.4705885946750641e-02</le></_></splits></_>
        <_>
          <depth>2</depth>
          <value>-1.7768925616477790e-01</value></_>
        <_>
          <depth>2</depth>
          <value>-1.2214072751560219e+00</value></_></nodes></_>
    <_>
      <nodes>
        <_>
          <depth>0</depth>
          <value>-6.3138100038623432e-03</value>
          <splits>
            <_><var>238</var>
              <quality>2.3893589153885841e-02</quality>
              <le>1.3725491240620613e-02</le></_></splits></_>
        <_>
          <depth>1</depth>
          <value>-2.1315563893534148e-01</value>
          <splits>
            <_><var>625</var>
              <quality>5.2156437188386917e-02</quality>
              <le>1.7647059634327888e-02</le></_></splits></_>
        <_>
          <depth>2</depth>
          <value>-4.9530811086012450e-01</value></_>
        <_>
          <depth>2</depth>
          <value>2.0117933288098117e-01</value></_>
        <_>
          <depth>1</depth>
          <value>1.1747797608666519e-01</value>
          <splits>
            <_><var>515</var>
              <quality>2.8753127902746201e-02</quality>
              <le>8.4313727915287018e-02</le></_></splits></_>
        <_>
          <depth>2</depth>
          <value>2.9895209396980382e-01</value></_>
        <_>
          <depth>2</depth>
          <value>-8.4468425520191320e-02</value></_></nodes></_>
    <_>
      <nodes>
        <_>
          <depth>0</depth>
          <value>-4.2276639240967969e-03</value>
          <splits>
            <_><var>410</var>
              <quality>9.7319521009922028e-03</quality>
              <le>7.5490200519561768e-01</le></_></splits></_>
        <_>
          <depth>1</depth>
          <value>-7.4868768755792972e-02</value>
          <splits>
            <_><var>329</var>
              <quality>1.7442688345909119e-02</quality>
              <le>4.3333336710929871e-01</le></_></splits></_>
        <_>
          <depth>2</depth>
          <value>-1.7910893035422145e-02</value></_>
        <_>
          <depth>2</depth>
          <value>-4.9285442746263630e-01</value></_>
        <_>
          <depth>1</depth>
          <value>1.4168934264195343e-01</value>
          <splits>
            <_><var>209</var>
              <quality>2.9483363032341003e-02</quality>
              <le>4.5098043978214264e-02</le></_></splits></_>
        <_>
          <depth>2</depth>
          <value>-2.8792557355596587e-01</value></_>
        <_>
          <depth>2</depth>
          <value>3.3041915577742431e-01</value></_></nodes></_>
    <_>
      <nodes>
        <_>
          <depth>0</depth>
          <value>1.0546006984067859e-03</value>
          <splits>
            <_><var>396</var>
              <quality>1.3527082279324532e-02</quality>
              <le>4.5098043978214264e-02</le></_></splits></_>
        <_>
          <depth>1</depth>
          <value>-2.2176825998771254e-02</value>
          <splits>
            <_><var>461</var>
              <quality>9.7890300676226616e-03</quality>
              <le>5.8823535218834877e-03</le></_></splits></_>
        <_>
          <depth>2</depth>
          <value>1.2339118918885586e-01</value></_>
        <_>
          <depth>2</depth>
          <value>-9.2826767524671408e-02</value></_>
        <_>
          <depth>1</depth>
          <value>7.1526854019663277e-01</value>
          <splits>
            <_><var>454</var>
              <quality>1.5258157625794411e-02</quality>
              <le>1.3725491240620613e-02</le></_></splits></_>
        <_>
          <depth>2</depth>
          <value>1.1495466653644054e-01</value></_>
        <_>
          <depth>2</depth>
          <value>9.5012080412910638e-01</value></_></nodes></_>
    <_>
      <nodes>
        <_>
          <depth>0</depth>
          <value>-3.9697628825530731e-03</value>
          <splits>
            <_><var>708</var>
              <quality>9.9534662440419197e-03</quality>
              <le>1.5490196645259857e-01</le></_></splits></_>
        <_>
          <depth>1</depth>
          <value>-2.2173600546758536e-02</value>
          <splits>
            <_><var>355</var>
              <quality>1.1479081586003304e-02</quality>
              <le>1.9607844296842813e-03</le></_></splits></_>
        <_>
          <depth>2</depth>
          <value>7.6461294782413314e-02</value></_>
        <_>
          <depth>2</depth>
          <value>-1.4474925878171344e-01</value></_>
        <_>
          <depth>1</depth>
          <value>6.4868005150858932e-01</value>
          <splits>
            <_><var>567</var>
              <quality>1.4317336492240429e-02</quality>
              <le>7.8431375324726105e-02</le></_></splits></_>
        <_>
          <depth>2</depth>
          <value>8.7209769282484728e-01</value></_>
        <_>
          <depth>2</depth>
          <value>-8.3602875359633411e-01</value></_></nodes></_>
    <_>
      <nodes>
        <_>
          <depth>0</depth>
          <value>1.4049388262736180e-03</value>
          <splits>
            <_><var>513</var>
              <quality>1.0668325237929821e-02</quality>
              <le>1.9607844296842813e-03</le></_></splits></_>
        <_>
          <depth>1</depth>
          <value>-8.7690856594143551e-02</value>
          <splits>
            <_><var>516</var>
              <quality>2.1318564191460609e-02</quality>
              <le>1.6274510324001312e-01</le></_></splits></_>
        <_>
          <depth>2</depth>
          <value>5.7677660299095095e-02</value></_>
        <_>
          <depth>2</depth>
          <value>-3.0755170102431556e-01</value></_>
        <_>
          <depth>1</depth>
          <value>1.2843614254179270e-01</value>
          <splits>
            <_><var>625</var>
              <quality>3.0452894046902657e-02</quality>
              <le>2.5490198284387589e-02</le></_></splits></_>
        <_>
          <depth>2</depth>
          <value>3.9390845050720746e-01</value></_>
        <_>
          <depth>2</depth>
          <value>-1.2104612759348984e-01</value></_></nodes></_>
    <_>
      <nodes>
        <_>
          <depth>0</depth>
          <value>-3.6080562543049622e-03</value>
          <splits>
            <_><var>547</var>
              <quality>1.3694493100047112e-02</quality>
              <le>5.2941180765628815e-02</le></_></splits></_>
        <_>
          <depth>1</depth>
          <value>1.3433768805767690e-01</value>
          <splits>
            <_><var>493</var>
              <quality>2.0259050652384758e-02</quality>
              <le>3.7254903465509415e-02</le></_></splits></_>
        <_>
          <depth>2</depth>
          <value>2.9123918805657240e-01</value></_>
        <_>
          <depth>2</depth>
          <value>-7.5924729682100414e-02</value></_>
        <_>
          <depth>1</depth>
          <value>-1.0905262642928572e-01</value>
          <splits>
            <_><var>528</var>
              <quality>1.8635714426636696e-02</quality>
              <le>1.9607844296842813e-03</le></_></splits></_>
        <_>
          <depth>2</depth>
          <value>-7.8390410718403830e-02</value></_>
        <_>
          <depth>2</depth>
          <value>-1.2936149076999428e+00</value></_></nodes></_>
    <_>
      <nodes>
        <_>
          <depth>0</depth>
          <value>2.7180338440270502e-04</value>
          <splits>
            <_><var>295</var>
              <quality>1.2220668606460094e-02</quality>
              <le>9.7058832645416260e-01</le></_></splits></_>
        <_>
          <depth>1</depth>
          <value>-5.6275624250518470e-02</value>
          <splits>
            <_><var>717</var>
              <quality>1.3884819112718105e-02</quality>
              <le>1.3725491240620613e-02</le></_></splits></_>
        <_>
          <depth>2</depth>
          <value>-8.8763158512624465e-02</value></_>
        <_>
          <depth>2</depth>
          <value>4.3617648761803174e-01</value></_>
        <_>
          <depth>1</depth>
          <value>2.3207534303884025e-01</value>
          <splits>
            <_><var>544</var>
              <quality>2.5172477588057518e-02</quality>
              <le>5.1568627357482910e-01</le></_></splits></_>
        <_>
          <depth>2</depth>
          <value>-7.6972915330524569e-02</value></_>
        <_>
          <depth>2</depth>
          <value>5.4243498850824468e-01</value></_></nodes></_>
    <_>
      <nodes>
        <_>
          <depth>0</depth>
          <value>3.1384886337003505e-03</value>
          <splits>
            <_><var>192</var>
              <quality>1.2699186801910400e-02</quality>
              <le>1.1176471412181854e-01</le></_></splits></_>
        <_>
          <depth>1</depth>
          <value>-2.2704238835886750e-02</value>
          <splits>
            <_><var>740</var>
              <quality>1.2919019907712936e-02</quality>
              <le>1.9607844296842813e-03</le></_></splits></_>
        <_>
          <depth>2</depth>
          <value>-3.9804560981055830e-02</value></_>
        <_>
          <depth>2</depth>
          <value>1.0529629901905728e+00</value></_>
        <_>
          <depth>1</depth>
          <value>5.7646998503922575e-01</value>
          <splits>
            <_><var>328</var>
              <quality>2.8898866847157478e-02</quality>
              <le>1.9607844296842813e-03</le></_></splits></_>
        <_>
          <depth>2</depth>
          <value>1.4074431915537040e+00</value></_>
        <_>
          <depth>2</depth>
          <value>-5.2878256674346524e-01</value></_></nodes></_>
    <_>
      <nodes>
        <_>
          <depth>0</depth>
          <value>-4.6689882204577280e-04</value>
          <splits>
            <_><var>638</var>
              <quality>9.2786215245723724e-03</quality>
              <le>1.3725491240620613e-02</le></_></splits></_>
        <_>
          <depth>1</depth>
          <value>2.2836807391513721e-02</value>
          <splits>
            <_><var>277</var>
              <quality>8.2765538245439529e-03</quality>
              <le>3.1960785388946533e-01</le></_></splits></_>
        <_>
          <depth>2</depth>
          <value>1.0065159982364194e-02</value></_>
        <_>
          <depth>2</depth>
          <value>8.7177233681896871e-01</value></_>
        <_>
          <depth>1</depth>
          <value>-4.4726336422014273e-01</value>
          <splits>
            <_><var>469</var>
              <quality>1.5663014724850655e-02</quality>
              <le>2.1568629890680313e-02</le></_></splits></_>
        <_>
          <depth>2</depth>
          <value>-8.8641181866670660e-01</value></_>
        <_>
          <depth>2</depth>
          <value>5.2883779216919065e-02</value></_></nodes></_>
    <_>
      <nodes>
        <_>
          <depth>0</depth>
          <value>-8.2033923522593021e-04</value>
          <splits>
            <_><var>295</var>
              <quality>8.9642172679305077e-03</quality>
              <le>2.1568629890680313e-02</le></_></splits></_>
        <_>
          <depth>1</depth>
          <value>9.9941505970793570e-02</value>
          <splits>
            <_><var>298</var>
              <quality>1.9944293424487114e-02</quality>
              <le>1.9607844296842813e-03</le></_></splits></_>
        <_>
          <depth>2</depth>
          <value>3.4042093456797007e-01</value></_>
        <_>
          <depth>2</depth>
          <value>-4.7252703757930302e-02</value></_>
        <_>
          <depth>1</depth>
          <value>-9.5046744264576183e-02</value>
          <splits>
            <_><var>270</var>
              <quality>1.6852892935276031e-02</quality>
              <le>4.3333336710929871e-01</le></_></splits></_>
        <_>
          <depth>2</depth>
          <value>-2.4862736115181636e-01</value></_>
        <_>
          <depth>2</depth>
          <value>7.5675614018066578e-02</value></_></nodes></_>
    <_>
      <nodes>
        <_>
          <depth>0</depth>
          <value>-1.9793236647148767e-03</value>
          <splits>
            <_><var>318</var>
              <quality>1.4246986247599125e-02</quality>
              <le>2.1568629890680313e-02</le></_></splits></_>
        <_>
          <depth>1</depth>
          <value>1.3224389884446475e-01</value>
          <splits>
            <_><var>378</var>
              <quality>2.9835971072316170e-02</quality>
              <le>8.6862754821777344e-01</le></_></splits></_>
        <_>
          <depth>2</depth>
          <value>-7.0558890800364912e-02</value></_>
        <_>
          <depth>2</depth>
          <value>4.0727709047992561e-01</value></_>
        <_>
          <depth>1</depth>
          <value>-1.1480879401809185e-01</value>
          <splits>
            <_><var>121</var>
              <quality>1.6494741663336754e-02</quality>
              <le>1.9607844296842813e-03</le></_></splits></_>
        <_>
          <depth>2</depth>
          <value>-1.4323273649844168e-01</value></_>
        <_>
          <depth>2</depth>
          <value>6.3580136333461568e-01</value></_></nodes></_>
    <_>
      <nodes>
        <_>
          <depth>0</depth>
          <value>-1.4611099499795862e-03</value>
          <splits>
            <_><var>354</var>
              <quality>1.1902622878551483e-02</quality>
              <le>9.4313728809356689e-01</le></_></splits></_>
        <_>
          <depth>1</depth>
          <value>-6.8759233183862983e-02</value>
          <splits>
            <_><var>357</var>
              <quality>1.4622576534748077e-02</quality>
              <le>4.1176471859216690e-02</le></_></splits></_>
        <_>
          <depth>2</depth>
          <value>-6.9158999294345299e-03</value></_>
        <_>
          <depth>2</depth>
          <value>-3.4449889690870106e-01</value></_>
        <_>
          <depth>1</depth>
          <value>1.8713398483300531e-01</value>
          <splits>
            <_><var>403</var>
              <quality>1.6372933983802795e-02</quality>
              <le>4.9607846140861511e-01</le></_></splits></_>
        <_>
          <depth>2</depth>
          <value>3.4686499008005933e-01</value></_>
        <_>
          <depth>2</depth>
          <value>-2.2547063018233258e-02</value></_></nodes></_>
    <_>
      <nodes>
        <_>
          <depth>0</depth>
          <value>1.0100013364520166e-03</value>
          <splits>
            <_><var>514</var>
              <quality>1.0201276279985905e-02</quality>
              <le>5.0000000000000000e-01</le></_></splits></_>
        <_>
          <depth>1</depth>
          <value>7.0587686798497182e-02</value>
          <splits>
            <_><var>484</var>
              <quality>2.0145958289504051e-02</quality>
              <le>5.5098044872283936e-01</le></_></splits></_>
        <_>
          <depth>2</depth>
          <value>1.3859877655942834e-01</value></_>
        <_>
          <depth>2</depth>
          <value>-3.2356908640672355e-01</value></_>
        <_>
          <depth>1</depth>
          <value>-1.5479368245622371e-01</value>
          <splits>
            <_><var>570</var>
              <quality>2.4317298084497452e-02</quality>
              <le>1.7647059634327888e-02</le></_></splits></_>
        <_>
          <depth>2</depth>
          <value>2.6292998952980329e-01</value></_>
        <_>
          <depth>2</depth>
          <value>-3.0645298162038254e-01</value></_></nodes></_>
    <_>
      <nodes>
        <_>
          <depth>0</depth>
          <value>8.6717873557769481e-04</value>
          <splits>
            <_><var>746</var>
              <quality>7.4885920621454716e-03</quality>
              <le>3.9215688593685627e-03</le></_></splits></_>
        <_>
          <depth>1</depth>
          <value>-7.8991854453252883e-03</value>
          <splits>
            <_><var>513</var>
              <quality>7.0405458100140095e-03</quality>
              <le>1.9607844296842813e-03</le></_></splits></_>
        <_>
          <depth>2</depth>
          <value>-7.9622734001416978e-02</value></_>
        <_>
          <depth>2</depth>
          <value>9.6104870975622550e-02</value></_>
        <_>
          <depth>1</depth>
          <value>1.4722400703971013e+00</value>
          <splits>
            <_><var>548</var>
              <quality>7.9747624695301056e-03</quality>
              <le>9.9803924560546875e-01</le></_></splits></_>
        <_>
          <depth>2</depth>
          <value>1.7124792850563078e+00</value></_>
        <_>
          <depth>2</depth>
          <value>-8.8267396851258328e-01</value></_></nodes></_>
    <_>
      <nodes>
        <_>
          <depth>0</depth>
          <value>5.0844242107058141e-04</value>
          <splits>
            <_><var>94</var>
              <quality>6.8689319305121899e-03</quality>
              <le>8.8235296308994293e-02</le></_></splits></_>
        <_>
          <depth>1</depth>
          <value>1.1476454994138553e-02</value>
          <splits>
            <_><var>662</var>
              <quality>6.8410229869186878e-03</quality>
              <le>1.3725491240620613e-02</le></_></splits></_>
        <_>
          <depth>2</depth>
          <value>5.9592257806804008e-02</value></_>
        <_>
          <depth>2</depth>
          <value>-1.3904487052690701e-01</value></_>
        <_>
          <depth>1</depth>
          <value>-7.9056562773266681e-01</value>
          <splits>
            <_><var>319</var>
              <quality>9.5457462593913078e-03</quality>
              <le>9.8039228469133377e-03</le></_></splits></_>
        <_>
          <depth>2</depth>
          <value>-1.5225363892242816e+00</value></_>
        <_>
          <depth>2</depth>
          <value>6.0570147637284195e-02</value></_></nodes></_>
    <_>
      <nodes>
        <_>
          <depth>0</depth>
          <value>-1.7959603275299546e-03</value>
          <splits>
            <_><var>501</var>
              <quality>6.4516267739236355e-03</quality>
              <le>3.9215688593685627e-03</le></_></splits></_>
        <_>
          <depth>1</depth>
          <value>6.6327111619202128e-03</value>
          <splits>
            <_><var>378</var>
              <quality>5.5593466386198997e-03</quality>
              <le>9.9411773681640625e-01</le></_></splits></_>
        <_>
          <depth>2</depth>
          <value>3.4437400906106579e-02</value></_>
        <_>
          <depth>2</depth>
          <value>-2.0748370902443655e-01</value></_>
        <_>
          <depth>1</depth>
          <value>-1.1187904676284186e+00</value>
          <splits>
            <_><var>385</var>
              <quality>7.7536571770906448e-03</quality>
              <le>9.7254908084869385e-01</le></_></splits></_>
        <_>
          <depth>2</depth>
          <value>-1.4205327647367476e+00</value></_>
        <_>
          <depth>2</depth>
          <value>1.2437735522279505e+00</value></_></nodes></_>
    <_>
      <nodes>
        <_>
          <depth>0</depth>
          <value>7.2279940217058708e-04</value>
          <splits>
            <_><var>721</var>
              <quality>5.1748803816735744e-03</quality>
              <le>4.9803924560546875e-01</le></_></splits></_>
        <_>
          <depth>1</depth>
          <value>-5.5142150904538695e-03</value>
          <splits>
            <_><var>677</var>
              <quality>5.0917179323732853e-03</quality>
              <le>1.9607844296842813e-03</le></_></splits></_>
        <_>
          <depth>2</depth>
          <value>-1.5999099168654364e-02</value></_>
        <_>
          <depth>2</depth>
          <value>5.5790108863116172e-01</value></_>
        <_>
          <depth>1</depth>
          <value>1.3493835165837593e+00</value>
          <splits>
            <_><var>375</var>
              <quality>5.9179682284593582e-03</quality>
              <le>7.2941178083419800e-01</le></_></splits></_>
        <_>
          <depth>2</depth>
          <value>2.0437188101525066e+00</value></_>
        <_>
          <depth>2</depth>
          <value>-3.7293348775404639e-01</value></_></nodes></_>
    <_>
      <nodes>
        <_>
          <depth>0</depth>
          <value>3.6518437717700638e-04</value>
          <splits>
            <_><var>240</var>
              <quality>4.4146240688860416e-03</quality>
              <le>9.3921577930450439e-01</le></_></splits></_>
        <_>
          <depth>1</depth>
          <value>-4.4141685632881081e-02</value>
          <splits>
            <_><var>487</var>
              <quality>1.1416873894631863e-02</quality>
              <le>3.1960785388946533e-01</le></_></splits></_>
        <_>
          <depth>2</depth>
          <value>5.5056412107464328e-02</value></_>
        <_>
          <depth>2</depth>
          <value>-1.9997620742153585e-01</value></_>
        <_>
          <depth>1</depth>
          <value>1.0522629733391135e-01</value>
          <splits>
            <_><var>435</var>
              <quality>1.0859981179237366e-02</quality>
              <le>1.3725491240620613e-02</le></_></splits></_>
        <_>
          <depth>2</depth>
          <value>-2.0426929422473711e-01</value></_>
        <_>
          <depth>2</depth>
          <value>1.9642433783373792e-01</value></_></nodes></_>
    <_>
      <nodes>
        <_>
          <depth>0</depth>
          <value>-2.0880676772099999e-04</value>
          <splits>
            <_><var>494</var>
              <quality>5.0963955000042915e-03</quality>
              <le>9.5490205287933350e-01</le></_></splits></_>
        <_>
          <depth>1</depth>
          <value>-3.7875648383249541e-02</value>
          <splits>
            <_><var>381</var>
              <quality>7.1264095604419708e-03</quality>
              <le>1.7647059634327888e-02</le></_></splits></_>
        <_>
          <depth>2</depth>
          <value>9.3159005534481726e-02</value></_>
        <_>
          <depth>2</depth>
          <value>-9.9758730597992715e-02</value></_>
        <_>
          <depth>1</depth>
          <value>1.4325410096151328e-01</value>
          <splits>
            <_><var>604</var>
              <quality>1.2949788942933083e-02</quality>
              <le>4.7647061944007874e-01</le></_></splits></_>
        <_>
          <depth>2</depth>
          <value>-1.0475940063544202e-01</value></_>
        <_>
          <depth>2</depth>
          <value>3.3681715414668423e-01</value></_></nodes></_>
    <_>
      <nodes>
        <_>
          <depth>0</depth>
          <value>-8.9079226513535373e-04</value>
          <splits>
            <_><var>601</var>
              <quality>5.4100463166832924e-03</quality>
              <le>9.6078440546989441e-02</le></_></splits></_>
        <_>
          <depth>1</depth>
          <value>8.9292494541722028e-02</value>
          <splits>
            <_><var>403</var>
              <quality>1.4276164583861828e-02</quality>
              <le>2.1568629890680313e-02</le></_></splits></_>
        <_>
          <depth>2</depth>
          <value>2.8128462748710237e-01</value></_>
        <_>
          <depth>2</depth>
          <value>-6.4780400919915146e-02</value></_>
        <_>
          <depth>1</depth>
          <value>-6.4283398057173480e-02</value>
          <splits>
            <_><var>517</var>
              <quality>1.0122254490852356e-02</quality>
              <le>1.4313726127147675e-01</le></_></splits></_>
        <_>
          <depth>2</depth>
          <value>6.0319461327849745e-02</value></_>
        <_>
          <depth>2</depth>
          <value>-1.7884574802808373e-01</value></_></nodes></_>
    <_>
      <nodes>
        <_>
          <depth>0</depth>
          <value>1.0215634141386778e-03</value>
          <splits>
            <_><var>425</var>
              <quality>5.0431336276233196e-03</quality>
              <le>9.7058832645416260e-01</le></_></splits></_>
        <_>
          <depth>1</depth>
          <value>1.3482985327203706e-02</value>
          <splits>
            <_><var>713</var>
              <quality>4.4374205172061920e-03</quality>
              <le>1.1568628251552582e-01</le></_></splits></_>
        <_>
          <depth>2</depth>
          <value>-7.6581985174981725e-03</value></_>
        <_>
          <depth>2</depth>
          <value>2.3661896155237255e-01</value></_>
        <_>
          <depth>1</depth>
          <value>-4.5368422092314309e-01</value>
          <splits>
            <_><var>498</var>
              <quality>8.3347968757152557e-03</quality>
              <le>3.4117648005485535e-01</le></_></splits></_>
        <_>
          <depth>2</depth>
          <value>-1.4193180335608932e-01</value></_>
        <_>
          <depth>2</depth>
          <value>-1.3589615200362430e+00</value></_></nodes></_>
    <_>
      <nodes>
        <_>
          <depth>0</depth>
          <value>5.2196753957642393e-04</value>
          <splits>
            <_><var>322</var>
              <quality>4.5200739987194538e-03</quality>
              <le>8.4901964664459229e-01</le></_></splits></_>
        <_>
          <depth>1</depth>
          <value>-3.4677870528405486e-02</value>
          <splits>
            <_><var>320</var>
              <quality>8.8999858126044273e-03</quality>
              <le>5.5882358551025391e-01</le></_></splits></_>
        <_>
          <depth>2</depth>
          <value>2.7195466375660626e-02</value></_>
        <_>
          <depth>2</depth>
          <value>-2.0908997940459342e-01</value></_>
        <_>
          <depth>1</depth>
          <value>1.3656370011879526e-01</value>
          <splits>
            <_><var>324</var>
              <quality>1.5087984502315521e-02</quality>
              <le>7.6274514198303223e-01</le></_></splits></_>
        <_>
          <depth>2</depth>
          <value>-1.2461544142199385e-01</value></_>
        <_>
          <depth>2</depth>
          <value>3.7792014050184997e-01</value></_></nodes></_>
    <_>
      <nodes>
        <_>
          <depth>0</depth>
          <value>1.8319542258615593e-03</value>
          <splits>
            <_><var>325</var>
              <quality>5.1266732625663280e-03</quality>
              <le>3.3333335071802139e-02</le></_></splits></_>
        <_>
          <depth>1</depth>
          <value>9.7539449296965716e-02</value>
          <splits>
            <_><var>328</var>
              <quality>2.0639337599277496e-02</quality>
              <le>1.9607844296842813e-03</le></_></splits></_>
        <_>
          <depth>2</depth>
          <value>2.6574548185037045e-01</value></_>
        <_>
          <depth>2</depth>
          <value>-2.0693554987089913e-01</value></_>
        <_>
          <depth>1</depth>
          <value>-5.4755212456273412e-02</value>
          <splits>
            <_><var>659</var>
              <quality>1.1116722598671913e-02</quality>
              <le>5.8823535218834877e-03</le></_></splits></_>
        <_>
          <depth>2</depth>
          <value>6.6913813068134875e-02</value></_>
        <_>
          <depth>2</depth>
          <value>-1.8554323405271519e-01</value></_></nodes></_>
    <_>
      <nodes>
        <_>
          <depth>0</depth>
          <value>-3.1595408961522702e-03</value>
          <splits>
            <_><var>353</var>
              <quality>6.0923728160560131e-03</quality>
              <le>9.4313728809356689e-01</le></_></splits></_>
        <_>
          <depth>1</depth>
          <value>-5.7619024885206691e-02</value>
          <splits>
            <_><var>350</var>
              <quality>1.1093876324594021e-02</quality>
              <le>5.4313731193542480e-01</le></_></splits></_>
        <_>
          <depth>2</depth>
          <value>2.8125135238483243e-02</value></_>
        <_>
          <depth>2</depth>
          <value>-2.2174901081583864e-01</value></_>
        <_>
          <depth>1</depth>
          <value>1.1505791847049121e-01</value>
          <splits>
            <_><var>182</var>
              <quality>1.7783561721444130e-02</quality>
              <le>8.8235296308994293e-02</le></_></splits></_>
        <_>
          <depth>2</depth>
          <value>-1.5536853196077141e-01</value></_>
        <_>
          <depth>2</depth>
          <value>2.9437244522999784e-01</value></_></nodes></_>
    <_>
      <nodes>
        <_>
          <depth>0</depth>
          <value>3.0740631181127138e-03</value>
          <splits>
            <_><var>737</var>
              <quality>5.5660717189311981e-03</quality>
              <le>1.9607844296842813e-03</le></_></splits></_>
        <_>
          <depth>1</depth>
          <value>-5.1076496336328169e-03</value>
          <splits>
            <_><var>72</var>
              <quality>4.7142794355750084e-03</quality>
              <le>1.9607844296842813e-03</le></_></splits></_>
        <_>
          <depth>2</depth>
          <value>1.5584954122195443e-03</value></_>
        <_>
          <depth>2</depth>
          <value>-9.8248358215474518e-01</value></_>
        <_>
          <depth>1</depth>
          <value>9.0358403006470289e-01</value>
          <splits>
            <_><var>568</var>
              <quality>8.4463795647025108e-03</quality>
              <le>2.9411766678094864e-02</le></_></splits></_>
        <_>
          <depth>2</depth>
          <value>1.4588182409031547e+00</value></_>
        <_>
          <depth>2</depth>
          <value>-1.0675995171312926e+00</value></_></nodes></_>
    <_>
      <nodes>
        <_>
          <depth>0</depth>
          <value>-3.1712193424508043e-05</value>
          <splits>
            <_><var>312</var>
              <quality>4.3857633136212826e-03</quality>
              <le>1.7058824002742767e-01</le></_></splits></_>
        <_>
          <depth>1</depth>
          <value>-1.0877582076517163e-02</value>
          <splits>
            <_><var>232</var>
              <quality>4.7079673968255520e-03</quality>
              <le>2.5490198284387589e-02</le></_></splits></_>
        <_>
          <depth>2</depth>
          <value>3.3214414212533815e-02</value></_>
        <_>
          <depth>2</depth>
          <value>-1.2411914558673870e-01</value></_>
        <_>
          <depth>1</depth>
          <value>4.5455963755509726e-01</value>
          <splits>
            <_><var>329</var>
              <quality>7.5314487330615520e-03</quality>
              <le>3.5098040103912354e-01</le></_></splits></_>
        <_>
          <depth>2</depth>
          <value>3.2130761662877254e-02</value></_>
        <_>
          <depth>2</depth>
          <value>1.0355176830882531e+00</value></_></nodes></_>
    <_>
      <nodes>
        <_>
          <depth>0</depth>
          <value>8.6281816839483459e-05</value>
          <splits>
            <_><var>513</var>
              <quality>3.8737126160413027e-03</quality>
              <le>8.5686278343200684e-01</le></_></splits></_>
        <_>
          <depth>1</depth>
          <value>2.9947198054439763e-02</value>
          <splits>
            <_><var>483</var>
              <quality>1.0719303041696548e-02</quality>
              <le>7.5882363319396973e-01</le></_></splits></_>
        <_>
          <depth>2</depth>
          <value>6.8351708443914694e-02</value></_>
        <_>
          <depth>2</depth>
          <value>-3.1566535367013843e-01</value></_>
        <_>
          <depth>1</depth>
          <value>-1.3736125400387839e-01</value>
          <splits>
            <_><var>543</var>
              <quality>2.6101516559720039e-02</quality>
              <le>9.6078440546989441e-02</le></_></splits></_>
        <_>
          <depth>2</depth>
          <value>-7.5610765876442054e-01</value></_>
        <_>
          <depth>2</depth>
          <value>1.3214841836459582e-01</value></_></nodes></_>
    <_>
      <nodes>
        <_>
          <depth>0</depth>
          <value>-1.2900159869807979e-03</value>
          <splits>
            <_><var>454</var>
              <quality>7.6851597987115383e-03</quality>
              <le>5.8823535218834877e-03</le></_></splits></_>
        <_>
          <depth>1</depth>
          <value>-4.5856597069844983e-02</value>
          <splits>
            <_><var>595</var>
              <quality>8.4258317947387695e-03</quality>
              <le>1.3725491240620613e-02</le></_></splits></_>
        <_>
          <depth>2</depth>
          <value>-9.6527384720848805e-02</value></_>
        <_>
          <depth>2</depth>
          <value>1.3239645386651208e-01</value></_>
        <_>
          <depth>1</depth>
          <value>1.8231596582648807e-01</value>
          <splits>
            <_><var>594</var>
              <quality>1.8843196332454681e-02</quality>
              <le>8.7647068500518799e-01</le></_></splits></_>
        <_>
          <depth>2</depth>
          <value>2.8136282099522769e-01</value></_>
        <_>
          <depth>2</depth>
          <value>-6.1336165110149332e-01</value></_></nodes></_>
    <_>
      <nodes>
        <_>
          <depth>0</depth>
          <value>-7.9820772968706228e-06</value>
          <splits>
            <_><var>427</var>
              <quality>5.5425283499062061e-03</quality>
              <le>2.4117648601531982e-01</le></_></splits></_>
        <_>
          <depth>1</depth>
          <value>4.2123657321841791e-02</value>
          <splits>
            <_><var>515</var>
              <quality>7.9500498250126839e-03</quality>
              <le>5.2352941036224365e-01</le></_></splits></_>
        <_>
          <depth>2</depth>
          <value>1.1402916738644185e-01</value></_>
        <_>
          <depth>2</depth>
          <value>-8.6044914260632224e-02</value></_>
        <_>
          <depth>1</depth>
          <value>-1.3946384728704880e-01</value>
          <splits>
            <_><var>486</var>
              <quality>1.3681503944098949e-02</quality>
              <le>1.7647059634327888e-02</le></_></splits></_>
        <_>
          <depth>2</depth>
          <value>-3.7306716627531344e-01</value></_>
        <_>
          <depth>2</depth>
          <value>5.6774615178609232e-02</value></_></nodes></_>
    <_>
      <nodes>
        <_>
          <depth>0</depth>
          <value>-4.3648725721553062e-05</value>
          <splits>
            <_><var>214</var>
              <quality>4.1490327566862106e-03</quality>
              <le>9.7843146324157715e-01</le></_></splits></_>
        <_>
          <depth>1</depth>
          <value>-3.7916548231581811e-02</value>
          <splits>
            <_><var>464</var>
              <quality>9.3305157497525215e-03</quality>
              <le>1.9607844296842813e-03</le></_></splits></_>
        <_>
          <depth>2</depth>
          <value>1.1375288893956319e-01</value></_>
        <_>
          <depth>2</depth>
          <value>-1.1519566691453077e-01</value></_>
        <_>
          <depth>1</depth>
          <value>1.1584473332664014e-01</value>
          <splits>
            <_><var>407</var>
              <quality>9.3714417889714241e-03</quality>
              <le>1.9607844296842813e-03</le></_></splits></_>
        <_>
          <depth>2</depth>
          <value>-2.0257247439783918e-01</value></_>
        <_>
          <depth>2</depth>
          <value>2.0254468826545191e-01</value></_></nodes></_>
    <_>
      <nodes>
        <_>
          <depth>0</depth>
          <value>-7.9784438609021896e-04</value>
          <splits>
            <_><var>600</var>
              <quality>4.8315897583961487e-03</quality>
              <le>2.8823530673980713e-01</le></_></splits></_>
        <_>
          <depth>1</depth>
          <value>6.8642701178596041e-02</value>
          <splits>
            <_><var>208</var>
              <quality>1.2320452369749546e-02</quality>
              <le>2.6470589637756348e-01</le></_></splits></_>
        <_>
          <depth>2</depth>
          <value>-8.1323313620005652e-02</value></_>
        <_>
          <depth>2</depth>
          <value>2.0868062429587270e-01</value></_>
        <_>
          <depth>1</depth>
          <value>-7.4279583516689854e-02</value>
          <splits>
            <_><var>716</var>
              <quality>9.3766972422599792e-03</quality>
              <le>3.7254903465509415e-02</le></_></splits></_>
        <_>
          <depth>2</depth>
          <value>-5.5151444695013652e-02</value></_>
        <_>
          <depth>2</depth>
          <value>-1.2630346043351885e+00</value></_></nodes></_>
    <_>
      <nodes>
        <_>
          <depth>0</depth>
          <value>2.9014552264385621e-04</value>
          <splits>
            <_><var>294</var>
              <quality>6.6847996786236763e-03</quality>
              <le>9.5098042488098145e-01</le></_></splits></_>
        <_>
          <depth>1</depth>
          <value>-3.7698450526856012e-02</value>
          <splits>
            <_><var>160</var>
              <quality>8.2970932126045227e-03</quality>
              <le>8.5294127464294434e-01</le></_></splits></_>
        <_>
          <depth>2</depth>
          <value>-6.6169089728752337e-02</value></_>
        <_>
          <depth>2</depth>
          <value>2.9089090465475520e-01</value></_>
        <_>
          <depth>1</depth>
          <value>1.8778177088075651e-01</value>
          <splits>
            <_><var>159</var>
              <quality>1.3825803063809872e-02</quality>
              <le>9.8039228469133377e-03</le></_></splits></_>
        <_>
          <depth>2</depth>
          <value>3.2726973892732281e-01</value></_>
        <_>
          <depth>2</depth>
          <value>-2.0933628804046653e-01</value></_></nodes></_>
    <_>
      <nodes>
        <_>
          <depth>0</depth>
          <value>-1.0212964350330850e-04</value>
          <splits>
            <_><var>714</var>
              <quality>6.0944971628487110e-03</quality>
              <le>9.2156872153282166e-02</le></_></splits></_>
        <_>
          <depth>1</depth>
          <value>-2.6452933249528719e-02</value>
          <splits>
            <_><var>459</var>
              <quality>5.0907051190733910e-03</quality>
              <le>5.9411764144897461e-01</le></_></splits></_>
        <_>
          <depth>2</depth>
          <value>2.7407902104663935e-02</value></_>
        <_>
          <depth>2</depth>
          <value>-1.2437589751678685e-01</value></_>
        <_>
          <depth>1</depth>
          <value>2.4839672277344274e-01</value>
          <splits>
            <_><var>626</var>
              <quality>1.9234310835599899e-02</quality>
              <le>4.2156866192817688e-01</le></_></splits></_>
        <_>
          <depth>2</depth>
          <value>3.9966426256363757e-01</value></_>
        <_>
          <depth>2</depth>
          <value>-1.2345311834407502e+00</value></_></nodes></_>
    <_>
      <nodes>
        <_>
          <depth>0</depth>
          <value>1.8124413381711925e-04</value>
          <splits>
            <_><var>214</var>
              <quality>3.9355554617941380e-03</quality>
              <le>8.8235296308994293e-02</le></_></splits></_>
        <_>
          <depth>1</depth>
          <value>-7.5543957998802577e-02</value>
          <splits>
            <_><var>238</var>
              <quality>1.3061714358627796e-02</quality>
              <le>1.7647059634327888e-02</le></_></splits></_>
        <_>
          <depth>2</depth>
          <value>1.2721423285990638e-01</value></_>
        <_>
          <depth>2</depth>
          <value>-2.1236132973452784e-01</value></_>
        <_>
          <depth>1</depth>
          <value>5.5047071110660803e-02</value>
          <splits>
            <_><var>332</var>
              <quality>7.4401563033461571e-03</quality>
              <le>1.0196079313755035e-01</le></_></splits></_>
        <_>
          <depth>2</depth>
          <value>7.0573745661233409e-02</value></_>
        <_>
          <depth>2</depth>
          <value>-7.3008089489240990e-01</value></_></nodes></_>
    <_>
      <nodes>
        <_>
          <depth>0</depth>
          <value>1.5988052852567661e-03</value>
          <splits>
            <_><var>248</var>
              <quality>4.7367438673973083e-03</quality>
              <le>6.0980391502380371e-01</le></_></splits></_>
        <_>
          <depth>1</depth>
          <value>-1.0450735202243239e-02</value>
          <splits>
            <_><var>239</var>
              <quality>3.8040450308471918e-03</quality>
              <le>8.6078441143035889e-01</le></_></splits></_>
        <_>
          <depth>2</depth>
          <value>-5.4248610685449297e-02</value></_>
        <_>
          <depth>2</depth>
          <value>8.1429807053402956e-02</value></_>
        <_>
          <depth>1</depth>
          <value>4.4184147061264667e-01</value>
          <splits>
            <_><var>355</var>
              <quality>1.1379810050129890e-02</quality>
              <le>2.5490198284387589e-02</le></_></splits></_>
        <_>
          <depth>2</depth>
          <value>1.0499724788814817e+00</value></_>
        <_>
          <depth>2</depth>
          <value>-2.7551028350339096e-01</value></_></nodes></_>
    <_>
      <nodes>
        <_>
          <depth>0</depth>
          <value>-3.9201055602996823e-05</value>
          <splits>
            <_><var>546</var>
              <quality>3.8822863716632128e-03</quality>
              <le>4.9019612371921539e-02</le></_></splits></_>
        <_>
          <depth>1</depth>
          <value>7.0594975094076917e-02</value>
          <splits>
            <_><var>212</var>
              <quality>7.9228356480598450e-03</quality>
              <le>2.2549021244049072e-01</le></_></splits></_>
        <_>
          <depth>2</depth>
          <value>2.1142243170227984e-01</value></_>
        <_>
          <depth>2</depth>
          <value>-2.7612424553061007e-02</value></_>
        <_>
          <depth>1</depth>
          <value>-5.8056561094518386e-02</value>
          <splits>
            <_><var>607</var>
              <quality>9.9479099735617638e-03</quality>
              <le>2.5490198284387589e-02</le></_></splits></_>
        <_>
          <depth>2</depth>
          <value>4.6309635740450052e-03</value></_>
        <_>
          <depth>2</depth>
          <value>-3.1935867076913105e-01</value></_></nodes></_>
    <_>
      <nodes>
        <_>
          <depth>0</depth>
          <value>-3.4207246987657851e-05</value>
          <splits>
            <_><var>182</var>
              <quality>7.5640305876731873e-03</quality>
              <le>9.2352950572967529e-01</le></_></splits></_>
        <_>
          <depth>1</depth>
          <value>-5.9465454873924524e-02</value>
          <splits>
            <_><var>373</var>
              <quality>9.3869948759675026e-03</quality>
              <le>1.9019609689712524e-01</le></_></splits></_>
        <_>
          <depth>2</depth>
          <value>3.3897053984951818e-02</value></_>
        <_>
          <depth>2</depth>
          <value>-1.7618641275832431e-01</value></_>
        <_>
          <depth>1</depth>
          <value>1.3490869826690816e-01</value>
          <splits>
            <_><var>430</var>
              <quality>1.4740083366632462e-02</quality>
              <le>1.6666667163372040e-01</le></_></splits></_>
        <_>
          <depth>2</depth>
          <value>-3.0670297175399094e-02</value></_>
        <_>
          <depth>2</depth>
          <value>3.4498714336891906e-01</value></_></nodes></_>
    <_>
      <nodes>
        <_>
          <depth>0</depth>
          <value>-5.9801391202225350e-04</value>
          <splits>
            <_><var>624</var>
              <quality>3.6027051974087954e-03</quality>
              <le>9.9019610881805420e-01</le></_></splits></_>
        <_>
          <depth>1</depth>
          <value>1.6987235877927380e-02</value>
          <splits>
            <_><var>304</var>
              <quality>4.4169868342578411e-03</quality>
              <le>2.7058824896812439e-01</le></_></splits></_>
        <_>
          <depth>2</depth>
          <value>6.0880894581346792e-03</value></_>
        <_>
          <depth>2</depth>
          <value>4.8714833003163693e-01</value></_>
        <_>
          <depth>1</depth>
          <value>-2.1972079018643992e-01</value>
          <splits>
            <_><var>264</var>
              <quality>7.4883918277919292e-03</quality>
              <le>3.9215688593685627e-03</le></_></splits></_>
        <_>
          <depth>2</depth>
          <value>5.2832167307708240e-02</value></_>
        <_>
          <depth>2</depth>
          <value>-4.6120719647286285e-01</value></_></nodes></_>
    <_>
      <nodes>
        <_>
          <depth>0</depth>
          <value>7.9552953221408726e-04</value>
          <splits>
            <_><var>707</var>
              <quality>3.9815809577703476e-03</quality>
              <le>9.8039228469133377e-03</le></_></splits></_>
        <_>
          <depth>1</depth>
          <value>-8.7479353201294612e-03</value>
          <splits>
            <_><var>211</var>
              <quality>3.2705629710108042e-03</quality>
              <le>9.8235297203063965e-01</le></_></splits></_>
        <_>
          <depth>2</depth>
          <value>-4.7661286032567633e-02</value></_>
        <_>
          <depth>2</depth>
          <value>7.9930845358121588e-02</value></_>
        <_>
          <depth>1</depth>
          <value>4.7211074994302771e-01</value>
          <splits>
            <_><var>657</var>
              <quality>1.1069276370108128e-02</quality>
              <le>4.8431375622749329e-01</le></_></splits></_>
        <_>
          <depth>2</depth>
          <value>9.3718521748465755e-01</value></_>
        <_>
          <depth>2</depth>
          <value>-1.0081529108932865e+00</value></_></nodes></_>
    <_>
      <nodes>
        <_>
          <depth>0</depth>
          <value>-4.2343442882853896e-04</value>
          <splits>
            <_><var>298</var>
              <quality>3.0658917967230082e-03</quality>
              <le>2.0980393886566162e-01</le></_></splits></_>
        <_>
          <depth>1</depth>
          <value>5.8681089162733097e-02</value>
          <splits>
            <_><var>656</var>
              <quality>8.6698839440941811e-03</quality>
              <le>1.9607844296842813e-03</le></_></splits></_>
        <_>
          <depth>2</depth>
          <value>-5.5847605161054539e-02</value></_>
        <_>
          <depth>2</depth>
          <value>1.9702365340012468e-01</value></_>
        <_>
          <depth>1</depth>
          <value>-5.5141019820635635e-02</value>
          <splits>
            <_><var>153</var>
              <quality>1.0215180926024914e-02</quality>
              <le>1.7647059634327888e-02</le></_></splits></_>
        <_>
          <depth>2</depth>
          <value>4.6134974516299651e-02</value></_>
        <_>
          <depth>2</depth>
          <value>-2.3393048457368398e-01</value></_></nodes></_>
    <_>
      <nodes>
        <_>
          <depth>0</depth>
          <value>-9.5214805928370868e-04</value>
          <splits>
            <_><var>433</var>
              <quality>4.3869712390005589e-03</quality>
              <le>3.1568628549575806e-01</le></_></splits></_>
        <_>
          <depth>1</depth>
          <value>7.8137138193055650e-02</value>
          <splits>
            <_><var>516</var>
              <quality>1.1665049940347672e-02</quality>
              <le>1.9607844296842813e-03</le></_></splits></_>
        <_>
          <depth>2</depth>
          <value>-7.5547680335303277e-02</value></_>
        <_>
          <depth>2</depth>
          <value>2.3040663688370522e-01</value></_>
        <_>
          <depth>1</depth>
          <value>-5.9516364625935216e-02</value>
          <splits>
            <_><var>516</var>
              <quality>8.4922118112444878e-03</quality>
              <le>5.0000000000000000e-01</le></_></splits></_>
        <_>
          <depth>2</depth>
          <value>2.9731144417581751e-02</value></_>
        <_>
          <depth>2</depth>
          <value>-1.9686384598072812e-01</value></_></nodes></_>
    <_>
      <nodes>
        <_>
          <depth>0</depth>
          <value>1.5421862204134126e-03</value>
          <splits>
            <_><var>350</var>
              <quality>5.1500648260116577e-03</quality>
              <le>2.1568629890680313e-02</le></_></splits></_>
        <_>
          <depth>1</depth>
          <value>-7.8049036714704284e-02</value>
          <splits>
            <_><var>267</var>
              <quality>1.0767241008579731e-02</quality>
              <le>7.3921573162078857e-01</le></_></splits></_>
        <_>
          <depth>2</depth>
          <value>-1.5329956081587376e-01</value></_>
        <_>
          <depth>2</depth>
          <value>1.7258361955686161e-01</value></_>
        <_>
          <depth>1</depth>
          <value>6.9873480093458409e-02</value>
          <splits>
            <_><var>263</var>
              <quality>1.1334329843521118e-02</quality>
              <le>5.8823535218834877e-03</le></_></splits></_>
        <_>
          <depth>2</depth>
          <value>1.9800720827163004e-01</value></_>
        <_>
          <depth>2</depth>
          <value>-6.8060658519404502e-02</value></_></nodes></_>
    <_>
      <nodes>
        <_>
          <depth>0</depth>
          <value>-2.5851909420857727e-04</value>
          <splits>
            <_><var>295</var>
              <quality>6.4840456470847130e-03</quality>
              <le>1.7647059634327888e-02</le></_></splits></_>
        <_>
          <depth>1</depth>
          <value>8.6517853030614975e-02</value>
          <splits>
            <_><var>183</var>
              <quality>1.3575341552495956e-02</quality>
              <le>1.1568628251552582e-01</le></_></splits></_>
        <_>
          <depth>2</depth>
          <value>-1.2999143538337260e-01</value></_>
        <_>
          <depth>2</depth>
          <value>1.9318234409406188e-01</value></_>
        <_>
          <depth>1</depth>
          <value>-7.9273327281922629e-02</value>
          <splits>
            <_><var>488</var>
              <quality>1.2051306664943695e-02</quality>
              <le>9.7843146324157715e-01</le></_></splits></_>
        <_>
          <depth>2</depth>
          <value>-1.6059546008177195e-01</value></_>
        <_>
          <depth>2</depth>
          <value>1.4637692490899232e-01</value></_></nodes></_>
    <_>
      <nodes>
        <_>
          <depth>0</depth>
          <value>1.1998952957661085e-03</value>
          <splits>
            <_><var>513</var>
              <quality>5.4231258109211922e-03</quality>
              <le>6.7647063732147217e-01</le></_></splits></_>
        <_>
          <depth>1</depth>
          <value>4.2808664767233433e-02</value>
          <splits>
            <_><var>516</var>
              <quality>9.8001658916473389e-03</quality>
              <le>3.3137255907058716e-01</le></_></splits></_>
        <_>
          <depth>2</depth>
          <value>1.2670980703138440e-01</value></_>
        <_>
          <depth>2</depth>
          <value>-9.6987580376681898e-02</value></_>
        <_>
          <depth>1</depth>
          <value>-1.3689671871031445e-01</value>
          <splits>
            <_><var>654</var>
              <quality>1.3871671631932259e-02</quality>
              <le>3.5098040103912354e-01</le></_></splits></_>
        <_>
          <depth>2</depth>
          <value>-8.1700986673318658e-03</value></_>
        <_>
          <depth>2</depth>
          <value>-5.2607350546906650e-01</value></_></nodes></_>
    <_>
      <nodes>
        <_>
          <depth>0</depth>
          <value>-9.3510967989880310e-04</value>
          <splits>
            <_><var>352</var>
              <quality>4.1514784097671509e-03</quality>
              <le>9.1960787773132324e-01</le></_></splits></_>
        <_>
          <depth>1</depth>
          <value>-4.7723828791899327e-02</value>
          <splits>
            <_><var>293</var>
              <quality>6.7868279293179512e-03</quality>
              <le>9.5882356166839600e-01</le></_></splits></_>
        <_>
          <depth>2</depth>
          <value>-9.2593949933483494e-02</value></_>
        <_>
          <depth>2</depth>
          <value>1.4240745453975362e-01</value></_>
        <_>
          <depth>1</depth>
          <value>9.2778430975354473e-02</value>
          <splits>
            <_><var>131</var>
              <quality>1.1971481144428253e-02</quality>
              <le>1.9607844296842813e-03</le></_></splits></_>
        <_>
          <depth>2</depth>
          <value>2.2152249094176547e-02</value></_>
        <_>
          <depth>2</depth>
          <value>5.5991094445789369e-01</value></_></nodes></_>
    <_>
      <nodes>
        <_>
          <depth>0</depth>
          <value>3.9988059286244883e-04</value>
          <splits>
            <_><var>511</var>
              <quality>3.5601626150310040e-03</quality>
              <le>6.4117646217346191e-01</le></_></splits></_>
        <_>
          <depth>1</depth>
          <value>2.6283308942199109e-02</value>
          <splits>
            <_><var>348</var>
              <quality>6.1724972911179066e-03</quality>
              <le>1.8627452850341797e-01</le></_></splits></_>
        <_>
          <depth>2</depth>
          <value>9.5657034971877941e-02</value></_>
        <_>
          <depth>2</depth>
          <value>-7.4715801217916961e-02</value></_>
        <_>
          <depth>1</depth>
          <value>-1.4543006159858127e-01</value>
          <splits>
            <_><var>456</var>
              <quality>1.0955684818327427e-02</quality>
              <le>2.0196080207824707e-01</le></_></splits></_>
        <_>
          <depth>2</depth>
          <value>1.8285866654910862e-01</value></_>
        <_>
          <depth>2</depth>
          <value>-3.2515975628339522e-01</value></_></nodes></_>
    <_>
      <nodes>
        <_>
          <depth>0</depth>
          <value>-7.0488712135993506e-05</value>
          <splits>
            <_><var>512</var>
              <quality>3.2281852327287197e-03</quality>
              <le>7.2745096683502197e-01</le></_></splits></_>
        <_>
          <depth>1</depth>
          <value>-2.6760067065803292e-02</value>
          <splits>
            <_><var>514</var>
              <quality>5.8832527138292789e-03</quality>
              <le>9.9411773681640625e-01</le></_></splits></_>
        <_>
          <depth>2</depth>
          <value>-9.1425041977462700e-03</value></_>
        <_>
          <depth>2</depth>
          <value>-4.3733344404902069e-01</value></_>
        <_>
          <depth>1</depth>
          <value>1.2797302248295156e-01</value>
          <splits>
            <_><var>567</var>
              <quality>1.0184924118220806e-02</quality>
              <le>1.8627452850341797e-01</le></_></splits></_>
        <_>
          <depth>2</depth>
          <value>3.6390680455823465e-01</value></_>
        <_>
          <depth>2</depth>
          <value>-7.9275129070135800e-02</value></_></nodes></_>
    <_>
      <nodes>
        <_>
          <depth>0</depth>
          <value>1.8651826132719054e-04</value>
          <splits>
            <_><var>349</var>
              <quality>3.0201447661966085e-03</quality>
              <le>9.7058832645416260e-01</le></_></splits></_>
        <_>
          <depth>1</depth>
          <value>-2.5728099347566983e-02</value>
          <splits>
            <_><var>291</var>
              <quality>5.0388509407639503e-03</quality>
              <le>3.2745099067687988e-01</le></_></splits></_>
        <_>
          <depth>2</depth>
          <value>-9.2563336928298809e-02</value></_>
        <_>
          <depth>2</depth>
          <value>6.0904519949516032e-02</value></_>
        <_>
          <depth>1</depth>
          <value>1.2351249670371214e-01</value>
          <splits>
            <_><var>125</var>
              <quality>1.0628169402480125e-02</quality>
              <le>1.0392157733440399e-01</le></_></splits></_>
        <_>
          <depth>2</depth>
          <value>-6.3287991470267341e-03</value></_>
        <_>
          <depth>2</depth>
          <value>5.5281900816971608e-01</value></_></nodes></_>
    <_>
      <nodes>
        <_>
          <depth>0</depth>
          <value>-1.7629268630471573e-04</value>
          <splits>
            <_><var>135</var>
              <quality>2.8770472854375839e-03</quality>
              <le>3.6666667461395264e-01</le></_></splits></_>
        <_>
          <depth>1</depth>
          <value>-6.7643123401059007e-03</value>
          <splits>
            <_><var>719</var>
              <quality>2.8039824683219194e-03</quality>
              <le>1.5882353484630585e-01</le></_></splits></_>
        <_>
          <depth>2</depth>
          <value>-1.5656200928859804e-02</value></_>
        <_>
          <depth>2</depth>
          <value>3.3703767889922637e-01</value></_>
        <_>
          <depth>1</depth>
          <value>4.9670356277176447e-01</value>
          <splits>
            <_><var>456</var>
              <quality>5.0321007147431374e-03</quality>
              <le>2.2941178083419800e-01</le></_></splits></_>
        <_>
          <depth>2</depth>
          <value>1.0013000355640411e+00</value></_>
        <_>
          <depth>2</depth>
          <value>-8.1781251244983699e-02</value></_></nodes></_>
    <_>
      <nodes>
        <_>
          <depth>0</depth>
          <value>6.5271847801452244e-04</value>
          <splits>
            <_><var>682</var>
              <quality>2.8662583790719509e-03</quality>
              <le>1.9607844296842813e-03</le></_></splits></_>
        <_>
          <depth>1</depth>
          <value>-2.6906009543250693e-02</value>
          <splits>
            <_><var>492</var>
              <quality>5.1785022951662540e-03</quality>
              <le>2.0980393886566162e-01</le></_></splits></_>
        <_>
          <depth>2</depth>
          <value>5.8396882982474779e-02</value></_>
        <_>
          <depth>2</depth>
          <value>-9.8781087535959017e-02</value></_>
        <_>
          <depth>1</depth>
          <value>1.1059137592265827e-01</value>
          <splits>
            <_><var>241</var>
              <quality>1.2194077484309673e-02</quality>
              <le>4.8039218783378601e-01</le></_></splits></_>
        <_>
          <depth>2</depth>
          <value>-1.5403226509500512e-01</value></_>
        <_>
          <depth>2</depth>
          <value>3.1700276996420113e-01</value></_></nodes></_>
    <_>
      <nodes>
        <_>
          <depth>0</depth>
          <value>-1.0215130443872306e-03</value>
          <splits>
            <_><var>628</var>
              <quality>3.8758513983339071e-03</quality>
              <le>1.7647059634327888e-02</le></_></splits></_>
        <_>
          <depth>1</depth>
          <value>7.2609165660176986e-02</value>
          <splits>
            <_><var>403</var>
              <quality>1.0287070646882057e-02</quality>
              <le>9.3137264251708984e-01</le></_></splits></_>
        <_>
          <depth>2</depth>
          <value>1.4562937582505439e-01</value></_>
        <_>
          <depth>2</depth>
          <value>-2.0656293535888029e-01</value></_>
        <_>
          <depth>1</depth>
          <value>-5.6573282466351536e-02</value>
          <splits>
            <_><var>209</var>
              <quality>8.1757484003901482e-03</quality>
              <le>1.3725491240620613e-02</le></_></splits></_>
        <_>
          <depth>2</depth>
          <value>1.1962751821956227e-01</value></_>
        <_>
          <depth>2</depth>
          <value>-1.2499214888810137e-01</value></_></nodes></_>
    <_>
      <nodes>
        <_>
          <depth>0</depth>
          <value>8.1738602368110810e-04</value>
          <splits>
            <_><var>404</var>
              <quality>3.9230426773428917e-03</quality>
              <le>9.8627460002899170e-01</le></_></splits></_>
        <_>
          <depth>1</depth>
          <value>-3.4880388557057031e-02</value>
          <splits>
            <_><var>578</var>
              <quality>5.8656730689108372e-03</quality>
              <le>4.1176471859216690e-02</le></_></splits></_>
        <_>
          <depth>2</depth>
          <value>3.8068764464182225e-02</value></_>
        <_>
          <depth>2</depth>
          <value>-1.2970871842497747e-01</value></_>
        <_>
          <depth>1</depth>
          <value>1.1705642127737169e-01</value>
          <splits>
            <_><var>625</var>
              <quality>9.6433199942111969e-03</quality>
              <le>2.5490198284387589e-02</le></_></splits></_>
        <_>
          <depth>2</depth>
          <value>-3.3370454072132273e-02</value></_>
        <_>
          <depth>2</depth>
          <value>3.2416167988663586e-01</value></_></nodes></_>
    <_>
      <nodes>
        <_>
          <depth>0</depth>
          <value>-8.1120168854669178e-04</value>
          <splits>
            <_><var>179</var>
              <quality>3.9397007785737514e-03</quality>
              <le>4.4117650389671326e-01</le></_></splits></_>
        <_>
          <depth>1</depth>
          <value>-4.4597440179415498e-02</value>
          <splits>
            <_><var>376</var>
              <quality>6.9894921034574509e-03</quality>
              <le>7.1176469326019287e-01</le></_></splits></_>
        <_>
          <depth>2</depth>
          <value>1.6030890564566372e-02</value></_>
        <_>
          <depth>2</depth>
          <value>-1.9157720841130618e-01</value></_>
        <_>
          <depth>1</depth>
          <value>9.4226938582029574e-02</value>
          <splits>
            <_><var>517</var>
              <quality>1.3707752339541912e-02</quality>
              <le>8.0392159521579742e-02</le></_></splits></_>
        <_>
          <depth>2</depth>
          <value>2.7465743984438984e-01</value></_>
        <_>
          <depth>2</depth>
          <value>-1.1838283385629997e-01</value></_></nodes></_>
    <_>
      <nodes>
        <_>
          <depth>0</depth>
          <value>-4.2439027856323516e-04</value>
          <splits>
            <_><var>574</var>
              <quality>4.5889755710959435e-03</quality>
              <le>9.5882356166839600e-01</le></_></splits></_>
        <_>
          <depth>1</depth>
          <value>-4.1974061039586542e-02</value>
          <splits>
            <_><var>512</var>
              <quality>8.4147322922945023e-03</quality>
              <le>2.0980393886566162e-01</le></_></splits></_>
        <_>
          <depth>2</depth>
          <value>2.1200682102763230e-02</value></_>
        <_>
          <depth>2</depth>
          <value>-2.0734698046799799e-01</value></_>
        <_>
          <depth>1</depth>
          <value>1.1642225163147901e-01</value>
          <splits>
            <_><var>662</var>
              <quality>8.9009758085012436e-03</quality>
              <le>7.9019618034362793e-01</le></_></splits></_>
        <_>
          <depth>2</depth>
          <value>1.5098316221932792e-01</value></_>
        <_>
          <depth>2</depth>
          <value>-6.0073324498075809e-01</value></_></nodes></_>
    <_>
      <nodes>
        <_>
          <depth>0</depth>
          <value>-2.0623475362529014e-03</value>
          <splits>
            <_><var>661</var>
              <quality>3.4954634029418230e-03</quality>
              <le>8.9215695858001709e-01</le></_></splits></_>
        <_>
          <depth>1</depth>
          <value>-2.5334770862993013e-02</value>
          <splits>
            <_><var>528</var>
              <quality>3.8051221054047346e-03</quality>
              <le>9.2745101451873779e-01</le></_></splits></_>
        <_>
          <depth>2</depth>
          <value>-3.1572287363688577e-02</value></_>
        <_>
          <depth>2</depth>
          <value>7.0742855971922647e-01</value></_>
        <_>
          <depth>1</depth>
          <value>1.5717616670411017e-01</value>
          <splits>
            <_><var>209</var>
              <quality>9.1380914673209190e-03</quality>
              <le>3.3333335071802139e-02</le></_></splits></_>
        <_>
          <depth>2</depth>
          <value>-2.8280926534583933e-01</value></_>
        <_>
          <depth>2</depth>
          <value>2.8035168296050367e-01</value></_></nodes></_>
    <_>
      <nodes>
        <_>
          <depth>0</depth>
          <value>8.5243181462383232e-04</value>
          <splits>
            <_><var>604</var>
              <quality>2.9041941743344069e-03</quality>
              <le>9.5882356166839600e-01</le></_></splits></_>
        <_>
          <depth>1</depth>
          <value>-3.1344910181723917e-02</value>
          <splits>
            <_><var>469</var>
              <quality>6.0700885951519012e-03</quality>
              <le>2.2549021244049072e-01</le></_></splits></_>
        <_>
          <depth>2</depth>
          <value>6.2957449392196854e-03</value></_>
        <_>
          <depth>2</depth>
          <value>-2.3693460271225220e-01</value></_>
        <_>
          <depth>1</depth>
          <value>9.6102346206572653e-02</value>
          <splits>
            <_><var>577</var>
              <quality>7.1453489363193512e-03</quality>
              <le>7.7450990676879883e-01</le></_></splits></_>
        <_>
          <depth>2</depth>
          <value>-1.1547841859810479e-01</value></_>
        <_>
          <depth>2</depth>
          <value>1.9567608025543926e-01</value></_></nodes></_>
    <_>
      <nodes>
        <_>
          <depth>0</depth>
          <value>-7.0011768926852604e-04</value>
          <splits>
            <_><var>629</var>
              <quality>4.7009605914354324e-03</quality>
              <le>2.0980393886566162e-01</le></_></splits></_>
        <_>
          <depth>1</depth>
          <value>7.4977051084494775e-02</value>
          <splits>
            <_><var>408</var>
              <quality>8.5084866732358932e-03</quality>
              <le>1.0784314572811127e-01</le></_></splits></_>
        <_>
          <depth>2</depth>
          <value>2.5580257557196612e-01</value></_>
        <_>
          <depth>2</depth>
          <value>-3.1223470478658889e-03</value></_>
        <_>
          <depth>1</depth>
          <value>-6.6300222054019309e-02</value>
          <splits>
            <_><var>542</var>
              <quality>9.9231321364641190e-03</quality>
              <le>1.9411766529083252e-01</le></_></splits></_>
        <_>
          <depth>2</depth>
          <value>3.2833153115476063e-02</value></_>
        <_>
          <depth>2</depth>
          <value>-2.2249807670447597e-01</value></_></nodes></_>
    <_>
      <nodes>
        <_>
          <depth>0</depth>
          <value>-2.9715084243599367e-04</value>
          <splits>
            <_><var>513</var>
              <quality>3.1955968588590622e-03</quality>
              <le>1.9607844296842813e-03</le></_></splits></_>
        <_>
          <depth>1</depth>
          <value>-4.9426450779248822e-02</value>
          <splits>
            <_><var>316</var>
              <quality>5.9101143851876259e-03</quality>
              <le>5.1176476478576660e-01</le></_></splits></_>
        <_>
          <depth>2</depth>
          <value>4.0388801873230936e-03</value></_>
        <_>
          <depth>2</depth>
          <value>-2.0648778699326267e-01</value></_>
        <_>
          <depth>1</depth>
          <value>6.8331475097762523e-02</value>
          <splits>
            <_><var>437</var>
              <quality>8.9363306760787964e-03</quality>
              <le>8.7647068500518799e-01</le></_></splits></_>
        <_>
          <depth>2</depth>
          <value>-3.2588544793512281e-02</value></_>
        <_>
          <depth>2</depth>
          <value>2.5075465881603920e-01</value></_></nodes></_>
    <_>
      <nodes>
        <_>
          <depth>0</depth>
          <value>1.6075611429705486e-04</value>
          <splits>
            <_><var>745</var>
              <quality>2.7542661409825087e-03</quality>
              <le>3.9215688593685627e-03</le></_></splits></_>
        <_>
          <depth>1</depth>
          <value>-4.4003620872278245e-03</value>
          <splits>
            <_><var>375</var>
              <quality>2.7989998925477266e-03</quality>
              <le>1.9607844296842813e-03</le></_></splits></_>
        <_>
          <depth>2</depth>
          <value>-6.2588561339898610e-02</value></_>
        <_>
          <depth>2</depth>
          <value>4.6368927523519517e-02</value></_>
        <_>
          <depth>1</depth>
          <value>7.5109232196473097e-01</value>
          <splits>
            <_><var>238</var>
              <quality>4.1818688623607159e-03</quality>
              <le>1.0196079313755035e-01</le></_></splits></_>
        <_>
          <depth>2</depth>
          <value>-3.0745474567641995e-01</value></_>
        <_>
          <depth>2</depth>
          <value>1.3110496736848685e+00</value></_></nodes></_>
    <_>
      <nodes>
        <_>
          <depth>0</depth>
          <value>1.1064878545872387e-04</value>
          <splits>
            <_><var>76</var>
              <quality>2.7224842924624681e-03</quality>
              <le>2.3725491762161255e-01</le></_></splits></_>
        <_>
          <depth>1</depth>
          <value>3.2956457564212397e-03</value>
          <splits>
            <_><var>173</var>
              <quality>2.5286630261689425e-03</quality>
              <le>1.2745098769664764e-01</le></_></splits></_>
        <_>
          <depth>2</depth>
          <value>-6.3085130744270895e-03</value></_>
        <_>
          <depth>2</depth>
          <value>2.8800261504404773e-01</value></_>
        <_>
          <depth>1</depth>
          <value>-1.4704616506962580e+00</value>
          <splits>
            <_><var>98</var>
              <quality>3.1630021985620260e-03</quality>
              <le>3.3333335071802139e-02</le></_></splits></_>
        <_>
          <depth>2</depth>
          <value>-2.1005497666692441e+00</value></_>
        <_>
          <depth>2</depth>
          <value>5.7564577324623896e+00</value></_></nodes></_>
    <_>
      <nodes>
        <_>
          <depth>0</depth>
          <value>-2.0732619568223452e-03</value>
          <splits>
            <_><var>556</var>
              <quality>2.5809018407016993e-03</quality>
              <le>9.6078440546989441e-02</le></_></splits></_>
        <_>
          <depth>1</depth>
          <value>6.2926448230355477e-03</value>
          <splits>
            <_><var>428</var>
              <quality>3.0582523904740810e-03</quality>
              <le>6.2549018859863281e-01</le></_></splits></_>
        <_>
          <depth>2</depth>
          <value>3.8178821056275701e-02</value></_>
        <_>
          <depth>2</depth>
          <value>-9.6386017014219061e-02</value></_>
        <_>
          <depth>1</depth>
          <value>-3.3868137248300006e-01</value>
          <splits>
            <_><var>499</var>
              <quality>7.8929457813501358e-03</quality>
              <le>1.2745098769664764e-01</le></_></splits></_>
        <_>
          <depth>2</depth>
          <value>-1.3885357336116140e+00</value></_>
        <_>
          <depth>2</depth>
          <value>7.6028842298118543e-02</value></_></nodes></_>
    <_>
      <nodes>
        <_>
          <depth>0</depth>
          <value>-2.3633989982096623e-04</value>
          <splits>
            <_><var>384</var>
              <quality>3.0656498856842518e-03</quality>
              <le>8.5294127464294434e-01</le></_></splits></_>
        <_>
          <depth>1</depth>
          <value>-2.1380603810142750e-02</value>
          <splits>
            <_><var>425</var>
              <quality>3.7988238036632538e-03</quality>
              <le>9.9411773681640625e-01</le></_></splits></_>
        <_>
          <depth>2</depth>
          <value>-1.6345768414125734e-02</value></_>
        <_>
          <depth>2</depth>
          <value>-1.2048365451338399e+00</value></_>
        <_>
          <depth>1</depth>
          <value>1.5359946101731878e-01</value>
          <splits>
            <_><var>691</var>
              <quality>6.5435790456831455e-03</quality>
              <le>2.4509805440902710e-01</le></_></splits></_>
        <_>
          <depth>2</depth>
          <value>9.1397273552646083e-02</value></_>
        <_>
          <depth>2</depth>
          <value>8.6243851500808866e-01</value></_></nodes></_>
    <_>
      <nodes>
        <_>
          <depth>0</depth>
          <value>2.4982324025496098e-04</value>
          <splits>
            <_><var>74</var>
              <quality>2.4458176922053099e-03</quality>
              <le>7.9019618034362793e-01</le></_></splits></_>
        <_>
          <depth>1</depth>
          <value>3.0126080042396255e-03</value>
          <splits>
            <_><var>473</var>
              <quality>2.2590111475437880e-03</quality>
              <le>2.4117648601531982e-01</le></_></splits></_>
        <_>
          <depth>2</depth>
          <value>5.9321042711168543e-03</value></_>
        <_>
          <depth>2</depth>
          <value>-1.1293733443487162e+00</value></_>
        <_>
          <depth>1</depth>
          <value>-1.6703585089492456e+00</value>
          <splits>
            <_><var>565</var>
              <quality>2.8082570061087608e-03</quality>
              <le>9.8039219155907631e-03</le></_></splits></_>
        <_>
          <depth>2</depth>
          <value>-5.7564577324601141e+00</value></_>
        <_>
          <depth>2</depth>
          <value>5.7564577324623896e+00</value></_></nodes></_>
    <_>
      <nodes>
        <_>
          <depth>0</depth>
          <value>-5.5417680241404933e-03</value>
          <splits>
            <_><var>74</var>
              <quality>4.9098897725343704e-03</quality>
              <le>7.9019618034362793e-01</le></_></splits></_>
        <_>
          <depth>1</depth>
          <value>-3.1813329401304705e-04</value>
          <splits>
            <_><var>229</var>
              <quality>1.9580556545406580e-03</quality>
              <le>6.0980391502380371e-01</le></_></splits></_>
        <_>
          <depth>2</depth>
          <value>8.6396676614743616e-03</value></_>
        <_>
          <depth>2</depth>
          <value>-2.3590748127893829e-01</value></_>
        <_>
          <depth>1</depth>
          <value>-2.6026392815177215e+00</value>
          <splits>
            <_><var>76</var>
              <quality>5.0187571905553341e-03</quality>
              <le>7.8823530673980713e-01</le></_></splits></_>
        <_>
          <depth>2</depth>
          <value>-5.7564577324601141e+00</value></_>
        <_>
          <depth>2</depth>
          <value>5.7564577324623896e+00</value></_></nodes></_>
    <_>
      <nodes>
        <_>
          <depth>0</depth>
          <value>-1.1344699320756139e-03</value>
          <splits>
            <_><var>552</var>
              <quality>2.3426702246069908e-03</quality>
              <le>9.2745101451873779e-01</le></_></splits></_>
        <_>
          <depth>1</depth>
          <value>-1.8729779311932180e-02</value>
          <splits>
            <_><var>633</var>
              <quality>4.1286731138825417e-03</quality>
              <le>3.3333335071802139e-02</le></_></splits></_>
        <_>
          <depth>2</depth>
          <value>3.6032696271108097e-02</value></_>
        <_>
          <depth>2</depth>
          <value>-1.0202955702740496e-01</value></_>
        <_>
          <depth>1</depth>
          <value>1.3986451850015844e-01</value>
          <splits>
            <_><var>634</var>
              <quality>7.3389494791626930e-03</quality>
              <le>7.1568632125854492e-01</le></_></splits></_>
        <_>
          <depth>2</depth>
          <value>-6.5253738720315480e-02</value></_>
        <_>
          <depth>2</depth>
          <value>4.0424741682562881e-01</value></_></nodes></_>
    <_>
      <nodes>
        <_>
          <depth>0</depth>
          <value>-1.2177580312251869e-04</value>
          <splits>
            <_><var>319</var>
              <quality>2.5829020887613297e-03</quality>
              <le>2.9411766678094864e-02</le></_></splits></_>
        <_>
          <depth>1</depth>
          <value>5.5555597151640462e-02</value>
          <splits>
            <_><var>124</var>
              <quality>7.8845983371138573e-03</quality>
              <le>1.9607844296842813e-03</le></_></splits></_>
        <_>
          <depth>2</depth>
          <value>1.0967591839519443e-01</value></_>
        <_>
          <depth>2</depth>
          <value>-2.2088007987441072e-01</value></_>
        <_>
          <depth>1</depth>
          <value>-4.9043141776688629e-02</value>
          <splits>
            <_><var>432</var>
              <quality>9.5988698303699493e-03</quality>
              <le>9.8039228469133377e-03</le></_></splits></_>
        <_>
          <depth>2</depth>
          <value>1.1744142692354173e-01</value></_>
        <_>
          <depth>2</depth>
          <value>-1.5007163683647967e-01</value></_></nodes></_>
    <_>
      <nodes>
        <_>
          <depth>0</depth>
          <value>-4.2942414702164972e-05</value>
          <splits>
            <_><var>603</var>
              <quality>3.8798833265900612e-03</quality>
              <le>9.4705891609191895e-01</le></_></splits></_>
        <_>
          <depth>1</depth>
          <value>-4.0244814824604534e-02</value>
          <splits>
            <_><var>686</var>
              <quality>5.5157593451440334e-03</quality>
              <le>6.0588240623474121e-01</le></_></splits></_>
        <_>
          <depth>2</depth>
          <value>-5.6685443095435680e-03</value></_>
        <_>
          <depth>2</depth>
          <value>-2.3191932239091204e-01</value></_>
        <_>
          <depth>1</depth>
          <value>1.0195363947041083e-01</value>
          <splits>
            <_><var>630</var>
              <quality>8.2149766385555267e-03</quality>
              <le>7.2549022734165192e-02</le></_></splits></_>
        <_>
          <depth>2</depth>
          <value>-5.4579737278519658e-01</value></_>
        <_>
          <depth>2</depth>
          <value>1.3616186173669043e-01</value></_></nodes></_>
    <_>
      <nodes>
        <_>
          <depth>0</depth>
          <value>-4.3129225379836709e-04</value>
          <splits>
            <_><var>453</var>
              <quality>3.5593451466411352e-03</quality>
              <le>4.4901964068412781e-01</le></_></splits></_>
        <_>
          <depth>1</depth>
          <value>1.6168050726109117e-02</value>
          <splits>
            <_><var>632</var>
              <quality>3.2705350313335657e-03</quality>
              <le>8.6862754821777344e-01</le></_></splits></_>
        <_>
          <depth>2</depth>
          <value>-1.9251569525132219e-02</value></_>
        <_>
          <depth>2</depth>
          <value>1.1362841465600640e-01</value></_>
        <_>
          <depth>1</depth>
          <value>-2.3013009655699571e-01</value>
          <splits>
            <_><var>371</var>
              <quality>8.3078276365995407e-03</quality>
              <le>1.0000000894069672e-01</le></_></splits></_>
        <_>
          <depth>2</depth>
          <value>1.3339291783564744e-01</value></_>
        <_>
          <depth>2</depth>
          <value>-4.7156592717091944e-01</value></_></nodes></_>
    <_>
      <nodes>
        <_>
          <depth>0</depth>
          <value>4.3734682615573345e-05</value>
          <splits>
            <_><var>603</var>
              <quality>2.4336089845746756e-03</quality>
              <le>3.3333335071802139e-02</le></_></splits></_>
        <_>
          <depth>1</depth>
          <value>6.3367840124843131e-02</value>
          <splits>
            <_><var>521</var>
              <quality>6.9174738600850105e-03</quality>
              <le>5.5490195751190186e-01</le></_></splits></_>
        <_>
          <depth>2</depth>
          <value>1.3941472164259314e-01</value></_>
        <_>
          <depth>2</depth>
          <value>-1.3213000965227228e-01</value></_>
        <_>
          <depth>1</depth>
          <value>-4.0486295052489733e-02</value>
          <splits>
            <_><var>493</var>
              <quality>6.7780613899230957e-03</quality>
