<?xml version="1.0"?>
<opencv_storage>
<opencv_ml_boost>
  <format>3</format>
  <is_classifier>1</is_classifier>
  <var_all>785</var_all>
  <var_count>784</var_count>
  <ord_var_count>784</ord_var_count>
  <cat_var_count>1</cat_var_count>
  <training_params>
    <boosting_type>LogitBoost</boosting_type>
    <use_surrogates>0</use_surrogates>
    <max_categories>10</max_categories>
    <regression_accuracy>9.9999997764825821e-03</regression_accuracy>
    <max_depth>2</max_depth>
    <min_sample_count>10</min_sample_count>
    <cross_validation_folds>0</cross_validation_folds>
    <weight_trimming_rate>9.4999999999999996e-01</weight_trimming_rate></training_params>
  <global_var_idx>1</global_var_idx>
  <var_idx>
    0 1 2 3 4 5 6 7 8 9 10 11 12 13 14 15 16 17 18 19 20 21 22 23 24 25
    26 27 28 29 30 31 32 33 34 35 36 37 38 39 40 41 42 43 44 45 46 47 48
    49 50 51 52 53 54 55 56 57 58 59 60 61 62 63 64 65 66 67 68 69 70 71
    72 73 74 75 76 77 78 79 80 81 82 83 84 85 86 87 88 89 90 91 92 93 94
    95 96 97 98 99 100 101 102 103 104 105 106 107 108 109 110 111 112
    113 114 115 116 117 118 119 120 121 122 123 124 125 126 127 128 129
    130 131 132 133 134 135 136 137 138 139 140 141 142 143 144 145 146
    147 148 149 150 151 152 153 154 155 156 157 158 159 160 161 162 163
    164 165 166 167 168 169 170 171 172 173 174 175 176 177 178 179 180
    181 182 183 184 185 186 187 188 189 190 191 192 193 194 195 196 197
    198 199 200 201 202 203 204 205 206 207 208 209 210 211 212 213 214
    215 216 217 218 219 220 221 222 223 224 225 226 227 228 229 230 231
    232 233 234 235 236 237 238 239 240 241 242 243 244 245 246 247 248
    249 250 251 252 253 254 255 256 257 258 259 260 261 262 263 264 265
    266 267 268 269 270 271 272 273 274 275 276 277 278 279 280 281 282
    283 284 285 286 287 288 289 290 291 292 293 294 295 296 297 298 299
    300 301 302 303 304 305 306 307 308 309 310 311 312 313 314 315 316
    317 318 319 320 321 322 323 324 325 326 327 328 329 330 331 332 333
    334 335 336 337 338 339 340 341 342 343 344 345 346 347 348 349 350
    351 352 353 354 355 356 357 358 359 360 361 362 363 364 365 366 367
    368 369 370 371 372 373 374 375 376 377 378 379 380 381 382 383 384
    385 386 387 388 389 390 391 392 393 394 395 396 397 398 399 400 401
    402 403 404 405 406 407 408 409 410 411 412 413 414 415 416 417 418
    419 420 421 422 423 424 425 426 427 428 429 430 431 432 433 434 435
    436 437 438 439 440 441 442 443 444 445 446 447 448 449 450 451 452
    453 454 455 456 457 458 459 460 461 462 463 464 465 466 467 468 469
    470 471 472 473 474 475 476 477 478 479 480 481 482 483 484 485 486
    487 488 489 490 491 492 493 494 495 496 497 498 499 500 501 502 503
    504 505 506 507 508 509 510 511 512 513 514 515 516 517 518 519 520
    521 522 523 524 525 526 527 528 529 530 531 532 533 534 535 536 537
    538 539 540 541 542 543 544 545 546 547 548 549 550 551 552 553 554
    555 556 557 558 559 560 561 562 563 564 565 566 567 568 569 570 571
    572 573 574 575 576 577 578 579 580 581 582 583 584 585 586 587 588
    589 590 591 592 593 594 595 596 597 598 599 600 601 602 603 604 605
    606 607 608 609 610 611 612 613 614 615 616 617 618 619 620 621 622
    623 624 625 626 627 628 629 630 631 632 633 634 635 636 637 638 639
    640 641 642 643 644 645 646 647 648 649 650 651 652 653 654 655 656
    657 658 659 660 661 662 663 664 665 666 667 668 669 670 671 672 673
    674 675 676 677 678 679 680 681 682 683 684 685 686 687 688 689 690
    691 692 693 694 695 696 697 698 699 700 701 702 703 704 705 706 707
    708 709 710 711 712 713 714 715 716 717 718 719 720 721 722 723 724
    725 726 727 728 729 730 731 732 733 734 735 736 737 738 739 740 741
    742 743 744 745 746 747 748 749 750 751 752 753 754 755 756 757 758
    759 760 761 762 763 764 765 766 767 768 769 770 771 772 773 774 775
    776 777 778 779 780 781 782 783</var_idx>
  <var_type>
    0 0 0 0 0 0 0 0 0 0 0 0 0 0 0 0 0 0 0 0 0 0 0 0 0 0 0 0 0 0 0 0 0 0
    0 0 0 0 0 0 0 0 0 0 0 0 0 0 0 0 0 0 0 0 0 0 0 0 0 0 0 0 0 0 0 0 0 0
    0 0 0 0 0 0 0 0 0 0 0 0 0 0 0 0 0 0 0 0 0 0 0 0 0 0 0 0 0 0 0 0 0 0
    0 0 0 0 0 0 0 0 0 0 0 0 0 0 0 0 0 0 0 0 0 0 0 0 0 0 0 0 0 0 0 0 0 0
    0 0 0 0 0 0 0 0 0 0 0 0 0 0 0 0 0 0 0 0 0 0 0 0 0 0 0 0 0 0 0 0 0 0
    0 0 0 0 0 0 0 0 0 0 0 0 0 0 0 0 0 0 0 0 0 0 0 0 0 0 0 0 0 0 0 0 0 0
    0 0 0 0 0 0 0 0 0 0 0 0 0 0 0 0 0 0 0 0 0 0 0 0 0 0 0 0 0 0 0 0 0 0
    0 0 0 0 0 0 0 0 0 0 0 0 0 0 0 0 0 0 0 0 0 0 0 0 0 0 0 0 0 0 0 0 0 0
    0 0 0 0 0 0 0 0 0 0 0 0 0 0 0 0 0 0 0 0 0 0 0 0 0 0 0 0 0 0 0 0 0 0
    0 0 0 0 0 0 0 0 0 0 0 0 0 0 0 0 0 0 0 0 0 0 0 0 0 0 0 0 0 0 0 0 0 0
    0 0 0 0 0 0 0 0 0 0 0 0 0 0 0 0 0 0 0 0 0 0 0 0 0 0 0 0 0 0 0 0 0 0
    0 0 0 0 0 0 0 0 0 0 0 0 0 0 0 0 0 0 0 0 0 0 0 0 0 0 0 0 0 0 0 0 0 0
    0 0 0 0 0 0 0 0 0 0 0 0 0 0 0 0 0 0 0 0 0 0 0 0 0 0 0 0 0 0 0 0 0 0
    0 0 0 0 0 0 0 0 0 0 0 0 0 0 0 0 0 0 0 0 0 0 0 0 0 0 0 0 0 0 0 0 0 0
    0 0 0 0 0 0 0 0 0 0 0 0 0 0 0 0 0 0 0 0 0 0 0 0 0 0 0 0 0 0 0 0 0 0
    0 0 0 0 0 0 0 0 0 0 0 0 0 0 0 0 0 0 0 0 0 0 0 0 0 0 0 0 0 0 0 0 0 0
    0 0 0 0 0 0 0 0 0 0 0 0 0 0 0 0 0 0 0 0 0 0 0 0 0 0 0 0 0 0 0 0 0 0
    0 0 0 0 0 0 0 0 0 0 0 0 0 0 0 0 0 0 0 0 0 0 0 0 0 0 0 0 0 0 0 0 0 0
    0 0 0 0 0 0 0 0 0 0 0 0 0 0 0 0 0 0 0 0 0 0 0 0 0 0 0 0 0 0 0 0 0 0
    0 0 0 0 0 0 0 0 0 0 0 0 0 0 0 0 0 0 0 0 0 0 0 0 0 0 0 0 0 0 0 0 0 0
    0 0 0 0 0 0 0 0 0 0 0 0 0 0 0 0 0 0 0 0 0 0 0 0 0 0 0 0 0 0 0 0 0 0
    0 0 0 0 0 0 0 0 0 0 0 0 0 0 0 0 0 0 0 0 0 0 0 0 0 0 0 0 0 0 0 0 0 0
    0 0 0 0 0 0 0 0 0 0 0 0 0 0 0 0 0 0 0 0 0 0 0 0 0 0 0 0 0 0 0 0 0 0
    0 0 1</var_type>
  <cat_ofs>
    0 0 0 0 0 0 0 0 0 0 0 0 0 0 0 0 0 0 0 0 0 0 0 0 0 0 0 0 0 0 0 0 0 0
    0 0 0 0 0 0 0 0 0 0 0 0 0 0 0 0 0 0 0 0 0 0 0 0 0 0 0 0 0 0 0 0 0 0
    0 0 0 0 0 0 0 0 0 0 0 0 0 0 0 0 0 0 0 0 0 0 0 0 0 0 0 0 0 0 0 0 0 0
    0 0 0 0 0 0 0 0 0 0 0 0 0 0 0 0 0 0 0 0 0 0 0 0 0 0 0 0 0 0 0 0 0 0
    0 0 0 0 0 0 0 0 0 0 0 0 0 0 0 0 0 0 0 0 0 0 0 0 0 0 0 0 0 0 0 0 0 0
    0 0 0 0 0 0 0 0 0 0 0 0 0 0 0 0 0 0 0 0 0 0 0 0 0 0 0 0 0 0 0 0 0 0
    0 0 0 0 0 0 0 0 0 0 0 0 0 0 0 0 0 0 0 0 0 0 0 0 0 0 0 0 0 0 0 0 0 0
    0 0 0 0 0 0 0 0 0 0 0 0 0 0 0 0 0 0 0 0 0 0 0 0 0 0 0 0 0 0 0 0 0 0
    0 0 0 0 0 0 0 0 0 0 0 0 0 0 0 0 0 0 0 0 0 0 0 0 0 0 0 0 0 0 0 0 0 0
    0 0 0 0 0 0 0 0 0 0 0 0 0 0 0 0 0 0 0 0 0 0 0 0 0 0 0 0 0 0 0 0 0 0
    0 0 0 0 0 0 0 0 0 0 0 0 0 0 0 0 0 0 0 0 0 0 0 0 0 0 0 0 0 0 0 0 0 0
    0 0 0 0 0 0 0 0 0 0 0 0 0 0 0 0 0 0 0 0 0 0 0 0 0 0 0 0 0 0 0 0 0 0
    0 0 0 0 0 0 0 0 0 0 0 0 0 0 0 0 0 0 0 0 0 0 0 0 0 0 0 0 0 0 0 0 0 0
    0 0 0 0 0 0 0 0 0 0 0 0 0 0 0 0 0 0 0 0 0 0 0 0 0 0 0 0 0 0 0 0 0 0
    0 0 0 0 0 0 0 0 0 0 0 0 0 0 0 0 0 0 0 0 0 0 0 0 0 0 0 0 0 0 0 0 0 0
    0 0 0 0 0 0 0 0 0 0 0 0 0 0 0 0 0 0 0 0 0 0 0 0 0 0 0 0 0 0 0 0 0 0
    0 0 0 0 0 0 0 0 0 0 0 0 0 0 0 0 0 0 0 0 0 0 0 0 0 0 0 0 0 0 0 0 0 0
    0 0 0 0 0 0 0 0 0 0 0 0 0 0 0 0 0 0 0 0 0 0 0 0 0 0 0 0 0 0 0 0 0 0
    0 0 0 0 0 0 0 0 0 0 0 0 0 0 0 0 0 0 0 0 0 0 0 0 0 0 0 0 0 0 0 0 0 0
    0 0 0 0 0 0 0 0 0 0 0 0 0 0 0 0 0 0 0 0 0 0 0 0 0 0 0 0 0 0 0 0 0 0
    0 0 0 0 0 0 0 0 0 0 0 0 0 0 0 0 0 0 0 0 0 0 0 0 0 0 0 0 0 0 0 0 0 0
    0 0 0 0 0 0 0 0 0 0 0 0 0 0 0 0 0 0 0 0 0 0 0 0 0 0 0 0 0 0 0 0 0 0
    0 0 0 0 0 0 0 0 0 0 0 0 0 0 0 0 0 0 0 0 0 0 0 0 0 0 0 0 0 0 0 0 0 0
    0 0 0 0 0 0 0 0 0 0 0 0 0 0 0 0 0 0 0 0 0 0 0 0 0 0 0 0 0 0 0 0 0 0
    0 0 0 0 0 0 0 0 0 0 0 0 0 0 0 0 0 0 0 0 0 0 0 0 0 0 0 0 0 0 0 0 0 0
    0 0 0 0 0 0 0 0 0 0 0 0 0 0 0 0 0 0 0 0 0 0 0 0 0 0 0 0 0 0 0 0 0 0
    0 0 0 0 0 0 0 0 0 0 0 0 0 0 0 0 0 0 0 0 0 0 0 0 0 0 0 0 0 0 0 0 0 0
    0 0 0 0 0 0 0 0 0 0 0 0 0 0 0 0 0 0 0 0 0 0 0 0 0 0 0 0 0 0 0 0 0 0
    0 0 0 0 0 0 0 0 0 0 0 0 0 0 0 0 0 0 0 0 0 0 0 0 0 0 0 0 0 0 0 0 0 0
    0 0 0 0 0 0 0 0 0 0 0 0 0 0 0 0 0 0 0 0 0 0 0 0 0 0 0 0 0 0 0 0 0 0
    0 0 0 0 0 0 0 0 0 0 0 0 0 0 0 0 0 0 0 0 0 0 0 0 0 0 0 0 0 0 0 0 0 0
    0 0 0 0 0 0 0 0 0 0 0 0 0 0 0 0 0 0 0 0 0 0 0 0 0 0 0 0 0 0 0 0 0 0
    0 0 0 0 0 0 0 0 0 0 0 0 0 0 0 0 0 0 0 0 0 0 0 0 0 0 0 0 0 0 0 0 0 0
    0 0 0 0 0 0 0 0 0 0 0 0 0 0 0 0 0 0 0 0 0 0 0 0 0 0 0 0 0 0 0 0 0 0
    0 0 0 0 0 0 0 0 0 0 0 0 0 0 0 0 0 0 0 0 0 0 0 0 0 0 0 0 0 0 0 0 0 0
    0 0 0 0 0 0 0 0 0 0 0 0 0 0 0 0 0 0 0 0 0 0 0 0 0 0 0 0 0 0 0 0 0 0
    0 0 0 0 0 0 0 0 0 0 0 0 0 0 0 0 0 0 0 0 0 0 0 0 0 0 0 0 0 0 0 0 0 0
    0 0 0 0 0 0 0 0 0 0 0 0 0 0 0 0 0 0 0 0 0 0 0 0 0 0 0 0 0 0 0 0 0 0
    0 0 0 0 0 0 0 0 0 0 0 0 0 0 0 0 0 0 0 0 0 0 0 0 0 0 0 0 0 0 0 0 0 0
    0 0 0 0 0 0 0 0 0 0 0 0 0 0 0 0 0 0 0 0 0 0 0 0 0 0 0 0 0 0 0 0 0 0
    0 0 0 0 0 0 0 0 0 0 0 0 0 0 0 0 0 0 0 0 0 0 0 0 0 0 0 0 0 0 0 0 0 0
    0 0 0 0 0 0 0 0 0 0 0 0 0 0 0 0 0 0 0 0 0 0 0 0 0 0 0 0 0 0 0 0 0 0
    0 0 0 0 0 0 0 0 0 0 0 0 0 0 0 0 0 0 0 0 0 0 0 0 0 0 0 0 0 0 0 0 0 0
    0 0 0 0 0 0 0 0 0 0 0 0 0 0 0 0 0 0 0 0 0 0 0 0 0 0 0 0 0 0 0 0 0 0
    0 0 0 0 0 0 0 0 0 0 0 0 0 0 0 0 0 0 0 0 0 0 0 0 0 0 0 0 0 0 0 0 0 0
    0 0 0 0 0 0 0 0 0 0 0 0 0 0 0 0 0 0 0 0 0 0 0 0 0 0 0 0 0 0 0 0 0 0
    0 0 0 0</cat_ofs>
  <class_labels>
    0 1</class_labels>
  <missing_subst>
    0. 0. 0. 0. 0. 0. 0. 0. 0. 0. 0. 0. 0. 0. 0. 0. 0. 0. 0. 0. 0. 0. 0.
    0. 0. 0. 0. 0. 0. 0. 0. 0. 0. 0. 0. 0. 0. 0. 0. 0. 0. 0. 0. 0. 0. 0.
    0. 0. 0. 0. 0. 0. 0. 0. 0. 0. 0. 0. 0. 0. 0. 0. 0. 0. 0. 0. 0. 0. 0.
    0. 0. 0. 0. 0. 0. 0. 0. 0. 0. 0. 0. 0. 0. 0. 0. 0. 0. 0. 0. 0. 0. 0.
    0. 0. 0. 0. 0. 0. 0. 0. 0. 0. 0. 0. 0. 0. 0. 0. 0. 0. 0. 0. 0. 0. 0.
    0. 0. 0. 0. 0. 0. 0. 0. 0. 0. 0. 0. 0. 0. 0. 0. 0. 0. 0. 0. 0. 0. 0.
    0. 0. 0. 0. 0. 0. 0. 0. 0. 0. 0. 0. 0. 0. 0. 0. 0. 0. 0. 0. 0. 0. 0.
    0. 0. 0. 0. 0. 0. 0. 0. 0. 0. 0. 0. 0. 0. 0. 0. 0. 0. 0. 0. 0. 0. 0.
    0. 0. 0. 0. 0. 0. 0. 0. 0. 0. 0. 0. 0. 0. 0. 0. 0. 0. 0. 0. 0. 0. 0.
    0. 0. 0. 0. 0. 0. 0. 0. 0. 0. 0. 0. 0. 0. 0. 0. 0. 0. 0. 0. 0. 0. 0.
    0. 0. 0. 0. 0. 0. 0. 0. 0. 0. 0. 0. 0. 0. 0. 0. 0. 0. 0. 0. 0. 0. 0.
    0. 0. 0. 0. 0. 0. 0. 0. 0. 0. 0. 0. 0. 0. 0. 0. 0. 0. 0. 0. 0. 0. 0.
    0. 0. 0. 0. 0. 0. 0. 0. 0. 0. 0. 0. 0. 0. 0. 0. 0. 0. 0. 0. 0. 0. 0.
    0. 0. 0. 0. 0. 0. 0. 0. 0. 0. 0. 0. 0. 0. 0. 0. 0. 0. 0. 0. 0. 0. 0.
    0. 0. 0. 0. 0. 0. 0. 0. 0. 0. 0. 0. 0. 0. 0. 0. 0. 0. 0. 0. 0. 0. 0.
    0. 0. 0. 0. 0. 0. 0. 0. 0. 0. 0. 0. 0. 0. 0. 0. 0. 0. 0. 0. 0. 0. 0.
    0. 0. 0. 0. 0. 0. 0. 0. 0. 0. 0. 0. 0. 0. 0. 0. 0. 0. 0. 0. 0. 0. 0.
    0. 0. 0. 0. 0. 0. 0. 0. 0. 0. 0. 0. 0. 0. 0. 0. 0. 0. 0. 0. 0. 0. 0.
    0. 0. 0. 0. 0. 0. 0. 0. 0. 0. 0. 0. 0. 0. 0. 0. 0. 0. 0. 0. 0. 0. 0.
    0. 0. 0. 0. 0. 0. 0. 0. 0. 0. 0. 0. 0. 0. 0. 0. 0. 0. 0. 0. 0. 0. 0.
    0. 0. 0. 0. 0. 0. 0. 0. 0. 0. 0. 0. 0. 0. 0. 0. 0. 0. 0. 0. 0. 0. 0.
    0. 0. 0. 0. 0. 0. 0. 0. 0. 0. 0. 0. 0. 0. 0. 0. 0. 0. 0. 0. 0. 0. 0.
    0. 0. 0. 0. 0. 0. 0. 0. 0. 0. 0. 0. 0. 0. 0. 0. 0. 0. 0. 0. 0. 0. 0.
    0. 0. 0. 0. 0. 0. 0. 0. 0. 0. 0. 0. 0. 0. 0. 0. 0. 0. 0. 0. 0. 0. 0.
    0. 0. 0. 0. 0. 0. 0. 0. 0. 0. 0. 0. 0. 0. 0. 0. 0. 0. 0. 0. 0. 0. 0.
    0. 0. 0. 0. 0. 0. 0. 0. 0. 0. 0. 0. 0. 0. 0. 0. 0. 0. 0. 0. 0. 0. 0.
    0. 0. 0. 0. 0. 0. 0. 0. 0. 0. 0. 0. 0. 0. 0. 0. 0. 0. 0. 0. 0. 0. 0.
    0. 0. 0. 0. 0. 0. 0. 0. 0. 0. 0. 0. 0. 0. 0. 0. 0. 0. 0. 0. 0. 0. 0.
    0. 0. 0. 0. 0. 0. 0. 0. 0. 0. 0. 0. 0. 0. 0. 0. 0. 0. 0. 0. 0. 0. 0.
    0. 0. 0. 0. 0. 0. 0. 0. 0. 0. 0. 0. 0. 0. 0. 0. 0. 0. 0. 0. 0. 0. 0.
    0. 0. 0. 0. 0. 0. 0. 0. 0. 0. 0. 0. 0. 0. 0. 0. 0. 0. 0. 0. 0. 0. 0.
    0. 0. 0. 0. 0. 0. 0. 0. 0. 0. 0. 0. 0. 0. 0. 0. 0. 0. 0. 0. 0. 0. 0.
    0. 0. 0. 0. 0. 0. 0. 0. 0. 0. 0. 0. 0. 0. 0. 0. 0. 0. 0. 0. 0. 0. 0.
    0. 0. 0. 0. 0. 0. 0. 0. 0. 0. 0. 0. 0. 0. 0. 0. 0. 0. 0. 0. 0. 0. 0.
    0. 0. 0.</missing_subst>
  <ntrees>100</ntrees>
  <trees>
    <_>
      <nodes>
        <_>
          <depth>0</depth>
          <value>-1.5823333333333354e+00</value>
          <splits>
            <_><var>740</var>
              <quality>2.7802693843841553e+00</quality>
              <le>1.9607844296842813e-03</le></_></splits></_>
        <_>
          <depth>1</depth>
          <value>-1.6942213550286596e+00</value>
          <splits>
            <_><var>709</var>
              <quality>2.8884575366973877e+00</quality>
              <le>2.1568629890680313e-02</le></_></splits></_>
        <_>
          <depth>2</depth>
          <value>-1.7883855724148128e+00</value></_>
        <_>
          <depth>2</depth>
          <value>-1.1341803532693079e-01</value></_>
        <_>
          <depth>1</depth>
          <value>8.8880338591767061e-01</value>
          <splits>
            <_><var>405</var>
              <quality>1.2206090241670609e-01</quality>
              <le>2.1568629890680313e-02</le></_></splits></_>
        <_>
          <depth>2</depth>
          <value>1.7229974160206691e+00</value></_>
        <_>
          <depth>2</depth>
          <value>-1.5421686746987955e+00</value></_></nodes></_>
    <_>
      <nodes>
        <_>
          <depth>0</depth>
          <value>-6.1259711762080227e-01</value>
          <splits>
            <_><var>743</var>
              <quality>8.4970927238464355e-01</quality>
              <le>5.8823535218834877e-03</le></_></splits></_>
        <_>
          <depth>1</depth>
          <value>-7.3486331685548301e-01</value>
          <splits>
            <_><var>405</var>
              <quality>7.4310594797134399e-01</quality>
              <le>1.9607844296842813e-03</le></_></splits></_>
        <_>
          <depth>2</depth>
          <value>-1.2746253892753889e-01</value></_>
        <_>
          <depth>2</depth>
          <value>-1.1077580055329366e+00</value></_>
        <_>
          <depth>1</depth>
          <value>3.2677395841136354e+00</value>
          <splits>
            <_><var>431</var>
              <quality>5.0762867927551270e-01</quality>
              <le>3.9215688593685627e-03</le></_></splits></_>
        <_>
          <depth>2</depth>
          <value>4.9365019503873357e+00</value></_>
        <_>
          <depth>2</depth>
          <value>-2.9179183818055998e-01</value></_></nodes></_>
    <_>
      <nodes>
        <_>
          <depth>0</depth>
          <value>-3.7881393261518442e-01</value>
          <splits>
            <_><var>155</var>
              <quality>5.2071154117584229e-01</quality>
              <le>1.9607844296842813e-03</le></_></splits></_>
        <_>
          <depth>1</depth>
          <value>1.7297381488838079e-01</value>
          <splits>
            <_><var>431</var>
              <quality>5.2987945079803467e-01</quality>
              <le>1.9607844296842813e-03</le></_></splits></_>
        <_>
          <depth>2</depth>
          <value>1.0929329400146062e+00</value></_>
        <_>
          <depth>2</depth>
          <value>-8.3881041292295289e-01</value></_>
        <_>
          <depth>1</depth>
          <value>-1.0704692164802265e+00</value>
          <splits>
            <_><var>674</var>
              <quality>5.0603610277175903e-01</quality>
              <le>3.4313726425170898e-01</le></_></splits></_>
        <_>
          <depth>2</depth>
          <value>-1.0709376253497622e+00</value></_>
        <_>
          <depth>2</depth>
          <value>7.7926976879394800e+00</value></_></nodes></_>
    <_>
      <nodes>
        <_>
          <depth>0</depth>
          <value>-4.3122015581302298e-01</value>
          <splits>
            <_><var>711</var>
              <quality>3.9752009510993958e-01</quality>
              <le>1.9607844296842813e-03</le></_></splits></_>
        <_>
          <depth>1</depth>
          <value>-6.5898767329588981e-01</value>
          <splits>
            <_><var>714</var>
              <quality>4.9626091122627258e-01</quality>
              <le>1.9607844296842813e-03</le></_></splits></_>
        <_>
          <depth>2</depth>
          <value>-7.9002283321069433e-01</value></_>
        <_>
          <depth>2</depth>
          <value>7.5498744203956092e-01</value></_>
        <_>
          <depth>1</depth>
          <value>5.0481213606935393e-01</value>
          <splits>
            <_><var>376</var>
              <quality>2.3864951729774475e-01</quality>
              <le>1.9607844296842813e-03</le></_></splits></_>
        <_>
          <depth>2</depth>
          <value>1.1815079271070823e+00</value></_>
        <_>
          <depth>2</depth>
          <value>-9.2797719511114651e-01</value></_></nodes></_>
    <_>
      <nodes>
        <_>
          <depth>0</depth>
          <value>-2.1069900980283854e-01</value>
          <splits>
            <_><var>401</var>
              <quality>3.3079764246940613e-01</quality>
              <le>9.8039228469133377e-03</le></_></splits></_>
        <_>
          <depth>1</depth>
          <value>2.7213334708820131e-01</value>
          <splits>
            <_><var>377</var>
              <quality>4.4274643063545227e-01</quality>
              <le>1.7647059634327888e-02</le></_></splits></_>
        <_>
          <depth>2</depth>
          <value>9.2074095352907592e-01</value></_>
        <_>
          <depth>2</depth>
          <value>-8.5327528966629151e-01</value></_>
        <_>
          <depth>1</depth>
          <value>-8.0541577452571034e-01</value>
          <splits>
            <_><var>296</var>
              <quality>3.4897407889366150e-01</quality>
              <le>1.7058824002742767e-01</le></_></splits></_>
        <_>
          <depth>2</depth>
          <value>-1.0926518797642431e+00</value></_>
        <_>
          <depth>2</depth>
          <value>-3.4630401113674653e-01</value></_></nodes></_>
    <_>
      <nodes>
        <_>
          <depth>0</depth>
          <value>-1.9342687601867015e-01</value>
          <splits>
            <_><var>512</var>
              <quality>3.2784458994865417e-01</quality>
              <le>1.9607844296842813e-03</le></_></splits></_>
        <_>
          <depth>1</depth>
          <value>1.7650061446218798e-01</value>
          <splits>
            <_><var>267</var>
              <quality>2.1473927795886993e-01</quality>
              <le>5.2352941036224365e-01</le></_></splits></_>
        <_>
          <depth>2</depth>
          <value>-3.4555208288643907e-01</value></_>
        <_>
          <depth>2</depth>
          <value>7.4237699779280908e-01</value></_>
        <_>
          <depth>1</depth>
          <value>-1.0251472717947760e+00</value>
          <splits>
            <_><var>398</var>
              <quality>3.2950055599212646e-01</quality>
              <le>1.9607844296842813e-03</le></_></splits></_>
        <_>
          <depth>2</depth>
          <value>-7.6082203817331928e-01</value></_>
        <_>
          <depth>2</depth>
          <value>-1.3115491798600634e+00</value></_></nodes></_>
    <_>
      <nodes>
        <_>
          <depth>0</depth>
          <value>-1.4846699224307486e-01</value>
          <splits>
            <_><var>297</var>
              <quality>2.1520827710628510e-01</quality>
              <le>3.1960785388946533e-01</le></_></splits></_>
        <_>
          <depth>1</depth>
          <value>-6.5169314829309666e-01</value>
          <splits>
            <_><var>707</var>
              <quality>2.9610937833786011e-01</quality>
              <le>8.0392159521579742e-02</le></_></splits></_>
        <_>
          <depth>2</depth>
          <value>-8.2290760649438921e-01</value></_>
        <_>
          <depth>2</depth>
          <value>9.4205391780585124e-01</value></_>
        <_>
          <depth>1</depth>
          <value>2.5771488531643272e-01</value>
          <splits>
            <_><var>158</var>
              <quality>1.7032305896282196e-01</quality>
              <le>1.3725491240620613e-02</le></_></splits></_>
        <_>
          <depth>2</depth>
          <value>4.6092557847715426e-01</value></_>
        <_>
          <depth>2</depth>
          <value>-1.0092107912991171e+00</value></_></nodes></_>
    <_>
      <nodes>
        <_>
          <depth>0</depth>
          <value>-9.5929050519084028e-02</value>
          <splits>
            <_><var>284</var>
              <quality>1.4665581285953522e-01</quality>
              <le>2.5490198284387589e-02</le></_></splits></_>
        <_>
          <depth>1</depth>
          <value>-1.9537170905910378e-01</value>
          <splits>
            <_><var>578</var>
              <quality>1.5471592545509338e-01</quality>
              <le>1.9607844296842813e-03</le></_></splits></_>
        <_>
          <depth>2</depth>
          <value>5.2630626294979305e-02</value></_>
        <_>
          <depth>2</depth>
          <value>-7.4287368155860178e-01</value></_>
        <_>
          <depth>1</depth>
          <value>1.3639229414982528e+00</value>
          <splits>
            <_><var>180</var>
              <quality>1.8479654192924500e-01</quality>
              <le>5.4901964962482452e-02</le></_></splits></_>
        <_>
          <depth>2</depth>
          <value>1.8958975863032450e+00</value></_>
        <_>
          <depth>2</depth>
          <value>-8.7280787578680730e-01</value></_></nodes></_>
    <_>
      <nodes>
        <_>
          <depth>0</depth>
          <value>-4.2324918206915883e-02</value>
          <splits>
            <_><var>232</var>
              <quality>1.9513382017612457e-01</quality>
              <le>1.1176471412181854e-01</le></_></splits></_>
        <_>
          <depth>1</depth>
          <value>-3.4291519587120772e-01</value>
          <splits>
            <_><var>459</var>
              <quality>2.2504265606403351e-01</quality>
              <le>9.8039228469133377e-03</le></_></splits></_>
        <_>
          <depth>2</depth>
          <value>3.6687742683319292e-02</value></_>
        <_>
          <depth>2</depth>
          <value>-9.3392657830403614e-01</value></_>
        <_>
          <depth>1</depth>
          <value>6.3485765785848425e-01</value>
          <splits>
            <_><var>580</var>
              <quality>3.0338552594184875e-01</quality>
              <le>1.7647059634327888e-02</le></_></splits></_>
        <_>
          <depth>2</depth>
          <value>1.0919943157957028e+00</value></_>
        <_>
          <depth>2</depth>
          <value>-7.5524630255312619e-01</value></_></nodes></_>
    <_>
      <nodes>
        <_>
          <depth>0</depth>
          <value>-8.0606763080380894e-02</value>
          <splits>
            <_><var>377</var>
              <quality>1.6101816296577454e-01</quality>
              <le>2.4901962280273438e-01</le></_></splits></_>
        <_>
          <depth>1</depth>
          <value>1.4219881399186646e-01</value>
          <splits>
            <_><var>538</var>
              <quality>1.6194455325603485e-01</quality>
              <le>5.8823535218834877e-03</le></_></splits></_>
        <_>
          <depth>2</depth>
          <value>3.0302079756251382e-01</value></_>
        <_>
          <depth>2</depth>
          <value>-1.1148779542136404e+00</value></_>
        <_>
          <depth>1</depth>
          <value>-8.1216510194987401e-01</value>
          <splits>
            <_><var>412</var>
              <quality>2.0381627976894379e-01</quality>
              <le>5.1568627357482910e-01</le></_></splits></_>
        <_>
          <depth>2</depth>
          <value>-1.0070233857016937e+00</value></_>
        <_>
          <depth>2</depth>
          <value>5.1886095641205265e-01</value></_></nodes></_>
    <_>
      <nodes>
        <_>
          <depth>0</depth>
          <value>-8.3036092995956171e-02</value>
          <splits>
            <_><var>265</var>
              <quality>9.9578194320201874e-02</quality>
              <le>8.8235296308994293e-02</le></_></splits></_>
        <_>
          <depth>1</depth>
          <value>-4.7824125881207918e-01</value>
          <splits>
            <_><var>339</var>
              <quality>1.4669267833232880e-01</quality>
              <le>5.6078433990478516e-01</le></_></splits></_>
        <_>
          <depth>2</depth>
          <value>-5.1587323281742015e-01</value></_>
        <_>
          <depth>2</depth>
          <value>4.0919269947507342e+00</value></_>
        <_>
          <depth>1</depth>
          <value>1.6474354862845367e-01</value>
          <splits>
            <_><var>210</var>
              <quality>1.1833360791206360e-01</quality>
              <le>3.0392158031463623e-01</le></_></splits></_>
        <_>
          <depth>2</depth>
          <value>6.9562232355334475e-01</value></_>
        <_>
          <depth>2</depth>
          <value>-1.6587115204173505e-01</value></_></nodes></_>
    <_>
      <nodes>
        <_>
          <depth>0</depth>
          <value>-5.7783053684854424e-02</value>
          <splits>
            <_><var>428</var>
              <quality>1.0159172117710114e-01</quality>
              <le>5.4705882072448730e-01</le></_></splits></_>
        <_>
          <depth>1</depth>
          <value>1.1305748326427158e-01</value>
          <splits>
            <_><var>376</var>
              <quality>1.2799051403999329e-01</quality>
              <le>4.8823532462120056e-01</le></_></splits></_>
        <_>
          <depth>2</depth>
          <value>2.8059313457213025e-01</value></_>
        <_>
          <depth>2</depth>
          <value>-8.4135702800397105e-01</value></_>
        <_>
          <depth>1</depth>
          <value>-6.6418525011101670e-01</value>
          <splits>
            <_><var>486</var>
              <quality>2.1599704027175903e-01</quality>
              <le>1.6666667163372040e-01</le></_></splits></_>
        <_>
          <depth>2</depth>
          <value>2.1597778166524104e-01</value></_>
        <_>
          <depth>2</depth>
          <value>-1.3382023158821788e+00</value></_></nodes></_>
    <_>
      <nodes>
        <_>
          <depth>0</depth>
          <value>-9.3625504497448456e-02</value>
          <splits>
            <_><var>437</var>
              <quality>1.1267196387052536e-01</quality>
              <le>2.0196080207824707e-01</le></_></splits></_>
        <_>
          <depth>1</depth>
          <value>-5.4587808089862622e-01</value>
          <splits>
            <_><var>746</var>
              <quality>1.7295622825622559e-01</quality>
              <le>4.3137259781360626e-02</le></_></splits></_>
        <_>
          <depth>2</depth>
          <value>-6.2692632210607580e-01</value></_>
        <_>
          <depth>2</depth>
          <value>2.2067198334276745e+00</value></_>
        <_>
          <depth>1</depth>
          <value>1.4922988291294800e-01</value>
          <splits>
            <_><var>518</var>
              <quality>1.1898812651634216e-01</quality>
              <le>1.7450980842113495e-01</le></_></splits></_>
        <_>
          <depth>2</depth>
          <value>-4.4560128692737372e-01</value></_>
        <_>
          <depth>2</depth>
          <value>4.3541605820108553e-01</value></_></nodes></_>
    <_>
      <nodes>
        <_>
          <depth>0</depth>
          <value>-3.8868763162515675e-02</value>
          <splits>
            <_><var>553</var>
              <quality>7.3362991213798523e-02</quality>
              <le>1.5490196645259857e-01</le></_></splits></_>
        <_>
          <depth>1</depth>
          <value>4.3265069225073213e-02</value>
          <splits>
            <_><var>345</var>
              <quality>1.0069808363914490e-01</quality>
              <le>1.3725491240620613e-02</le></_></splits></_>
        <_>
          <depth>2</depth>
          <value>3.8352889433177262e-01</value></_>
        <_>
          <depth>2</depth>
          <value>-2.9047796164623307e-01</value></_>
        <_>
          <depth>1</depth>
          <value>-9.6061224996861683e-01</value>
          <splits>
            <_><var>321</var>
              <quality>1.0486058145761490e-01</quality>
              <le>7.6078438758850098e-01</le></_></splits></_>
        <_>
          <depth>2</depth>
          <value>-1.2440920204369266e+00</value></_>
        <_>
          <depth>2</depth>
          <value>5.4288029856167597e-01</value></_></nodes></_>
    <_>
      <nodes>
        <_>
          <depth>0</depth>
          <value>-2.1901254396520110e-02</value>
          <splits>
            <_><var>124</var>
              <quality>8.1441327929496765e-02</quality>
              <le>1.9607844296842813e-03</le></_></splits></_>
        <_>
          <depth>1</depth>
          <value>4.9695592851197207e-02</value>
          <splits>
            <_><var>743</var>
              <quality>7.4331700801849365e-02</quality>
              <le>1.9607844296842813e-03</le></_></splits></_>
        <_>
          <depth>2</depth>
          <value>1.2227042001347216e-01</value></_>
        <_>
          <depth>2</depth>
          <value>-1.0592247534005934e+00</value></_>
        <_>
          <depth>1</depth>
          <value>-1.2125768570717081e+00</value>
          <splits>
            <_><var>229</var>
              <quality>8.0776982009410858e-02</quality>
              <le>9.9411773681640625e-01</le></_></splits></_>
        <_>
          <depth>2</depth>
          <value>-1.2005134947164215e+00</value></_>
        <_>
          <depth>2</depth>
          <value>-3.5951575422710573e+00</value></_></nodes></_>
    <_>
      <nodes>
        <_>
          <depth>0</depth>
          <value>-3.6999676309865823e-02</value>
          <splits>
            <_><var>439</var>
              <quality>7.6397262513637543e-02</quality>
              <le>2.3333334922790527e-01</le></_></splits></_>
        <_>
          <depth>1</depth>
          <value>-2.3769981843754096e-01</value>
          <splits>
            <_><var>404</var>
              <quality>1.1352371424436569e-01</quality>
              <le>3.1764706969261169e-01</le></_></splits></_>
        <_>
          <depth>2</depth>
          <value>-7.9834029008253662e-02</value></_>
        <_>
          <depth>2</depth>
          <value>-1.0224807627313506e+00</value></_>
        <_>
          <depth>1</depth>
          <value>3.5686925317767870e-01</value>
          <splits>
            <_><var>324</var>
              <quality>1.3221958279609680e-01</quality>
              <le>5.4705882072448730e-01</le></_></splits></_>
        <_>
          <depth>2</depth>
          <value>-1.1285183060663692e-01</value></_>
        <_>
          <depth>2</depth>
          <value>9.6352494834486002e-01</value></_></nodes></_>
    <_>
      <nodes>
        <_>
          <depth>0</depth>
          <value>-3.2763268343670639e-02</value>
          <splits>
            <_><var>567</var>
              <quality>7.9819306731224060e-02</quality>
              <le>9.2156872153282166e-02</le></_></splits></_>
        <_>
          <depth>1</depth>
          <value>5.7975490144528317e-02</value>
          <splits>
            <_><var>486</var>
              <quality>8.0321520566940308e-02</quality>
              <le>1.3137255609035492e-01</le></_></splits></_>
        <_>
          <depth>2</depth>
          <value>2.3933109638183925e-01</value></_>
        <_>
          <depth>2</depth>
          <value>-4.3597409676734600e-01</value></_>
        <_>
          <depth>1</depth>
          <value>-9.4689360220352381e-01</value>
          <splits>
            <_><var>677</var>
              <quality>1.4902763068675995e-01</quality>
              <le>4.2549023032188416e-01</le></_></splits></_>
        <_>
          <depth>2</depth>
          <value>-1.1531316943495749e+00</value></_>
        <_>
          <depth>2</depth>
          <value>3.1291526971099595e+00</value></_></nodes></_>
    <_>
      <nodes>
        <_>
          <depth>0</depth>
          <value>-3.0893906107799404e-02</value>
          <splits>
            <_><var>235</var>
              <quality>7.7908217906951904e-02</quality>
              <le>8.3333337306976318e-01</le></_></splits></_>
        <_>
          <depth>1</depth>
          <value>-2.4400937899097830e-01</value>
          <splits>
            <_><var>299</var>
              <quality>1.2713924050331116e-01</quality>
              <le>4.3333336710929871e-01</le></_></splits></_>
        <_>
          <depth>2</depth>
          <value>-5.7048753425063969e-01</value></_>
        <_>
          <depth>2</depth>
          <value>2.1322852559776020e-01</value></_>
        <_>
          <depth>1</depth>
          <value>3.4942684287417608e-01</value>
          <splits>
            <_><var>316</var>
              <quality>1.3738481700420380e-01</quality>
              <le>1.9607844296842813e-03</le></_></splits></_>
        <_>
          <depth>2</depth>
          <value>8.6873590858847805e-01</value></_>
        <_>
          <depth>2</depth>
          <value>-1.9087616738515648e-01</value></_></nodes></_>
    <_>
      <nodes>
        <_>
          <depth>0</depth>
          <value>-1.2062414210790268e-02</value>
          <splits>
            <_><var>607</var>
              <quality>6.8859606981277466e-02</quality>
              <le>1.0392157733440399e-01</le></_></splits></_>
        <_>
          <depth>1</depth>
          <value>9.3366295743395070e-02</value>
          <splits>
            <_><var>206</var>
              <quality>7.4249036610126495e-02</quality>
              <le>4.5294120907783508e-01</le></_></splits></_>
        <_>
          <depth>2</depth>
          <value>-1.0031678618127304e-01</value></_>
        <_>
          <depth>2</depth>
          <value>5.1389360587079136e-01</value></_>
        <_>
          <depth>1</depth>
          <value>-6.9819831431959534e-01</value>
          <splits>
            <_><var>317</var>
              <quality>1.2676918506622314e-01</quality>
              <le>4.7058826684951782e-01</le></_></splits></_>
        <_>
          <depth>2</depth>
          <value>-1.1667061794273601e+00</value></_>
        <_>
          <depth>2</depth>
          <value>3.9976652363689363e-01</value></_></nodes></_>
    <_>
      <nodes>
        <_>
          <depth>0</depth>
          <value>-1.3777494050734642e-02</value>
          <splits>
            <_><var>575</var>
              <quality>6.0960475355386734e-02</quality>
              <le>8.0392159521579742e-02</le></_></splits></_>
        <_>
          <depth>1</depth>
          <value>2.7915478705689384e-01</value>
          <splits>
            <_><var>659</var>
              <quality>1.2401426583528519e-01</quality>
              <le>2.0980393886566162e-01</le></_></splits></_>
        <_>
          <depth>2</depth>
          <value>4.6565746366822991e-01</value></_>
        <_>
          <depth>2</depth>
          <value>-9.4172992137550249e-01</value></_>
        <_>
          <depth>1</depth>
          <value>-2.3218864855181734e-01</value>
          <splits>
            <_><var>569</var>
              <quality>1.0904907435178757e-01</quality>
              <le>8.8235296308994293e-02</le></_></splits></_>
        <_>
          <depth>2</depth>
          <value>-8.5986309451047585e-02</value></_>
        <_>
          <depth>2</depth>
          <value>-1.2339876759123551e+00</value></_></nodes></_>
    <_>
      <nodes>
        <_>
          <depth>0</depth>
          <value>-4.0426417600718793e-02</value>
          <splits>
            <_><var>434</var>
              <quality>5.9926010668277740e-02</quality>
              <le>4.5098043978214264e-02</le></_></splits></_>
        <_>
          <depth>1</depth>
          <value>2.7944497785333239e-01</value>
          <splits>
            <_><var>515</var>
              <quality>1.5673856437206268e-01</quality>
              <le>1.9607844296842813e-03</le></_></splits></_>
        <_>
          <depth>2</depth>
          <value>6.3037456453198526e-01</value></_>
        <_>
          <depth>2</depth>
          <value>-7.5074675328691343e-01</value></_>
        <_>
          <depth>1</depth>
          <value>-2.3238753817612412e-01</value>
          <splits>
            <_><var>490</var>
              <quality>1.3841040432453156e-01</quality>
              <le>7.7450990676879883e-01</le></_></splits></_>
        <_>
          <depth>2</depth>
          <value>-7.7393751095431906e-01</value></_>
        <_>
          <depth>2</depth>
          <value>9.8084966279711694e-02</value></_></nodes></_>
    <_>
      <nodes>
        <_>
          <depth>0</depth>
          <value>-3.1374100435435294e-02</value>
          <splits>
            <_><var>350</var>
              <quality>8.5671603679656982e-02</quality>
              <le>4.2549023032188416e-01</le></_></splits></_>
        <_>
          <depth>1</depth>
          <value>1.4850932089026705e-01</value>
          <splits>
            <_><var>460</var>
              <quality>8.6258590221405029e-02</quality>
              <le>1.9607844296842813e-03</le></_></splits></_>
        <_>
          <depth>2</depth>
          <value>4.8172625322534074e-01</value></_>
        <_>
          <depth>2</depth>
          <value>-1.5664840405177435e-01</value></_>
        <_>
          <depth>1</depth>
          <value>-5.2723544508432474e-01</value>
          <splits>
            <_><var>460</var>
              <quality>1.9102247059345245e-01</quality>
              <le>5.7450985908508301e-01</le></_></splits></_>
        <_>
          <depth>2</depth>
          <value>-8.4958512254812157e-01</value></_>
        <_>
          <depth>2</depth>
          <value>9.5372731732941896e-01</value></_></nodes></_>
    <_>
      <nodes>
        <_>
          <depth>0</depth>
          <value>-2.7394099552296183e-02</value>
          <splits>
            <_><var>438</var>
              <quality>4.9722533673048019e-02</quality>
              <le>5.2352941036224365e-01</le></_></splits></_>
        <_>
          <depth>1</depth>
          <value>-2.2852663210608662e-01</value>
          <splits>
            <_><var>705</var>
              <quality>8.1847898662090302e-02</quality>
              <le>1.6666667163372040e-01</le></_></splits></_>
        <_>
          <depth>2</depth>
          <value>-2.7825479842802853e-01</value></_>
        <_>
          <depth>2</depth>
          <value>1.8124098492462173e+00</value></_>
        <_>
          <depth>1</depth>
          <value>2.2910061786692468e-01</value>
          <splits>
            <_><var>383</var>
              <quality>8.1152372062206268e-02</quality>
              <le>1.8627452850341797e-01</le></_></splits></_>
        <_>
          <depth>2</depth>
          <value>8.0444094758095619e-01</value></_>
        <_>
          <depth>2</depth>
          <value>-1.7491435056902926e-02</value></_></nodes></_>
    <_>
      <nodes>
        <_>
          <depth>0</depth>
          <value>-1.4055227025920949e-02</value>
          <splits>
            <_><var>527</var>
              <quality>4.8119019716978073e-02</quality>
              <le>3.0784314870834351e-01</le></_></splits></_>
        <_>
          <depth>1</depth>
          <value>2.3474186919617831e-02</value>
          <splits>
            <_><var>231</var>
              <quality>5.0465758889913559e-02</quality>
              <le>3.5882353782653809e-01</le></_></splits></_>
        <_>
          <depth>2</depth>
          <value>-8.8209557344160736e-02</value></_>
        <_>
          <depth>2</depth>
          <value>5.0739857129897359e-01</value></_>
        <_>
          <depth>1</depth>
          <value>-1.3582576819881802e+00</value>
          <splits>
            <_><var>716</var>
              <quality>7.5477950274944305e-02</quality>
              <le>3.2156863808631897e-01</le></_></splits></_>
        <_>
          <depth>2</depth>
          <value>-1.5126175902618271e+00</value></_>
        <_>
          <depth>2</depth>
          <value>5.6376567801746171e+00</value></_></nodes></_>
    <_>
      <nodes>
        <_>
          <depth>0</depth>
          <value>-1.6926323020253393e-02</value>
          <splits>
            <_><var>638</var>
              <quality>5.7069282978773117e-02</quality>
              <le>9.8039228469133377e-03</le></_></splits></_>
        <_>
          <depth>1</depth>
          <value>2.6368661990042768e-02</value>
          <splits>
            <_><var>377</var>
              <quality>5.2849158644676208e-02</quality>
              <le>9.8235297203063965e-01</le></_></splits></_>
        <_>
          <depth>2</depth>
          <value>8.6983085386760334e-02</value></_>
        <_>
          <depth>2</depth>
          <value>-9.0872084938671305e-01</value></_>
        <_>
          <depth>1</depth>
          <value>-1.3978441763051066e+00</value>
          <splits>
            <_><var>660</var>
              <quality>8.0433115363121033e-02</quality>
              <le>9.9803924560546875e-01</le></_></splits></_>
        <_>
          <depth>2</depth>
          <value>-1.2964962978042580e+00</value></_>
        <_>
          <depth>2</depth>
          <value>-9.5992950634062613e+00</value></_></nodes></_>
    <_>
      <nodes>
        <_>
          <depth>0</depth>
          <value>-2.1901231558298810e-02</value>
          <splits>
            <_><var>160</var>
              <quality>4.6234011650085449e-02</quality>
              <le>1.9607844296842813e-03</le></_></splits></_>
        <_>
          <depth>1</depth>
          <value>2.2026899370667478e-02</value>
          <splits>
            <_><var>269</var>
              <quality>4.2151164263486862e-02</quality>
              <le>4.2156866192817688e-01</le></_></splits></_>
        <_>
          <depth>2</depth>
          <value>-2.5386548157298200e-01</value></_>
        <_>
          <depth>2</depth>
          <value>1.8753154762656851e-01</value></_>
        <_>
          <depth>1</depth>
          <value>-1.1188739231399922e+00</value>
          <splits>
            <_><var>148</var>
              <quality>5.5732101202011108e-02</quality>
              <le>2.3725491762161255e-01</le></_></splits></_>
        <_>
          <depth>2</depth>
          <value>-1.1889876394876471e+00</value></_>
        <_>
          <depth>2</depth>
          <value>2.7574710471865207e+00</value></_></nodes></_>
    <_>
      <nodes>
        <_>
          <depth>0</depth>
          <value>-1.1954944510887397e-02</value>
          <splits>
            <_><var>401</var>
              <quality>3.8879271596670151e-02</quality>
              <le>9.8627460002899170e-01</le></_></splits></_>
        <_>
          <depth>1</depth>
          <value>7.3288682290219356e-02</value>
          <splits>
            <_><var>743</var>
              <quality>5.1498636603355408e-02</quality>
              <le>2.4901962280273438e-01</le></_></splits></_>
        <_>
          <depth>2</depth>
          <value>1.2600219135602278e-01</value></_>
        <_>
          <depth>2</depth>
          <value>-1.0361596940751061e+00</value></_>
        <_>
          <depth>1</depth>
          <value>-4.9025796985006753e-01</value>
          <splits>
            <_><var>459</var>
              <quality>1.5798939764499664e-01</quality>
              <le>1.0784314572811127e-01</le></_></splits></_>
        <_>
          <depth>2</depth>
          <value>6.0186998431977101e-01</value></_>
        <_>
          <depth>2</depth>
          <value>-1.2766229154615680e+00</value></_></nodes></_>
    <_>
      <nodes>
        <_>
          <depth>0</depth>
          <value>-3.3112263874271179e-02</value>
          <splits>
            <_><var>566</var>
              <quality>4.3867103755474091e-02</quality>
              <le>1.9019609689712524e-01</le></_></splits></_>
        <_>
          <depth>1</depth>
          <value>8.2604854218270417e-03</value>
          <splits>
            <_><var>663</var>
              <quality>3.9518013596534729e-02</quality>
              <le>2.1568629890680313e-02</le></_></splits></_>
        <_>
          <depth>2</depth>
          <value>8.0112511980815732e-02</value></_>
        <_>
          <depth>2</depth>
          <value>-5.9165524472321085e-01</value></_>
        <_>
          <depth>1</depth>
          <value>-1.1225977524307893e+00</value>
          <splits>
            <_><var>340</var>
              <quality>5.7816062122583389e-02</quality>
              <le>7.2941184043884277e-01</le></_></splits></_>
        <_>
          <depth>2</depth>
          <value>-1.1588390765805752e+00</value></_>
        <_>
          <depth>2</depth>
          <value>10.</value></_></nodes></_>
    <_>
      <nodes>
        <_>
          <depth>0</depth>
          <value>-2.2781854389278870e-02</value>
          <splits>
            <_><var>212</var>
              <quality>4.2801704257726669e-02</quality>
              <le>1.9607844296842813e-03</le></_></splits></_>
        <_>
          <depth>1</depth>
          <value>3.2136864290480277e-01</value>
          <splits>
            <_><var>322</var>
              <quality>1.3163545727729797e-01</quality>
              <le>6.8627454340457916e-02</le></_></splits></_>
        <_>
          <depth>2</depth>
          <value>-3.6269688696803742e-01</value></_>
        <_>
          <depth>2</depth>
          <value>9.1164745437329142e-01</value></_>
        <_>
          <depth>1</depth>
          <value>-1.5218952819969828e-01</value>
          <splits>
            <_><var>349</var>
              <quality>1.1845611780881882e-01</quality>
              <le>5.0000000000000000e-01</le></_></splits></_>
        <_>
          <depth>2</depth>
          <value>6.5524290477958968e-03</value></_>
        <_>
          <depth>2</depth>
          <value>-1.0871433515937763e+00</value></_></nodes></_>
    <_>
      <nodes>
        <_>
          <depth>0</depth>
          <value>-6.5063278897934075e-03</value>
          <splits>
            <_><var>740</var>
              <quality>3.6641556769609451e-02</quality>
              <le>1.3725491240620613e-02</le></_></splits></_>
        <_>
          <depth>1</depth>
          <value>4.8727511968964764e-02</value>
          <splits>
            <_><var>527</var>
              <quality>4.3902382254600525e-02</quality>
              <le>1.2156863510608673e-01</le></_></splits></_>
        <_>
          <depth>2</depth>
          <value>8.9190177276744873e-02</value></_>
        <_>
          <depth>2</depth>
          <value>-1.1251586592761342e+00</value></_>
        <_>
          <depth>1</depth>
          <value>-7.0405337286119440e-01</value>
          <splits>
            <_><var>487</var>
              <quality>7.8193373978137970e-02</quality>
              <le>9.8039219155907631e-03</le></_></splits></_>
        <_>
          <depth>2</depth>
          <value>-1.0462143920151665e-02</value></_>
        <_>
          <depth>2</depth>
          <value>-1.6067577441441319e+00</value></_></nodes></_>
    <_>
      <nodes>
        <_>
          <depth>0</depth>
          <value>-1.5327618899567743e-02</value>
          <splits>
            <_><var>129</var>
              <quality>3.1294833868741989e-02</quality>
              <le>1.9607844296842813e-03</le></_></splits></_>
        <_>
          <depth>1</depth>
          <value>1.3624341292173442e-02</value>
          <splits>
            <_><var>574</var>
              <quality>3.0398912727832794e-02</quality>
              <le>9.9803924560546875e-01</le></_></splits></_>
        <_>
          <depth>2</depth>
          <value>4.5819959137524728e-02</value></_>
        <_>
          <depth>2</depth>
          <value>-9.9997015820088520e-01</value></_>
        <_>
          <depth>1</depth>
          <value>-1.1450263899768702e+00</value>
          <splits>
            <_><var>243</var>
              <quality>3.1499817967414856e-02</quality>
              <le>9.9803924560546875e-01</le></_></splits></_>
        <_>
          <depth>2</depth>
          <value>-1.1243699933486904e+00</value></_>
        <_>
          <depth>2</depth>
          <value>-1.9137061773074444e+00</value></_></nodes></_>
    <_>
      <nodes>
        <_>
          <depth>0</depth>
          <value>-8.5906702743465298e-03</value>
          <splits>
            <_><var>460</var>
              <quality>3.0503101646900177e-02</quality>
              <le>9.8627460002899170e-01</le></_></splits></_>
        <_>
          <depth>1</depth>
          <value>-8.6219125542412539e-02</value>
          <splits>
            <_><var>318</var>
              <quality>4.8611592501401901e-02</quality>
              <le>9.3529415130615234e-01</le></_></splits></_>
        <_>
          <depth>2</depth>
          <value>-2.1788822663986820e-01</value></_>
        <_>
          <depth>2</depth>
          <value>3.1905864952131940e-01</value></_>
        <_>
          <depth>1</depth>
          <value>4.0407986524541972e-01</value>
          <splits>
            <_><var>373</var>
              <quality>1.3906010985374451e-01</quality>
              <le>1.3725491240620613e-02</le></_></splits></_>
        <_>
          <depth>2</depth>
          <value>1.0726139249939750e+00</value></_>
        <_>
          <depth>2</depth>
          <value>-7.3460909564446186e-01</value></_></nodes></_>
    <_>
      <nodes>
        <_>
          <depth>0</depth>
          <value>-1.2990175251610624e-02</value>
          <splits>
            <_><var>710</var>
              <quality>4.2394325137138367e-02</quality>
              <le>4.2156866192817688e-01</le></_></splits></_>
        <_>
          <depth>1</depth>
          <value>7.9180752566254023e-02</value>
          <splits>
            <_><var>473</var>
              <quality>4.5588843524456024e-02</quality>
              <le>3.9215688593685627e-03</le></_></splits></_>
        <_>
          <depth>2</depth>
          <value>1.0639045476273720e-01</value></_>
        <_>
          <depth>2</depth>
          <value>-1.7910901996946240e+00</value></_>
        <_>
          <depth>1</depth>
          <value>-4.9532626351805781e-01</value>
          <splits>
            <_><var>627</var>
              <quality>1.0408398509025574e-01</quality>
              <le>2.7450982481241226e-02</le></_></splits></_>
        <_>
          <depth>2</depth>
          <value>-2.0585178369465926e+00</value></_>
        <_>
          <depth>2</depth>
          <value>-2.1540743371267584e-01</value></_></nodes></_>
    <_>
      <nodes>
        <_>
          <depth>0</depth>
          <value>-1.1468477357691426e-02</value>
          <splits>
            <_><var>242</var>
              <quality>2.9948271811008453e-02</quality>
              <le>8.6470592021942139e-01</le></_></splits></_>
        <_>
          <depth>1</depth>
          <value>-1.4509926352776326e-01</value>
          <splits>
            <_><var>378</var>
              <quality>5.0286252051591873e-02</quality>
              <le>9.7843146324157715e-01</le></_></splits></_>
        <_>
          <depth>2</depth>
          <value>-2.1992610923267572e-01</value></_>
        <_>
          <depth>2</depth>
          <value>6.8333419558099096e-01</value></_>
        <_>
          <depth>1</depth>
          <value>2.2345592228013511e-01</value>
          <splits>
            <_><var>577</var>
              <quality>7.1722269058227539e-02</quality>
              <le>9.6078440546989441e-02</le></_></splits></_>
        <_>
          <depth>2</depth>
          <value>4.7232803660706063e-01</value></_>
        <_>
          <depth>2</depth>
          <value>-4.1257523937665364e-01</value></_></nodes></_>
    <_>
      <nodes>
        <_>
          <depth>0</depth>
          <value>-9.0498818623083802e-03</value>
          <splits>
            <_><var>227</var>
              <quality>3.7534881383180618e-02</quality>
              <le>1.9607844296842813e-03</le></_></splits></_>
        <_>
          <depth>1</depth>
          <value>-3.4102422800071058e-02</value>
          <splits>
            <_><var>320</var>
              <quality>3.4260105341672897e-02</quality>
              <le>2.1568629890680313e-02</le></_></splits></_>
        <_>
          <depth>2</depth>
          <value>1.1935288794073053e-01</value></_>
        <_>
          <depth>2</depth>
          <value>-2.6527579511113070e-01</value></_>
        <_>
          <depth>1</depth>
          <value>1.5648012924137187e+00</value>
          <splits>
            <_><var>174</var>
              <quality>6.4331866800785065e-02</quality>
              <le>9.9411773681640625e-01</le></_></splits></_>
        <_>
          <depth>2</depth>
          <value>1.3406566704236362e+00</value></_>
        <_>
          <depth>2</depth>
          <value>9.9224933544515022e+00</value></_></nodes></_>
    <_>
      <nodes>
        <_>
          <depth>0</depth>
          <value>-1.2682604709252017e-02</value>
          <splits>
            <_><var>122</var>
              <quality>2.5957914069294930e-02</quality>
              <le>1.9607844296842813e-03</le></_></splits></_>
        <_>
          <depth>1</depth>
          <value>6.5386178471435194e-03</value>
          <splits>
            <_><var>493</var>
              <quality>2.9670884832739830e-02</quality>
              <le>9.9019610881805420e-01</le></_></splits></_>
        <_>
          <depth>2</depth>
          <value>-7.8585837008925130e-02</value></_>
        <_>
          <depth>2</depth>
          <value>3.7793083089547003e-01</value></_>
        <_>
          <depth>1</depth>
          <value>-1.4258742748067159e+00</value>
          <splits>
            <_><var>296</var>
              <quality>3.7510216236114502e-02</quality>
              <le>9.9803924560546875e-01</le></_></splits></_>
        <_>
          <depth>2</depth>
          <value>-1.3198156235634799e+00</value></_>
        <_>
          <depth>2</depth>
          <value>-10.</value></_></nodes></_>
    <_>
      <nodes>
        <_>
          <depth>0</depth>
          <value>-7.9348785124819608e-03</value>
          <splits>
            <_><var>541</var>
              <quality>2.7331143617630005e-02</quality>
              <le>5.4313731193542480e-01</le></_></splits></_>
        <_>
          <depth>1</depth>
          <value>4.1981379575330997e-02</value>
          <splits>
            <_><var>442</var>
              <quality>4.7744493931531906e-02</quality>
              <le>1.1176471412181854e-01</le></_></splits></_>
        <_>
          <depth>2</depth>
          <value>-3.2539954926756556e-02</value></_>
        <_>
          <depth>2</depth>
          <value>7.5127184759653920e-01</value></_>
        <_>
          <depth>1</depth>
          <value>-5.8303353584396900e-01</value>
          <splits>
            <_><var>623</var>
              <quality>6.9051869213581085e-02</quality>
              <le>4.0588238835334778e-01</le></_></splits></_>
        <_>
          <depth>2</depth>
          <value>-9.8588705283927425e-01</value></_>
        <_>
          <depth>2</depth>
          <value>8.3236570061261372e-01</value></_></nodes></_>
    <_>
      <nodes>
        <_>
          <depth>0</depth>
          <value>-9.0958957614130833e-03</value>
          <splits>
            <_><var>405</var>
              <quality>3.7074696272611618e-02</quality>
              <le>4.3333336710929871e-01</le></_></splits></_>
        <_>
          <depth>1</depth>
          <value>9.9323102895498949e-02</value>
          <splits>
            <_><var>566</var>
              <quality>4.8349507153034210e-02</quality>
              <le>7.2549022734165192e-02</le></_></splits></_>
        <_>
          <depth>2</depth>
          <value>1.4590853469534953e-01</value></_>
        <_>
          <depth>2</depth>
          <value>-1.1111667612329859e+00</value></_>
        <_>
          <depth>1</depth>
          <value>-3.6828873317869210e-01</value>
          <splits>
            <_><var>345</var>
              <quality>8.0798156559467316e-02</quality>
              <le>1.3725491240620613e-02</le></_></splits></_>
        <_>
          <depth>2</depth>
          <value>5.1407024219691955e-02</value></_>
        <_>
          <depth>2</depth>
          <value>-9.1913586761630384e-01</value></_></nodes></_>
    <_>
      <nodes>
        <_>
          <depth>0</depth>
          <value>-1.4988040141066998e-02</value>
          <splits>
            <_><var>271</var>
              <quality>3.0387148261070251e-02</quality>
              <le>9.0784323215484619e-01</le></_></splits></_>
        <_>
          <depth>1</depth>
          <value>-1.2368396904665208e-01</value>
          <splits>
            <_><var>655</var>
              <quality>4.5994266867637634e-02</quality>
              <le>5.1960790157318115e-01</le></_></splits></_>
        <_>
          <depth>2</depth>
          <value>3.0180018794366751e-03</value></_>
        <_>
          <depth>2</depth>
          <value>-5.2720566077184239e-01</value></_>
        <_>
          <depth>1</depth>
          <value>2.7722142455945498e-01</value>
          <splits>
            <_><var>459</var>
              <quality>6.1277776956558228e-02</quality>
              <le>2.7254903316497803e-01</le></_></splits></_>
        <_>
          <depth>2</depth>
          <value>5.4717883421068159e-01</value></_>
        <_>
          <depth>2</depth>
          <value>-3.1937944516987737e-01</value></_></nodes></_>
    <_>
      <nodes>
        <_>
          <depth>0</depth>
          <value>-9.3527909190790105e-03</value>
          <splits>
            <_><var>581</var>
              <quality>2.8599392622709274e-02</quality>
              <le>3.6666667461395264e-01</le></_></splits></_>
        <_>
          <depth>1</depth>
          <value>2.4718541873041559e-02</value>
          <splits>
            <_><var>546</var>
              <quality>2.9391096904873848e-02</quality>
              <le>8.8823533058166504e-01</le></_></splits></_>
        <_>
          <depth>2</depth>
          <value>-1.0339375986593757e-01</value></_>
        <_>
          <depth>2</depth>
          <value>2.7077999363665589e-01</value></_>
        <_>
          <depth>1</depth>
          <value>-8.9036288410853703e-01</value>
          <splits>
            <_><var>750</var>
              <quality>5.8777533471584320e-02</quality>
              <le>2.9411765933036804e-01</le></_></splits></_>
        <_>
          <depth>2</depth>
          <value>-1.0698185903443642e+00</value></_>
        <_>
          <depth>2</depth>
          <value>3.9519355883512324e+00</value></_></nodes></_>
    <_>
      <nodes>
        <_>
          <depth>0</depth>
          <value>-1.2730652755630076e-02</value>
          <splits>
            <_><var>296</var>
              <quality>2.4916870519518852e-02</quality>
              <le>8.6078441143035889e-01</le></_></splits></_>
        <_>
          <depth>1</depth>
          <value>-1.3729537601447575e-01</value>
          <splits>
            <_><var>486</var>
              <quality>5.1592532545328140e-02</quality>
              <le>3.1960785388946533e-01</le></_></splits></_>
        <_>
          <depth>2</depth>
          <value>8.7921345655843815e-03</value></_>
        <_>
          <depth>2</depth>
          <value>-6.0130445438627977e-01</value></_>
        <_>
          <depth>1</depth>
          <value>1.9652884166517082e-01</value>
          <splits>
            <_><var>637</var>
              <quality>4.9092758446931839e-02</quality>
              <le>3.0980393290519714e-01</le></_></splits></_>
        <_>
          <depth>2</depth>
          <value>2.5386894893968392e-01</value></_>
        <_>
          <depth>2</depth>
          <value>-1.5451237767246175e+00</value></_></nodes></_>
    <_>
      <nodes>
        <_>
          <depth>0</depth>
          <value>-1.0240273630181037e-02</value>
          <splits>
            <_><var>350</var>
              <quality>3.5579238086938858e-02</quality>
              <le>9.6078440546989441e-02</le></_></splits></_>
        <_>
          <depth>1</depth>
          <value>1.3511957940337491e-01</value>
          <splits>
            <_><var>398</var>
              <quality>7.1691542863845825e-02</quality>
              <le>9.8039228469133377e-03</le></_></splits></_>
        <_>
          <depth>2</depth>
          <value>3.1075485713911943e-01</value></_>
        <_>
          <depth>2</depth>
          <value>-4.3369049708568286e-01</value></_>
        <_>
          <depth>1</depth>
          <value>-2.6716978354274634e-01</value>
          <splits>
            <_><var>411</var>
              <quality>1.3320885598659515e-01</quality>
              <le>3.7450981140136719e-01</le></_></splits></_>
        <_>
          <depth>2</depth>
          <value>-6.3886274064048321e-01</value></_>
        <_>
          <depth>2</depth>
          <value>5.8484337980606027e-01</value></_></nodes></_>
    <_>
      <nodes>
        <_>
          <depth>0</depth>
          <value>-4.8567748280690642e-03</value>
          <splits>
            <_><var>319</var>
              <quality>2.8458157554268837e-02</quality>
              <le>1.9607844296842813e-03</le></_></splits></_>
        <_>
          <depth>1</depth>
          <value>1.5896357499145386e-01</value>
          <splits>
            <_><var>315</var>
              <quality>1.1424078047275543e-01</quality>
              <le>4.9019612371921539e-02</le></_></splits></_>
        <_>
          <depth>2</depth>
          <value>4.7868902561462778e-01</value></_>
        <_>
          <depth>2</depth>
          <value>-4.7533993899041727e-01</value></_>
        <_>
          <depth>1</depth>
          <value>-1.8757244570230747e-01</value>
          <splits>
            <_><var>314</var>
              <quality>1.6796898841857910e-01</quality>
              <le>6.0784317553043365e-02</le></_></splits></_>
        <_>
          <depth>2</depth>
          <value>-4.5528264663013851e-01</value></_>
        <_>
          <depth>2</depth>
          <value>1.0780918421042780e+00</value></_></nodes></_>
    <_>
      <nodes>
        <_>
          <depth>0</depth>
          <value>5.8721053445573131e-03</value>
          <splits>
            <_><var>150</var>
              <quality>3.6854881793260574e-02</quality>
              <le>2.9411766678094864e-02</le></_></splits></_>
        <_>
          <depth>1</depth>
          <value>6.7567858459844213e-02</value>
          <splits>
            <_><var>433</var>
              <quality>5.3721833974123001e-02</quality>
              <le>1.9607844296842813e-03</le></_></splits></_>
        <_>
          <depth>2</depth>
          <value>3.0419693118473606e-01</value></_>
        <_>
          <depth>2</depth>
          <value>-1.7558747117923784e-01</value></_>
        <_>
          <depth>1</depth>
          <value>-6.2237890349671143e-01</value>
          <splits>
            <_><var>458</var>
              <quality>8.6825378239154816e-02</quality>
              <le>9.8039219155907631e-03</le></_></splits></_>
        <_>
          <depth>2</depth>
          <value>-1.0761897886208922e+00</value></_>
        <_>
          <depth>2</depth>
          <value>7.7628412780505407e-01</value></_></nodes></_>
    <_>
      <nodes>
        <_>
          <depth>0</depth>
          <value>1.9327941507349104e-05</value>
          <splits>
            <_><var>239</var>
              <quality>3.4812361001968384e-02</quality>
              <le>5.3921568393707275e-01</le></_></splits></_>
        <_>
          <depth>1</depth>
          <value>-2.3830390826572320e-01</value>
          <splits>
            <_><var>207</var>
              <quality>7.7695846557617188e-02</quality>
              <le>4.5686277747154236e-01</le></_></splits></_>
        <_>
          <depth>2</depth>
          <value>6.3923019525593511e-02</value></_>
        <_>
          <depth>2</depth>
          <value>-7.4044571234356704e-01</value></_>
        <_>
          <depth>1</depth>
          <value>1.5377953359886531e-01</value>
          <splits>
            <_><var>349</var>
              <quality>6.3723973929882050e-02</quality>
              <le>8.4117650985717773e-01</le></_></splits></_>
        <_>
          <depth>2</depth>
          <value>2.4672549909537428e-01</value></_>
        <_>
          <depth>2</depth>
          <value>-7.7909379628559050e-01</value></_></nodes></_>
    <_>
      <nodes>
        <_>
          <depth>0</depth>
          <value>-1.9352860490184750e-02</value>
          <splits>
            <_><var>359</var>
              <quality>3.0805250629782677e-02</quality>
              <le>5.2156865596771240e-01</le></_></splits></_>
        <_>
          <depth>1</depth>
          <value>1.2213403470499486e-02</value>
          <splits>
            <_><var>173</var>
              <quality>2.7429636567831039e-02</quality>
              <le>7.3333334922790527e-01</le></_></splits></_>
        <_>
          <depth>2</depth>
          <value>3.1665157823971925e-02</value></_>
        <_>
          <depth>2</depth>
          <value>-1.5106251064951075e+00</value></_>
        <_>
          <depth>1</depth>
          <value>-1.0347470516149146e+00</value>
          <splits>
            <_><var>601</var>
              <quality>5.0614561885595322e-02</quality>
              <le>7.8431375324726105e-02</le></_></splits></_>
        <_>
          <depth>2</depth>
          <value>-1.5144502011302213e-01</value></_>
        <_>
          <depth>2</depth>
          <value>-1.8231502641735691e+00</value></_></nodes></_>
    <_>
      <nodes>
        <_>
          <depth>0</depth>
          <value>-8.3247391741138096e-03</value>
          <splits>
            <_><var>158</var>
              <quality>2.5946406647562981e-02</quality>
              <le>5.6862749159336090e-02</le></_></splits></_>
        <_>
          <depth>1</depth>
          <value>3.1143177236488236e-02</value>
          <splits>
            <_><var>619</var>
              <quality>2.6950359344482422e-02</quality>
              <le>2.1176472306251526e-01</le></_></splits></_>
        <_>
          <depth>2</depth>
          <value>4.4097371273720549e-02</value></_>
        <_>
          <depth>2</depth>
          <value>-2.2091401844486711e+00</value></_>
        <_>
          <depth>1</depth>
          <value>-6.9857555443101682e-01</value>
          <splits>
            <_><var>679</var>
              <quality>5.1099944859743118e-02</quality>
              <le>9.8627460002899170e-01</le></_></splits></_>
        <_>
          <depth>2</depth>
          <value>-8.4323414639826888e-01</value></_>
        <_>
          <depth>2</depth>
          <value>2.8027845847992436e+00</value></_></nodes></_>
    <_>
      <nodes>
        <_>
          <depth>0</depth>
          <value>-1.2941742448353263e-02</value>
          <splits>
            <_><var>161</var>
              <quality>2.6774164289236069e-02</quality>
              <le>2.3529414087533951e-02</le></_></splits></_>
        <_>
          <depth>1</depth>
          <value>1.2668295706709961e-02</value>
          <splits>
            <_><var>495</var>
              <quality>2.7444725856184959e-02</quality>
              <le>9.8039228469133377e-03</le></_></splits></_>
        <_>
          <depth>2</depth>
          <value>-1.0242588585567765e-01</value></_>
        <_>
          <depth>2</depth>
          <value>2.6815672853383138e-01</value></_>
        <_>
          <depth>1</depth>
          <value>-1.1068897424962827e+00</value>
          <splits>
            <_><var>153</var>
              <quality>2.8921693563461304e-02</quality>
              <le>9.9607849121093750e-01</le></_></splits></_>
        <_>
          <depth>2</depth>
          <value>-1.1164043379012374e+00</value></_>
        <_>
          <depth>2</depth>
          <value>10.</value></_></nodes></_>
    <_>
      <nodes>
        <_>
          <depth>0</depth>
          <value>-1.8164126825898168e-02</value>
          <splits>
            <_><var>578</var>
              <quality>3.0668418854475021e-02</quality>
              <le>2.4509805440902710e-01</le></_></splits></_>
        <_>
          <depth>1</depth>
          <value>7.0003294517326856e-02</value>
          <splits>
            <_><var>435</var>
              <quality>5.5119600147008896e-02</quality>
              <le>6.8823528289794922e-01</le></_></splits></_>
        <_>
          <depth>2</depth>
          <value>-2.5490298485696977e-01</value></_>
        <_>
          <depth>2</depth>
          <value>2.7692127724675414e-01</value></_>
        <_>
          <depth>1</depth>
          <value>-3.8053078195422163e-01</value>
          <splits>
            <_><var>655</var>
              <quality>9.9928230047225952e-02</quality>
              <le>4.1568630933761597e-01</le></_></splits></_>
        <_>
          <depth>2</depth>
          <value>-5.8531466793513169e-02</value></_>
        <_>
          <depth>2</depth>
          <value>-1.5999186675860841e+00</value></_></nodes></_>
    <_>
      <nodes>
        <_>
          <depth>0</depth>
          <value>-2.3167049879272487e-02</value>
          <splits>
            <_><var>515</var>
              <quality>3.4736812114715576e-02</quality>
              <le>2.8039216995239258e-01</le></_></splits></_>
        <_>
          <depth>1</depth>
          <value>9.7124302238347282e-02</value>
          <splits>
            <_><var>407</var>
              <quality>7.2866290807723999e-02</quality>
              <le>7.2549022734165192e-02</le></_></splits></_>
        <_>
          <depth>2</depth>
          <value>5.2538321680466182e-01</value></_>
        <_>
          <depth>2</depth>
          <value>-1.3188215803951553e-01</value></_>
        <_>
          <depth>1</depth>
          <value>-3.2267767390884927e-01</value>
          <splits>
            <_><var>651</var>
              <quality>1.0045337677001953e-01</quality>
              <le>6.0784317553043365e-02</le></_></splits></_>
        <_>
          <depth>2</depth>
          <value>-5.8644149442277671e-01</value></_>
        <_>
          <depth>2</depth>
          <value>6.8163712075316296e-01</value></_></nodes></_>
    <_>
      <nodes>
        <_>
          <depth>0</depth>
          <value>-4.5438021226280123e-03</value>
          <splits>
            <_><var>206</var>
              <quality>2.6905188336968422e-02</quality>
              <le>9.8039228469133377e-03</le></_></splits></_>
        <_>
          <depth>1</depth>
          <value>-1.7755023337642670e-01</value>
          <splits>
            <_><var>260</var>
              <quality>7.8417032957077026e-02</quality>
              <le>2.6470589637756348e-01</le></_></splits></_>
        <_>
          <depth>2</depth>
          <value>-3.4672659914065196e-01</value></_>
        <_>
          <depth>2</depth>
          <value>6.4006842067830327e-01</value></_>
        <_>
          <depth>1</depth>
          <value>1.5904005705229937e-01</value>
          <splits>
            <_><var>383</var>
              <quality>8.0809161067008972e-02</quality>
              <le>2.0000001788139343e-01</le></_></splits></_>
        <_>
          <depth>2</depth>
          <value>4.8689585576658923e-01</value></_>
        <_>
          <depth>2</depth>
          <value>-2.6858898270596065e-01</value></_></nodes></_>
    <_>
      <nodes>
        <_>
          <depth>0</depth>
          <value>2.0736410062205356e-03</value>
          <splits>
            <_><var>265</var>
              <quality>3.0959995463490486e-02</quality>
              <le>8.8039219379425049e-01</le></_></splits></_>
        <_>
          <depth>1</depth>
          <value>-1.1597163151658063e-01</value>
          <splits>
            <_><var>233</var>
              <quality>6.5448291599750519e-02</quality>
              <le>2.2549021244049072e-01</le></_></splits></_>
        <_>
          <depth>2</depth>
          <value>1.4560485557255626e-01</value></_>
        <_>
          <depth>2</depth>
          <value>-4.4056520926478138e-01</value></_>
        <_>
          <depth>1</depth>
          <value>2.7811813636741239e-01</value>
          <splits>
            <_><var>269</var>
              <quality>6.1025533825159073e-02</quality>
              <le>5.1176476478576660e-01</le></_></splits></_>
        <_>
          <depth>2</depth>
          <value>-2.0996594798086721e-01</value></_>
        <_>
          <depth>2</depth>
          <value>5.5902937403376707e-01</value></_></nodes></_>
    <_>
      <nodes>
        <_>
          <depth>0</depth>
          <value>-1.2854807305366044e-02</value>
          <splits>
            <_><var>580</var>
              <quality>2.7866439893841743e-02</quality>
              <le>6.5490198135375977e-01</le></_></splits></_>
        <_>
          <depth>1</depth>
          <value>2.4880536861751245e-02</value>
          <splits>
            <_><var>206</var>
              <quality>3.0301792547106743e-02</quality>
              <le>5.6862749159336090e-02</le></_></splits></_>
        <_>
          <depth>2</depth>
          <value>-1.4973346900833187e-01</value></_>
        <_>
          <depth>2</depth>
          <value>2.1292380304804967e-01</value></_>
        <_>
          <depth>1</depth>
          <value>-7.8581877097445374e-01</value>
          <splits>
            <_><var>410</var>
              <quality>4.7254666686058044e-02</quality>
              <le>1.9607845693826675e-02</le></_></splits></_>
        <_>
          <depth>2</depth>
          <value>2.9749830062637600e-01</value></_>
        <_>
          <depth>2</depth>
          <value>-1.2022614487530614e+00</value></_></nodes></_>
    <_>
      <nodes>
        <_>
          <depth>0</depth>
          <value>-3.2977449400266282e-03</value>
          <splits>
            <_><var>743</var>
              <quality>2.9172336682677269e-02</quality>
              <le>2.4117648601531982e-01</le></_></splits></_>
        <_>
          <depth>1</depth>
          <value>4.1472316307127818e-02</value>
          <splits>
            <_><var>260</var>
              <quality>2.7467153966426849e-02</quality>
              <le>9.9803924560546875e-01</le></_></splits></_>
        <_>
          <depth>2</depth>
          <value>6.0294889467587702e-02</value></_>
        <_>
          <depth>2</depth>
          <value>-1.5035238918330367e+00</value></_>
        <_>
          <depth>1</depth>
          <value>-6.8895571791288202e-01</value>
          <splits>
            <_><var>431</var>
              <quality>1.2275686860084534e-01</quality>
              <le>1.3725491240620613e-02</le></_></splits></_>
        <_>
          <depth>2</depth>
          <value>-1.5993240245944569e+00</value></_>
        <_>
          <depth>2</depth>
          <value>1.1054253981875712e+00</value></_></nodes></_>
    <_>
      <nodes>
        <_>
          <depth>0</depth>
          <value>-8.2512224690789709e-03</value>
          <splits>
            <_><var>328</var>
              <quality>2.6272363960742950e-02</quality>
              <le>9.9411773681640625e-01</le></_></splits></_>
        <_>
          <depth>1</depth>
          <value>-4.6022378314905514e-02</value>
          <splits>
            <_><var>213</var>
              <quality>2.7065847069025040e-02</quality>
              <le>7.2352945804595947e-01</le></_></splits></_>
        <_>
          <depth>2</depth>
          <value>-1.7381824935104234e-01</value></_>
        <_>
          <depth>2</depth>
          <value>1.7186950435323828e-01</value></_>
        <_>
          <depth>1</depth>
          <value>7.2212197893197316e-01</value>
          <splits>
            <_><var>405</var>
              <quality>4.5803971588611603e-02</quality>
              <le>4.1764709353446960e-01</le></_></splits></_>
        <_>
          <depth>2</depth>
          <value>1.0100477494221016e+00</value></_>
        <_>
          <depth>2</depth>
          <value>-8.7229137793085521e-01</value></_></nodes></_>
    <_>
      <nodes>
        <_>
          <depth>0</depth>
          <value>-6.0586120502788615e-03</value>
          <splits>
            <_><var>595</var>
              <quality>2.8668420389294624e-02</quality>
              <le>4.6078434586524963e-01</le></_></splits></_>
        <_>
          <depth>1</depth>
          <value>3.2754492485864956e-02</value>
          <splits>
            <_><var>768</var>
              <quality>2.6825556531548500e-02</quality>
              <le>9.4313728809356689e-01</le></_></splits></_>
        <_>
          <depth>2</depth>
          <value>3.7976267930682650e-02</value></_>
        <_>
          <depth>2</depth>
          <value>-5.4397978627493870e+00</value></_>
        <_>
          <depth>1</depth>
          <value>-7.8263004122033464e-01</value>
          <splits>
            <_><var>705</var>
              <quality>5.5356301367282867e-02</quality>
              <le>4.1764706373214722e-01</le></_></splits></_>
        <_>
          <depth>2</depth>
          <value>-9.6596736768397617e-01</value></_>
        <_>
          <depth>2</depth>
          <value>2.5535334983045987e+00</value></_></nodes></_>
    <_>
      <nodes>
        <_>
          <depth>0</depth>
          <value>-3.5896979744818890e-03</value>
          <splits>
            <_><var>709</var>
              <quality>2.9530951753258705e-02</quality>
              <le>9.7843146324157715e-01</le></_></splits></_>
        <_>
          <depth>1</depth>
          <value>3.2373612613995358e-02</value>
          <splits>
            <_><var>571</var>
              <quality>2.2530483081936836e-02</quality>
              <le>9.9019610881805420e-01</le></_></splits></_>
        <_>
          <depth>2</depth>
          <value>8.1593041945049710e-02</value></_>
        <_>
          <depth>2</depth>
          <value>-4.4824356742481647e-01</value></_>
        <_>
          <depth>1</depth>
          <value>-8.6760086667661274e-01</value>
          <splits>
            <_><var>233</var>
              <quality>5.0960641354322433e-02</quality>
              <le>1.4705882966518402e-01</le></_></splits></_>
        <_>
          <depth>2</depth>
          <value>-4.2360737143225452e-01</value></_>
        <_>
          <depth>2</depth>
          <value>-2.1957385217948926e+00</value></_></nodes></_>
    <_>
      <nodes>
        <_>
          <depth>0</depth>
          <value>3.3712075235829168e-03</value>
          <splits>
            <_><var>575</var>
              <quality>2.3234071210026741e-02</quality>
              <le>2.8431373834609985e-01</le></_></splits></_>
        <_>
          <depth>1</depth>
          <value>1.5387639013548926e-01</value>
          <splits>
            <_><var>686</var>
              <quality>6.0103960335254669e-02</quality>
              <le>5.3137254714965820e-01</le></_></splits></_>
        <_>
          <depth>2</depth>
          <value>2.6221553342343601e-01</value></_>
        <_>
          <depth>2</depth>
          <value>-7.5267279790433339e-01</value></_>
        <_>
          <depth>1</depth>
          <value>-1.5905319835134477e-01</value>
          <splits>
            <_><var>492</var>
              <quality>5.4370645433664322e-02</quality>
              <le>2.9607844352722168e-01</le></_></splits></_>
        <_>
          <depth>2</depth>
          <value>-8.5120673936280455e-01</value></_>
        <_>
          <depth>2</depth>
          <value>-2.3678779361915248e-02</value></_></nodes></_>
    <_>
      <nodes>
        <_>
          <depth>0</depth>
          <value>-1.8336980030906534e-02</value>
          <splits>
            <_><var>464</var>
              <quality>2.7772674337029457e-02</quality>
              <le>7.4313724040985107e-01</le></_></splits></_>
        <_>
          <depth>1</depth>
          <value>1.7611682161927950e-01</value>
          <splits>
            <_><var>411</var>
              <quality>5.9424579143524170e-02</quality>
              <le>2.8039216995239258e-01</le></_></splits></_>
        <_>
          <depth>2</depth>
          <value>-5.8360078805930853e-02</value></_>
        <_>
          <depth>2</depth>
          <value>6.5967494343858357e-01</value></_>
        <_>
          <depth>1</depth>
          <value>-1.6695050340846762e-01</value>
          <splits>
            <_><var>342</var>
              <quality>5.3358845412731171e-02</quality>
              <le>4.2156866192817688e-01</le></_></splits></_>
        <_>
          <depth>2</depth>
          <value>-6.3423321898048016e-02</value></_>
        <_>
          <depth>2</depth>
          <value>-8.5490733570034094e-01</value></_></nodes></_>
    <_>
      <nodes>
        <_>
          <depth>0</depth>
          <value>-3.5741042303702206e-03</value>
          <splits>
            <_><var>690</var>
              <quality>2.4739751592278481e-02</quality>
              <le>3.8235297799110413e-01</le></_></splits></_>
        <_>
          <depth>1</depth>
          <value>4.8217540484609529e-02</value>
          <splits>
            <_><var>319</var>
              <quality>2.7069527655839920e-02</quality>
              <le>1.9607844296842813e-03</le></_></splits></_>
        <_>
          <depth>2</depth>
          <value>2.1613124449721152e-01</value></_>
        <_>
          <depth>2</depth>
          <value>-1.2512176038068898e-01</value></_>
        <_>
          <depth>1</depth>
          <value>-5.0615245748966275e-01</value>
          <splits>
            <_><var>263</var>
              <quality>5.6269887834787369e-02</quality>
              <le>3.4509804844856262e-01</le></_></splits></_>
        <_>
          <depth>2</depth>
          <value>-1.1310146002742423e+00</value></_>
        <_>
          <depth>2</depth>
          <value>9.8495170850893418e-02</value></_></nodes></_>
    <_>
      <nodes>
        <_>
          <depth>0</depth>
          <value>-1.0663204424198550e-02</value>
          <splits>
            <_><var>293</var>
              <quality>3.0270261690020561e-02</quality>
              <le>5.5882358551025391e-01</le></_></splits></_>
        <_>
          <depth>1</depth>
          <value>-1.2323068740207367e-01</value>
          <splits>
            <_><var>374</var>
              <quality>3.9539668709039688e-02</quality>
              <le>4.7058826684951782e-01</le></_></splits></_>
        <_>
          <depth>2</depth>
          <value>-4.4501653833174757e-03</value></_>
        <_>
          <depth>2</depth>
          <value>-4.8563282721534090e-01</value></_>
        <_>
          <depth>1</depth>
          <value>2.7139035788261456e-01</value>
          <splits>
            <_><var>290</var>
              <quality>6.4631775021553040e-02</quality>
              <le>8.4509813785552979e-01</le></_></splits></_>
        <_>
          <depth>2</depth>
          <value>-6.4157700769150644e-02</value></_>
        <_>
          <depth>2</depth>
          <value>7.6267767624944471e-01</value></_></nodes></_>
    <_>
      <nodes>
        <_>
          <depth>0</depth>
          <value>2.6292214563501724e-04</value>
          <splits>
            <_><var>127</var>
              <quality>2.0682388916611671e-02</quality>
              <le>1.0392157733440399e-01</le></_></splits></_>
        <_>
          <depth>1</depth>
          <value>1.7858114919648400e-02</value>
          <splits>
            <_><var>432</var>
              <quality>2.2920571267604828e-02</quality>
              <le>9.2156872153282166e-02</le></_></splits></_>
        <_>
          <depth>2</depth>
          <value>1.3471153858078491e-01</value></_>
        <_>
          <depth>2</depth>
          <value>-1.8882343718446992e-01</value></_>
        <_>
          <depth>1</depth>
          <value>-1.2370738942042854e+00</value>
          <splits>
            <_><var>544</var>
              <quality>2.1571362391114235e-02</quality>
              <le>9.9411773681640625e-01</le></_></splits></_>
        <_>
          <depth>2</depth>
          <value>-1.1440707744511198e+00</value></_>
        <_>
          <depth>2</depth>
          <value>-2.1958431930805777e+00</value></_></nodes></_>
    <_>
      <nodes>
        <_>
          <depth>0</depth>
          <value>4.5322899360409995e-04</value>
          <splits>
            <_><var>406</var>
              <quality>2.3748449981212616e-02</quality>
              <le>9.8627460002899170e-01</le></_></splits></_>
        <_>
          <depth>1</depth>
          <value>-6.8554695884044642e-02</value>
          <splits>
            <_><var>378</var>
              <quality>4.5913964509963989e-02</quality>
              <le>5.5490195751190186e-01</le></_></splits></_>
        <_>
          <depth>2</depth>
          <value>2.0495361278238897e-02</value></_>
        <_>
          <depth>2</depth>
          <value>-6.6190693298346137e-01</value></_>
        <_>
          <depth>1</depth>
          <value>3.6270729873801422e-01</value>
          <splits>
            <_><var>208</var>
              <quality>8.0358378589153290e-02</quality>
              <le>3.9215691387653351e-02</le></_></splits></_>
        <_>
          <depth>2</depth>
          <value>-5.4080248182307622e-01</value></_>
        <_>
          <depth>2</depth>
          <value>8.0218896259161143e-01</value></_></nodes></_>
    <_>
      <nodes>
        <_>
          <depth>0</depth>
          <value>-1.2704532972963761e-02</value>
          <splits>
            <_><var>209</var>
              <quality>2.5455795228481293e-02</quality>
              <le>9.3921577930450439e-01</le></_></splits></_>
        <_>
          <depth>1</depth>
          <value>1.0098628205686891e-01</value>
          <splits>
            <_><var>487</var>
              <quality>4.0553171187639236e-02</quality>
              <le>4.9019612371921539e-02</le></_></splits></_>
        <_>
          <depth>2</depth>
          <value>2.8880754014007504e-01</value></_>
        <_>
          <depth>2</depth>
          <value>-1.8229403300383804e-01</value></_>
        <_>
          <depth>1</depth>
          <value>-2.4697527292679214e-01</value>
          <splits>
            <_><var>239</var>
              <quality>8.2053862512111664e-02</quality>
              <le>1.5098039805889130e-01</le></_></splits></_>
        <_>
          <depth>2</depth>
          <value>-1.5101646306222003e+00</value></_>
        <_>
          <depth>2</depth>
          <value>-8.5988304098977786e-02</value></_></nodes></_>
    <_>
      <nodes>
        <_>
          <depth>0</depth>
          <value>-1.5327152226403970e-02</value>
          <splits>
            <_><var>489</var>
              <quality>3.0530409887433052e-02</quality>
              <le>9.9411773681640625e-01</le></_></splits></_>
        <_>
          <depth>1</depth>
          <value>-8.1586049913482173e-02</value>
          <splits>
            <_><var>410</var>
              <quality>3.7582073360681534e-02</quality>
              <le>1.4705882966518402e-01</le></_></splits></_>
        <_>
          <depth>2</depth>
          <value>-3.2852218063438376e-01</value></_>
        <_>
          <depth>2</depth>
          <value>7.3709800237328663e-02</value></_>
        <_>
          <depth>1</depth>
          <value>4.6615684970228888e-01</value>
          <splits>
            <_><var>352</var>
              <quality>6.4693488180637360e-02</quality>
              <le>6.2745101749897003e-02</le></_></splits></_>
        <_>
          <depth>2</depth>
          <value>-7.5257152034663088e-01</value></_>
        <_>
          <depth>2</depth>
          <value>7.4977355752626562e-01</value></_></nodes></_>
    <_>
      <nodes>
        <_>
          <depth>0</depth>
          <value>-9.4432993136233725e-03</value>
          <splits>
            <_><var>766</var>
              <quality>2.2445928305387497e-02</quality>
              <le>7.9607844352722168e-01</le></_></splits></_>
        <_>
          <depth>1</depth>
          <value>-1.2148821632875570e-02</value>
          <splits>
            <_><var>583</var>
              <quality>2.2028015926480293e-02</quality>
              <le>7.3137259483337402e-01</le></_></splits></_>
        <_>
          <depth>2</depth>
          <value>3.0446056020857429e-03</value></_>
        <_>
          <depth>2</depth>
          <value>-1.5290623201385578e+00</value></_>
        <_>
          <depth>1</depth>
          <value>8.6906259931867158e+00</value></_></nodes></_>
    <_>
      <nodes>
        <_>
          <depth>0</depth>
          <value>-5.6938511932314280e-03</value>
          <splits>
            <_><var>597</var>
              <quality>1.9709603860974312e-02</quality>
              <le>9.9411773681640625e-01</le></_></splits></_>
        <_>
          <depth>1</depth>
          <value>1.7600573185824614e-02</value>
          <splits>
            <_><var>636</var>
              <quality>2.0681910216808319e-02</quality>
              <le>1.7647059634327888e-02</le></_></splits></_>
        <_>
          <depth>2</depth>
          <value>5.3444813659022497e-02</value></_>
        <_>
          <depth>2</depth>
          <value>-5.9703841666232982e-01</value></_>
        <_>
          <depth>1</depth>
          <value>-8.9495568786111590e-01</value>
          <splits>
            <_><var>464</var>
              <quality>5.2045520395040512e-02</quality>
              <le>9.2941182851791382e-01</le></_></splits></_>
        <_>
          <depth>2</depth>
          <value>2.4902176074492499e-01</value></_>
        <_>
          <depth>2</depth>
          <value>-2.0709166485571600e+00</value></_></nodes></_>
    <_>
      <nodes>
        <_>
          <depth>0</depth>
          <value>-9.1374616677336040e-03</value>
          <splits>
            <_><var>176</var>
              <quality>2.3120800033211708e-02</quality>
              <le>8.2745105028152466e-01</le></_></splits></_>
        <_>
          <depth>1</depth>
          <value>-4.8827607009072412e-02</value>
          <splits>
            <_><var>148</var>
              <quality>2.6701537892222404e-02</quality>
              <le>9.9803924560546875e-01</le></_></splits></_>
        <_>
          <depth>2</depth>
          <value>-5.1569103483295603e-02</value></_>
        <_>
          <depth>2</depth>
          <value>10.</value></_>
        <_>
          <depth>1</depth>
          <value>6.0196278887103660e-01</value>
          <splits>
            <_><var>547</var>
              <quality>5.8613844215869904e-02</quality>
              <le>1.3725490868091583e-01</le></_></splits></_>
        <_>
          <depth>2</depth>
          <value>-6.2043640303241199e-01</value></_>
        <_>
          <depth>2</depth>
          <value>1.1331487869879702e+00</value></_></nodes></_>
    <_>
      <nodes>
        <_>
          <depth>0</depth>
          <value>-2.5155846895021233e-02</value>
          <splits>
            <_><var>148</var>
              <quality>5.5638302117586136e-02</quality>
              <le>9.3725496530532837e-01</le></_></splits></_>
        <_>
          <depth>1</depth>
          <value>4.2981284021054948e-03</value>
          <splits>
            <_><var>473</var>
              <quality>1.9881526008248329e-02</quality>
              <le>9.8039219155907631e-03</le></_></splits></_>
        <_>
          <depth>2</depth>
          <value>1.9354020301209758e-02</value></_>
        <_>
          <depth>2</depth>
          <value>-1.4053218761414148e+00</value></_>
        <_>
          <depth>1</depth>
          <value>-1.9921066606731366e+00</value>
          <splits>
            <_><var>604</var>
              <quality>6.8080425262451172e-02</quality>
              <le>9.9411773681640625e-01</le></_></splits></_>
        <_>
          <depth>2</depth>
          <value>-1.5787535632736014e+00</value></_>
        <_>
          <depth>2</depth>
          <value>-4.1427224968827225e+00</value></_></nodes></_>
    <_>
      <nodes>
        <_>
          <depth>0</depth>
          <value>-9.4866123338404676e-03</value>
          <splits>
            <_><var>437</var>
              <quality>1.7845172435045242e-02</quality>
              <le>9.9019610881805420e-01</le></_></splits></_>
        <_>
          <depth>1</depth>
          <value>7.4131798540982313e-02</value>
          <splits>
            <_><var>713</var>
              <quality>2.7527183294296265e-02</quality>
              <le>9.2745101451873779e-01</le></_></splits></_>
        <_>
          <depth>2</depth>
          <value>1.2761138165970010e-01</value></_>
        <_>
          <depth>2</depth>
          <value>-5.6757420473718190e-01</value></_>
        <_>
          <depth>1</depth>
          <value>-2.3305592098670125e-01</value>
          <splits>
            <_><var>438</var>
              <quality>4.3811336159706116e-02</quality>
              <le>1.9803923368453979e-01</le></_></splits></_>
        <_>
          <depth>2</depth>
          <value>1.1383716304841676e+00</value></_>
        <_>
          <depth>2</depth>
          <value>-3.1698745994870098e-01</value></_></nodes></_>
    <_>
      <nodes>
        <_>
          <depth>0</depth>
          <value>-4.0424624216515350e-03</value>
          <splits>
            <_><var>397</var>
              <quality>1.7720624804496765e-02</quality>
              <le>9.9803924560546875e-01</le></_></splits></_>
        <_>
          <depth>1</depth>
          <value>-1.3353540103081485e-02</value>
          <splits>
            <_><var>321</var>
              <quality>1.9104251638054848e-02</quality>
              <le>9.9803924560546875e-01</le></_></splits></_>
        <_>
          <depth>2</depth>
          <value>2.1853667037024845e-03</value></_>
        <_>
          <depth>2</depth>
          <value>-1.3020776628691813e+00</value></_>
        <_>
          <depth>1</depth>
          <value>1.9975856090910404e+00</value>
          <splits>
            <_><var>470</var>
              <quality>2.8042577207088470e-02</quality>
              <le>9.9411773681640625e-01</le></_></splits></_>
        <_>
          <depth>2</depth>
          <value>1.4541559965887418e+00</value></_>
        <_>
          <depth>2</depth>
          <value>6.3863225048234638e+00</value></_></nodes></_>
    <_>
      <nodes>
        <_>
          <depth>0</depth>
          <value>-1.9709905984736900e-03</value>
          <splits>
            <_><var>528</var>
              <quality>1.6576193273067474e-02</quality>
              <le>6.2549018859863281e-01</le></_></splits></_>
        <_>
          <depth>1</depth>
          <value>9.7558171282641146e-03</value>
          <splits>
            <_><var>258</var>
              <quality>2.1761661395430565e-02</quality>
              <le>7.8039222955703735e-01</le></_></splits></_>
        <_>
          <depth>2</depth>
          <value>-3.5315931994590995e-02</value></_>
        <_>
          <depth>2</depth>
          <value>5.1988610073556385e-01</value></_>
        <_>
          <depth>1</depth>
          <value>-1.4895692333925252e+00</value>
          <splits>
            <_><var>229</var>
              <quality>3.8960132747888565e-02</quality>
              <le>9.9803924560546875e-01</le></_></splits></_>
        <_>
          <depth>2</depth>
          <value>-2.0343718168944664e+00</value></_>
        <_>
          <depth>2</depth>
          <value>4.0621535900815076e+00</value></_></nodes></_>
    <_>
      <nodes>
        <_>
          <depth>0</depth>
          <value>-4.2636770919633809e-03</value>
          <splits>
            <_><var>491</var>
              <quality>1.7481889575719833e-02</quality>
              <le>7.5490200519561768e-01</le></_></splits></_>
        <_>
          <depth>1</depth>
          <value>-1.4895589794616826e-01</value>
          <splits>
            <_><var>574</var>
              <quality>6.1841066926717758e-02</quality>
              <le>7.0588237047195435e-01</le></_></splits></_>
        <_>
          <depth>2</depth>
          <value>2.5964533196335314e-02</value></_>
        <_>
          <depth>2</depth>
          <value>-8.1806920727588772e-01</value></_>
        <_>
          <depth>1</depth>
          <value>1.2279318044832196e-01</value>
          <splits>
            <_><var>295</var>
              <quality>3.2525565475225449e-02</quality>
              <le>9.9019610881805420e-01</le></_></splits></_>
        <_>
          <depth>2</depth>
          <value>2.1125755663770219e-02</value></_>
        <_>
          <depth>2</depth>
          <value>6.0696930068061727e-01</value></_></nodes></_>
    <_>
      <nodes>
        <_>
          <depth>0</depth>
          <value>-5.6991333663728352e-03</value>
          <splits>
            <_><var>606</var>
              <quality>1.7823731526732445e-02</quality>
              <le>8.4313727915287018e-02</le></_></splits></_>
        <_>
          <depth>1</depth>
          <value>5.9430965903767279e-02</value>
          <splits>
            <_><var>207</var>
              <quality>3.4841049462556839e-02</quality>
              <le>7.2549022734165192e-02</le></_></splits></_>
        <_>
          <depth>2</depth>
          <value>-1.4955162257835969e-01</value></_>
        <_>
          <depth>2</depth>
          <value>2.5777293070858526e-01</value></_>
        <_>
          <depth>1</depth>
          <value>-2.9327476645736672e-01</value>
          <splits>
            <_><var>655</var>
              <quality>6.3292443752288818e-02</quality>
              <le>3.2352942228317261e-01</le></_></splits></_>
        <_>
          <depth>2</depth>
          <value>-6.5256000263826844e-02</value></_>
        <_>
          <depth>2</depth>
          <value>-1.4984082966420942e+00</value></_></nodes></_>
    <_>
      <nodes>
        <_>
          <depth>0</depth>
          <value>-1.0737398117275523e-02</value>
          <splits>
            <_><var>434</var>
              <quality>2.4977309629321098e-02</quality>
              <le>2.6078432798385620e-01</le></_></splits></_>
        <_>
          <depth>1</depth>
          <value>1.6781626737750913e-01</value>
          <splits>
            <_><var>373</var>
              <quality>6.3625276088714600e-02</quality>
              <le>9.8039228469133377e-03</le></_></splits></_>
        <_>
          <depth>2</depth>
          <value>-2.2098923117157598e-01</value></_>
        <_>
          <depth>2</depth>
          <value>4.7743863986630009e-01</value></_>
        <_>
          <depth>1</depth>
          <value>-1.5734379160971351e-01</value>
          <splits>
            <_><var>373</var>
              <quality>6.5572865307331085e-02</quality>
              <le>7.5098043680191040e-01</le></_></splits></_>
        <_>
          <depth>2</depth>
          <value>-9.0964349049036698e-03</value></_>
        <_>
          <depth>2</depth>
          <value>-8.3825630150158625e-01</value></_></nodes></_>
    <_>
      <nodes>
        <_>
          <depth>0</depth>
          <value>-5.4090897615019827e-03</value>
          <splits>
            <_><var>171</var>
              <quality>2.3072674870491028e-02</quality>
              <le>9.7647064924240112e-01</le></_></splits></_>
        <_>
          <depth>1</depth>
          <value>-8.2310262455115024e-03</value>
          <splits>
            <_><var>520</var>
              <quality>2.2370187565684319e-02</quality>
              <le>5.9803926944732666e-01</le></_></splits></_>
        <_>
          <depth>2</depth>
          <value>1.2801917746588323e-01</value></_>
        <_>
          <depth>2</depth>
          <value>-1.8062038932696359e-01</value></_>
        <_>
          <depth>1</depth>
          <value>8.5909304130697670e+00</value></_></nodes></_>
    <_>
      <nodes>
        <_>
          <depth>0</depth>
          <value>-4.7317946530626952e-03</value>
          <splits>
            <_><var>146</var>
              <quality>1.8992567434906960e-02</quality>
              <le>9.5882356166839600e-01</le></_></splits></_>
        <_>
          <depth>1</depth>
          <value>-1.0738226569980424e-02</value>
          <splits>
            <_><var>143</var>
              <quality>1.8707113340497017e-02</quality>
