<?xml version="1.0"?>
<opencv_storage>
<opencv_ml_boost>
  <format>3</format>
  <is_classifier>1</is_classifier>
  <var_all>785</var_all>
  <var_count>784</var_count>
  <ord_var_count>784</ord_var_count>
  <cat_var_count>1</cat_var_count>
  <training_params>
    <boosting_type>RealAdaboost</boosting_type>
    <use_surrogates>0</use_surrogates>
    <max_categories>10</max_categories>
    <regression_accuracy>9.9999997764825821e-03</regression_accuracy>
    <max_depth>2</max_depth>
    <min_sample_count>10</min_sample_count>
    <cross_validation_folds>0</cross_validation_folds>
    <weight_trimming_rate>9.4999999999999996e-01</weight_trimming_rate></training_params>
  <global_var_idx>1</global_var_idx>
  <var_idx>
    0 1 2 3 4 5 6 7 8 9 10 11 12 13 14 15 16 17 18 19 20 21 22 23 24 25
    26 27 28 29 30 31 32 33 34 35 36 37 38 39 40 41 42 43 44 45 46 47 48
    49 50 51 52 53 54 55 56 57 58 59 60 61 62 63 64 65 66 67 68 69 70 71
    72 73 74 75 76 77 78 79 80 81 82 83 84 85 86 87 88 89 90 91 92 93 94
    95 96 97 98 99 100 101 102 103 104 105 106 107 108 109 110 111 112
    113 114 115 116 117 118 119 120 121 122 123 124 125 126 127 128 129
    130 131 132 133 134 135 136 137 138 139 140 141 142 143 144 145 146
    147 148 149 150 151 152 153 154 155 156 157 158 159 160 161 162 163
    164 165 166 167 168 169 170 171 172 173 174 175 176 177 178 179 180
    181 182 183 184 185 186 187 188 189 190 191 192 193 194 195 196 197
    198 199 200 201 202 203 204 205 206 207 208 209 210 211 212 213 214
    215 216 217 218 219 220 221 222 223 224 225 226 227 228 229 230 231
    232 233 234 235 236 237 238 239 240 241 242 243 244 245 246 247 248
    249 250 251 252 253 254 255 256 257 258 259 260 261 262 263 264 265
    266 267 268 269 270 271 272 273 274 275 276 277 278 279 280 281 282
    283 284 285 286 287 288 289 290 291 292 293 294 295 296 297 298 299
    300 301 302 303 304 305 306 307 308 309 310 311 312 313 314 315 316
    317 318 319 320 321 322 323 324 325 326 327 328 329 330 331 332 333
    334 335 336 337 338 339 340 341 342 343 344 345 346 347 348 349 350
    351 352 353 354 355 356 357 358 359 360 361 362 363 364 365 366 367
    368 369 370 371 372 373 374 375 376 377 378 379 380 381 382 383 384
    385 386 387 388 389 390 391 392 393 394 395 396 397 398 399 400 401
    402 403 404 405 406 407 408 409 410 411 412 413 414 415 416 417 418
    419 420 421 422 423 424 425 426 427 428 429 430 431 432 433 434 435
    436 437 438 439 440 441 442 443 444 445 446 447 448 449 450 451 452
    453 454 455 456 457 458 459 460 461 462 463 464 465 466 467 468 469
    470 471 472 473 474 475 476 477 478 479 480 481 482 483 484 485 486
    487 488 489 490 491 492 493 494 495 496 497 498 499 500 501 502 503
    504 505 506 507 508 509 510 511 512 513 514 515 516 517 518 519 520
    521 522 523 524 525 526 527 528 529 530 531 532 533 534 535 536 537
    538 539 540 541 542 543 544 545 546 547 548 549 550 551 552 553 554
    555 556 557 558 559 560 561 562 563 564 565 566 567 568 569 570 571
    572 573 574 575 576 577 578 579 580 581 582 583 584 585 586 587 588
    589 590 591 592 593 594 595 596 597 598 599 600 601 602 603 604 605
    606 607 608 609 610 611 612 613 614 615 616 617 618 619 620 621 622
    623 624 625 626 627 628 629 630 631 632 633 634 635 636 637 638 639
    640 641 642 643 644 645 646 647 648 649 650 651 652 653 654 655 656
    657 658 659 660 661 662 663 664 665 666 667 668 669 670 671 672 673
    674 675 676 677 678 679 680 681 682 683 684 685 686 687 688 689 690
    691 692 693 694 695 696 697 698 699 700 701 702 703 704 705 706 707
    708 709 710 711 712 713 714 715 716 717 718 719 720 721 722 723 724
    725 726 727 728 729 730 731 732 733 734 735 736 737 738 739 740 741
    742 743 744 745 746 747 748 749 750 751 752 753 754 755 756 757 758
    759 760 761 762 763 764 765 766 767 768 769 770 771 772 773 774 775
    776 777 778 779 780 781 782 783</var_idx>
  <var_type>
    0 0 0 0 0 0 0 0 0 0 0 0 0 0 0 0 0 0 0 0 0 0 0 0 0 0 0 0 0 0 0 0 0 0
    0 0 0 0 0 0 0 0 0 0 0 0 0 0 0 0 0 0 0 0 0 0 0 0 0 0 0 0 0 0 0 0 0 0
    0 0 0 0 0 0 0 0 0 0 0 0 0 0 0 0 0 0 0 0 0 0 0 0 0 0 0 0 0 0 0 0 0 0
    0 0 0 0 0 0 0 0 0 0 0 0 0 0 0 0 0 0 0 0 0 0 0 0 0 0 0 0 0 0 0 0 0 0
    0 0 0 0 0 0 0 0 0 0 0 0 0 0 0 0 0 0 0 0 0 0 0 0 0 0 0 0 0 0 0 0 0 0
    0 0 0 0 0 0 0 0 0 0 0 0 0 0 0 0 0 0 0 0 0 0 0 0 0 0 0 0 0 0 0 0 0 0
    0 0 0 0 0 0 0 0 0 0 0 0 0 0 0 0 0 0 0 0 0 0 0 0 0 0 0 0 0 0 0 0 0 0
    0 0 0 0 0 0 0 0 0 0 0 0 0 0 0 0 0 0 0 0 0 0 0 0 0 0 0 0 0 0 0 0 0 0
    0 0 0 0 0 0 0 0 0 0 0 0 0 0 0 0 0 0 0 0 0 0 0 0 0 0 0 0 0 0 0 0 0 0
    0 0 0 0 0 0 0 0 0 0 0 0 0 0 0 0 0 0 0 0 0 0 0 0 0 0 0 0 0 0 0 0 0 0
    0 0 0 0 0 0 0 0 0 0 0 0 0 0 0 0 0 0 0 0 0 0 0 0 0 0 0 0 0 0 0 0 0 0
    0 0 0 0 0 0 0 0 0 0 0 0 0 0 0 0 0 0 0 0 0 0 0 0 0 0 0 0 0 0 0 0 0 0
    0 0 0 0 0 0 0 0 0 0 0 0 0 0 0 0 0 0 0 0 0 0 0 0 0 0 0 0 0 0 0 0 0 0
    0 0 0 0 0 0 0 0 0 0 0 0 0 0 0 0 0 0 0 0 0 0 0 0 0 0 0 0 0 0 0 0 0 0
    0 0 0 0 0 0 0 0 0 0 0 0 0 0 0 0 0 0 0 0 0 0 0 0 0 0 0 0 0 0 0 0 0 0
    0 0 0 0 0 0 0 0 0 0 0 0 0 0 0 0 0 0 0 0 0 0 0 0 0 0 0 0 0 0 0 0 0 0
    0 0 0 0 0 0 0 0 0 0 0 0 0 0 0 0 0 0 0 0 0 0 0 0 0 0 0 0 0 0 0 0 0 0
    0 0 0 0 0 0 0 0 0 0 0 0 0 0 0 0 0 0 0 0 0 0 0 0 0 0 0 0 0 0 0 0 0 0
    0 0 0 0 0 0 0 0 0 0 0 0 0 0 0 0 0 0 0 0 0 0 0 0 0 0 0 0 0 0 0 0 0 0
    0 0 0 0 0 0 0 0 0 0 0 0 0 0 0 0 0 0 0 0 0 0 0 0 0 0 0 0 0 0 0 0 0 0
    0 0 0 0 0 0 0 0 0 0 0 0 0 0 0 0 0 0 0 0 0 0 0 0 0 0 0 0 0 0 0 0 0 0
    0 0 0 0 0 0 0 0 0 0 0 0 0 0 0 0 0 0 0 0 0 0 0 0 0 0 0 0 0 0 0 0 0 0
    0 0 0 0 0 0 0 0 0 0 0 0 0 0 0 0 0 0 0 0 0 0 0 0 0 0 0 0 0 0 0 0 0 0
    0 0 1</var_type>
  <cat_ofs>
    0 0 0 0 0 0 0 0 0 0 0 0 0 0 0 0 0 0 0 0 0 0 0 0 0 0 0 0 0 0 0 0 0 0
    0 0 0 0 0 0 0 0 0 0 0 0 0 0 0 0 0 0 0 0 0 0 0 0 0 0 0 0 0 0 0 0 0 0
    0 0 0 0 0 0 0 0 0 0 0 0 0 0 0 0 0 0 0 0 0 0 0 0 0 0 0 0 0 0 0 0 0 0
    0 0 0 0 0 0 0 0 0 0 0 0 0 0 0 0 0 0 0 0 0 0 0 0 0 0 0 0 0 0 0 0 0 0
    0 0 0 0 0 0 0 0 0 0 0 0 0 0 0 0 0 0 0 0 0 0 0 0 0 0 0 0 0 0 0 0 0 0
    0 0 0 0 0 0 0 0 0 0 0 0 0 0 0 0 0 0 0 0 0 0 0 0 0 0 0 0 0 0 0 0 0 0
    0 0 0 0 0 0 0 0 0 0 0 0 0 0 0 0 0 0 0 0 0 0 0 0 0 0 0 0 0 0 0 0 0 0
    0 0 0 0 0 0 0 0 0 0 0 0 0 0 0 0 0 0 0 0 0 0 0 0 0 0 0 0 0 0 0 0 0 0
    0 0 0 0 0 0 0 0 0 0 0 0 0 0 0 0 0 0 0 0 0 0 0 0 0 0 0 0 0 0 0 0 0 0
    0 0 0 0 0 0 0 0 0 0 0 0 0 0 0 0 0 0 0 0 0 0 0 0 0 0 0 0 0 0 0 0 0 0
    0 0 0 0 0 0 0 0 0 0 0 0 0 0 0 0 0 0 0 0 0 0 0 0 0 0 0 0 0 0 0 0 0 0
    0 0 0 0 0 0 0 0 0 0 0 0 0 0 0 0 0 0 0 0 0 0 0 0 0 0 0 0 0 0 0 0 0 0
    0 0 0 0 0 0 0 0 0 0 0 0 0 0 0 0 0 0 0 0 0 0 0 0 0 0 0 0 0 0 0 0 0 0
    0 0 0 0 0 0 0 0 0 0 0 0 0 0 0 0 0 0 0 0 0 0 0 0 0 0 0 0 0 0 0 0 0 0
    0 0 0 0 0 0 0 0 0 0 0 0 0 0 0 0 0 0 0 0 0 0 0 0 0 0 0 0 0 0 0 0 0 0
    0 0 0 0 0 0 0 0 0 0 0 0 0 0 0 0 0 0 0 0 0 0 0 0 0 0 0 0 0 0 0 0 0 0
    0 0 0 0 0 0 0 0 0 0 0 0 0 0 0 0 0 0 0 0 0 0 0 0 0 0 0 0 0 0 0 0 0 0
    0 0 0 0 0 0 0 0 0 0 0 0 0 0 0 0 0 0 0 0 0 0 0 0 0 0 0 0 0 0 0 0 0 0
    0 0 0 0 0 0 0 0 0 0 0 0 0 0 0 0 0 0 0 0 0 0 0 0 0 0 0 0 0 0 0 0 0 0
    0 0 0 0 0 0 0 0 0 0 0 0 0 0 0 0 0 0 0 0 0 0 0 0 0 0 0 0 0 0 0 0 0 0
    0 0 0 0 0 0 0 0 0 0 0 0 0 0 0 0 0 0 0 0 0 0 0 0 0 0 0 0 0 0 0 0 0 0
    0 0 0 0 0 0 0 0 0 0 0 0 0 0 0 0 0 0 0 0 0 0 0 0 0 0 0 0 0 0 0 0 0 0
    0 0 0 0 0 0 0 0 0 0 0 0 0 0 0 0 0 0 0 0 0 0 0 0 0 0 0 0 0 0 0 0 0 0
    0 0 0 0 0 0 0 0 0 0 0 0 0 0 0 0 0 0 0 0 0 0 0 0 0 0 0 0 0 0 0 0 0 0
    0 0 0 0 0 0 0 0 0 0 0 0 0 0 0 0 0 0 0 0 0 0 0 0 0 0 0 0 0 0 0 0 0 0
    0 0 0 0 0 0 0 0 0 0 0 0 0 0 0 0 0 0 0 0 0 0 0 0 0 0 0 0 0 0 0 0 0 0
    0 0 0 0 0 0 0 0 0 0 0 0 0 0 0 0 0 0 0 0 0 0 0 0 0 0 0 0 0 0 0 0 0 0
    0 0 0 0 0 0 0 0 0 0 0 0 0 0 0 0 0 0 0 0 0 0 0 0 0 0 0 0 0 0 0 0 0 0
    0 0 0 0 0 0 0 0 0 0 0 0 0 0 0 0 0 0 0 0 0 0 0 0 0 0 0 0 0 0 0 0 0 0
    0 0 0 0 0 0 0 0 0 0 0 0 0 0 0 0 0 0 0 0 0 0 0 0 0 0 0 0 0 0 0 0 0 0
    0 0 0 0 0 0 0 0 0 0 0 0 0 0 0 0 0 0 0 0 0 0 0 0 0 0 0 0 0 0 0 0 0 0
    0 0 0 0 0 0 0 0 0 0 0 0 0 0 0 0 0 0 0 0 0 0 0 0 0 0 0 0 0 0 0 0 0 0
    0 0 0 0 0 0 0 0 0 0 0 0 0 0 0 0 0 0 0 0 0 0 0 0 0 0 0 0 0 0 0 0 0 0
    0 0 0 0 0 0 0 0 0 0 0 0 0 0 0 0 0 0 0 0 0 0 0 0 0 0 0 0 0 0 0 0 0 0
    0 0 0 0 0 0 0 0 0 0 0 0 0 0 0 0 0 0 0 0 0 0 0 0 0 0 0 0 0 0 0 0 0 0
    0 0 0 0 0 0 0 0 0 0 0 0 0 0 0 0 0 0 0 0 0 0 0 0 0 0 0 0 0 0 0 0 0 0
    0 0 0 0 0 0 0 0 0 0 0 0 0 0 0 0 0 0 0 0 0 0 0 0 0 0 0 0 0 0 0 0 0 0
    0 0 0 0 0 0 0 0 0 0 0 0 0 0 0 0 0 0 0 0 0 0 0 0 0 0 0 0 0 0 0 0 0 0
    0 0 0 0 0 0 0 0 0 0 0 0 0 0 0 0 0 0 0 0 0 0 0 0 0 0 0 0 0 0 0 0 0 0
    0 0 0 0 0 0 0 0 0 0 0 0 0 0 0 0 0 0 0 0 0 0 0 0 0 0 0 0 0 0 0 0 0 0
    0 0 0 0 0 0 0 0 0 0 0 0 0 0 0 0 0 0 0 0 0 0 0 0 0 0 0 0 0 0 0 0 0 0
    0 0 0 0 0 0 0 0 0 0 0 0 0 0 0 0 0 0 0 0 0 0 0 0 0 0 0 0 0 0 0 0 0 0
    0 0 0 0 0 0 0 0 0 0 0 0 0 0 0 0 0 0 0 0 0 0 0 0 0 0 0 0 0 0 0 0 0 0
    0 0 0 0 0 0 0 0 0 0 0 0 0 0 0 0 0 0 0 0 0 0 0 0 0 0 0 0 0 0 0 0 0 0
    0 0 0 0 0 0 0 0 0 0 0 0 0 0 0 0 0 0 0 0 0 0 0 0 0 0 0 0 0 0 0 0 0 0
    0 0 0 0 0 0 0 0 0 0 0 0 0 0 0 0 0 0 0 0 0 0 0 0 0 0 0 0 0 0 0 0 0 0
    0 0 0 0</cat_ofs>
  <class_labels>
    0 1</class_labels>
  <missing_subst>
    0. 0. 0. 0. 0. 0. 0. 0. 0. 0. 0. 0. 0. 0. 0. 0. 0. 0. 0. 0. 0. 0. 0.
    0. 0. 0. 0. 0. 0. 0. 0. 0. 0. 0. 0. 0. 0. 0. 0. 0. 0. 0. 0. 0. 0. 0.
    0. 0. 0. 0. 0. 0. 0. 0. 0. 0. 0. 0. 0. 0. 0. 0. 0. 0. 0. 0. 0. 0. 0.
    0. 0. 0. 0. 0. 0. 0. 0. 0. 0. 0. 0. 0. 0. 0. 0. 0. 0. 0. 0. 0. 0. 0.
    0. 0. 0. 0. 0. 0. 0. 0. 0. 0. 0. 0. 0. 0. 0. 0. 0. 0. 0. 0. 0. 0. 0.
    0. 0. 0. 0. 0. 0. 0. 0. 0. 0. 0. 0. 0. 0. 0. 0. 0. 0. 0. 0. 0. 0. 0.
    0. 0. 0. 0. 0. 0. 0. 0. 0. 0. 0. 0. 0. 0. 0. 0. 0. 0. 0. 0. 0. 0. 0.
    0. 0. 0. 0. 0. 0. 0. 0. 0. 0. 0. 0. 0. 0. 0. 0. 0. 0. 0. 0. 0. 0. 0.
    0. 0. 0. 0. 0. 0. 0. 0. 0. 0. 0. 0. 0. 0. 0. 0. 0. 0. 0. 0. 0. 0. 0.
    0. 0. 0. 0. 0. 0. 0. 0. 0. 0. 0. 0. 0. 0. 0. 0. 0. 0. 0. 0. 0. 0. 0.
    0. 0. 0. 0. 0. 0. 0. 0. 0. 0. 0. 0. 0. 0. 0. 0. 0. 0. 0. 0. 0. 0. 0.
    0. 0. 0. 0. 0. 0. 0. 0. 0. 0. 0. 0. 0. 0. 0. 0. 0. 0. 0. 0. 0. 0. 0.
    0. 0. 0. 0. 0. 0. 0. 0. 0. 0. 0. 0. 0. 0. 0. 0. 0. 0. 0. 0. 0. 0. 0.
    0. 0. 0. 0. 0. 0. 0. 0. 0. 0. 0. 0. 0. 0. 0. 0. 0. 0. 0. 0. 0. 0. 0.
    0. 0. 0. 0. 0. 0. 0. 0. 0. 0. 0. 0. 0. 0. 0. 0. 0. 0. 0. 0. 0. 0. 0.
    0. 0. 0. 0. 0. 0. 0. 0. 0. 0. 0. 0. 0. 0. 0. 0. 0. 0. 0. 0. 0. 0. 0.
    0. 0. 0. 0. 0. 0. 0. 0. 0. 0. 0. 0. 0. 0. 0. 0. 0. 0. 0. 0. 0. 0. 0.
    0. 0. 0. 0. 0. 0. 0. 0. 0. 0. 0. 0. 0. 0. 0. 0. 0. 0. 0. 0. 0. 0. 0.
    0. 0. 0. 0. 0. 0. 0. 0. 0. 0. 0. 0. 0. 0. 0. 0. 0. 0. 0. 0. 0. 0. 0.
    0. 0. 0. 0. 0. 0. 0. 0. 0. 0. 0. 0. 0. 0. 0. 0. 0. 0. 0. 0. 0. 0. 0.
    0. 0. 0. 0. 0. 0. 0. 0. 0. 0. 0. 0. 0. 0. 0. 0. 0. 0. 0. 0. 0. 0. 0.
    0. 0. 0. 0. 0. 0. 0. 0. 0. 0. 0. 0. 0. 0. 0. 0. 0. 0. 0. 0. 0. 0. 0.
    0. 0. 0. 0. 0. 0. 0. 0. 0. 0. 0. 0. 0. 0. 0. 0. 0. 0. 0. 0. 0. 0. 0.
    0. 0. 0. 0. 0. 0. 0. 0. 0. 0. 0. 0. 0. 0. 0. 0. 0. 0. 0. 0. 0. 0. 0.
    0. 0. 0. 0. 0. 0. 0. 0. 0. 0. 0. 0. 0. 0. 0. 0. 0. 0. 0. 0. 0. 0. 0.
    0. 0. 0. 0. 0. 0. 0. 0. 0. 0. 0. 0. 0. 0. 0. 0. 0. 0. 0. 0. 0. 0. 0.
    0. 0. 0. 0. 0. 0. 0. 0. 0. 0. 0. 0. 0. 0. 0. 0. 0. 0. 0. 0. 0. 0. 0.
    0. 0. 0. 0. 0. 0. 0. 0. 0. 0. 0. 0. 0. 0. 0. 0. 0. 0. 0. 0. 0. 0. 0.
    0. 0. 0. 0. 0. 0. 0. 0. 0. 0. 0. 0. 0. 0. 0. 0. 0. 0. 0. 0. 0. 0. 0.
    0. 0. 0. 0. 0. 0. 0. 0. 0. 0. 0. 0. 0. 0. 0. 0. 0. 0. 0. 0. 0. 0. 0.
    0. 0. 0. 0. 0. 0. 0. 0. 0. 0. 0. 0. 0. 0. 0. 0. 0. 0. 0. 0. 0. 0. 0.
    0. 0. 0. 0. 0. 0. 0. 0. 0. 0. 0. 0. 0. 0. 0. 0. 0. 0. 0. 0. 0. 0. 0.
    0. 0. 0. 0. 0. 0. 0. 0. 0. 0. 0. 0. 0. 0. 0. 0. 0. 0. 0. 0. 0. 0. 0.
    0. 0. 0. 0. 0. 0. 0. 0. 0. 0. 0. 0. 0. 0. 0. 0. 0. 0. 0. 0. 0. 0. 0.
    0. 0. 0.</missing_subst>
  <ntrees>100</ntrees>
  <trees>
    <_>
      <nodes>
        <_>
          <depth>0</depth>
          <value>-1.9330563624581690e-01</value>
          <splits>
            <_><var>100</var>
              <quality>1.3220752775669098e-01</quality>
              <le>1.9607844296842813e-03</le></_></splits></_>
        <_>
          <depth>1</depth>
          <value>-2.9350511717328437e-01</value>
          <splits>
            <_><var>150</var>
              <quality>1.4410191774368286e-01</quality>
              <le>2.9215687513351440e-01</le></_></splits></_>
        <_>
          <depth>2</depth>
          <value>-4.2507852373362881e-01</value></_>
        <_>
          <depth>2</depth>
          <value>3.9015177931869466e-01</value></_>
        <_>
          <depth>1</depth>
          <value>1.1664369659923142e+00</value>
          <splits>
            <_><var>459</var>
              <quality>6.0701929032802582e-02</quality>
              <le>1.7647059634327888e-02</le></_></splits></_>
        <_>
          <depth>2</depth>
          <value>5.7209244297345774e-01</value></_>
        <_>
          <depth>2</depth>
          <value>1.7181047138109713e+00</value></_></nodes></_>
    <_>
      <nodes>
        <_>
          <depth>0</depth>
          <value>-2.4063321804640894e-02</value>
          <splits>
            <_><var>345</var>
              <quality>7.8621208667755127e-02</quality>
              <le>1.7647059634327888e-02</le></_></splits></_>
        <_>
          <depth>1</depth>
          <value>2.4247575228282819e-01</value>
          <splits>
            <_><var>437</var>
              <quality>1.1214377731084824e-01</quality>
              <le>1.9607844296842813e-03</le></_></splits></_>
        <_>
          <depth>2</depth>
          <value>-2.7935034676879156e-01</value></_>
        <_>
          <depth>2</depth>
          <value>6.1157550218999668e-01</value></_>
        <_>
          <depth>1</depth>
          <value>-3.4201636107214262e-01</value>
          <splits>
            <_><var>431</var>
              <quality>8.1437043845653534e-02</quality>
              <le>9.8039228469133377e-03</le></_></splits></_>
        <_>
          <depth>2</depth>
          <value>-4.4729676572363028e-02</value></_>
        <_>
          <depth>2</depth>
          <value>-6.6679656960445999e-01</value></_></nodes></_>
    <_>
      <nodes>
        <_>
          <depth>0</depth>
          <value>2.0026665673607346e-02</value>
          <splits>
            <_><var>381</var>
              <quality>3.9581898599863052e-02</quality>
              <le>1.9607844296842813e-03</le></_></splits></_>
        <_>
          <depth>1</depth>
          <value>-2.8462174980870975e-01</value>
          <splits>
            <_><var>465</var>
              <quality>4.5289568603038788e-02</quality>
              <le>8.4313727915287018e-02</le></_></splits></_>
        <_>
          <depth>2</depth>
          <value>-5.5165421577398066e-01</value></_>
        <_>
          <depth>2</depth>
          <value>3.8814133544017193e-02</value></_>
        <_>
          <depth>1</depth>
          <value>1.5427155679922180e-01</value>
          <splits>
            <_><var>432</var>
              <quality>6.3664183020591736e-02</quality>
              <le>5.8823535218834877e-03</le></_></splits></_>
        <_>
          <depth>2</depth>
          <value>4.7759945555543182e-01</value></_>
        <_>
          <depth>2</depth>
          <value>-8.5999980610639154e-02</value></_></nodes></_>
    <_>
      <nodes>
        <_>
          <depth>0</depth>
          <value>2.3114016789451612e-03</value>
          <splits>
            <_><var>96</var>
              <quality>4.1210077702999115e-02</quality>
              <le>1.9607844296842813e-03</le></_></splits></_>
        <_>
          <depth>1</depth>
          <value>-5.0090269423398837e-02</value>
          <splits>
            <_><var>371</var>
              <quality>3.2816946506500244e-02</quality>
              <le>4.6078434586524963e-01</le></_></splits></_>
        <_>
          <depth>2</depth>
          <value>3.6687271485835012e-02</value></_>
        <_>
          <depth>2</depth>
          <value>-4.6181388030368709e-01</value></_>
        <_>
          <depth>1</depth>
          <value>1.1080999777026008e+00</value>
          <splits>
            <_><var>100</var>
              <quality>4.2817346751689911e-02</quality>
              <le>1.9607844296842813e-03</le></_></splits></_>
        <_>
          <depth>2</depth>
          <value>1.5004977401997748e+00</value></_>
        <_>
          <depth>2</depth>
          <value>1.6680880305356996e-01</value></_></nodes></_>
    <_>
      <nodes>
        <_>
          <depth>0</depth>
          <value>2.3551715871752782e-02</value>
          <splits>
            <_><var>230</var>
              <quality>3.6776941269636154e-02</quality>
              <le>1.9607844296842813e-03</le></_></splits></_>
        <_>
          <depth>1</depth>
          <value>-5.5875278202527079e-02</value>
          <splits>
            <_><var>524</var>
              <quality>3.1299229711294174e-02</quality>
              <le>1.3725491240620613e-02</le></_></splits></_>
        <_>
          <depth>2</depth>
          <value>-1.8295057388683764e-01</value></_>
        <_>
          <depth>2</depth>
          <value>2.2933295699676348e-01</value></_>
        <_>
          <depth>1</depth>
          <value>5.5343458559471947e-01</value>
          <splits>
            <_><var>398</var>
              <quality>4.9808338284492493e-02</quality>
              <le>5.5882358551025391e-01</le></_></splits></_>
        <_>
          <depth>2</depth>
          <value>7.9069031379233246e-01</value></_>
        <_>
          <depth>2</depth>
          <value>-2.4117384893231303e-01</value></_></nodes></_>
    <_>
      <nodes>
        <_>
          <depth>0</depth>
          <value>-2.4757051138850752e-02</value>
          <splits>
            <_><var>710</var>
              <quality>2.8594044968485832e-02</quality>
              <le>9.8039228469133377e-03</le></_></splits></_>
        <_>
          <depth>1</depth>
          <value>-7.9800788377728069e-02</value>
          <splits>
            <_><var>104</var>
              <quality>3.4348241984844208e-02</quality>
              <le>4.9019612371921539e-02</le></_></splits></_>
        <_>
          <depth>2</depth>
          <value>-1.2386853847049333e-01</value></_>
        <_>
          <depth>2</depth>
          <value>8.3178734846203450e-01</value></_>
        <_>
          <depth>1</depth>
          <value>5.5958908293217224e-01</value>
          <splits>
            <_><var>404</var>
              <quality>4.0847469121217728e-02</quality>
              <le>5.8823535218834877e-03</le></_></splits></_>
        <_>
          <depth>2</depth>
          <value>1.1814370371803360e+00</value></_>
        <_>
          <depth>2</depth>
          <value>-1.1212613955915350e-01</value></_></nodes></_>
    <_>
      <nodes>
        <_>
          <depth>0</depth>
          <value>3.8189955288317539e-03</value>
          <splits>
            <_><var>319</var>
              <quality>3.7390083074569702e-02</quality>
              <le>2.9607844352722168e-01</le></_></splits></_>
        <_>
          <depth>1</depth>
          <value>1.8818059067334272e-01</value>
          <splits>
            <_><var>344</var>
              <quality>5.1253646612167358e-02</quality>
              <le>1.3921569287776947e-01</le></_></splits></_>
        <_>
          <depth>2</depth>
          <value>3.6247298517624510e-01</value></_>
        <_>
          <depth>2</depth>
          <value>-2.1427786968783749e-01</value></_>
        <_>
          <depth>1</depth>
          <value>-2.1213797688775241e-01</value>
          <splits>
            <_><var>294</var>
              <quality>5.8266151696443558e-02</quality>
              <le>6.7254900932312012e-01</le></_></splits></_>
        <_>
          <depth>2</depth>
          <value>-4.4089736704620264e-01</value></_>
        <_>
          <depth>2</depth>
          <value>2.1988028533029558e-01</value></_></nodes></_>
    <_>
      <nodes>
        <_>
          <depth>0</depth>
          <value>1.9282566353296206e-02</value>
          <splits>
            <_><var>549</var>
              <quality>3.5519059747457504e-02</quality>
              <le>2.9411766678094864e-02</le></_></splits></_>
        <_>
          <depth>1</depth>
          <value>-2.2245544259516722e-01</value>
          <splits>
            <_><var>349</var>
              <quality>4.3726973235607147e-02</quality>
              <le>2.5490198284387589e-02</le></_></splits></_>
        <_>
          <depth>2</depth>
          <value>7.8664705911107413e-02</value></_>
        <_>
          <depth>2</depth>
          <value>-4.8432416125998268e-01</value></_>
        <_>
          <depth>1</depth>
          <value>1.7652846220727128e-01</value>
          <splits>
            <_><var>219</var>
              <quality>3.7301823496818542e-02</quality>
              <le>5.8823535218834877e-03</le></_></splits></_>
        <_>
          <depth>2</depth>
          <value>2.3327257049379510e-01</value></_>
        <_>
          <depth>2</depth>
          <value>-4.9331242896640409e-01</value></_></nodes></_>
    <_>
      <nodes>
        <_>
          <depth>0</depth>
          <value>-1.0334755103864742e-02</value>
          <splits>
            <_><var>741</var>
              <quality>2.5132216513156891e-02</quality>
              <le>1.3725491240620613e-02</le></_></splits></_>
        <_>
          <depth>1</depth>
          <value>-4.4669363756387241e-02</value>
          <splits>
            <_><var>431</var>
              <quality>2.3907674476504326e-02</quality>
              <le>2.1568629890680313e-02</le></_></splits></_>
        <_>
          <depth>2</depth>
          <value>-2.0656969798336250e-01</value></_>
        <_>
          <depth>2</depth>
          <value>1.0855862937069770e-01</value></_>
        <_>
          <depth>1</depth>
          <value>9.9082861811432132e-01</value>
          <splits>
            <_><var>404</var>
              <quality>2.9192965477705002e-02</quality>
              <le>1.9411766529083252e-01</le></_></splits></_>
        <_>
          <depth>2</depth>
          <value>1.4658677494799497e+00</value></_>
        <_>
          <depth>2</depth>
          <value>-2.7386498958830563e-01</value></_></nodes></_>
    <_>
      <nodes>
        <_>
          <depth>0</depth>
          <value>4.3637727661287916e-03</value>
          <splits>
            <_><var>437</var>
              <quality>1.8130699172616005e-02</quality>
              <le>5.8823535218834877e-03</le></_></splits></_>
        <_>
          <depth>1</depth>
          <value>2.0146281297277446e-01</value>
          <splits>
            <_><var>626</var>
              <quality>3.4855652600526810e-02</quality>
              <le>9.6078440546989441e-02</le></_></splits></_>
        <_>
          <depth>2</depth>
          <value>5.2719116114524234e-01</value></_>
        <_>
          <depth>2</depth>
          <value>-4.6751544362167129e-02</value></_>
        <_>
          <depth>1</depth>
          <value>-9.3756687567398189e-02</value>
          <splits>
            <_><var>345</var>
              <quality>3.5699691623449326e-02</quality>
              <le>1.7647059634327888e-02</le></_></splits></_>
        <_>
          <depth>2</depth>
          <value>-3.3979350436504657e-01</value></_>
        <_>
          <depth>2</depth>
          <value>1.1065924125659721e-01</value></_></nodes></_>
    <_>
      <nodes>
        <_>
          <depth>0</depth>
          <value>-1.0255949542142009e-02</value>
          <splits>
            <_><var>650</var>
              <quality>2.1109895780682564e-02</quality>
              <le>1.9607844296842813e-03</le></_></splits></_>
        <_>
          <depth>1</depth>
          <value>-6.4670236608626086e-02</value>
          <splits>
            <_><var>71</var>
              <quality>1.7103321850299835e-02</quality>
              <le>1.9607844296842813e-03</le></_></splits></_>
        <_>
          <depth>2</depth>
          <value>-8.3522390456610696e-02</value></_>
        <_>
          <depth>2</depth>
          <value>1.1024369633690538e+00</value></_>
        <_>
          <depth>1</depth>
          <value>4.1990218862175799e-01</value>
          <splits>
            <_><var>293</var>
              <quality>2.8862638399004936e-02</quality>
              <le>8.8431382179260254e-01</le></_></splits></_>
        <_>
          <depth>2</depth>
          <value>6.3352262754659805e-01</value></_>
        <_>
          <depth>2</depth>
          <value>-2.2134021620724939e-01</value></_></nodes></_>
    <_>
      <nodes>
        <_>
          <depth>0</depth>
          <value>-2.8689463455074701e-03</value>
          <splits>
            <_><var>120</var>
              <quality>1.2966924346983433e-02</quality>
              <le>6.0784317553043365e-02</le></_></splits></_>
        <_>
          <depth>1</depth>
          <value>-2.6191392092848834e-02</value>
          <splits>
            <_><var>744</var>
              <quality>1.2422683648765087e-02</quality>
              <le>1.9607844296842813e-03</le></_></splits></_>
        <_>
          <depth>2</depth>
          <value>-4.7042582871338064e-02</value></_>
        <_>
          <depth>2</depth>
          <value>6.8327955008863628e-01</value></_>
        <_>
          <depth>1</depth>
          <value>6.6537340524218724e-01</value>
          <splits>
            <_><var>290</var>
              <quality>1.7169211059808731e-02</quality>
              <le>1.2352941930294037e-01</le></_></splits></_>
        <_>
          <depth>2</depth>
          <value>1.0668326666262158e+00</value></_>
        <_>
          <depth>2</depth>
          <value>-6.0378710212596817e-02</value></_></nodes></_>
    <_>
      <nodes>
        <_>
          <depth>0</depth>
          <value>-2.4231674199868070e-03</value>
          <splits>
            <_><var>544</var>
              <quality>1.2092858552932739e-02</quality>
              <le>9.0392160415649414e-01</le></_></splits></_>
        <_>
          <depth>1</depth>
          <value>-6.4005500729169690e-02</value>
          <splits>
            <_><var>296</var>
              <quality>2.8723198920488358e-02</quality>
              <le>4.9215689301490784e-01</le></_></splits></_>
        <_>
          <depth>2</depth>
          <value>-2.1615192162443558e-01</value></_>
        <_>
          <depth>2</depth>
          <value>1.7346204866698153e-01</value></_>
        <_>
          <depth>1</depth>
          <value>2.0712387073487390e-01</value>
          <splits>
            <_><var>350</var>
              <quality>2.2915510460734367e-02</quality>
              <le>5.9411764144897461e-01</le></_></splits></_>
        <_>
          <depth>2</depth>
          <value>4.0939796456038546e-01</value></_>
        <_>
          <depth>2</depth>
          <value>-1.4141315447884484e-01</value></_></nodes></_>
    <_>
      <nodes>
        <_>
          <depth>0</depth>
          <value>4.5032162074187011e-03</value>
          <splits>
            <_><var>535</var>
              <quality>1.1577154509723186e-02</quality>
              <le>1.7647059634327888e-02</le></_></splits></_>
        <_>
          <depth>1</depth>
          <value>-1.1326156583748557e-02</value>
          <splits>
            <_><var>428</var>
              <quality>1.0240798816084862e-02</quality>
              <le>8.7254905700683594e-01</le></_></splits></_>
        <_>
          <depth>2</depth>
          <value>3.6544823734306522e-02</value></_>
        <_>
          <depth>2</depth>
          <value>-2.4323420120641742e-01</value></_>
        <_>
          <depth>1</depth>
          <value>1.0280252975961237e+00</value>
          <splits>
            <_><var>244</var>
              <quality>1.3995222747325897e-02</quality>
              <le>1.9607844296842813e-03</le></_></splits></_>
        <_>
          <depth>2</depth>
          <value>-2.6204213893775663e-01</value></_>
        <_>
          <depth>2</depth>
          <value>1.4813173133571380e+00</value></_></nodes></_>
    <_>
      <nodes>
        <_>
          <depth>0</depth>
          <value>7.4284319056202230e-04</value>
          <splits>
            <_><var>467</var>
              <quality>1.0029346682131290e-02</quality>
              <le>1.9607844296842813e-03</le></_></splits></_>
        <_>
          <depth>1</depth>
          <value>-9.7612199435155825e-02</value>
          <splits>
            <_><var>406</var>
              <quality>2.5727210566401482e-02</quality>
              <le>8.4901964664459229e-01</le></_></splits></_>
        <_>
          <depth>2</depth>
          <value>9.1510357112021434e-02</value></_>
        <_>
          <depth>2</depth>
          <value>-3.3329575420703400e-01</value></_>
        <_>
          <depth>1</depth>
          <value>1.0882635171730712e-01</value>
          <splits>
            <_><var>406</var>
              <quality>2.1268509328365326e-02</quality>
              <le>1.9607844296842813e-03</le></_></splits></_>
        <_>
          <depth>2</depth>
          <value>-1.0637401849792284e-01</value></_>
        <_>
          <depth>2</depth>
          <value>2.7973688621766546e-01</value></_></nodes></_>
    <_>
      <nodes>
        <_>
          <depth>0</depth>
          <value>-3.0210996060578421e-03</value>
          <splits>
            <_><var>689</var>
              <quality>1.1026956140995026e-02</quality>
              <le>1.9607844296842813e-03</le></_></splits></_>
        <_>
          <depth>1</depth>
          <value>4.2268143322921822e-02</value>
          <splits>
            <_><var>248</var>
              <quality>1.1364658363163471e-02</quality>
              <le>4.1176471859216690e-02</le></_></splits></_>
        <_>
          <depth>2</depth>
          <value>6.3914840311049353e-02</value></_>
        <_>
          <depth>2</depth>
          <value>-5.8123521736961703e-01</value></_>
        <_>
          <depth>1</depth>
          <value>-2.6350206202358178e-01</value>
          <splits>
            <_><var>459</var>
              <quality>2.1515140309929848e-02</quality>
              <le>1.7647059634327888e-02</le></_></splits></_>
        <_>
          <depth>2</depth>
          <value>2.2542096537021026e-02</value></_>
        <_>
          <depth>2</depth>
          <value>-6.2232035811084641e-01</value></_></nodes></_>
    <_>
      <nodes>
        <_>
          <depth>0</depth>
          <value>2.9633245255044328e-03</value>
          <splits>
            <_><var>737</var>
              <quality>8.8082151487469673e-03</quality>
              <le>1.9607844296842813e-03</le></_></splits></_>
        <_>
          <depth>1</depth>
          <value>-1.0834067660988194e-02</value>
          <splits>
            <_><var>317</var>
              <quality>9.6132969483733177e-03</quality>
              <le>2.8431373834609985e-01</le></_></splits></_>
        <_>
          <depth>2</depth>
          <value>6.7996917845351154e-02</value></_>
        <_>
          <depth>2</depth>
          <value>-1.4145796215411788e-01</value></_>
        <_>
          <depth>1</depth>
          <value>8.1866787764867333e-01</value>
          <splits>
            <_><var>405</var>
              <quality>1.2245680205523968e-02</quality>
              <le>1.7450980842113495e-01</le></_></splits></_>
        <_>
          <depth>2</depth>
          <value>1.1708795810432204e+00</value></_>
        <_>
          <depth>2</depth>
          <value>-6.3278454510810944e-01</value></_></nodes></_>
    <_>
      <nodes>
        <_>
          <depth>0</depth>
          <value>4.5976948207917005e-04</value>
          <splits>
            <_><var>188</var>
              <quality>7.9326136037707329e-03</quality>
              <le>4.5098043978214264e-02</le></_></splits></_>
        <_>
          <depth>1</depth>
          <value>6.0301989727787761e-02</value>
          <splits>
            <_><var>653</var>
              <quality>1.2479472905397415e-02</quality>
              <le>3.9803925156593323e-01</le></_></splits></_>
        <_>
          <depth>2</depth>
          <value>9.6823889190248390e-03</value></_>
        <_>
          <depth>2</depth>
          <value>3.7634981528178768e-01</value></_>
        <_>
          <depth>1</depth>
          <value>-1.4015346635992834e-01</value>
          <splits>
            <_><var>184</var>
              <quality>1.6448456794023514e-02</quality>
              <le>5.2941180765628815e-02</le></_></splits></_>
        <_>
          <depth>2</depth>
          <value>-5.4268646004405507e-01</value></_>
        <_>
          <depth>2</depth>
          <value>-3.1333404762726752e-02</value></_></nodes></_>
    <_>
      <nodes>
        <_>
          <depth>0</depth>
          <value>-4.9623078234356521e-04</value>
          <splits>
            <_><var>150</var>
              <quality>7.6149241067469120e-03</quality>
              <le>2.9215687513351440e-01</le></_></splits></_>
        <_>
          <depth>1</depth>
          <value>3.9050153134368833e-02</value>
          <splits>
            <_><var>526</var>
              <quality>1.4481805264949799e-02</quality>
              <le>7.6470591127872467e-02</le></_></splits></_>
        <_>
          <depth>2</depth>
          <value>-6.7437154211320320e-03</value></_>
        <_>
          <depth>2</depth>
          <value>4.2804973996254597e-01</value></_>
        <_>
          <depth>1</depth>
          <value>-2.0615424135813637e-01</value>
          <splits>
            <_><var>261</var>
              <quality>3.1704954802989960e-02</quality>
              <le>9.8039228469133377e-03</le></_></splits></_>
        <_>
          <depth>2</depth>
          <value>2.8380238683089909e-01</value></_>
        <_>
          <depth>2</depth>
          <value>-6.0930336899500848e-01</value></_></nodes></_>
    <_>
      <nodes>
        <_>
          <depth>0</depth>
          <value>-2.8768601929653206e-03</value>
          <splits>
            <_><var>205</var>
              <quality>8.0527961254119873e-03</quality>
              <le>1.7058824002742767e-01</le></_></splits></_>
        <_>
          <depth>1</depth>
          <value>-6.2107965863627677e-02</value>
          <splits>
            <_><var>317</var>
              <quality>1.1978125199675560e-02</quality>
              <le>2.2549021244049072e-01</le></_></splits></_>
        <_>
          <depth>2</depth>
          <value>-1.5558425014198643e-01</value></_>
        <_>
          <depth>2</depth>
          <value>8.9456054548705546e-02</value></_>
        <_>
          <depth>1</depth>
          <value>1.4111891335220461e-01</value>
          <splits>
            <_><var>315</var>
              <quality>3.0152589082717896e-02</quality>
              <le>1.9607844296842813e-03</le></_></splits></_>
        <_>
          <depth>2</depth>
          <value>4.1967756703066977e-01</value></_>
        <_>
          <depth>2</depth>
          <value>-2.0895952034030821e-01</value></_></nodes></_>
    <_>
      <nodes>
        <_>
          <depth>0</depth>
          <value>-1.1376098799892372e-03</value>
          <splits>
            <_><var>514</var>
              <quality>8.5024023428559303e-03</quality>
              <le>7.7058827877044678e-01</le></_></splits></_>
        <_>
          <depth>1</depth>
          <value>-5.7522676167289961e-02</value>
          <splits>
            <_><var>298</var>
              <quality>1.8187982961535454e-02</quality>
              <le>7.4705886840820312e-01</le></_></splits></_>
        <_>
          <depth>2</depth>
          <value>-1.6379516728044907e-01</value></_>
        <_>
          <depth>2</depth>
          <value>1.5964430036893063e-01</value></_>
        <_>
          <depth>1</depth>
          <value>1.5907524074340462e-01</value>
          <splits>
            <_><var>270</var>
              <quality>2.7575626969337463e-02</quality>
              <le>1.9607844296842813e-03</le></_></splits></_>
        <_>
          <depth>2</depth>
          <value>5.4450691027111731e-01</value></_>
        <_>
          <depth>2</depth>
          <value>-9.6591303653197624e-02</value></_></nodes></_>
    <_>
      <nodes>
        <_>
          <depth>0</depth>
          <value>-2.3216172201044262e-03</value>
          <splits>
            <_><var>346</var>
              <quality>9.0001877397298813e-03</quality>
              <le>5.0392162799835205e-01</le></_></splits></_>
        <_>
          <depth>1</depth>
          <value>7.4495001949017425e-02</value>
          <splits>
            <_><var>320</var>
              <quality>1.9415512681007385e-02</quality>
              <le>5.8627450466156006e-01</le></_></splits></_>
        <_>
          <depth>2</depth>
          <value>1.7230123075706247e-01</value></_>
        <_>
          <depth>2</depth>
          <value>-2.1435639916012286e-01</value></_>
        <_>
          <depth>1</depth>
          <value>-1.2574533997256321e-01</value>
          <splits>
            <_><var>290</var>
              <quality>1.8615100532770157e-02</quality>
              <le>3.3333335071802139e-02</le></_></splits></_>
        <_>
          <depth>2</depth>
          <value>2.2993397803698401e-01</value></_>
        <_>
          <depth>2</depth>
          <value>-2.2876489115322851e-01</value></_></nodes></_>
    <_>
      <nodes>
        <_>
          <depth>0</depth>
          <value>1.3527380882561576e-03</value>
          <splits>
            <_><var>100</var>
              <quality>7.1305162273347378e-03</quality>
              <le>1.9607844296842813e-03</le></_></splits></_>
        <_>
          <depth>1</depth>
          <value>2.7252150519975440e-02</value>
          <splits>
            <_><var>102</var>
              <quality>1.2423531152307987e-02</quality>
              <le>1.1176471412181854e-01</le></_></splits></_>
        <_>
          <depth>2</depth>
          <value>7.3794774274381827e-03</value></_>
        <_>
          <depth>2</depth>
          <value>8.8105731916395913e-01</value></_>
        <_>
          <depth>1</depth>
          <value>-2.9687294879926684e-01</value>
          <splits>
            <_><var>374</var>
              <quality>1.5166871249675751e-02</quality>
              <le>2.2549021244049072e-01</le></_></splits></_>
        <_>
          <depth>2</depth>
          <value>-6.5886501524917551e-01</value></_>
        <_>
          <depth>2</depth>
          <value>9.7264849863418018e-02</value></_></nodes></_>
    <_>
      <nodes>
        <_>
          <depth>0</depth>
          <value>9.1437725248747024e-04</value>
          <splits>
            <_><var>213</var>
              <quality>6.9632492959499359e-03</quality>
              <le>1.9607844296842813e-03</le></_></splits></_>
        <_>
          <depth>1</depth>
          <value>1.2006665493927894e-01</value>
          <splits>
            <_><var>384</var>
              <quality>2.0554693415760994e-02</quality>
              <le>2.9411766678094864e-02</le></_></splits></_>
        <_>
          <depth>2</depth>
          <value>-5.6010608059536747e-02</value></_>
        <_>
          <depth>2</depth>
          <value>4.2131198140237369e-01</value></_>
        <_>
          <depth>1</depth>
          <value>-6.0967530706468563e-02</value>
          <splits>
            <_><var>359</var>
              <quality>1.7560921609401703e-02</quality>
              <le>2.9411766678094864e-02</le></_></splits></_>
        <_>
          <depth>2</depth>
          <value>-2.0015475973523388e-02</value></_>
        <_>
          <depth>2</depth>
          <value>-7.8941100221823468e-01</value></_></nodes></_>
    <_>
      <nodes>
        <_>
          <depth>0</depth>
          <value>1.7772801753533087e-04</value>
          <splits>
            <_><var>692</var>
              <quality>8.7786410003900528e-03</quality>
              <le>1.6666667163372040e-01</le></_></splits></_>
        <_>
          <depth>1</depth>
          <value>1.8830948455587734e-02</value>
          <splits>
            <_><var>444</var>
              <quality>6.4584990032017231e-03</quality>
              <le>9.8039228469133377e-03</le></_></splits></_>
        <_>
          <depth>2</depth>
          <value>1.5314355192817357e-03</value></_>
        <_>
          <depth>2</depth>
          <value>4.3100911241541845e-01</value></_>
        <_>
          <depth>1</depth>
          <value>-5.4302590640768922e-01</value>
          <splits>
            <_><var>292</var>
              <quality>1.2526618316769600e-02</quality>
              <le>8.0392159521579742e-02</le></_></splits></_>
        <_>
          <depth>2</depth>
          <value>-9.0228078226803587e-01</value></_>
        <_>
          <depth>2</depth>
          <value>3.6707180885973030e-02</value></_></nodes></_>
    <_>
      <nodes>
        <_>
          <depth>0</depth>
          <value>-2.2070155917419134e-03</value>
          <splits>
            <_><var>648</var>
              <quality>5.9105232357978821e-03</quality>
              <le>5.8823535218834877e-03</le></_></splits></_>
        <_>
          <depth>1</depth>
          <value>-1.3623029053972772e-02</value>
          <splits>
            <_><var>712</var>
              <quality>5.8278734795749187e-03</quality>
              <le>8.8235296308994293e-02</le></_></splits></_>
        <_>
          <depth>2</depth>
          <value>-3.9016358414917345e-02</value></_>
        <_>
          <depth>2</depth>
          <value>2.2977584193219319e-01</value></_>
        <_>
          <depth>1</depth>
          <value>6.0728699429279598e-01</value>
          <splits>
            <_><var>270</var>
              <quality>7.0318602956831455e-03</quality>
              <le>4.5098043978214264e-02</le></_></splits></_>
        <_>
          <depth>2</depth>
          <value>1.8142190362891208e-01</value></_>
        <_>
          <depth>2</depth>
          <value>9.1809991427386495e-01</value></_></nodes></_>
    <_>
      <nodes>
        <_>
          <depth>0</depth>
          <value>5.7816433713735882e-05</value>
          <splits>
            <_><var>381</var>
              <quality>5.3579970262944698e-03</quality>
              <le>1.9607844296842813e-03</le></_></splits></_>
        <_>
          <depth>1</depth>
          <value>1.0948311312826831e-01</value>
          <splits>
            <_><var>459</var>
              <quality>1.5241339802742004e-02</quality>
              <le>5.6666672229766846e-01</le></_></splits></_>
        <_>
          <depth>2</depth>
          <value>-1.5889022169102436e-02</value></_>
        <_>
          <depth>2</depth>
          <value>4.3891588738765508e-01</value></_>
        <_>
          <depth>1</depth>
          <value>-5.1736340862120228e-02</value>
          <splits>
            <_><var>574</var>
              <quality>7.8329294919967651e-03</quality>
              <le>4.7647061944007874e-01</le></_></splits></_>
        <_>
          <depth>2</depth>
          <value>-1.4066318573119393e-01</value></_>
        <_>
          <depth>2</depth>
          <value>5.6124165575040463e-02</value></_></nodes></_>
    <_>
      <nodes>
        <_>
          <depth>0</depth>
          <value>-7.7937221647110858e-04</value>
          <splits>
            <_><var>706</var>
              <quality>6.3677998259663582e-03</quality>
              <le>1.7647059634327888e-02</le></_></splits></_>
        <_>
          <depth>1</depth>
          <value>-1.1447840044730531e-02</value>
          <splits>
            <_><var>578</var>
              <quality>6.9374926388263702e-03</quality>
              <le>1.9607844296842813e-03</le></_></splits></_>
        <_>
          <depth>2</depth>
          <value>-9.8764204474944994e-02</value></_>
        <_>
          <depth>2</depth>
          <value>7.2539432400669429e-02</value></_>
        <_>
          <depth>1</depth>
          <value>7.3725814906316778e-01</value>
          <splits>
            <_><var>376</var>
              <quality>8.1774247810244560e-03</quality>
              <le>2.8823530673980713e-01</le></_></splits></_>
        <_>
          <depth>2</depth>
          <value>1.1225297964857295e+00</value></_>
        <_>
          <depth>2</depth>
          <value>-4.5643254268511187e-02</value></_></nodes></_>
    <_>
      <nodes>
        <_>
          <depth>0</depth>
          <value>7.3487138945446890e-04</value>
          <splits>
            <_><var>277</var>
              <quality>4.5403027907013893e-03</quality>
              <le>9.8039228469133377e-03</le></_></splits></_>
        <_>
          <depth>1</depth>
          <value>7.3243421338342269e-03</value>
          <splits>
            <_><var>520</var>
              <quality>4.4792410917580128e-03</quality>
              <le>3.7450981140136719e-01</le></_></splits></_>
        <_>
          <depth>2</depth>
          <value>-5.7281279289629748e-02</value></_>
        <_>
          <depth>2</depth>
          <value>8.0381799600165282e-02</value></_>
        <_>
          <depth>1</depth>
          <value>-9.1702867245661801e-01</value>
          <splits>
            <_><var>398</var>
              <quality>5.9354109689593315e-03</quality>
              <le>4.5098042488098145e-01</le></_></splits></_>
        <_>
          <depth>2</depth>
          <value>-1.4180778488127439e+00</value></_>
        <_>
          <depth>2</depth>
          <value>3.1124431158229054e-01</value></_></nodes></_>
    <_>
      <nodes>
        <_>
          <depth>0</depth>
          <value>-1.0457010727497797e-03</value>
          <splits>
            <_><var>255</var>
              <quality>4.5033157803118229e-03</quality>
              <le>1.9607844296842813e-03</le></_></splits></_>
        <_>
          <depth>1</depth>
          <value>-7.8551648450840388e-03</value>
          <splits>
            <_><var>314</var>
              <quality>4.9082720652222633e-03</quality>
              <le>5.1568627357482910e-01</le></_></splits></_>
        <_>
          <depth>2</depth>
          <value>1.6224189731783814e-02</value></_>
        <_>
          <depth>2</depth>
          <value>-2.2529543416218833e-01</value></_>
        <_>
          <depth>1</depth>
          <value>8.5488330567701265e-01</value>
          <splits>
            <_><var>158</var>
              <quality>6.4074480906128883e-03</quality>
              <le>2.5490198284387589e-02</le></_></splits></_>
        <_>
          <depth>2</depth>
          <value>1.2294472118138076e+00</value></_>
        <_>
          <depth>2</depth>
          <value>-9.3646358535314989e-01</value></_></nodes></_>
    <_>
      <nodes>
        <_>
          <depth>0</depth>
          <value>7.0997423562956395e-05</value>
          <splits>
            <_><var>374</var>
              <quality>4.9371877685189247e-03</quality>
              <le>3.9019611477851868e-01</le></_></splits></_>
        <_>
          <depth>1</depth>
          <value>5.9707814980934922e-02</value>
          <splits>
            <_><var>349</var>
              <quality>1.2919873930513859e-02</quality>
              <le>6.3725495338439941e-01</le></_></splits></_>
        <_>
          <depth>2</depth>
          <value>1.4650677286897101e-01</value></_>
        <_>
          <depth>2</depth>
          <value>-1.6708023307029721e-01</value></_>
        <_>
          <depth>1</depth>
          <value>-8.7393582760410343e-02</value>
          <splits>
            <_><var>289</var>
              <quality>1.1992570012807846e-02</quality>
              <le>1.7450980842113495e-01</le></_></splits></_>
        <_>
          <depth>2</depth>
          <value>4.2474211127164554e-02</value></_>
        <_>
          <depth>2</depth>
          <value>-2.7531526426543856e-01</value></_></nodes></_>
    <_>
      <nodes>
        <_>
          <depth>0</depth>
          <value>2.1404393791897842e-03</value>
          <splits>
            <_><var>486</var>
              <quality>4.9880519509315491e-03</quality>
              <le>5.8823535218834877e-03</le></_></splits></_>
        <_>
          <depth>1</depth>
          <value>6.9333349104841915e-02</value>
          <splits>
            <_><var>466</var>
              <quality>1.0336712002754211e-02</quality>
              <le>6.8627454340457916e-02</le></_></splits></_>
        <_>
          <depth>2</depth>
          <value>-5.6499138645786651e-02</value></_>
        <_>
          <depth>2</depth>
          <value>1.9436378022880679e-01</value></_>
        <_>
          <depth>1</depth>
          <value>-7.6209563941517372e-02</value>
          <splits>
            <_><var>571</var>
              <quality>1.8950216472148895e-02</quality>
              <le>1.7843137681484222e-01</le></_></splits></_>
        <_>
          <depth>2</depth>
          <value>-2.9355800694265810e-01</value></_>
        <_>
          <depth>2</depth>
          <value>1.0303345411921243e-01</value></_></nodes></_>
    <_>
      <nodes>
        <_>
          <depth>0</depth>
          <value>-4.1275088273357594e-04</value>
          <splits>
            <_><var>584</var>
              <quality>4.7072623856365681e-03</quality>
              <le>3.6666667461395264e-01</le></_></splits></_>
        <_>
          <depth>1</depth>
          <value>-7.8650262169474416e-03</value>
          <splits>
            <_><var>716</var>
              <quality>4.8230462707579136e-03</quality>
              <le>3.3333335071802139e-02</le></_></splits></_>
        <_>
          <depth>2</depth>
          <value>-2.8258714198792837e-02</value></_>
        <_>
          <depth>2</depth>
          <value>2.4575749643420877e-01</value></_>
        <_>
          <depth>1</depth>
          <value>8.0079158939438022e-01</value>
          <splits>
            <_><var>442</var>
              <quality>6.8818107247352600e-03</quality>
              <le>2.7450982481241226e-02</le></_></splits></_>
        <_>
          <depth>2</depth>
          <value>1.3357697320929314e+00</value></_>
        <_>
          <depth>2</depth>
          <value>-3.8144439904185656e-01</value></_></nodes></_>
    <_>
      <nodes>
        <_>
          <depth>0</depth>
          <value>5.2303320674525017e-05</value>
          <splits>
            <_><var>389</var>
              <quality>4.8855780623853207e-03</quality>
              <le>3.7254903465509415e-02</le></_></splits></_>
        <_>
          <depth>1</depth>
          <value>-6.6841076856240540e-03</value>
          <splits>
            <_><var>501</var>
              <quality>4.3917270377278328e-03</quality>
              <le>5.8823535218834877e-03</le></_></splits></_>
        <_>
          <depth>2</depth>
          <value>-1.2930033942121038e-02</value></_>
        <_>
          <depth>2</depth>
          <value>9.3498785922043226e-01</value></_>
        <_>
          <depth>1</depth>
          <value>1.0045186917506583e+00</value>
          <splits>
            <_><var>654</var>
              <quality>5.9185326099395752e-03</quality>
              <le>4.9019612371921539e-02</le></_></splits></_>
        <_>
          <depth>2</depth>
          <value>1.3458841922307450e+00</value></_>
        <_>
          <depth>2</depth>
          <value>-4.4411101468481745e-01</value></_></nodes></_>
    <_>
      <nodes>
        <_>
          <depth>0</depth>
          <value>1.1418049363150401e-04</value>
          <splits>
            <_><var>636</var>
              <quality>4.1756667196750641e-03</quality>
              <le>4.9019612371921539e-02</le></_></splits></_>
        <_>
          <depth>1</depth>
          <value>-2.7456495823732035e-02</value>
          <splits>
            <_><var>291</var>
              <quality>4.9668340943753719e-03</quality>
              <le>1.0392157733440399e-01</le></_></splits></_>
        <_>
          <depth>2</depth>
          <value>5.2752080546838831e-02</value></_>
        <_>
          <depth>2</depth>
          <value>-9.4835931250883368e-02</value></_>
        <_>
          <depth>1</depth>
          <value>1.6095404726477111e-01</value>
          <splits>
            <_><var>259</var>
              <quality>1.7492871731519699e-02</quality>
              <le>2.5686275959014893e-01</le></_></splits></_>
        <_>
          <depth>2</depth>
          <value>4.6159473285643193e-01</value></_>
        <_>
          <depth>2</depth>
          <value>-2.0941403451025795e-01</value></_></nodes></_>
    <_>
      <nodes>
        <_>
          <depth>0</depth>
          <value>9.6208284262292807e-05</value>
          <splits>
            <_><var>318</var>
              <quality>4.1741835884749889e-03</quality>
              <le>9.8627460002899170e-01</le></_></splits></_>
        <_>
          <depth>1</depth>
          <value>-3.3494139802022670e-02</value>
          <splits>
            <_><var>371</var>
              <quality>7.4140965007245541e-03</quality>
              <le>3.7254903465509415e-02</le></_></splits></_>
        <_>
          <depth>2</depth>
          <value>2.0405944669170780e-02</value></_>
        <_>
          <depth>2</depth>
          <value>-1.9719045845230249e-01</value></_>
        <_>
          <depth>1</depth>
          <value>1.3170720323273194e-01</value>
          <splits>
            <_><var>376</var>
              <quality>1.3752811588346958e-02</quality>
              <le>1.3137255609035492e-01</le></_></splits></_>
        <_>
          <depth>2</depth>
          <value>3.4385448245684563e-01</value></_>
        <_>
          <depth>2</depth>
          <value>-1.3870092018396205e-01</value></_></nodes></_>
    <_>
      <nodes>
        <_>
          <depth>0</depth>
          <value>-1.4898114973814446e-03</value>
          <splits>
            <_><var>66</var>
              <quality>4.6408800408244133e-03</quality>
              <le>1.9607844296842813e-03</le></_></splits></_>
        <_>
          <depth>1</depth>
          <value>-6.4611589039173436e-03</value>
          <splits>
            <_><var>103</var>
              <quality>3.8550687022507191e-03</quality>
              <le>9.9411773681640625e-01</le></_></splits></_>
        <_>
          <depth>2</depth>
          <value>1.7625069845661015e-04</value></_>
        <_>
          <depth>2</depth>
          <value>-7.1597264504346225e-01</value></_>
        <_>
          <depth>1</depth>
          <value>2.3064191076682783e+00</value>
          <splits>
            <_><var>157</var>
              <quality>4.7877356410026550e-03</quality>
              <le>4.8627454042434692e-01</le></_></splits></_>
        <_>
          <depth>2</depth>
          <value>5.7564577324623896e+00</value></_>
        <_>
          <depth>2</depth>
          <value>-5.7564577324601141e+00</value></_></nodes></_>
    <_>
      <nodes>
        <_>
          <depth>0</depth>
          <value>4.9353470617965346e-03</value>
          <splits>
            <_><var>68</var>
              <quality>5.3719570860266685e-03</quality>
              <le>6.0784317553043365e-02</le></_></splits></_>
        <_>
          <depth>1</depth>
          <value>-1.3716855753305945e-03</value>
          <splits>
            <_><var>96</var>
              <quality>4.1231107898056507e-03</quality>
              <le>5.8823535218834877e-03</le></_></splits></_>
        <_>
          <depth>2</depth>
          <value>1.1591749547276277e-02</value></_>
        <_>
          <depth>2</depth>
          <value>-3.5228729758324556e-01</value></_>
        <_>
          <depth>1</depth>
          <value>1.4599823029881294e+00</value>
          <splits>
            <_><var>266</var>
              <quality>6.2346914783120155e-03</quality>
              <le>7.2549021244049072e-01</le></_></splits></_>
        <_>
          <depth>2</depth>
          <value>2.2401495175657118e+00</value></_>
        <_>
          <depth>2</depth>
          <value>-9.1794669550185370e-01</value></_></nodes></_>
    <_>
      <nodes>
        <_>
          <depth>0</depth>
          <value>-2.0695776526302685e-04</value>
          <splits>
            <_><var>98</var>
              <quality>4.1578412055969238e-03</quality>
              <le>8.8431382179260254e-01</le></_></splits></_>
        <_>
          <depth>1</depth>
          <value>-9.5305256949115291e-03</value>
          <splits>
            <_><var>74</var>
              <quality>3.5706979688256979e-03</quality>
              <le>4.6078434586524963e-01</le></_></splits></_>
        <_>
          <depth>2</depth>
          <value>-1.4309999123295241e-02</value></_>
        <_>
          <depth>2</depth>
          <value>1.0290252949152070e+00</value></_>
        <_>
          <depth>1</depth>
          <value>5.0900404226969687e-01</value>
          <splits>
            <_><var>238</var>
              <quality>8.4213111549615860e-03</quality>
              <le>8.7254905700683594e-01</le></_></splits></_>
        <_>
          <depth>2</depth>
          <value>8.7286471284687406e-01</value></_>
        <_>
          <depth>2</depth>
          <value>-5.9916992071506103e-01</value></_></nodes></_>
    <_>
      <nodes>
        <_>
          <depth>0</depth>
          <value>-7.5818779275938191e-04</value>
          <splits>
            <_><var>404</var>
              <quality>3.2568981405347586e-03</quality>
              <le>9.8235297203063965e-01</le></_></splits></_>
        <_>
          <depth>1</depth>
          <value>-2.9945103601222125e-02</value>
          <splits>
            <_><var>429</var>
              <quality>8.2256151363253593e-03</quality>
              <le>6.2941181659698486e-01</le></_></splits></_>
        <_>
          <depth>2</depth>
          <value>2.8778926202703701e-02</value></_>
        <_>
          <depth>2</depth>
          <value>-2.0141292527061622e-01</value></_>
        <_>
          <depth>1</depth>
          <value>1.1720725872861942e-01</value>
          <splits>
            <_><var>455</var>
              <quality>9.3883350491523743e-03</quality>
              <le>5.7058823108673096e-01</le></_></splits></_>
        <_>
          <depth>2</depth>
          <value>3.1206460628237297e-02</value></_>
        <_>
          <depth>2</depth>
          <value>6.0150871528040106e-01</value></_></nodes></_>
    <_>
      <nodes>
        <_>
          <depth>0</depth>
          <value>7.1907321416016321e-04</value>
          <splits>
            <_><var>714</var>
              <quality>3.4102639183402061e-03</quality>
              <le>3.3333335071802139e-02</le></_></splits></_>
        <_>
          <depth>1</depth>
          <value>-1.9033617521581107e-02</value>
          <splits>
            <_><var>432</var>
              <quality>5.0815367139875889e-03</quality>
              <le>1.9607844296842813e-03</le></_></splits></_>
        <_>
          <depth>2</depth>
          <value>-1.0129446634855863e-01</value></_>
        <_>
          <depth>2</depth>
          <value>4.8979887903174577e-02</value></_>
        <_>
          <depth>1</depth>
          <value>1.8451546638697558e-01</value>
          <splits>
            <_><var>406</var>
              <quality>1.2031144462525845e-02</quality>
              <le>5.8823535218834877e-03</le></_></splits></_>
        <_>
          <depth>2</depth>
          <value>5.5330413173741055e-01</value></_>
        <_>
          <depth>2</depth>
          <value>-1.1728520869101161e-01</value></_></nodes></_>
    <_>
      <nodes>
        <_>
          <depth>0</depth>
          <value>-1.1263412072995689e-03</value>
          <splits>
            <_><var>741</var>
              <quality>3.8527089636772871e-03</quality>
              <le>2.1568629890680313e-02</le></_></splits></_>
        <_>
          <depth>1</depth>
          <value>9.3713969854899090e-03</value>
          <splits>
            <_><var>107</var>
              <quality>3.3428519964218140e-03</quality>
              <le>5.7647061347961426e-01</le></_></splits></_>
        <_>
          <depth>2</depth>
          <value>4.5167102116556914e-03</value></_>
        <_>
          <depth>2</depth>
          <value>9.4135890871408290e-01</value></_>
        <_>
          <depth>1</depth>
          <value>-4.0866292140650767e-01</value>
          <splits>
            <_><var>211</var>
              <quality>7.5451647862792015e-03</quality>
              <le>2.4901962280273438e-01</le></_></splits></_>
        <_>
          <depth>2</depth>
          <value>2.2804779584902723e-01</value></_>
        <_>
          <depth>2</depth>
          <value>-7.4610806700189070e-01</value></_></nodes></_>
    <_>
      <nodes>
        <_>
          <depth>0</depth>
          <value>5.1966675614048194e-04</value>
          <splits>
            <_><var>294</var>
              <quality>2.7778693474829197e-03</quality>
              <le>9.3529415130615234e-01</le></_></splits></_>
        <_>
          <depth>1</depth>
          <value>2.8819485927919296e-02</value>
          <splits>
            <_><var>266</var>
              <quality>8.1292856484651566e-03</quality>
              <le>8.5294127464294434e-01</le></_></splits></_>
        <_>
          <depth>2</depth>
          <value>-1.6166340771296268e-02</value></_>
        <_>
          <depth>2</depth>
          <value>2.5829481612937710e-01</value></_>
        <_>
          <depth>1</depth>
          <value>-1.0318988432906791e-01</value>
          <splits>
            <_><var>320</var>
              <quality>1.4113267883658409e-02</quality>
              <le>4.4509807229042053e-01</le></_></splits></_>
        <_>
          <depth>2</depth>
          <value>-4.9654622524157216e-01</value></_>
        <_>
          <depth>2</depth>
          <value>6.1454321314508627e-02</value></_></nodes></_>
    <_>
      <nodes>
        <_>
          <depth>0</depth>
          <value>1.9718646958961591e-03</value>
          <splits>
            <_><var>273</var>
              <quality>3.4721388947218657e-03</quality>
              <le>4.4117650389671326e-01</le></_></splits></_>
        <_>
          <depth>1</depth>
          <value>3.0845835396004960e-02</value>
          <splits>
            <_><var>470</var>
              <quality>6.3783270306885242e-03</quality>
              <le>9.8039228469133377e-03</le></_></splits></_>
        <_>
          <depth>2</depth>
          <value>-4.7455597425004456e-03</value></_>
        <_>
          <depth>2</depth>
          <value>2.4039255349699029e-01</value></_>
        <_>
          <depth>1</depth>
          <value>-1.2516696877899933e-01</value>
          <splits>
            <_><var>485</var>
              <quality>8.1758024170994759e-03</quality>
              <le>1.3725491240620613e-02</le></_></splits></_>
        <_>
          <depth>2</depth>
          <value>6.0735204801758487e-02</value></_>
        <_>
          <depth>2</depth>
          <value>-2.9957971660211902e-01</value></_></nodes></_>
    <_>
      <nodes>
        <_>
          <depth>0</depth>
          <value>-1.6515642104756968e-04</value>
          <splits>
            <_><var>374</var>
              <quality>3.7361118011176586e-03</quality>
              <le>5.8823535218834877e-03</le></_></splits></_>
        <_>
          <depth>1</depth>
          <value>6.7736081056125913e-02</value>
          <splits>
            <_><var>397</var>
              <quality>9.6618048846721649e-03</quality>
              <le>4.1176471859216690e-02</le></_></splits></_>
        <_>
          <depth>2</depth>
          <value>1.1728171027710366e-01</value></_>
        <_>
          <depth>2</depth>
          <value>-2.9672918267381493e-01</value></_>
        <_>
          <depth>1</depth>
          <value>-5.8231852940738148e-02</value>
          <splits>
            <_><var>349</var>
              <quality>8.6825331673026085e-03</quality>
              <le>6.9215691089630127e-01</le></_></splits></_>
        <_>
          <depth>2</depth>
          <value>-1.4896295518310967e-01</value></_>
        <_>
          <depth>2</depth>
          <value>9.3416727183032372e-02</value></_></nodes></_>
    <_>
      <nodes>
        <_>
          <depth>0</depth>
          <value>-5.7844961780218905e-04</value>
          <splits>
            <_><var>246</var>
              <quality>4.1249208152294159e-03</quality>
              <le>7.2745096683502197e-01</le></_></splits></_>
        <_>
          <depth>1</depth>
          <value>-1.9630130082466273e-02</value>
          <splits>
            <_><var>621</var>
              <quality>4.5446641743183136e-03</quality>
              <le>1.0392157733440399e-01</le></_></splits></_>
        <_>
          <depth>2</depth>
          <value>-3.3047679087482235e-03</value></_>
        <_>
          <depth>2</depth>
          <value>-3.2453146884336231e-01</value></_>
        <_>
          <depth>1</depth>
          <value>2.3138469701908818e-01</value>
          <splits>
            <_><var>300</var>
              <quality>6.6666305065155029e-03</quality>
              <le>9.5490205287933350e-01</le></_></splits></_>
        <_>
          <depth>2</depth>
          <value>5.1725196084955440e-02</value></_>
        <_>
          <depth>2</depth>
          <value>4.8601382668649840e-01</value></_></nodes></_>
    <_>
      <nodes>
        <_>
          <depth>0</depth>
          <value>-6.4444007792688654e-04</value>
          <splits>
            <_><var>571</var>
              <quality>3.8430073764175177e-03</quality>
              <le>1.0392157733440399e-01</le></_></splits></_>
        <_>
          <depth>1</depth>
          <value>6.3442717143742194e-02</value>
          <splits>
            <_><var>429</var>
              <quality>8.2170777022838593e-03</quality>
              <le>3.2745099067687988e-01</le></_></splits></_>
        <_>
          <depth>2</depth>
          <value>1.4709881514795281e-01</value></_>
        <_>
          <depth>2</depth>
          <value>-9.8950514122647285e-02</value></_>
        <_>
          <depth>1</depth>
          <value>-6.3927688002918703e-02</value>
          <splits>
            <_><var>457</var>
              <quality>1.2296505272388458e-02</quality>
              <le>4.6862748265266418e-01</le></_></splits></_>
        <_>
          <depth>2</depth>
          <value>-1.6563426942085635e-01</value></_>
        <_>
          <depth>2</depth>
          <value>1.5318684482616235e-01</value></_></nodes></_>
    <_>
      <nodes>
        <_>
          <depth>0</depth>
          <value>4.0405046065534838e-04</value>
          <splits>
            <_><var>320</var>
              <quality>3.4083842765539885e-03</quality>
              <le>2.8431373834609985e-01</le></_></splits></_>
        <_>
          <depth>1</depth>
          <value>5.5215984267755772e-02</value>
          <splits>
            <_><var>181</var>
              <quality>1.5004855580627918e-02</quality>
              <le>5.8823535218834877e-03</le></_></splits></_>
        <_>
          <depth>2</depth>
          <value>-1.3538811950418519e-01</value></_>
        <_>
          <depth>2</depth>
          <value>1.9435541032963669e-01</value></_>
        <_>
          <depth>1</depth>
          <value>-6.5208479708260006e-02</value>
          <splits>
            <_><var>264</var>
              <quality>1.4265507459640503e-02</quality>
              <le>1.9607844296842813e-03</le></_></splits></_>
        <_>
          <depth>2</depth>
          <value>2.4976895142255270e-01</value></_>
        <_>
          <depth>2</depth>
          <value>-1.5922762922418893e-01</value></_></nodes></_>
    <_>
      <nodes>
        <_>
          <depth>0</depth>
          <value>-2.1441536490928617e-03</value>
          <splits>
            <_><var>265</var>
              <quality>5.7541988790035248e-03</quality>
              <le>7.6470591127872467e-02</le></_></splits></_>
        <_>
          <depth>1</depth>
          <value>-9.0653785346735669e-02</value>
          <splits>
            <_><var>289</var>
              <quality>2.1411998197436333e-02</quality>
              <le>1.3725491240620613e-02</le></_></splits></_>
        <_>
          <depth>2</depth>
          <value>9.9417163600650615e-02</value></_>
        <_>
          <depth>2</depth>
          <value>-3.3087109640375334e-01</value></_>
        <_>
          <depth>1</depth>
          <value>6.6525876588797064e-02</value>
          <splits>
            <_><var>350</var>
              <quality>1.6222657635807991e-02</quality>
              <le>8.6470592021942139e-01</le></_></splits></_>
        <_>
          <depth>2</depth>
          <value>1.6299041558283925e-01</value></_>
        <_>
          <depth>2</depth>
          <value>-2.0913119857801102e-01</value></_></nodes></_>
    <_>
      <nodes>
        <_>
          <depth>0</depth>
          <value>-3.0983575101270721e-04</value>
          <splits>
            <_><var>260</var>
              <quality>5.4925722070038319e-03</quality>
              <le>8.8823533058166504e-01</le></_></splits></_>
        <_>
          <depth>1</depth>
          <value>-3.0598435624873185e-02</value>
          <splits>
            <_><var>345</var>
              <quality>4.5912275090813637e-03</quality>
              <le>4.5098043978214264e-02</le></_></splits></_>
        <_>
          <depth>2</depth>
          <value>-9.3753641429688020e-02</value></_>
        <_>
          <depth>2</depth>
          <value>4.3591963845850630e-02</value></_>
        <_>
          <depth>1</depth>
          <value>1.9299373142943571e-01</value>
          <splits>
            <_><var>183</var>
              <quality>9.6139982342720032e-03</quality>
              <le>7.6470591127872467e-02</le></_></splits></_>
        <_>
          <depth>2</depth>
          <value>4.1526216650551145e-01</value></_>
        <_>
          <depth>2</depth>
          <value>4.7846711745603288e-03</value></_></nodes></_>
    <_>
      <nodes>
        <_>
          <depth>0</depth>
          <value>1.4987601715302473e-04</value>
          <splits>
            <_><var>350</var>
              <quality>4.0396498516201973e-03</quality>
              <le>9.1568636894226074e-01</le></_></splits></_>
        <_>
          <depth>1</depth>
          <value>-3.8113028268987353e-02</value>
          <splits>
            <_><var>462</var>
              <quality>1.0031725279986858e-02</quality>
              <le>1.9607844296842813e-03</le></_></splits></_>
        <_>
          <depth>2</depth>
          <value>-1.7737188171653756e-01</value></_>
        <_>
          <depth>2</depth>
          <value>5.4659877329743152e-02</value></_>
        <_>
          <depth>1</depth>
          <value>1.1179919278586775e-01</value>
          <splits>
            <_><var>402</var>
              <quality>7.8604966402053833e-03</quality>
              <le>9.8627460002899170e-01</le></_></splits></_>
        <_>
          <depth>2</depth>
          <value>3.9870041940781552e-02</value></_>
        <_>
          <depth>2</depth>
          <value>4.1201239851232146e-01</value></_></nodes></_>
    <_>
      <nodes>
        <_>
          <depth>0</depth>
          <value>-1.6379708994746498e-03</value>
          <splits>
            <_><var>435</var>
              <quality>3.5614639054983854e-03</quality>
              <le>9.9411773681640625e-01</le></_></splits></_>
        <_>
          <depth>1</depth>
          <value>2.0821566951682632e-02</value>
          <splits>
            <_><var>483</var>
              <quality>4.3184403330087662e-03</quality>
              <le>9.8235297203063965e-01</le></_></splits></_>
        <_>
          <depth>2</depth>
          <value>4.3285016198308213e-02</value></_>
        <_>
          <depth>2</depth>
          <value>-1.9204133640752843e-01</value></_>
        <_>
          <depth>1</depth>
          <value>-1.7008116527098324e-01</value>
          <splits>
            <_><var>510</var>
              <quality>9.1227982193231583e-03</quality>
              <le>1.4901961386203766e-01</le></_></splits></_>
        <_>
          <depth>2</depth>
          <value>-2.5914557566991253e-01</value></_>
        <_>
          <depth>2</depth>
          <value>4.8425839836256368e-01</value></_></nodes></_>
    <_>
      <nodes>
        <_>
          <depth>0</depth>
          <value>9.3401802991907601e-04</value>
          <splits>
            <_><var>92</var>
              <quality>3.7374987732619047e-03</quality>
              <le>7.2549022734165192e-02</le></_></splits></_>
        <_>
          <depth>1</depth>
          <value>-3.9866995295427922e-03</value>
          <splits>
            <_><var>295</var>
              <quality>3.4656636416912079e-03</quality>
              <le>1.8627452850341797e-01</le></_></splits></_>
        <_>
          <depth>2</depth>
          <value>5.3088343375910216e-02</value></_>
        <_>
          <depth>2</depth>
          <value>-6.8180240603957859e-02</value></_>
        <_>
          <depth>1</depth>
          <value>1.0993938955895468e+00</value>
          <splits>
            <_><var>489</var>
              <quality>4.4219391420483589e-03</quality>
              <le>1.3725491240620613e-02</le></_></splits></_>
        <_>
          <depth>2</depth>
          <value>1.6466917416848684e-01</value></_>
        <_>
          <depth>2</depth>
          <value>2.6066337382630214e+00</value></_></nodes></_>
    <_>
      <nodes>
        <_>
          <depth>0</depth>
          <value>-2.6916191954734514e-04</value>
          <splits>
            <_><var>192</var>
              <quality>3.3754326868802309e-03</quality>
              <le>5.6862749159336090e-02</le></_></splits></_>
        <_>
          <depth>1</depth>
          <value>9.8453176079075482e-03</value>
          <splits>
            <_><var>271</var>
              <quality>3.1164889223873615e-03</quality>
              <le>7.2549022734165192e-02</le></_></splits></_>
        <_>
          <depth>2</depth>
          <value>6.4170214889422983e-02</value></_>
        <_>
          <depth>2</depth>
          <value>-5.0637375946309113e-02</value></_>
        <_>
          <depth>1</depth>
          <value>-3.6722450282332747e-01</value>
          <splits>
            <_><var>132</var>
              <quality>1.1885405518114567e-02</quality>
              <le>5.6862749159336090e-02</le></_></splits></_>
        <_>
          <depth>2</depth>
          <value>-9.2560056732521634e-01</value></_>
        <_>
          <depth>2</depth>
          <value>5.5797294327422398e-01</value></_></nodes></_>
    <_>
      <nodes>
        <_>
          <depth>0</depth>
          <value>6.6968200381159254e-04</value>
          <splits>
            <_><var>271</var>
              <quality>2.7640631888061762e-03</quality>
              <le>9.5882356166839600e-01</le></_></splits></_>
        <_>
          <depth>1</depth>
          <value>-2.7608776641229477e-02</value>
          <splits>
            <_><var>495</var>
              <quality>5.4177381098270416e-03</quality>
              <le>9.8039228469133377e-03</le></_></splits></_>
        <_>
          <depth>2</depth>
          <value>-1.0360109230558080e-01</value></_>
        <_>
          <depth>2</depth>
          <value>5.8513827665191108e-02</value></_>
        <_>
          <depth>1</depth>
          <value>1.0394106717616300e-01</value>
          <splits>
            <_><var>485</var>
              <quality>1.0588500648736954e-02</quality>
              <le>4.4509807229042053e-01</le></_></splits></_>
        <_>
          <depth>2</depth>
          <value>2.6674549765296701e-01</value></_>
        <_>
          <depth>2</depth>
          <value>-1.5876982260837821e-01</value></_></nodes></_>
    <_>
      <nodes>
        <_>
          <depth>0</depth>
          <value>-3.0594010509374815e-04</value>
          <splits>
            <_><var>346</var>
              <quality>3.2926327548921108e-03</quality>
              <le>3.9803925156593323e-01</le></_></splits></_>
        <_>
          <depth>1</depth>
          <value>4.9845615913512865e-02</value>
          <splits>
            <_><var>371</var>
              <quality>1.1217242106795311e-02</quality>
              <le>7.3529410362243652e-01</le></_></splits></_>
        <_>
          <depth>2</depth>
          <value>1.0258434366333558e-01</value></_>
        <_>
          <depth>2</depth>
          <value>-3.0000094838385405e-01</value></_>
        <_>
          <depth>1</depth>
          <value>-6.9582291455079076e-02</value>
          <splits>
            <_><var>293</var>
              <quality>9.2667089775204659e-03</quality>
              <le>8.4313727915287018e-02</le></_></splits></_>
        <_>
          <depth>2</depth>
          <value>-2.3547112318153804e-01</value></_>
        <_>
          <depth>2</depth>
          <value>4.4268674341755222e-02</value></_></nodes></_>
    <_>
      <nodes>
        <_>
          <depth>0</depth>
          <value>-3.6548361744574335e-04</value>
          <splits>
            <_><var>371</var>
              <quality>3.4597748890519142e-03</quality>
              <le>4.9215689301490784e-01</le></_></splits></_>
        <_>
          <depth>1</depth>
          <value>-2.8068404237487774e-02</value>
          <splits>
            <_><var>459</var>
              <quality>5.1119872368872166e-03</quality>
              <le>9.8627460002899170e-01</le></_></splits></_>
        <_>
          <depth>2</depth>
          <value>-6.2504108128833627e-02</value></_>
        <_>
          <depth>2</depth>
          <value>1.3950501652259889e-01</value></_>
        <_>
          <depth>1</depth>
          <value>1.3188584853736526e-01</value>
          <splits>
            <_><var>430</var>
              <quality>1.2410494498908520e-02</quality>
              <le>4.6862748265266418e-01</le></_></splits></_>
        <_>
          <depth>2</depth>
          <value>2.8716528331074259e-01</value></_>
        <_>
          <depth>2</depth>
          <value>-2.6503093511368986e-01</value></_></nodes></_>
    <_>
      <nodes>
        <_>
          <depth>0</depth>
          <value>3.7379084250620199e-04</value>
          <splits>
            <_><var>595</var>
              <quality>3.0843047425150871e-03</quality>
              <le>7.9019618034362793e-01</le></_></splits></_>
        <_>
          <depth>1</depth>
          <value>2.4234480113905308e-02</value>
          <splits>
            <_><var>133</var>
              <quality>4.0849843062460423e-03</quality>
              <le>4.1176471859216690e-02</le></_></splits></_>
        <_>
          <depth>2</depth>
          <value>7.0252670082459117e-03</value></_>
        <_>
          <depth>2</depth>
          <value>2.9186692801745828e-01</value></_>
        <_>
          <depth>1</depth>
          <value>-1.3655668897170606e-01</value>
          <splits>
            <_><var>292</var>
              <quality>1.0851862840354443e-02</quality>
              <le>8.0392159521579742e-02</le></_></splits></_>
        <_>
          <depth>2</depth>
          <value>1.6026454507891832e-01</value></_>
        <_>
          <depth>2</depth>
          <value>-3.4636603420862511e-01</value></_></nodes></_>
    <_>
      <nodes>
        <_>
          <depth>0</depth>
          <value>-2.9519517496273456e-04</value>
          <splits>
            <_><var>133</var>
              <quality>3.1644364353269339e-03</quality>
              <le>3.0784314870834351e-01</le></_></splits></_>
        <_>
          <depth>1</depth>
          <value>1.4510496433283516e-02</value>
          <splits>
            <_><var>593</var>
              <quality>3.1239727977663279e-03</quality>
              <le>1.8627452850341797e-01</le></_></splits></_>
        <_>
          <depth>2</depth>
          <value>-1.3994686090335840e-03</value></_>
        <_>
          <depth>2</depth>
          <value>2.2531503069155198e-01</value></_>
        <_>
          <depth>1</depth>
          <value>-2.2921616853233170e-01</value>
          <splits>
            <_><var>352</var>
              <quality>1.3741041533648968e-02</quality>
              <le>8.8235296308994293e-02</le></_></splits></_>
        <_>
          <depth>2</depth>
          <value>2.3414833180020292e-01</value></_>
        <_>
          <depth>2</depth>
          <value>-7.3880397554931954e-01</value></_></nodes></_>
    <_>
      <nodes>
        <_>
          <depth>0</depth>
          <value>-8.9264053697318943e-04</value>
          <splits>
            <_><var>443</var>
              <quality>2.8365836478769779e-03</quality>
              <le>9.8627460002899170e-01</le></_></splits></_>
        <_>
          <depth>1</depth>
          <value>6.7090182228266362e-03</value>
          <splits>
            <_><var>161</var>
              <quality>2.4763820692896843e-03</quality>
              <le>9.9803924560546875e-01</le></_></splits></_>
        <_>
          <depth>2</depth>
          <value>1.0359544150392263e-02</value></_>
        <_>
          <depth>2</depth>
          <value>-8.8498146012651113e-01</value></_>
        <_>
          <depth>1</depth>
          <value>-4.1603804819580520e-01</value>
          <splits>
            <_><var>489</var>
              <quality>6.4315651543438435e-03</quality>
              <le>6.8627454340457916e-02</le></_></splits></_>
        <_>
          <depth>2</depth>
          <value>-9.1937355016748035e-01</value></_>
        <_>
          <depth>2</depth>
          <value>2.1696011699828685e-01</value></_></nodes></_>
    <_>
      <nodes>
        <_>
          <depth>0</depth>
          <value>1.8565940901901955e-04</value>
          <splits>
            <_><var>599</var>
              <quality>2.9345792718231678e-03</quality>
              <le>9.9411773681640625e-01</le></_></splits></_>
        <_>
          <depth>1</depth>
          <value>-1.6031598129358809e-02</value>
          <splits>
            <_><var>460</var>
              <quality>3.1170325819402933e-03</quality>
              <le>4.9019612371921539e-02</le></_></splits></_>
        <_>
          <depth>2</depth>
          <value>3.9809007620357842e-02</value></_>
        <_>
          <depth>2</depth>
          <value>-7.5354484036989217e-02</value></_>
        <_>
          <depth>1</depth>
          <value>1.9304062501500591e-01</value>
          <splits>
            <_><var>657</var>
              <quality>5.2610579878091812e-03</quality>
              <le>2.4901962280273438e-01</le></_></splits></_>
        <_>
          <depth>2</depth>
          <value>3.2775152283698933e-01</value></_>
        <_>
          <depth>2</depth>
          <value>-8.1602098498926939e-02</value></_></nodes></_>
    <_>
      <nodes>
        <_>
          <depth>0</depth>
          <value>1.3691744335261589e-04</value>
          <splits>
            <_><var>208</var>
              <quality>2.4044397287070751e-03</quality>
              <le>9.5490205287933350e-01</le></_></splits></_>
        <_>
          <depth>1</depth>
          <value>-3.0519508637478234e-02</value>
          <splits>
            <_><var>316</var>
              <quality>4.5839906670153141e-03</quality>
              <le>8.4117650985717773e-01</le></_></splits></_>
        <_>
          <depth>2</depth>
          <value>-6.3298587497056386e-02</value></_>
        <_>
          <depth>2</depth>
          <value>1.4431573136246131e-01</value></_>
        <_>
          <depth>1</depth>
          <value>8.2911175678410123e-02</value>
          <splits>
            <_><var>293</var>
              <quality>1.1371167376637459e-02</quality>
              <le>7.2549022734165192e-02</le></_></splits></_>
        <_>
          <depth>2</depth>
          <value>2.5402129696593334e-01</value></_>
        <_>
          <depth>2</depth>
          <value>-1.4348141760823482e-01</value></_></nodes></_>
    <_>
      <nodes>
        <_>
          <depth>0</depth>
          <value>-9.8205733295344709e-04</value>
          <splits>
            <_><var>344</var>
              <quality>4.0402431041002274e-03</quality>
              <le>7.6666676998138428e-01</le></_></splits></_>
        <_>
          <depth>1</depth>
          <value>3.2226984924511079e-02</value>
          <splits>
            <_><var>369</var>
              <quality>6.3643939793109894e-03</quality>
              <le>8.7254905700683594e-01</le></_></splits></_>
        <_>
          <depth>2</depth>
          <value>4.6975401928784133e-02</value></_>
        <_>
          <depth>2</depth>
          <value>-5.1031826549919501e-01</value></_>
        <_>
          <depth>1</depth>
          <value>-1.2978428801359973e-01</value>
          <splits>
            <_><var>292</var>
              <quality>1.4703240245580673e-02</quality>
              <le>5.5490195751190186e-01</le></_></splits></_>
        <_>
          <depth>2</depth>
          <value>-3.2523690909268954e-01</value></_>
        <_>
          <depth>2</depth>
          <value>1.8925779786579694e-01</value></_></nodes></_>
    <_>
      <nodes>
        <_>
          <depth>0</depth>
          <value>-4.8555671852546894e-04</value>
          <splits>
            <_><var>228</var>
              <quality>2.9963392298668623e-03</quality>
              <le>1.3725491240620613e-02</le></_></splits></_>
        <_>
          <depth>1</depth>
          <value>-8.3035954036050977e-03</value>
          <splits>
            <_><var>359</var>
              <quality>2.6810364797711372e-03</quality>
              <le>5.8823535218834877e-03</le></_></splits></_>
        <_>
          <depth>2</depth>
          <value>-2.2359843157243244e-02</value></_>
        <_>
          <depth>2</depth>
          <value>1.9390189421889423e-01</value></_>
        <_>
          <depth>1</depth>
          <value>4.2713659038626783e-01</value>
          <splits>
            <_><var>261</var>
              <quality>5.6232251226902008e-03</quality>
              <le>3.9215688593685627e-03</le></_></splits></_>
        <_>
          <depth>2</depth>
          <value>-6.8758391875267069e-02</value></_>
        <_>
          <depth>2</depth>
          <value>9.0537343698800299e-01</value></_></nodes></_>
    <_>
      <nodes>
        <_>
          <depth>0</depth>
          <value>-2.2655167265401397e-04</value>
          <splits>
            <_><var>357</var>
              <quality>3.1377212144434452e-03</quality>
              <le>9.5882356166839600e-01</le></_></splits></_>
        <_>
          <depth>1</depth>
          <value>1.5280174050922671e-02</value>
          <splits>
            <_><var>484</var>
              <quality>2.4808919988572598e-03</quality>
              <le>3.7254903465509415e-02</le></_></splits></_>
        <_>
          <depth>2</depth>
          <value>-1.9619190706215990e-02</value></_>
        <_>
          <depth>2</depth>
          <value>8.9108378301515162e-02</value></_>
        <_>
          <depth>1</depth>
          <value>-2.1655881713272188e-01</value>
          <splits>
            <_><var>214</var>
              <quality>1.1757165193557739e-02</quality>
              <le>6.4509809017181396e-01</le></_></splits></_>
        <_>
          <depth>2</depth>
          <value>1.1410145679784572e-01</value></_>
        <_>
          <depth>2</depth>
          <value>-7.4500656829488510e-01</value></_></nodes></_>
    <_>
      <nodes>
        <_>
          <depth>0</depth>
          <value>5.8516315383675039e-04</value>
          <splits>
            <_><var>125</var>
              <quality>2.2220918908715248e-03</quality>
              <le>7.9019618034362793e-01</le></_></splits></_>
        <_>
          <depth>1</depth>
          <value>-1.4968528481574650e-02</value>
          <splits>
            <_><var>94</var>
              <quality>2.4047796614468098e-03</quality>
              <le>3.9411768317222595e-01</le></_></splits></_>
        <_>
          <depth>2</depth>
          <value>-1.9549674523496905e-02</value></_>
        <_>
          <depth>2</depth>
          <value>6.1267541451681184e-01</value></_>
        <_>
          <depth>1</depth>
          <value>1.5212223448737699e-01</value>
          <splits>
            <_><var>264</var>
              <quality>1.0936972685158253e-02</quality>
              <le>2.2941178083419800e-01</le></_></splits></_>
        <_>
          <depth>2</depth>
          <value>4.5238206342397735e-01</value></_>
        <_>
          <depth>2</depth>
          <value>-2.1905448475305828e-01</value></_></nodes></_>
    <_>
      <nodes>
        <_>
          <depth>0</depth>
          <value>-2.7363635258175758e-04</value>
          <splits>
            <_><var>150</var>
              <quality>2.9253000393509865e-03</quality>
              <le>2.8823530673980713e-01</le></_></splits></_>
        <_>
          <depth>1</depth>
          <value>2.2637907514608275e-02</value>
          <splits>
            <_><var>662</var>
              <quality>3.3565363846719265e-03</quality>
              <le>5.6274509429931641e-01</le></_></splits></_>
        <_>
          <depth>2</depth>
          <value>3.0237046458935447e-03</value></_>
        <_>
          <depth>2</depth>
          <value>2.1043812254446387e-01</value></_>
        <_>
          <depth>1</depth>
          <value>-1.3551501799289997e-01</value>
          <splits>
            <_><var>268</var>
              <quality>9.8489196971058846e-03</quality>
              <le>8.0980396270751953e-01</le></_></splits></_>
        <_>
          <depth>2</depth>
          <value>-2.8442134282310733e-01</value></_>
        <_>
          <depth>2</depth>
          <value>2.4283757044876961e-01</value></_></nodes></_>
    <_>
      <nodes>
        <_>
          <depth>0</depth>
          <value>-2.9122988999102375e-04</value>
          <splits>
            <_><var>147</var>
              <quality>2.7664827648550272e-03</quality>
              <le>1.7058824002742767e-01</le></_></splits></_>
        <_>
          <depth>1</depth>
          <value>-1.0680795227697461e-02</value>
          <splits>
            <_><var>516</var>
              <quality>2.6808255352079868e-03</quality>
              <le>9.3137264251708984e-01</le></_></splits></_>
        <_>
          <depth>2</depth>
          <value>-3.7404415845351681e-02</value></_>
        <_>
          <depth>2</depth>
          <value>9.4912685227537902e-02</value></_>
        <_>
          <depth>1</depth>
          <value>2.8768338172222357e-01</value>
          <splits>
            <_><var>259</var>
              <quality>9.9892271682620049e-03</quality>
              <le>5.8823535218834877e-03</le></_></splits></_>
        <_>
          <depth>2</depth>
          <value>9.2141891563701639e-01</value></_>
        <_>
          <depth>2</depth>
          <value>-2.0611398261455102e-01</value></_></nodes></_>
    <_>
      <nodes>
        <_>
          <depth>0</depth>
          <value>1.1053349682244353e-04</value>
          <splits>
            <_><var>578</var>
              <quality>2.6459542568773031e-03</quality>
              <le>9.8627460002899170e-01</le></_></splits></_>
        <_>
          <depth>1</depth>
          <value>2.3971169259185115e-02</value>
          <splits>
            <_><var>434</var>
              <quality>3.9834058843553066e-03</quality>
              <le>9.7843146324157715e-01</le></_></splits></_>
        <_>
          <depth>2</depth>
          <value>6.5233466655374300e-02</value></_>
        <_>
          <depth>2</depth>
          <value>-8.4931848155647235e-02</value></_>
        <_>
          <depth>1</depth>
          <value>-1.1717346668581366e-01</value>
          <splits>
            <_><var>461</var>
              <quality>5.7859104126691818e-03</quality>
              <le>9.7450983524322510e-01</le></_></splits></_>
        <_>
          <depth>2</depth>
          <value>-1.9235704632491860e-01</value></_>
        <_>
          <depth>2</depth>
          <value>1.8938410545786533e-01</value></_></nodes></_>
    <_>
      <nodes>
        <_>
          <depth>0</depth>
          <value>7.6633168727211279e-04</value>
          <splits>
            <_><var>602</var>
              <quality>2.2360777948051691e-03</quality>
              <le>2.4117648601531982e-01</le></_></splits></_>
        <_>
          <depth>1</depth>
          <value>-5.5538856531128895e-02</value>
          <splits>
            <_><var>264</var>
              <quality>5.7518351823091507e-03</quality>
              <le>3.2745099067687988e-01</le></_></splits></_>
        <_>
          <depth>2</depth>
          <value>-1.4458986107673374e-01</value></_>
        <_>
          <depth>2</depth>
          <value>7.0806815358043035e-02</value></_>
        <_>
          <depth>1</depth>
          <value>4.2627984434557890e-02</value>
          <splits>
            <_><var>355</var>
              <quality>6.1024003662168980e-03</quality>
              <le>8.6078441143035889e-01</le></_></splits></_>
        <_>
          <depth>2</depth>
          <value>9.5872253030427582e-02</value></_>
        <_>
          <depth>2</depth>
          <value>-1.3539594552223180e-01</value></_></nodes></_>
    <_>
      <nodes>
        <_>
          <depth>0</depth>
          <value>-8.5224032387419058e-04</value>
          <splits>
            <_><var>292</var>
              <quality>2.4322988465428352e-03</quality>
              <le>2.6862746477127075e-01</le></_></splits></_>
        <_>
          <depth>1</depth>
          <value>4.8141921524631093e-02</value>
          <splits>
            <_><var>288</var>
              <quality>6.8565630353987217e-03</quality>
              <le>4.9019612371921539e-02</le></_></splits></_>
        <_>
          <depth>2</depth>
          <value>1.3235669468504252e-01</value></_>
        <_>
          <depth>2</depth>
          <value>-9.1840534300129659e-02</value></_>
        <_>
          <depth>1</depth>
          <value>-5.3184877224852045e-02</value>
          <splits>
            <_><var>313</var>
              <quality>6.7201759666204453e-03</quality>
              <le>5.3921568393707275e-01</le></_></splits></_>
        <_>
          <depth>2</depth>
          <value>-7.3896403009292441e-02</value></_>
        <_>
          <depth>2</depth>
          <value>5.7519179145668020e-01</value></_></nodes></_>
    <_>
      <nodes>
        <_>
          <depth>0</depth>
          <value>-4.8096826604392525e-04</value>
          <splits>
            <_><var>411</var>
              <quality>3.6280767526477575e-03</quality>
              <le>2.9411766678094864e-02</le></_></splits></_>
        <_>
          <depth>1</depth>
          <value>-5.8642711616779204e-02</value>
          <splits>
            <_><var>351</var>
              <quality>1.1151845566928387e-02</quality>
              <le>9.7450983524322510e-01</le></_></splits></_>
        <_>
          <depth>2</depth>
          <value>3.1423647497544747e-02</value></_>
        <_>
          <depth>2</depth>
          <value>-2.7274969272830230e-01</value></_>
        <_>
          <depth>1</depth>
          <value>6.5346085054137568e-02</value>
          <splits>
            <_><var>302</var>
              <quality>6.2646577134728432e-03</quality>
              <le>8.2549023628234863e-01</le></_></splits></_>
        <_>
          <depth>2</depth>
          <value>3.5296242655230153e-02</value></_>
        <_>
          <depth>2</depth>
          <value>4.1435148007771166e-01</value></_></nodes></_>
    <_>
      <nodes>
        <_>
          <depth>0</depth>
          <value>1.0576362707845547e-04</value>
          <splits>
            <_><var>303</var>
              <quality>3.3680761698633432e-03</quality>
              <le>9.8039228469133377e-03</le></_></splits></_>
        <_>
          <depth>1</depth>
          <value>1.7172623779326511e-02</value>
          <splits>
            <_><var>627</var>
              <quality>3.5505997948348522e-03</quality>
              <le>9.7450983524322510e-01</le></_></splits></_>
        <_>
          <depth>2</depth>
          <value>-2.0204172603265864e-02</value></_>
        <_>
          <depth>2</depth>
          <value>1.1804832267764107e-01</value></_>
        <_>
          <depth>1</depth>
          <value>-2.1071142010136579e-01</value>
          <splits>
            <_><var>355</var>
              <quality>7.2597968392074108e-03</quality>
              <le>7.2549022734165192e-02</le></_></splits></_>
        <_>
          <depth>2</depth>
          <value>-5.4858169970796422e-01</value></_>
        <_>
          <depth>2</depth>
          <value>-1.0402620587948665e-02</value></_></nodes></_>
    <_>
      <nodes>
        <_>
          <depth>0</depth>
          <value>-1.2464029609878227e-04</value>
          <splits>
            <_><var>260</var>
              <quality>2.8281840495765209e-03</quality>
              <le>2.7647060155868530e-01</le></_></splits></_>
        <_>
          <depth>1</depth>
          <value>-3.1637429850917789e-02</value>
          <splits>
            <_><var>606</var>
              <quality>4.5552225783467293e-03</quality>
              <le>7.0392155647277832e-01</le></_></splits></_>
        <_>
          <depth>2</depth>
          <value>-6.7448964796804373e-02</value></_>
        <_>
          <depth>2</depth>
          <value>1.1992817038440580e-01</value></_>
        <_>
          <depth>1</depth>
          <value>9.4659077959183893e-02</value>
          <splits>
            <_><var>347</var>
              <quality>1.0458599776029587e-02</quality>
              <le>2.7647060155868530e-01</le></_></splits></_>
        <_>
          <depth>2</depth>
          <value>2.3633672497357022e-01</value></_>
        <_>
          <depth>2</depth>
          <value>-1.6221545304883250e-01</value></_></nodes></_>
    <_>
      <nodes>
        <_>
          <depth>0</depth>
          <value>5.8252129476233633e-05</value>
          <splits>
            <_><var>314</var>
              <quality>3.9112037047743797e-03</quality>
              <le>8.8039219379425049e-01</le></_></splits></_>
        <_>
          <depth>1</depth>
          <value>1.6213755596681419e-02</value>
          <splits>
            <_><var>290</var>
              <quality>4.2501213029026985e-03</quality>
              <le>6.1372554302215576e-01</le></_></splits></_>
        <_>
          <depth>2</depth>
          <value>6.6330472808815599e-02</value></_>
        <_>
          <depth>2</depth>
          <value>-7.3774289842460525e-02</value></_>
        <_>
          <depth>1</depth>
          <value>-2.6054311541669811e-01</value>
          <splits>
            <_><var>209</var>
              <quality>1.0612855665385723e-02</quality>
              <le>3.3921569585800171e-01</le></_></splits></_>
        <_>
          <depth>2</depth>
          <value>9.7275480157894403e-02</value></_>
        <_>
          <depth>2</depth>
          <value>-6.9789836905591096e-01</value></_></nodes></_>
    <_>
      <nodes>
        <_>
          <depth>0</depth>
          <value>-5.8049466040600102e-04</value>
          <splits>
            <_><var>713</var>
              <quality>4.0180408395826817e-03</quality>
              <le>1.3725491240620613e-02</le></_></splits></_>
        <_>
          <depth>1</depth>
          <value>-2.2789690486251134e-02</value>
          <splits>
            <_><var>345</var>
              <quality>4.6668383292853832e-03</quality>
              <le>4.1176471859216690e-02</le></_></splits></_>
        <_>
          <depth>2</depth>
          <value>-8.7302538975986499e-02</value></_>
        <_>
          <depth>2</depth>
          <value>5.4505293095835600e-02</value></_>
        <_>
          <depth>1</depth>
          <value>1.9221087790616101e-01</value>
          <splits>
            <_><var>268</var>
              <quality>1.0020966641604900e-02</quality>
