<?xml version="1.0"?>
<opencv_storage>
<opencv_ml_boost>
  <format>3</format>
  <is_classifier>1</is_classifier>
  <var_all>785</var_all>
  <var_count>784</var_count>
  <ord_var_count>784</ord_var_count>
  <cat_var_count>1</cat_var_count>
  <training_params>
    <boosting_type>LogitBoost</boosting_type>
    <use_surrogates>0</use_surrogates>
    <max_categories>10</max_categories>
    <regression_accuracy>9.9999997764825821e-03</regression_accuracy>
    <max_depth>2</max_depth>
    <min_sample_count>10</min_sample_count>
    <cross_validation_folds>0</cross_validation_folds>
    <weight_trimming_rate>9.4999999999999996e-01</weight_trimming_rate></training_params>
  <global_var_idx>1</global_var_idx>
  <var_idx>
    0 1 2 3 4 5 6 7 8 9 10 11 12 13 14 15 16 17 18 19 20 21 22 23 24 25
    26 27 28 29 30 31 32 33 34 35 36 37 38 39 40 41 42 43 44 45 46 47 48
    49 50 51 52 53 54 55 56 57 58 59 60 61 62 63 64 65 66 67 68 69 70 71
    72 73 74 75 76 77 78 79 80 81 82 83 84 85 86 87 88 89 90 91 92 93 94
    95 96 97 98 99 100 101 102 103 104 105 106 107 108 109 110 111 112
    113 114 115 116 117 118 119 120 121 122 123 124 125 126 127 128 129
    130 131 132 133 134 135 136 137 138 139 140 141 142 143 144 145 146
    147 148 149 150 151 152 153 154 155 156 157 158 159 160 161 162 163
    164 165 166 167 168 169 170 171 172 173 174 175 176 177 178 179 180
    181 182 183 184 185 186 187 188 189 190 191 192 193 194 195 196 197
    198 199 200 201 202 203 204 205 206 207 208 209 210 211 212 213 214
    215 216 217 218 219 220 221 222 223 224 225 226 227 228 229 230 231
    232 233 234 235 236 237 238 239 240 241 242 243 244 245 246 247 248
    249 250 251 252 253 254 255 256 257 258 259 260 261 262 263 264 265
    266 267 268 269 270 271 272 273 274 275 276 277 278 279 280 281 282
    283 284 285 286 287 288 289 290 291 292 293 294 295 296 297 298 299
    300 301 302 303 304 305 306 307 308 309 310 311 312 313 314 315 316
    317 318 319 320 321 322 323 324 325 326 327 328 329 330 331 332 333
    334 335 336 337 338 339 340 341 342 343 344 345 346 347 348 349 350
    351 352 353 354 355 356 357 358 359 360 361 362 363 364 365 366 367
    368 369 370 371 372 373 374 375 376 377 378 379 380 381 382 383 384
    385 386 387 388 389 390 391 392 393 394 395 396 397 398 399 400 401
    402 403 404 405 406 407 408 409 410 411 412 413 414 415 416 417 418
    419 420 421 422 423 424 425 426 427 428 429 430 431 432 433 434 435
    436 437 438 439 440 441 442 443 444 445 446 447 448 449 450 451 452
    453 454 455 456 457 458 459 460 461 462 463 464 465 466 467 468 469
    470 471 472 473 474 475 476 477 478 479 480 481 482 483 484 485 486
    487 488 489 490 491 492 493 494 495 496 497 498 499 500 501 502 503
    504 505 506 507 508 509 510 511 512 513 514 515 516 517 518 519 520
    521 522 523 524 525 526 527 528 529 530 531 532 533 534 535 536 537
    538 539 540 541 542 543 544 545 546 547 548 549 550 551 552 553 554
    555 556 557 558 559 560 561 562 563 564 565 566 567 568 569 570 571
    572 573 574 575 576 577 578 579 580 581 582 583 584 585 586 587 588
    589 590 591 592 593 594 595 596 597 598 599 600 601 602 603 604 605
    606 607 608 609 610 611 612 613 614 615 616 617 618 619 620 621 622
    623 624 625 626 627 628 629 630 631 632 633 634 635 636 637 638 639
    640 641 642 643 644 645 646 647 648 649 650 651 652 653 654 655 656
    657 658 659 660 661 662 663 664 665 666 667 668 669 670 671 672 673
    674 675 676 677 678 679 680 681 682 683 684 685 686 687 688 689 690
    691 692 693 694 695 696 697 698 699 700 701 702 703 704 705 706 707
    708 709 710 711 712 713 714 715 716 717 718 719 720 721 722 723 724
    725 726 727 728 729 730 731 732 733 734 735 736 737 738 739 740 741
    742 743 744 745 746 747 748 749 750 751 752 753 754 755 756 757 758
    759 760 761 762 763 764 765 766 767 768 769 770 771 772 773 774 775
    776 777 778 779 780 781 782 783</var_idx>
  <var_type>
    0 0 0 0 0 0 0 0 0 0 0 0 0 0 0 0 0 0 0 0 0 0 0 0 0 0 0 0 0 0 0 0 0 0
    0 0 0 0 0 0 0 0 0 0 0 0 0 0 0 0 0 0 0 0 0 0 0 0 0 0 0 0 0 0 0 0 0 0
    0 0 0 0 0 0 0 0 0 0 0 0 0 0 0 0 0 0 0 0 0 0 0 0 0 0 0 0 0 0 0 0 0 0
    0 0 0 0 0 0 0 0 0 0 0 0 0 0 0 0 0 0 0 0 0 0 0 0 0 0 0 0 0 0 0 0 0 0
    0 0 0 0 0 0 0 0 0 0 0 0 0 0 0 0 0 0 0 0 0 0 0 0 0 0 0 0 0 0 0 0 0 0
    0 0 0 0 0 0 0 0 0 0 0 0 0 0 0 0 0 0 0 0 0 0 0 0 0 0 0 0 0 0 0 0 0 0
    0 0 0 0 0 0 0 0 0 0 0 0 0 0 0 0 0 0 0 0 0 0 0 0 0 0 0 0 0 0 0 0 0 0
    0 0 0 0 0 0 0 0 0 0 0 0 0 0 0 0 0 0 0 0 0 0 0 0 0 0 0 0 0 0 0 0 0 0
    0 0 0 0 0 0 0 0 0 0 0 0 0 0 0 0 0 0 0 0 0 0 0 0 0 0 0 0 0 0 0 0 0 0
    0 0 0 0 0 0 0 0 0 0 0 0 0 0 0 0 0 0 0 0 0 0 0 0 0 0 0 0 0 0 0 0 0 0
    0 0 0 0 0 0 0 0 0 0 0 0 0 0 0 0 0 0 0 0 0 0 0 0 0 0 0 0 0 0 0 0 0 0
    0 0 0 0 0 0 0 0 0 0 0 0 0 0 0 0 0 0 0 0 0 0 0 0 0 0 0 0 0 0 0 0 0 0
    0 0 0 0 0 0 0 0 0 0 0 0 0 0 0 0 0 0 0 0 0 0 0 0 0 0 0 0 0 0 0 0 0 0
    0 0 0 0 0 0 0 0 0 0 0 0 0 0 0 0 0 0 0 0 0 0 0 0 0 0 0 0 0 0 0 0 0 0
    0 0 0 0 0 0 0 0 0 0 0 0 0 0 0 0 0 0 0 0 0 0 0 0 0 0 0 0 0 0 0 0 0 0
    0 0 0 0 0 0 0 0 0 0 0 0 0 0 0 0 0 0 0 0 0 0 0 0 0 0 0 0 0 0 0 0 0 0
    0 0 0 0 0 0 0 0 0 0 0 0 0 0 0 0 0 0 0 0 0 0 0 0 0 0 0 0 0 0 0 0 0 0
    0 0 0 0 0 0 0 0 0 0 0 0 0 0 0 0 0 0 0 0 0 0 0 0 0 0 0 0 0 0 0 0 0 0
    0 0 0 0 0 0 0 0 0 0 0 0 0 0 0 0 0 0 0 0 0 0 0 0 0 0 0 0 0 0 0 0 0 0
    0 0 0 0 0 0 0 0 0 0 0 0 0 0 0 0 0 0 0 0 0 0 0 0 0 0 0 0 0 0 0 0 0 0
    0 0 0 0 0 0 0 0 0 0 0 0 0 0 0 0 0 0 0 0 0 0 0 0 0 0 0 0 0 0 0 0 0 0
    0 0 0 0 0 0 0 0 0 0 0 0 0 0 0 0 0 0 0 0 0 0 0 0 0 0 0 0 0 0 0 0 0 0
    0 0 0 0 0 0 0 0 0 0 0 0 0 0 0 0 0 0 0 0 0 0 0 0 0 0 0 0 0 0 0 0 0 0
    0 0 1</var_type>
  <cat_ofs>
    0 0 0 0 0 0 0 0 0 0 0 0 0 0 0 0 0 0 0 0 0 0 0 0 0 0 0 0 0 0 0 0 0 0
    0 0 0 0 0 0 0 0 0 0 0 0 0 0 0 0 0 0 0 0 0 0 0 0 0 0 0 0 0 0 0 0 0 0
    0 0 0 0 0 0 0 0 0 0 0 0 0 0 0 0 0 0 0 0 0 0 0 0 0 0 0 0 0 0 0 0 0 0
    0 0 0 0 0 0 0 0 0 0 0 0 0 0 0 0 0 0 0 0 0 0 0 0 0 0 0 0 0 0 0 0 0 0
    0 0 0 0 0 0 0 0 0 0 0 0 0 0 0 0 0 0 0 0 0 0 0 0 0 0 0 0 0 0 0 0 0 0
    0 0 0 0 0 0 0 0 0 0 0 0 0 0 0 0 0 0 0 0 0 0 0 0 0 0 0 0 0 0 0 0 0 0
    0 0 0 0 0 0 0 0 0 0 0 0 0 0 0 0 0 0 0 0 0 0 0 0 0 0 0 0 0 0 0 0 0 0
    0 0 0 0 0 0 0 0 0 0 0 0 0 0 0 0 0 0 0 0 0 0 0 0 0 0 0 0 0 0 0 0 0 0
    0 0 0 0 0 0 0 0 0 0 0 0 0 0 0 0 0 0 0 0 0 0 0 0 0 0 0 0 0 0 0 0 0 0
    0 0 0 0 0 0 0 0 0 0 0 0 0 0 0 0 0 0 0 0 0 0 0 0 0 0 0 0 0 0 0 0 0 0
    0 0 0 0 0 0 0 0 0 0 0 0 0 0 0 0 0 0 0 0 0 0 0 0 0 0 0 0 0 0 0 0 0 0
    0 0 0 0 0 0 0 0 0 0 0 0 0 0 0 0 0 0 0 0 0 0 0 0 0 0 0 0 0 0 0 0 0 0
    0 0 0 0 0 0 0 0 0 0 0 0 0 0 0 0 0 0 0 0 0 0 0 0 0 0 0 0 0 0 0 0 0 0
    0 0 0 0 0 0 0 0 0 0 0 0 0 0 0 0 0 0 0 0 0 0 0 0 0 0 0 0 0 0 0 0 0 0
    0 0 0 0 0 0 0 0 0 0 0 0 0 0 0 0 0 0 0 0 0 0 0 0 0 0 0 0 0 0 0 0 0 0
    0 0 0 0 0 0 0 0 0 0 0 0 0 0 0 0 0 0 0 0 0 0 0 0 0 0 0 0 0 0 0 0 0 0
    0 0 0 0 0 0 0 0 0 0 0 0 0 0 0 0 0 0 0 0 0 0 0 0 0 0 0 0 0 0 0 0 0 0
    0 0 0 0 0 0 0 0 0 0 0 0 0 0 0 0 0 0 0 0 0 0 0 0 0 0 0 0 0 0 0 0 0 0
    0 0 0 0 0 0 0 0 0 0 0 0 0 0 0 0 0 0 0 0 0 0 0 0 0 0 0 0 0 0 0 0 0 0
    0 0 0 0 0 0 0 0 0 0 0 0 0 0 0 0 0 0 0 0 0 0 0 0 0 0 0 0 0 0 0 0 0 0
    0 0 0 0 0 0 0 0 0 0 0 0 0 0 0 0 0 0 0 0 0 0 0 0 0 0 0 0 0 0 0 0 0 0
    0 0 0 0 0 0 0 0 0 0 0 0 0 0 0 0 0 0 0 0 0 0 0 0 0 0 0 0 0 0 0 0 0 0
    0 0 0 0 0 0 0 0 0 0 0 0 0 0 0 0 0 0 0 0 0 0 0 0 0 0 0 0 0 0 0 0 0 0
    0 0 0 0 0 0 0 0 0 0 0 0 0 0 0 0 0 0 0 0 0 0 0 0 0 0 0 0 0 0 0 0 0 0
    0 0 0 0 0 0 0 0 0 0 0 0 0 0 0 0 0 0 0 0 0 0 0 0 0 0 0 0 0 0 0 0 0 0
    0 0 0 0 0 0 0 0 0 0 0 0 0 0 0 0 0 0 0 0 0 0 0 0 0 0 0 0 0 0 0 0 0 0
    0 0 0 0 0 0 0 0 0 0 0 0 0 0 0 0 0 0 0 0 0 0 0 0 0 0 0 0 0 0 0 0 0 0
    0 0 0 0 0 0 0 0 0 0 0 0 0 0 0 0 0 0 0 0 0 0 0 0 0 0 0 0 0 0 0 0 0 0
    0 0 0 0 0 0 0 0 0 0 0 0 0 0 0 0 0 0 0 0 0 0 0 0 0 0 0 0 0 0 0 0 0 0
    0 0 0 0 0 0 0 0 0 0 0 0 0 0 0 0 0 0 0 0 0 0 0 0 0 0 0 0 0 0 0 0 0 0
    0 0 0 0 0 0 0 0 0 0 0 0 0 0 0 0 0 0 0 0 0 0 0 0 0 0 0 0 0 0 0 0 0 0
    0 0 0 0 0 0 0 0 0 0 0 0 0 0 0 0 0 0 0 0 0 0 0 0 0 0 0 0 0 0 0 0 0 0
    0 0 0 0 0 0 0 0 0 0 0 0 0 0 0 0 0 0 0 0 0 0 0 0 0 0 0 0 0 0 0 0 0 0
    0 0 0 0 0 0 0 0 0 0 0 0 0 0 0 0 0 0 0 0 0 0 0 0 0 0 0 0 0 0 0 0 0 0
    0 0 0 0 0 0 0 0 0 0 0 0 0 0 0 0 0 0 0 0 0 0 0 0 0 0 0 0 0 0 0 0 0 0
    0 0 0 0 0 0 0 0 0 0 0 0 0 0 0 0 0 0 0 0 0 0 0 0 0 0 0 0 0 0 0 0 0 0
    0 0 0 0 0 0 0 0 0 0 0 0 0 0 0 0 0 0 0 0 0 0 0 0 0 0 0 0 0 0 0 0 0 0
    0 0 0 0 0 0 0 0 0 0 0 0 0 0 0 0 0 0 0 0 0 0 0 0 0 0 0 0 0 0 0 0 0 0
    0 0 0 0 0 0 0 0 0 0 0 0 0 0 0 0 0 0 0 0 0 0 0 0 0 0 0 0 0 0 0 0 0 0
    0 0 0 0 0 0 0 0 0 0 0 0 0 0 0 0 0 0 0 0 0 0 0 0 0 0 0 0 0 0 0 0 0 0
    0 0 0 0 0 0 0 0 0 0 0 0 0 0 0 0 0 0 0 0 0 0 0 0 0 0 0 0 0 0 0 0 0 0
    0 0 0 0 0 0 0 0 0 0 0 0 0 0 0 0 0 0 0 0 0 0 0 0 0 0 0 0 0 0 0 0 0 0
    0 0 0 0 0 0 0 0 0 0 0 0 0 0 0 0 0 0 0 0 0 0 0 0 0 0 0 0 0 0 0 0 0 0
    0 0 0 0 0 0 0 0 0 0 0 0 0 0 0 0 0 0 0 0 0 0 0 0 0 0 0 0 0 0 0 0 0 0
    0 0 0 0 0 0 0 0 0 0 0 0 0 0 0 0 0 0 0 0 0 0 0 0 0 0 0 0 0 0 0 0 0 0
    0 0 0 0 0 0 0 0 0 0 0 0 0 0 0 0 0 0 0 0 0 0 0 0 0 0 0 0 0 0 0 0 0 0
    0 0 0 0</cat_ofs>
  <class_labels>
    0 1</class_labels>
  <missing_subst>
    0. 0. 0. 0. 0. 0. 0. 0. 0. 0. 0. 0. 0. 0. 0. 0. 0. 0. 0. 0. 0. 0. 0.
    0. 0. 0. 0. 0. 0. 0. 0. 0. 0. 0. 0. 0. 0. 0. 0. 0. 0. 0. 0. 0. 0. 0.
    0. 0. 0. 0. 0. 0. 0. 0. 0. 0. 0. 0. 0. 0. 0. 0. 0. 0. 0. 0. 0. 0. 0.
    0. 0. 0. 0. 0. 0. 0. 0. 0. 0. 0. 0. 0. 0. 0. 0. 0. 0. 0. 0. 0. 0. 0.
    0. 0. 0. 0. 0. 0. 0. 0. 0. 0. 0. 0. 0. 0. 0. 0. 0. 0. 0. 0. 0. 0. 0.
    0. 0. 0. 0. 0. 0. 0. 0. 0. 0. 0. 0. 0. 0. 0. 0. 0. 0. 0. 0. 0. 0. 0.
    0. 0. 0. 0. 0. 0. 0. 0. 0. 0. 0. 0. 0. 0. 0. 0. 0. 0. 0. 0. 0. 0. 0.
    0. 0. 0. 0. 0. 0. 0. 0. 0. 0. 0. 0. 0. 0. 0. 0. 0. 0. 0. 0. 0. 0. 0.
    0. 0. 0. 0. 0. 0. 0. 0. 0. 0. 0. 0. 0. 0. 0. 0. 0. 0. 0. 0. 0. 0. 0.
    0. 0. 0. 0. 0. 0. 0. 0. 0. 0. 0. 0. 0. 0. 0. 0. 0. 0. 0. 0. 0. 0. 0.
    0. 0. 0. 0. 0. 0. 0. 0. 0. 0. 0. 0. 0. 0. 0. 0. 0. 0. 0. 0. 0. 0. 0.
    0. 0. 0. 0. 0. 0. 0. 0. 0. 0. 0. 0. 0. 0. 0. 0. 0. 0. 0. 0. 0. 0. 0.
    0. 0. 0. 0. 0. 0. 0. 0. 0. 0. 0. 0. 0. 0. 0. 0. 0. 0. 0. 0. 0. 0. 0.
    0. 0. 0. 0. 0. 0. 0. 0. 0. 0. 0. 0. 0. 0. 0. 0. 0. 0. 0. 0. 0. 0. 0.
    0. 0. 0. 0. 0. 0. 0. 0. 0. 0. 0. 0. 0. 0. 0. 0. 0. 0. 0. 0. 0. 0. 0.
    0. 0. 0. 0. 0. 0. 0. 0. 0. 0. 0. 0. 0. 0. 0. 0. 0. 0. 0. 0. 0. 0. 0.
    0. 0. 0. 0. 0. 0. 0. 0. 0. 0. 0. 0. 0. 0. 0. 0. 0. 0. 0. 0. 0. 0. 0.
    0. 0. 0. 0. 0. 0. 0. 0. 0. 0. 0. 0. 0. 0. 0. 0. 0. 0. 0. 0. 0. 0. 0.
    0. 0. 0. 0. 0. 0. 0. 0. 0. 0. 0. 0. 0. 0. 0. 0. 0. 0. 0. 0. 0. 0. 0.
    0. 0. 0. 0. 0. 0. 0. 0. 0. 0. 0. 0. 0. 0. 0. 0. 0. 0. 0. 0. 0. 0. 0.
    0. 0. 0. 0. 0. 0. 0. 0. 0. 0. 0. 0. 0. 0. 0. 0. 0. 0. 0. 0. 0. 0. 0.
    0. 0. 0. 0. 0. 0. 0. 0. 0. 0. 0. 0. 0. 0. 0. 0. 0. 0. 0. 0. 0. 0. 0.
    0. 0. 0. 0. 0. 0. 0. 0. 0. 0. 0. 0. 0. 0. 0. 0. 0. 0. 0. 0. 0. 0. 0.
    0. 0. 0. 0. 0. 0. 0. 0. 0. 0. 0. 0. 0. 0. 0. 0. 0. 0. 0. 0. 0. 0. 0.
    0. 0. 0. 0. 0. 0. 0. 0. 0. 0. 0. 0. 0. 0. 0. 0. 0. 0. 0. 0. 0. 0. 0.
    0. 0. 0. 0. 0. 0. 0. 0. 0. 0. 0. 0. 0. 0. 0. 0. 0. 0. 0. 0. 0. 0. 0.
    0. 0. 0. 0. 0. 0. 0. 0. 0. 0. 0. 0. 0. 0. 0. 0. 0. 0. 0. 0. 0. 0. 0.
    0. 0. 0. 0. 0. 0. 0. 0. 0. 0. 0. 0. 0. 0. 0. 0. 0. 0. 0. 0. 0. 0. 0.
    0. 0. 0. 0. 0. 0. 0. 0. 0. 0. 0. 0. 0. 0. 0. 0. 0. 0. 0. 0. 0. 0. 0.
    0. 0. 0. 0. 0. 0. 0. 0. 0. 0. 0. 0. 0. 0. 0. 0. 0. 0. 0. 0. 0. 0. 0.
    0. 0. 0. 0. 0. 0. 0. 0. 0. 0. 0. 0. 0. 0. 0. 0. 0. 0. 0. 0. 0. 0. 0.
    0. 0. 0. 0. 0. 0. 0. 0. 0. 0. 0. 0. 0. 0. 0. 0. 0. 0. 0. 0. 0. 0. 0.
    0. 0. 0. 0. 0. 0. 0. 0. 0. 0. 0. 0. 0. 0. 0. 0. 0. 0. 0. 0. 0. 0. 0.
    0. 0. 0. 0. 0. 0. 0. 0. 0. 0. 0. 0. 0. 0. 0. 0. 0. 0. 0. 0. 0. 0. 0.
    0. 0. 0.</missing_subst>
  <ntrees>100</ntrees>
  <trees>
    <_>
      <nodes>
        <_>
          <depth>0</depth>
          <value>-1.5912666666666686e+00</value>
          <splits>
            <_><var>350</var>
              <quality>2.6758277416229248e+00</quality>
              <le>6.2549018859863281e-01</le></_></splits></_>
        <_>
          <depth>1</depth>
          <value>-1.8530845354733898e+00</value>
          <splits>
            <_><var>350</var>
              <quality>2.3374147415161133e+00</quality>
              <le>5.8823535218834877e-03</le></_></splits></_>
        <_>
          <depth>2</depth>
          <value>-1.9337347393632953e+00</value></_>
        <_>
          <depth>2</depth>
          <value>-1.6235204999526665e+00</value></_>
        <_>
          <depth>1</depth>
          <value>-1.0424192383115016e+00</value>
          <splits>
            <_><var>489</var>
              <quality>5.7970148324966431e-01</quality>
              <le>1.9607844296842813e-03</le></_></splits></_>
        <_>
          <depth>2</depth>
          <value>-1.3058110836886735e-01</value></_>
        <_>
          <depth>2</depth>
          <value>-1.8191896024464882e+00</value></_></nodes></_>
    <_>
      <nodes>
        <_>
          <depth>0</depth>
          <value>-6.1031302145152655e-01</value>
          <splits>
            <_><var>177</var>
              <quality>6.4373970031738281e-01</quality>
              <le>8.8235296308994293e-02</le></_></splits></_>
        <_>
          <depth>1</depth>
          <value>-9.0174205302383814e-01</value>
          <splits>
            <_><var>563</var>
              <quality>7.0511591434478760e-01</quality>
              <le>1.9607844296842813e-03</le></_></splits></_>
        <_>
          <depth>2</depth>
          <value>-9.4973007732994441e-01</value></_>
        <_>
          <depth>2</depth>
          <value>1.4477856373451914e+00</value></_>
        <_>
          <depth>1</depth>
          <value>3.2047181729068375e-01</value>
          <splits>
            <_><var>288</var>
              <quality>2.5927853584289551e-01</quality>
              <le>1.3529412448406219e-01</le></_></splits></_>
        <_>
          <depth>2</depth>
          <value>1.1152652744080915e+00</value></_>
        <_>
          <depth>2</depth>
          <value>-9.1843734911806152e-01</value></_></nodes></_>
    <_>
      <nodes>
        <_>
          <depth>0</depth>
          <value>-4.1709843386080953e-01</value>
          <splits>
            <_><var>517</var>
              <quality>4.3333885073661804e-01</quality>
              <le>1.9607844296842813e-03</le></_></splits></_>
        <_>
          <depth>1</depth>
          <value>4.2097930923342658e-02</value>
          <splits>
            <_><var>290</var>
              <quality>3.4308558702468872e-01</quality>
              <le>1.3921569287776947e-01</le></_></splits></_>
        <_>
          <depth>2</depth>
          <value>7.5957266887850350e-01</value></_>
        <_>
          <depth>2</depth>
          <value>-8.2237259451308964e-01</value></_>
        <_>
          <depth>1</depth>
          <value>-9.8192812019054898e-01</value>
          <splits>
            <_><var>350</var>
              <quality>4.4418928027153015e-01</quality>
              <le>7.9803931713104248e-01</le></_></splits></_>
        <_>
          <depth>2</depth>
          <value>-1.0846435307264330e+00</value></_>
        <_>
          <depth>2</depth>
          <value>-7.2513315034104164e-01</value></_></nodes></_>
    <_>
      <nodes>
        <_>
          <depth>0</depth>
          <value>-2.7939750454293194e-01</value>
          <splits>
            <_><var>486</var>
              <quality>3.6240011453628540e-01</quality>
              <le>2.9411766678094864e-02</le></_></splits></_>
        <_>
          <depth>1</depth>
          <value>1.3295691159656861e-01</value>
          <splits>
            <_><var>153</var>
              <quality>2.9171979427337646e-01</quality>
              <le>3.7254903465509415e-02</le></_></splits></_>
        <_>
          <depth>2</depth>
          <value>-5.8217702030579044e-01</value></_>
        <_>
          <depth>2</depth>
          <value>7.6010276892069872e-01</value></_>
        <_>
          <depth>1</depth>
          <value>-9.6894304981651325e-01</value>
          <splits>
            <_><var>541</var>
              <quality>3.8240036368370056e-01</quality>
              <le>9.8039228469133377e-03</le></_></splits></_>
        <_>
          <depth>2</depth>
          <value>-5.3641334145016839e-01</value></_>
        <_>
          <depth>2</depth>
          <value>-1.1608504154799755e+00</value></_></nodes></_>
    <_>
      <nodes>
        <_>
          <depth>0</depth>
          <value>-1.7904573205692739e-01</value>
          <splits>
            <_><var>296</var>
              <quality>2.6842534542083740e-01</quality>
              <le>1.9607844296842813e-03</le></_></splits></_>
        <_>
          <depth>1</depth>
          <value>-7.8677048885994427e-01</value>
          <splits>
            <_><var>325</var>
              <quality>2.9202637076377869e-01</quality>
              <le>6.6470587253570557e-01</le></_></splits></_>
        <_>
          <depth>2</depth>
          <value>-9.3614434303831517e-01</value></_>
        <_>
          <depth>2</depth>
          <value>1.5186931681581617e-01</value></_>
        <_>
          <depth>1</depth>
          <value>2.3052002142712522e-01</value>
          <splits>
            <_><var>653</var>
              <quality>2.8283336758613586e-01</quality>
              <le>2.9411766678094864e-02</le></_></splits></_>
        <_>
          <depth>2</depth>
          <value>-3.5934083202385292e-01</value></_>
        <_>
          <depth>2</depth>
          <value>9.8055139028139660e-01</value></_></nodes></_>
    <_>
      <nodes>
        <_>
          <depth>0</depth>
          <value>-1.2605983001044480e-01</value>
          <splits>
            <_><var>466</var>
              <quality>1.8178838491439819e-01</quality>
              <le>4.1176471859216690e-02</le></_></splits></_>
        <_>
          <depth>1</depth>
          <value>-5.8940332442523136e-01</value>
          <splits>
            <_><var>411</var>
              <quality>1.9817921519279480e-01</quality>
              <le>3.6274510622024536e-01</le></_></splits></_>
        <_>
          <depth>2</depth>
          <value>-7.4577392609442206e-01</value></_>
        <_>
          <depth>2</depth>
          <value>1.5200222567577179e-01</value></_>
        <_>
          <depth>1</depth>
          <value>2.5147519454084005e-01</value>
          <splits>
            <_><var>378</var>
              <quality>2.0976744592189789e-01</quality>
              <le>3.8235297799110413e-01</le></_></splits></_>
        <_>
          <depth>2</depth>
          <value>-5.4258618524397095e-01</value></_>
        <_>
          <depth>2</depth>
          <value>6.7506920434913376e-01</value></_></nodes></_>
    <_>
      <nodes>
        <_>
          <depth>0</depth>
          <value>-9.2764051753837104e-02</value>
          <splits>
            <_><var>344</var>
              <quality>2.0201334357261658e-01</quality>
              <le>5.2941180765628815e-02</le></_></splits></_>
        <_>
          <depth>1</depth>
          <value>1.9538046622433702e-01</value>
          <splits>
            <_><var>515</var>
              <quality>2.2637307643890381e-01</quality>
              <le>4.1176471859216690e-02</le></_></splits></_>
        <_>
          <depth>2</depth>
          <value>5.5286678212216323e-01</value></_>
        <_>
          <depth>2</depth>
          <value>-6.3556533043705654e-01</value></_>
        <_>
          <depth>1</depth>
          <value>-8.0080348111453259e-01</value>
          <splits>
            <_><var>261</var>
              <quality>2.1484719216823578e-01</quality>
              <le>1.9607844296842813e-03</le></_></splits></_>
        <_>
          <depth>2</depth>
          <value>-2.1961813909337533e-01</value></_>
        <_>
          <depth>2</depth>
          <value>-1.0425531410631650e+00</value></_></nodes></_>
    <_>
      <nodes>
        <_>
          <depth>0</depth>
          <value>-9.7358759252568358e-02</value>
          <splits>
            <_><var>455</var>
              <quality>1.5205910801887512e-01</quality>
              <le>1.9607844296842813e-03</le></_></splits></_>
        <_>
          <depth>1</depth>
          <value>9.7147664312920698e-02</value>
          <splits>
            <_><var>291</var>
              <quality>1.1603967100381851e-01</quality>
              <le>4.7254905104637146e-01</le></_></splits></_>
        <_>
          <depth>2</depth>
          <value>3.3915844727159522e-01</value></_>
        <_>
          <depth>2</depth>
          <value>-4.9538023867874725e-01</value></_>
        <_>
          <depth>1</depth>
          <value>-8.7154443419077143e-01</value>
          <splits>
            <_><var>428</var>
              <quality>1.6487424075603485e-01</quality>
              <le>2.5490198284387589e-02</le></_></splits></_>
        <_>
          <depth>2</depth>
          <value>-1.7046966425848226e-01</value></_>
        <_>
          <depth>2</depth>
          <value>-1.0209526878972270e+00</value></_></nodes></_>
    <_>
      <nodes>
        <_>
          <depth>0</depth>
          <value>-7.2314137789402849e-02</value>
          <splits>
            <_><var>678</var>
              <quality>1.1673021316528320e-01</quality>
              <le>5.8823535218834877e-03</le></_></splits></_>
        <_>
          <depth>1</depth>
          <value>-1.5693993781055210e-01</value>
          <splits>
            <_><var>550</var>
              <quality>1.2113939225673676e-01</quality>
              <le>1.3725491240620613e-02</le></_></splits></_>
        <_>
          <depth>2</depth>
          <value>-5.4692515481970871e-01</value></_>
        <_>
          <depth>2</depth>
          <value>1.2675016487575536e-01</value></_>
        <_>
          <depth>1</depth>
          <value>1.3177175702571031e+00</value>
          <splits>
            <_><var>320</var>
              <quality>1.3305950164794922e-01</quality>
              <le>5.5686277151107788e-01</le></_></splits></_>
        <_>
          <depth>2</depth>
          <value>1.8191372827558929e+00</value></_>
        <_>
          <depth>2</depth>
          <value>-8.6416546069956621e-02</value></_></nodes></_>
    <_>
      <nodes>
        <_>
          <depth>0</depth>
          <value>-2.8739952235035435e-02</value>
          <splits>
            <_><var>485</var>
              <quality>8.9414320886135101e-02</quality>
              <le>3.7058824300765991e-01</le></_></splits></_>
        <_>
          <depth>1</depth>
          <value>1.0880910252492651e-01</value>
          <splits>
            <_><var>404</var>
              <quality>1.3538070023059845e-01</quality>
              <le>6.2549018859863281e-01</le></_></splits></_>
        <_>
          <depth>2</depth>
          <value>-2.3161851861996741e-01</value></_>
        <_>
          <depth>2</depth>
          <value>5.7752896571039813e-01</value></_>
        <_>
          <depth>1</depth>
          <value>-7.0699719681475570e-01</value>
          <splits>
            <_><var>540</var>
              <quality>1.2813435494899750e-01</quality>
              <le>3.7254903465509415e-02</le></_></splits></_>
        <_>
          <depth>2</depth>
          <value>3.4301184711021437e-01</value></_>
        <_>
          <depth>2</depth>
          <value>-9.9281832662687197e-01</value></_></nodes></_>
    <_>
      <nodes>
        <_>
          <depth>0</depth>
          <value>-4.3584565594952024e-02</value>
          <splits>
            <_><var>342</var>
              <quality>9.4984918832778931e-02</quality>
              <le>1.9019609689712524e-01</le></_></splits></_>
        <_>
          <depth>1</depth>
          <value>5.4528918463927468e-02</value>
          <splits>
            <_><var>220</var>
              <quality>8.2269467413425446e-02</quality>
              <le>1.9607844296842813e-03</le></_></splits></_>
        <_>
          <depth>2</depth>
          <value>1.1794994072267249e-01</value></_>
        <_>
          <depth>2</depth>
          <value>-1.3980529426742732e+00</value></_>
        <_>
          <depth>1</depth>
          <value>-1.0432787073704797e+00</value>
          <splits>
            <_><var>314</var>
              <quality>1.0510149598121643e-01</quality>
              <le>1.9607844296842813e-03</le></_></splits></_>
        <_>
          <depth>2</depth>
          <value>5.5747335686765476e-01</value></_>
        <_>
          <depth>2</depth>
          <value>-1.1366404101745846e+00</value></_></nodes></_>
    <_>
      <nodes>
        <_>
          <depth>0</depth>
          <value>-3.9865754480983069e-02</value>
          <splits>
            <_><var>240</var>
              <quality>8.6416825652122498e-02</quality>
              <le>3.3333335071802139e-02</le></_></splits></_>
        <_>
          <depth>1</depth>
          <value>-4.5006819843718215e-01</value>
          <splits>
            <_><var>243</var>
              <quality>1.2121573835611343e-01</quality>
              <le>2.0196080207824707e-01</le></_></splits></_>
        <_>
          <depth>2</depth>
          <value>-7.6007223902707888e-01</value></_>
        <_>
          <depth>2</depth>
          <value>8.2076810178498161e-02</value></_>
        <_>
          <depth>1</depth>
          <value>1.7749750344821411e-01</value>
          <splits>
            <_><var>517</var>
              <quality>1.1320064216852188e-01</quality>
              <le>8.3333337306976318e-01</le></_></splits></_>
        <_>
          <depth>2</depth>
          <value>3.3051113462531218e-01</value></_>
        <_>
          <depth>2</depth>
          <value>-8.0521147606771815e-01</value></_></nodes></_>
    <_>
      <nodes>
        <_>
          <depth>0</depth>
          <value>-5.1571165219165237e-02</value>
          <splits>
            <_><var>290</var>
              <quality>6.3782684504985809e-02</quality>
              <le>7.5490200519561768e-01</le></_></splits></_>
        <_>
          <depth>1</depth>
          <value>6.5372260298972404e-02</value>
          <splits>
            <_><var>180</var>
              <quality>9.5395736396312714e-02</quality>
              <le>4.9019612371921539e-02</le></_></splits></_>
        <_>
          <depth>2</depth>
          <value>-4.1512052968418389e-01</value></_>
        <_>
          <depth>2</depth>
          <value>3.0947367432091427e-01</value></_>
        <_>
          <depth>1</depth>
          <value>-6.0207457361804140e-01</value>
          <splits>
            <_><var>265</var>
              <quality>1.2902119755744934e-01</quality>
              <le>1.8235294520854950e-01</le></_></splits></_>
        <_>
          <depth>2</depth>
          <value>-1.2232228149827615e+00</value></_>
        <_>
          <depth>2</depth>
          <value>6.0346403590272962e-02</value></_></nodes></_>
    <_>
      <nodes>
        <_>
          <depth>0</depth>
          <value>-4.3345172029498460e-02</value>
          <splits>
            <_><var>350</var>
              <quality>5.9414505958557129e-02</quality>
              <le>5.8823535218834877e-03</le></_></splits></_>
        <_>
          <depth>1</depth>
          <value>-4.9565379044172814e-01</value>
          <splits>
            <_><var>406</var>
              <quality>1.0855232179164886e-01</quality>
              <le>4.4117650389671326e-01</le></_></splits></_>
        <_>
          <depth>2</depth>
          <value>-9.6816987115451170e-01</value></_>
        <_>
          <depth>2</depth>
          <value>4.1780961763832218e-02</value></_>
        <_>
          <depth>1</depth>
          <value>9.0768799651342158e-02</value>
          <splits>
            <_><var>486</var>
              <quality>8.6906678974628448e-02</quality>
              <le>5.1176476478576660e-01</le></_></splits></_>
        <_>
          <depth>2</depth>
          <value>2.3726412034742328e-01</value></_>
        <_>
          <depth>2</depth>
          <value>-6.6258712696377808e-01</value></_></nodes></_>
    <_>
      <nodes>
        <_>
          <depth>0</depth>
          <value>-4.4917510907249270e-02</value>
          <splits>
            <_><var>344</var>
              <quality>7.6235093176364899e-02</quality>
              <le>7.6666676998138428e-01</le></_></splits></_>
        <_>
          <depth>1</depth>
          <value>5.9084667504433634e-02</value>
          <splits>
            <_><var>325</var>
              <quality>8.1428945064544678e-02</quality>
              <le>1.9607844296842813e-03</le></_></splits></_>
        <_>
          <depth>2</depth>
          <value>-3.4004550826737728e-01</value></_>
        <_>
          <depth>2</depth>
          <value>2.9475642765230403e-01</value></_>
        <_>
          <depth>1</depth>
          <value>-7.9700995739458314e-01</value>
          <splits>
            <_><var>293</var>
              <quality>1.3912433385848999e-01</quality>
              <le>7.5490200519561768e-01</le></_></splits></_>
        <_>
          <depth>2</depth>
          <value>-1.1840953861719674e+00</value></_>
        <_>
          <depth>2</depth>
          <value>6.7577121591698153e-01</value></_></nodes></_>
    <_>
      <nodes>
        <_>
          <depth>0</depth>
          <value>-3.7542808079391261e-02</value>
          <splits>
            <_><var>228</var>
              <quality>6.3436239957809448e-02</quality>
              <le>9.8039228469133377e-03</le></_></splits></_>
        <_>
          <depth>1</depth>
          <value>-9.5301699229919129e-02</value>
          <splits>
            <_><var>264</var>
              <quality>7.4873849749565125e-02</quality>
              <le>7.3529410362243652e-01</le></_></splits></_>
        <_>
          <depth>2</depth>
          <value>7.3883210886470443e-02</value></_>
        <_>
          <depth>2</depth>
          <value>-5.3124421331664340e-01</value></_>
        <_>
          <depth>1</depth>
          <value>1.0941571196334816e+00</value>
          <splits>
            <_><var>548</var>
              <quality>1.0795783251523972e-01</quality>
              <le>4.9411767721176147e-01</le></_></splits></_>
        <_>
          <depth>2</depth>
          <value>1.7511257455962619e+00</value></_>
        <_>
          <depth>2</depth>
          <value>-6.4576038245489642e-01</value></_></nodes></_>
    <_>
      <nodes>
        <_>
          <depth>0</depth>
          <value>-2.0090032252356737e-02</value>
          <splits>
            <_><var>515</var>
              <quality>5.9991713613271713e-02</quality>
              <le>8.8823533058166504e-01</le></_></splits></_>
        <_>
          <depth>1</depth>
          <value>5.9425326527577454e-02</value>
          <splits>
            <_><var>433</var>
              <quality>9.1060593724250793e-02</quality>
              <le>9.7450983524322510e-01</le></_></splits></_>
        <_>
          <depth>2</depth>
          <value>-1.0596086901582721e-01</value></_>
        <_>
          <depth>2</depth>
          <value>6.7603496420693909e-01</value></_>
        <_>
          <depth>1</depth>
          <value>-8.0917318423736284e-01</value>
          <splits>
            <_><var>460</var>
              <quality>1.3006173074245453e-01</quality>
              <le>4.1176471859216690e-02</le></_></splits></_>
        <_>
          <depth>2</depth>
          <value>2.4399968809992334e+00</value></_>
        <_>
          <depth>2</depth>
          <value>-1.0679264085471585e+00</value></_></nodes></_>
    <_>
      <nodes>
        <_>
          <depth>0</depth>
          <value>-3.7694158688477704e-02</value>
          <splits>
            <_><var>428</var>
              <quality>7.5285203754901886e-02</quality>
              <le>2.4901962280273438e-01</le></_></splits></_>
        <_>
          <depth>1</depth>
          <value>8.8982014776322282e-02</value>
          <splits>
            <_><var>468</var>
              <quality>8.9197240769863129e-02</quality>
              <le>1.9607844296842813e-03</le></_></splits></_>
        <_>
          <depth>2</depth>
          <value>-1.3843164450512985e-01</value></_>
        <_>
          <depth>2</depth>
          <value>5.5216265994670422e-01</value></_>
        <_>
          <depth>1</depth>
          <value>-6.5207164381435956e-01</value>
          <splits>
            <_><var>710</var>
              <quality>1.0154014825820923e-01</quality>
              <le>5.0392162799835205e-01</le></_></splits></_>
        <_>
          <depth>2</depth>
          <value>-7.4359603928393281e-01</value></_>
        <_>
          <depth>2</depth>
          <value>1.5339735899133748e+00</value></_></nodes></_>
    <_>
      <nodes>
        <_>
          <depth>0</depth>
          <value>-1.9481859837683933e-02</value>
          <splits>
            <_><var>507</var>
              <quality>5.1000989973545074e-02</quality>
              <le>1.5490196645259857e-01</le></_></splits></_>
        <_>
          <depth>1</depth>
          <value>-5.2685204252845237e-02</value>
          <splits>
            <_><var>267</var>
              <quality>5.2114654332399368e-02</quality>
              <le>1.3725491240620613e-02</le></_></splits></_>
        <_>
          <depth>2</depth>
          <value>-3.3285800317251174e-01</value></_>
        <_>
          <depth>2</depth>
          <value>1.3725488750978648e-01</value></_>
        <_>
          <depth>1</depth>
          <value>1.5859409835493778e+00</value>
          <splits>
            <_><var>426</var>
              <quality>6.6958516836166382e-02</quality>
              <le>4.6470591425895691e-01</le></_></splits></_>
        <_>
          <depth>2</depth>
          <value>1.9704387466358853e+00</value></_>
        <_>
          <depth>2</depth>
          <value>-9.1908681928392244e-01</value></_></nodes></_>
    <_>
      <nodes>
        <_>
          <depth>0</depth>
          <value>1.0630675117404191e-03</value>
          <splits>
            <_><var>651</var>
              <quality>4.7448419034481049e-02</quality>
              <le>3.1960785388946533e-01</le></_></splits></_>
        <_>
          <depth>1</depth>
          <value>-9.8811786832449691e-02</value>
          <splits>
            <_><var>546</var>
              <quality>5.4269365966320038e-02</quality>
              <le>2.9607844352722168e-01</le></_></splits></_>
        <_>
          <depth>2</depth>
          <value>8.0391066124466892e-02</value></_>
        <_>
          <depth>2</depth>
          <value>-4.2662083060462930e-01</value></_>
        <_>
          <depth>1</depth>
          <value>5.0090037050245084e-01</value>
          <splits>
            <_><var>326</var>
              <quality>8.5966005921363831e-02</quality>
              <le>6.4117646217346191e-01</le></_></splits></_>
        <_>
          <depth>2</depth>
          <value>-9.3772560784866569e-03</value></_>
        <_>
          <depth>2</depth>
          <value>1.0735435426426627e+00</value></_></nodes></_>
    <_>
      <nodes>
        <_>
          <depth>0</depth>
          <value>-1.1934169239748764e-02</value>
          <splits>
            <_><var>162</var>
              <quality>5.1385298371315002e-02</quality>
              <le>2.9411766678094864e-02</le></_></splits></_>
        <_>
          <depth>1</depth>
          <value>5.9515132926226011e-02</value>
          <splits>
            <_><var>516</var>
              <quality>6.8308725953102112e-02</quality>
              <le>8.8431382179260254e-01</le></_></splits></_>
        <_>
          <depth>2</depth>
          <value>1.4481253809799260e-01</value></_>
        <_>
          <depth>2</depth>
          <value>-8.2171418339765967e-01</value></_>
        <_>
          <depth>1</depth>
          <value>-7.6698318910731222e-01</value>
          <splits>
            <_><var>300</var>
              <quality>1.3145172595977783e-01</quality>
              <le>1.1568628251552582e-01</le></_></splits></_>
        <_>
          <depth>2</depth>
          <value>-1.4438395725510529e+00</value></_>
        <_>
          <depth>2</depth>
          <value>7.2869841252499468e-01</value></_></nodes></_>
    <_>
      <nodes>
        <_>
          <depth>0</depth>
          <value>-3.4462523606188553e-02</value>
          <splits>
            <_><var>402</var>
              <quality>5.2891585975885391e-02</quality>
              <le>6.3333332538604736e-01</le></_></splits></_>
        <_>
          <depth>1</depth>
          <value>1.2861707361464125e-01</value>
          <splits>
            <_><var>486</var>
              <quality>6.0420382767915726e-02</quality>
              <le>8.6470592021942139e-01</le></_></splits></_>
        <_>
          <depth>2</depth>
          <value>2.2489402375624401e-01</value></_>
        <_>
          <depth>2</depth>
          <value>-6.8245626490944244e-01</value></_>
        <_>
          <depth>1</depth>
          <value>-3.6850817803008801e-01</value>
          <splits>
            <_><var>317</var>
              <quality>9.4121024012565613e-02</quality>
              <le>4.6862748265266418e-01</le></_></splits></_>
        <_>
          <depth>2</depth>
          <value>-1.2659254804107659e-01</value></_>
        <_>
          <depth>2</depth>
          <value>-1.0553343243087414e+00</value></_></nodes></_>
    <_>
      <nodes>
        <_>
          <depth>0</depth>
          <value>-2.5051993798844138e-02</value>
          <splits>
            <_><var>370</var>
              <quality>4.6510666608810425e-02</quality>
              <le>2.5686275959014893e-01</le></_></splits></_>
        <_>
          <depth>1</depth>
          <value>2.9133451536383064e-02</value>
          <splits>
            <_><var>184</var>
              <quality>3.8766235113143921e-02</quality>
              <le>2.2549021244049072e-01</le></_></splits></_>
        <_>
          <depth>2</depth>
          <value>-2.5813793676484109e-01</value></_>
        <_>
          <depth>2</depth>
          <value>1.7684630237444368e-01</value></_>
        <_>
          <depth>1</depth>
          <value>-9.1693876272858288e-01</value>
          <splits>
            <_><var>120</var>
              <quality>5.9241022914648056e-02</quality>
              <le>1.0196079313755035e-01</le></_></splits></_>
        <_>
          <depth>2</depth>
          <value>-1.0473531579991004e+00</value></_>
        <_>
          <depth>2</depth>
          <value>9.8409299170871056e-01</value></_></nodes></_>
    <_>
      <nodes>
        <_>
          <depth>0</depth>
          <value>-1.9413880413289841e-02</value>
          <splits>
            <_><var>711</var>
              <quality>3.5323943942785263e-02</quality>
              <le>8.0392159521579742e-02</le></_></splits></_>
        <_>
          <depth>1</depth>
          <value>-7.1125743209204034e-02</value>
          <splits>
            <_><var>122</var>
              <quality>4.3220818042755127e-02</quality>
              <le>5.9019613265991211e-01</le></_></splits></_>
        <_>
          <depth>2</depth>
          <value>-1.3874200743922377e-01</value></_>
        <_>
          <depth>2</depth>
          <value>5.7579701340362321e-01</value></_>
        <_>
          <depth>1</depth>
          <value>6.9234690457365278e-01</value>
          <splits>
            <_><var>573</var>
              <quality>1.2128232419490814e-01</quality>
              <le>4.1764709353446960e-01</le></_></splits></_>
        <_>
          <depth>2</depth>
          <value>1.5452537719577792e+00</value></_>
        <_>
          <depth>2</depth>
          <value>-9.5557217862380550e-01</value></_></nodes></_>
    <_>
      <nodes>
        <_>
          <depth>0</depth>
          <value>-4.7349470422461699e-03</value>
          <splits>
            <_><var>248</var>
              <quality>4.0156278759241104e-02</quality>
              <le>1.9607844296842813e-03</le></_></splits></_>
        <_>
          <depth>1</depth>
          <value>2.6172804292458798e-02</value>
          <splits>
            <_><var>584</var>
              <quality>4.1597332805395126e-02</quality>
              <le>1.9607844296842813e-03</le></_></splits></_>
        <_>
          <depth>2</depth>
          <value>6.0588648685280723e-02</value></_>
        <_>
          <depth>2</depth>
          <value>-1.2545427444920561e+00</value></_>
        <_>
          <depth>1</depth>
          <value>-1.3711567393837583e+00</value>
          <splits>
            <_><var>161</var>
              <quality>4.2790506035089493e-02</quality>
              <le>9.9411773681640625e-01</le></_></splits></_>
        <_>
          <depth>2</depth>
          <value>-1.4290399755578538e+00</value></_>
        <_>
          <depth>2</depth>
          <value>1.3170562974587883e+00</value></_></nodes></_>
    <_>
      <nodes>
        <_>
          <depth>0</depth>
          <value>-1.3975160103793861e-02</value>
          <splits>
            <_><var>294</var>
              <quality>3.3938091248273849e-02</quality>
              <le>2.6862746477127075e-01</le></_></splits></_>
        <_>
          <depth>1</depth>
          <value>-1.8547792434296620e-01</value>
          <splits>
            <_><var>177</var>
              <quality>1.2333357334136963e-01</quality>
              <le>1.0000000894069672e-01</le></_></splits></_>
        <_>
          <depth>2</depth>
          <value>2.4057893307228098e-01</value></_>
        <_>
          <depth>2</depth>
          <value>-6.6170659322345116e-01</value></_>
        <_>
          <depth>1</depth>
          <value>1.9318832311711079e-01</value>
          <splits>
            <_><var>124</var>
              <quality>9.1233395040035248e-02</quality>
              <le>2.6470589637756348e-01</le></_></splits></_>
        <_>
          <depth>2</depth>
          <value>-4.2126337175211595e-02</value></_>
        <_>
          <depth>2</depth>
          <value>9.3567452856933253e-01</value></_></nodes></_>
    <_>
      <nodes>
        <_>
          <depth>0</depth>
          <value>-1.1007469733124794e-02</value>
          <splits>
            <_><var>292</var>
              <quality>4.5326616615056992e-02</quality>
              <le>4.1372552514076233e-01</le></_></splits></_>
        <_>
          <depth>1</depth>
          <value>1.5227041107036235e-01</value>
          <splits>
            <_><var>318</var>
              <quality>1.1996380239725113e-01</quality>
              <le>7.8235304355621338e-01</le></_></splits></_>
        <_>
          <depth>2</depth>
          <value>2.9879848326320174e-01</value></_>
        <_>
          <depth>2</depth>
          <value>-1.0340608127230857e+00</value></_>
        <_>
          <depth>1</depth>
          <value>-3.0248238991931836e-01</value>
          <splits>
            <_><var>176</var>
              <quality>2.1315152943134308e-01</quality>
              <le>3.3333335071802139e-02</le></_></splits></_>
        <_>
          <depth>2</depth>
          <value>-6.8408208010383953e-01</value></_>
        <_>
          <depth>2</depth>
          <value>1.0953497199455391e+00</value></_></nodes></_>
    <_>
      <nodes>
        <_>
          <depth>0</depth>
          <value>-4.1588082801728023e-02</value>
          <splits>
            <_><var>682</var>
              <quality>3.9906620979309082e-02</quality>
              <le>3.3137255907058716e-01</le></_></splits></_>
        <_>
          <depth>1</depth>
          <value>-1.3992249045821814e-01</value>
          <splits>
            <_><var>348</var>
              <quality>8.6134992539882660e-02</quality>
              <le>9.2156872153282166e-02</le></_></splits></_>
        <_>
          <depth>2</depth>
          <value>-4.8174621819501739e-01</value></_>
        <_>
          <depth>2</depth>
          <value>1.3173068908905133e-01</value></_>
        <_>
          <depth>1</depth>
          <value>3.6800832129749772e-01</value>
          <splits>
            <_><var>461</var>
              <quality>8.0921553075313568e-02</quality>
              <le>2.1372550725936890e-01</le></_></splits></_>
        <_>
          <depth>2</depth>
          <value>-7.7739057581876145e-02</value></_>
        <_>
          <depth>2</depth>
          <value>1.0512582665665504e+00</value></_></nodes></_>
    <_>
      <nodes>
        <_>
          <depth>0</depth>
          <value>-3.1939106255025475e-02</value>
          <splits>
            <_><var>451</var>
              <quality>3.7306021898984909e-02</quality>
              <le>1.3725491240620613e-02</le></_></splits></_>
        <_>
          <depth>1</depth>
          <value>-5.2348097636459055e-02</value>
          <splits>
            <_><var>515</var>
              <quality>3.5396084189414978e-02</quality>
              <le>6.0588240623474121e-01</le></_></splits></_>
        <_>
          <depth>2</depth>
          <value>1.9696570261054425e-02</value></_>
        <_>
          <depth>2</depth>
          <value>-5.3704149419475466e-01</value></_>
        <_>
          <depth>1</depth>
          <value>1.8419527155185691e+00</value>
          <splits>
            <_><var>488</var>
              <quality>5.2798949182033539e-02</quality>
              <le>5.6078433990478516e-01</le></_></splits></_>
        <_>
          <depth>2</depth>
          <value>1.5627684237465367e+00</value></_>
        <_>
          <depth>2</depth>
          <value>8.1643037903393942e+00</value></_></nodes></_>
    <_>
      <nodes>
        <_>
          <depth>0</depth>
          <value>-4.6281594483452766e-02</value>
          <splits>
            <_><var>424</var>
              <quality>4.0618784725666046e-02</quality>
              <le>7.2549022734165192e-02</le></_></splits></_>
        <_>
          <depth>1</depth>
          <value>-1.2050772388487991e-02</value>
          <splits>
            <_><var>298</var>
              <quality>3.4452084451913834e-02</quality>
              <le>9.8039228469133377e-03</le></_></splits></_>
        <_>
          <depth>2</depth>
          <value>-2.1650061574084620e-01</value></_>
        <_>
          <depth>2</depth>
          <value>1.6973766150596031e-01</value></_>
        <_>
          <depth>1</depth>
          <value>-1.2327819539555411e+00</value>
          <splits>
            <_><var>351</var>
              <quality>6.1637215316295624e-02</quality>
              <le>8.2941186428070068e-01</le></_></splits></_>
        <_>
          <depth>2</depth>
          <value>-1.7835854055528684e+00</value></_>
        <_>
          <depth>2</depth>
          <value>2.0882602744281747e-01</value></_></nodes></_>
    <_>
      <nodes>
        <_>
          <depth>0</depth>
          <value>-1.8566708638752757e-02</value>
          <splits>
            <_><var>517</var>
              <quality>3.3773045986890793e-02</quality>
              <le>9.8235297203063965e-01</le></_></splits></_>
        <_>
          <depth>1</depth>
          <value>3.5006838307499240e-02</value>
          <splits>
            <_><var>263</var>
              <quality>3.3546660095453262e-02</quality>
              <le>4.5294120907783508e-01</le></_></splits></_>
        <_>
          <depth>2</depth>
          <value>1.6123210467593013e-01</value></_>
        <_>
          <depth>2</depth>
          <value>-2.5784903792976999e-01</value></_>
        <_>
          <depth>1</depth>
          <value>-6.7572062077569595e-01</value>
          <splits>
            <_><var>462</var>
              <quality>7.8697606921195984e-02</quality>
              <le>5.8823535218834877e-03</le></_></splits></_>
        <_>
          <depth>2</depth>
          <value>2.1806489597234271e+00</value></_>
        <_>
          <depth>2</depth>
          <value>-9.0061814554810493e-01</value></_></nodes></_>
    <_>
      <nodes>
        <_>
          <depth>0</depth>
          <value>-1.6261149046907966e-02</value>
          <splits>
            <_><var>343</var>
              <quality>3.3528182655572891e-02</quality>
              <le>6.9607841968536377e-01</le></_></splits></_>
        <_>
          <depth>1</depth>
          <value>2.8226181952264569e-02</value>
          <splits>
            <_><var>484</var>
              <quality>3.2386135309934616e-02</quality>
              <le>5.5490195751190186e-01</le></_></splits></_>
        <_>
          <depth>2</depth>
          <value>1.0177563760859790e-01</value></_>
        <_>
          <depth>2</depth>
          <value>-4.5064036927764339e-01</value></_>
        <_>
          <depth>1</depth>
          <value>-8.0364690576354736e-01</value>
          <splits>
            <_><var>287</var>
              <quality>5.6002009660005569e-02</quality>
              <le>5.8823535218834877e-03</le></_></splits></_>
        <_>
          <depth>2</depth>
          <value>6.2486729615034298e-01</value></_>
        <_>
          <depth>2</depth>
          <value>-1.1231838798098956e+00</value></_></nodes></_>
    <_>
      <nodes>
        <_>
          <depth>0</depth>
          <value>-1.6475310476529528e-02</value>
          <splits>
            <_><var>519</var>
              <quality>3.2585181295871735e-02</quality>
              <le>9.9019610881805420e-01</le></_></splits></_>
        <_>
          <depth>1</depth>
          <value>6.0254880370892730e-02</value>
          <splits>
            <_><var>406</var>
              <quality>3.5112079232931137e-02</quality>
              <le>9.4313728809356689e-01</le></_></splits></_>
        <_>
          <depth>2</depth>
          <value>-9.6177634675217671e-02</value></_>
        <_>
          <depth>2</depth>
          <value>3.1419263629553229e-01</value></_>
        <_>
          <depth>1</depth>
          <value>-4.5996119861171619e-01</value>
          <splits>
            <_><var>186</var>
              <quality>8.2824096083641052e-02</quality>
              <le>9.9019610881805420e-01</le></_></splits></_>
        <_>
          <depth>2</depth>
          <value>-7.4811132041506179e-01</value></_>
        <_>
          <depth>2</depth>
          <value>8.5713564099669382e-01</value></_></nodes></_>
    <_>
      <nodes>
        <_>
          <depth>0</depth>
          <value>-2.6553075314863155e-02</value>
          <splits>
            <_><var>190</var>
              <quality>3.3403415232896805e-02</quality>
              <le>1.6666667163372040e-01</le></_></splits></_>
        <_>
          <depth>1</depth>
          <value>3.1674307773246015e-02</value>
          <splits>
            <_><var>267</var>
              <quality>3.0311677604913712e-02</quality>
              <le>1.4705882966518402e-01</le></_></splits></_>
        <_>
          <depth>2</depth>
          <value>-1.7095263788500478e-01</value></_>
        <_>
          <depth>2</depth>
          <value>1.9968164798995622e-01</value></_>
        <_>
          <depth>1</depth>
          <value>-6.1829945237033512e-01</value>
          <splits>
            <_><var>327</var>
              <quality>6.6042758524417877e-02</quality>
              <le>9.1176474094390869e-01</le></_></splits></_>
        <_>
          <depth>2</depth>
          <value>-1.0403476722528036e+00</value></_>
        <_>
          <depth>2</depth>
          <value>3.1455128205955185e-01</value></_></nodes></_>
    <_>
      <nodes>
        <_>
          <depth>0</depth>
          <value>-1.0394902066867124e-02</value>
          <splits>
            <_><var>594</var>
              <quality>3.0258931219577789e-02</quality>
              <le>1.9607844296842813e-03</le></_></splits></_>
        <_>
          <depth>1</depth>
          <value>-1.1842847840813585e-01</value>
          <splits>
            <_><var>498</var>
              <quality>5.3372330963611603e-02</quality>
              <le>1.0000000894069672e-01</le></_></splits></_>
        <_>
          <depth>2</depth>
          <value>-2.1046162489382023e-01</value></_>
        <_>
          <depth>2</depth>
          <value>5.6407483679948156e-01</value></_>
        <_>
          <depth>1</depth>
          <value>2.8343653207607533e-01</value>
          <splits>
            <_><var>352</var>
              <quality>7.4921429157257080e-02</quality>
              <le>2.5490198284387589e-02</le></_></splits></_>
        <_>
          <depth>2</depth>
          <value>-6.7569240312821899e-01</value></_>
        <_>
          <depth>2</depth>
          <value>5.0554189752655376e-01</value></_></nodes></_>
    <_>
      <nodes>
        <_>
          <depth>0</depth>
          <value>-3.4648422320039860e-03</value>
          <splits>
            <_><var>638</var>
              <quality>3.7114083766937256e-02</quality>
              <le>9.8039228469133377e-03</le></_></splits></_>
        <_>
          <depth>1</depth>
          <value>4.5212003508559404e-02</value>
          <splits>
            <_><var>358</var>
              <quality>3.1343337148427963e-02</quality>
              <le>2.8039216995239258e-01</le></_></splits></_>
        <_>
          <depth>2</depth>
          <value>7.8127042835762328e-02</value></_>
        <_>
          <depth>2</depth>
          <value>-9.5587226137478909e-01</value></_>
        <_>
          <depth>1</depth>
          <value>-8.0581195059080457e-01</value>
          <splits>
            <_><var>320</var>
              <quality>5.6670341640710831e-02</quality>
              <le>3.3921569585800171e-01</le></_></splits></_>
        <_>
          <depth>2</depth>
          <value>-1.1936560057436196e+00</value></_>
        <_>
          <depth>2</depth>
          <value>2.0901820669011315e-01</value></_></nodes></_>
    <_>
      <nodes>
        <_>
          <depth>0</depth>
          <value>-1.0629806101566823e-02</value>
          <splits>
            <_><var>486</var>
              <quality>3.1869661062955856e-02</quality>
              <le>7.3529410362243652e-01</le></_></splits></_>
        <_>
          <depth>1</depth>
          <value>5.7619583307876032e-02</value>
          <splits>
            <_><var>516</var>
              <quality>4.4666647911071777e-02</quality>
              <le>7.9019618034362793e-01</le></_></splits></_>
        <_>
          <depth>2</depth>
          <value>1.2671525888039920e-01</value></_>
        <_>
          <depth>2</depth>
          <value>-6.6960438370388631e-01</value></_>
        <_>
          <depth>1</depth>
          <value>-5.0051108837933622e-01</value>
          <splits>
            <_><var>541</var>
              <quality>1.1576583236455917e-01</quality>
              <le>2.5686275959014893e-01</le></_></splits></_>
        <_>
          <depth>2</depth>
          <value>8.9053284536456445e-01</value></_>
        <_>
          <depth>2</depth>
          <value>-1.0368199358521035e+00</value></_></nodes></_>
    <_>
      <nodes>
        <_>
          <depth>0</depth>
          <value>-2.6154901689108896e-02</value>
          <splits>
            <_><var>98</var>
              <quality>3.0416440218687057e-02</quality>
              <le>5.5490195751190186e-01</le></_></splits></_>
        <_>
          <depth>1</depth>
          <value>-5.8867633481337341e-02</value>
          <splits>
            <_><var>383</var>
              <quality>3.0246755108237267e-02</quality>
              <le>9.7450983524322510e-01</le></_></splits></_>
        <_>
          <depth>2</depth>
          <value>6.8532905422365974e-03</value></_>
        <_>
          <depth>2</depth>
          <value>-5.0713971190881768e-01</value></_>
        <_>
          <depth>1</depth>
          <value>9.3168029163344424e-01</value>
          <splits>
            <_><var>430</var>
              <quality>7.3004283010959625e-02</quality>
              <le>9.8039219155907631e-03</le></_></splits></_>
        <_>
          <depth>2</depth>
          <value>1.7679959220610286e+00</value></_>
        <_>
          <depth>2</depth>
          <value>-8.1277511438618821e-01</value></_></nodes></_>
    <_>
      <nodes>
        <_>
          <depth>0</depth>
          <value>-8.7223458727349601e-03</value>
          <splits>
            <_><var>145</var>
              <quality>2.7919566258788109e-02</quality>
              <le>7.6470591127872467e-02</le></_></splits></_>
        <_>
          <depth>1</depth>
          <value>-3.6395106040718980e-02</value>
          <splits>
            <_><var>291</var>
              <quality>2.4198256433010101e-02</quality>
              <le>9.2352950572967529e-01</le></_></splits></_>
        <_>
          <depth>2</depth>
          <value>3.2698819309924632e-02</value></_>
        <_>
          <depth>2</depth>
          <value>-3.9551330984855593e-01</value></_>
        <_>
          <depth>1</depth>
          <value>1.0505567102674704e+00</value>
          <splits>
            <_><var>320</var>
              <quality>6.2075834721326828e-02</quality>
              <le>7.8431377187371254e-03</le></_></splits></_>
        <_>
          <depth>2</depth>
          <value>-5.2256982964042731e-01</value></_>
        <_>
          <depth>2</depth>
          <value>1.9805155618884622e+00</value></_></nodes></_>
    <_>
      <nodes>
        <_>
          <depth>0</depth>
          <value>-2.0480965450763874e-03</value>
          <splits>
            <_><var>247</var>
              <quality>2.3051178082823753e-02</quality>
              <le>7.6470591127872467e-02</le></_></splits></_>
        <_>
          <depth>1</depth>
          <value>3.3805508895121218e-02</value>
          <splits>
            <_><var>243</var>
              <quality>3.2701071351766586e-02</quality>
              <le>8.6470592021942139e-01</le></_></splits></_>
        <_>
          <depth>2</depth>
          <value>-6.0770497998747910e-02</value></_>
        <_>
          <depth>2</depth>
          <value>4.0497195451777135e-01</value></_>
        <_>
          <depth>1</depth>
          <value>-6.7869686512515370e-01</value>
          <splits>
            <_><var>321</var>
              <quality>6.0578070580959320e-02</quality>
              <le>5.1176476478576660e-01</le></_></splits></_>
        <_>
          <depth>2</depth>
          <value>4.3031712616126744e-01</value></_>
        <_>
          <depth>2</depth>
          <value>-1.4059879321724802e+00</value></_></nodes></_>
    <_>
      <nodes>
        <_>
          <depth>0</depth>
          <value>-7.4626025332589782e-03</value>
          <splits>
            <_><var>487</var>
              <quality>2.2227643057703972e-02</quality>
              <le>9.3137264251708984e-01</le></_></splits></_>
        <_>
          <depth>1</depth>
          <value>3.4552579429198843e-02</value>
          <splits>
            <_><var>542</var>
              <quality>2.8124766424298286e-02</quality>
              <le>9.3921577930450439e-01</le></_></splits></_>
        <_>
          <depth>2</depth>
          <value>-1.5038620730433432e-02</value></_>
        <_>
          <depth>2</depth>
          <value>6.5261319254225603e-01</value></_>
        <_>
          <depth>1</depth>
          <value>-5.6302503109307533e-01</value>
          <splits>
            <_><var>542</var>
              <quality>8.7295413017272949e-02</quality>
              <le>1.3725490868091583e-01</le></_></splits></_>
        <_>
          <depth>2</depth>
          <value>1.0922726706721437e+00</value></_>
        <_>
          <depth>2</depth>
          <value>-1.1610783698643343e+00</value></_></nodes></_>
    <_>
      <nodes>
        <_>
          <depth>0</depth>
          <value>-5.9551523340933971e-03</value>
          <splits>
            <_><var>465</var>
              <quality>2.2213216871023178e-02</quality>
              <le>8.1764709949493408e-01</le></_></splits></_>
        <_>
          <depth>1</depth>
          <value>1.0314607865325114e-01</value>
          <splits>
            <_><var>521</var>
              <quality>4.9978978931903839e-02</quality>
              <le>3.2352942228317261e-01</le></_></splits></_>
        <_>
          <depth>2</depth>
          <value>-9.3714211548744736e-02</value></_>
        <_>
          <depth>2</depth>
          <value>4.5259511021198745e-01</value></_>
        <_>
          <depth>1</depth>
          <value>-2.1994827526685748e-01</value>
          <splits>
            <_><var>156</var>
              <quality>5.1555324345827103e-02</quality>
              <le>5.7843136787414551e-01</le></_></splits></_>
        <_>
          <depth>2</depth>
          <value>-4.8019808218000520e-01</value></_>
        <_>
          <depth>2</depth>
          <value>2.1169680447313058e-01</value></_></nodes></_>
    <_>
      <nodes>
        <_>
          <depth>0</depth>
          <value>-8.0739272521022070e-03</value>
          <splits>
            <_><var>258</var>
              <quality>2.6914568617939949e-02</quality>
              <le>7.2549022734165192e-02</le></_></splits></_>
        <_>
          <depth>1</depth>
          <value>-7.5758709014610098e-02</value>
          <splits>
            <_><var>375</var>
              <quality>3.1630448997020721e-02</quality>
              <le>7.5490200519561768e-01</le></_></splits></_>
        <_>
          <depth>2</depth>
          <value>6.1203015887698144e-02</value></_>
        <_>
          <depth>2</depth>
          <value>-3.1635479793075261e-01</value></_>
        <_>
          <depth>1</depth>
          <value>4.0954092063685399e-01</value>
          <splits>
            <_><var>406</var>
              <quality>7.8861452639102936e-02</quality>
              <le>3.1372550874948502e-02</le></_></splits></_>
        <_>
          <depth>2</depth>
          <value>-5.9556640675859762e-01</value></_>
        <_>
          <depth>2</depth>
          <value>8.3484604276008434e-01</value></_></nodes></_>
    <_>
      <nodes>
        <_>
          <depth>0</depth>
          <value>5.7142286150391785e-03</value>
          <splits>
            <_><var>290</var>
              <quality>3.6583550274372101e-02</quality>
              <le>1.3137255609035492e-01</le></_></splits></_>
        <_>
          <depth>1</depth>
          <value>-1.1477304632893826e-01</value>
          <splits>
            <_><var>348</var>
              <quality>6.6912330687046051e-02</quality>
              <le>4.5098042488098145e-01</le></_></splits></_>
        <_>
          <depth>2</depth>
          <value>-3.5691361485997836e-01</value></_>
        <_>
          <depth>2</depth>
          <value>2.3145878477310325e-01</value></_>
        <_>
          <depth>1</depth>
          <value>3.2505701196845871e-01</value>
          <splits>
            <_><var>347</var>
              <quality>1.3099700212478638e-01</quality>
              <le>1.8823531270027161e-01</le></_></splits></_>
        <_>
          <depth>2</depth>
          <value>1.2413167096764466e+00</value></_>
        <_>
          <depth>2</depth>
          <value>-1.0899711942387263e-01</value></_></nodes></_>
    <_>
      <nodes>
        <_>
          <depth>0</depth>
          <value>-1.3186646923814991e-02</value>
          <splits>
            <_><var>235</var>
              <quality>2.4287305772304535e-02</quality>
              <le>8.2156872749328613e-01</le></_></splits></_>
        <_>
          <depth>1</depth>
          <value>8.8075419279265363e-02</value>
          <splits>
            <_><var>261</var>
              <quality>5.3438901901245117e-02</quality>
              <le>3.5098040103912354e-01</le></_></splits></_>
        <_>
          <depth>2</depth>
          <value>2.0167471744468274e-01</value></_>
        <_>
          <depth>2</depth>
          <value>-5.3876893578433904e-01</value></_>
        <_>
          <depth>1</depth>
          <value>-2.6393302012919334e-01</value>
          <splits>
            <_><var>433</var>
              <quality>8.8159203529357910e-02</quality>
              <le>4.6078434586524963e-01</le></_></splits></_>
        <_>
          <depth>2</depth>
          <value>-7.5474136041218498e-01</value></_>
        <_>
          <depth>2</depth>
          <value>2.5138290259194540e-01</value></_></nodes></_>
    <_>
      <nodes>
        <_>
          <depth>0</depth>
          <value>-2.1037599819064966e-02</value>
          <splits>
            <_><var>657</var>
              <quality>3.0154317617416382e-02</quality>
              <le>3.7843140959739685e-01</le></_></splits></_>
        <_>
          <depth>1</depth>
          <value>-2.0888373897825610e-01</value>
          <splits>
            <_><var>463</var>
              <quality>6.7265622317790985e-02</quality>
              <le>9.7843146324157715e-01</le></_></splits></_>
        <_>
          <depth>2</depth>
          <value>-2.2539721287527428e-02</value></_>
        <_>
          <depth>2</depth>
          <value>-7.8309098933882859e-01</value></_>
        <_>
          <depth>1</depth>
          <value>1.4558232634397983e-01</value>
          <splits>
            <_><var>215</var>
              <quality>5.4943196475505829e-02</quality>
              <le>1.9607844296842813e-03</le></_></splits></_>
        <_>
          <depth>2</depth>
          <value>4.4069830734641674e-01</value></_>
        <_>
          <depth>2</depth>
          <value>-1.5240492779131265e-01</value></_></nodes></_>
    <_>
      <nodes>
        <_>
          <depth>0</depth>
          <value>-1.9474715558380984e-02</value>
          <splits>
            <_><var>648</var>
              <quality>2.2739352658390999e-02</quality>
              <le>1.3529412448406219e-01</le></_></splits></_>
        <_>
          <depth>1</depth>
          <value>-4.2369517055066350e-02</value>
          <splits>
            <_><var>398</var>
              <quality>2.5087216868996620e-02</quality>
              <le>7.9607850313186646e-01</le></_></splits></_>
        <_>
          <depth>2</depth>
          <value>-1.9759829974686744e-02</value></_>
        <_>
          <depth>2</depth>
          <value>-1.1569396296232697e+00</value></_>
        <_>
          <depth>1</depth>
          <value>1.0094465616209725e+00</value>
          <splits>
            <_><var>162</var>
              <quality>4.7954533249139786e-02</quality>
              <le>7.6862752437591553e-01</le></_></splits></_>
        <_>
          <depth>2</depth>
          <value>1.3412428327794936e+00</value></_>
        <_>
          <depth>2</depth>
          <value>-2.9088211555824328e+00</value></_></nodes></_>
    <_>
      <nodes>
        <_>
          <depth>0</depth>
          <value>-1.8511896423125564e-04</value>
          <splits>
            <_><var>228</var>
              <quality>2.2935459390282631e-02</quality>
              <le>8.8431382179260254e-01</le></_></splits></_>
        <_>
          <depth>1</depth>
          <value>-2.0475615717180672e-02</value>
          <splits>
            <_><var>664</var>
              <quality>2.3353252559900284e-02</quality>
              <le>1.3529412448406219e-01</le></_></splits></_>
        <_>
          <depth>2</depth>
          <value>1.9604719960946478e-02</value></_>
        <_>
          <depth>2</depth>
          <value>-6.3380627311850180e-01</value></_>
        <_>
          <depth>1</depth>
          <value>1.1896687296458672e+00</value>
          <splits>
            <_><var>348</var>
              <quality>5.5983994156122208e-02</quality>
              <le>1.5098039805889130e-01</le></_></splits></_>
        <_>
          <depth>2</depth>
          <value>-5.1478497567532933e-01</value></_>
        <_>
          <depth>2</depth>
          <value>2.4213742680815313e+00</value></_></nodes></_>
    <_>
      <nodes>
        <_>
          <depth>0</depth>
          <value>-6.1675999270057224e-03</value>
          <splits>
            <_><var>119</var>
              <quality>1.9168118014931679e-02</quality>
              <le>1.9215688109397888e-01</le></_></splits></_>
        <_>
          <depth>1</depth>
          <value>-2.8934620646948322e-02</value>
          <splits>
            <_><var>269</var>
              <quality>2.2988691926002502e-02</quality>
              <le>2.4901962280273438e-01</le></_></splits></_>
        <_>
          <depth>2</depth>
          <value>-1.9133357334287843e-01</value></_>
        <_>
          <depth>2</depth>
          <value>1.1875372822301646e-01</value></_>
        <_>
          <depth>1</depth>
          <value>8.7840542480634942e-01</value>
          <splits>
            <_><var>264</var>
              <quality>5.4684828966856003e-02</quality>
              <le>1.3725491240620613e-02</le></_></splits></_>
        <_>
          <depth>2</depth>
          <value>-5.4748959242838298e-02</value></_>
        <_>
          <depth>2</depth>
          <value>2.5099628682092314e+00</value></_></nodes></_>
    <_>
      <nodes>
        <_>
          <depth>0</depth>
          <value>2.6387302825993998e-03</value>
          <splits>
            <_><var>515</var>
              <quality>2.3975577205419540e-02</quality>
              <le>6.0588240623474121e-01</le></_></splits></_>
        <_>
          <depth>1</depth>
          <value>6.0542264946664849e-02</value>
          <splits>
            <_><var>460</var>
              <quality>5.4246407002210617e-02</quality>
              <le>9.8235297203063965e-01</le></_></splits></_>
        <_>
          <depth>2</depth>
          <value>-1.8586668483118123e-02</value></_>
        <_>
          <depth>2</depth>
          <value>8.3174768353052153e-01</value></_>
        <_>
          <depth>1</depth>
          <value>-4.3309794899518950e-01</value>
          <splits>
            <_><var>460</var>
              <quality>9.2177256941795349e-02</quality>
              <le>2.2549021244049072e-01</le></_></splits></_>
        <_>
          <depth>2</depth>
          <value>6.9258157619422078e-01</value></_>
        <_>
          <depth>2</depth>
          <value>-1.0013090838338747e+00</value></_></nodes></_>
    <_>
      <nodes>
        <_>
          <depth>0</depth>
          <value>-1.7709531183378133e-02</value>
          <splits>
            <_><var>457</var>
              <quality>3.8818191736936569e-02</quality>
              <le>6.8039214611053467e-01</le></_></splits></_>
        <_>
          <depth>1</depth>
          <value>6.9996784848856117e-02</value>
          <splits>
            <_><var>512</var>
              <quality>3.0682504177093506e-02</quality>
              <le>9.5490205287933350e-01</le></_></splits></_>
        <_>
          <depth>2</depth>
          <value>2.5865532384572731e-02</value></_>
        <_>
          <depth>2</depth>
          <value>8.2966735240390221e-01</value></_>
        <_>
          <depth>1</depth>
          <value>-4.8002336471072587e-01</value>
          <splits>
            <_><var>539</var>
              <quality>8.8947981595993042e-02</quality>
              <le>1.5686275437474251e-02</le></_></splits></_>
        <_>
          <depth>2</depth>
          <value>8.8225143752302476e-02</value></_>
        <_>
          <depth>2</depth>
          <value>-1.1078221929556713e+00</value></_></nodes></_>
    <_>
      <nodes>
        <_>
          <depth>0</depth>
          <value>-1.0124009308865927e-02</value>
          <splits>
            <_><var>518</var>
              <quality>2.3180732503533363e-02</quality>
              <le>6.9215691089630127e-01</le></_></splits></_>
        <_>
          <depth>1</depth>
          <value>6.6837993573429566e-02</value>
          <splits>
            <_><var>490</var>
              <quality>4.1016876697540283e-02</quality>
              <le>9.6666669845581055e-01</le></_></splits></_>
        <_>
          <depth>2</depth>
          <value>2.8587492982410073e-02</value></_>
        <_>
          <depth>2</depth>
          <value>1.3538686768682950e+00</value></_>
        <_>
          <depth>1</depth>
          <value>-3.2581514617366047e-01</value>
          <splits>
            <_><var>463</var>
              <quality>9.3397028744220734e-02</quality>
              <le>2.7647060155868530e-01</le></_></splits></_>
        <_>
          <depth>2</depth>
          <value>1.0486402169658471e+00</value></_>
        <_>
          <depth>2</depth>
          <value>-6.1348148707590622e-01</value></_></nodes></_>
    <_>
      <nodes>
        <_>
          <depth>0</depth>
          <value>-1.6855291047490839e-02</value>
          <splits>
            <_><var>486</var>
              <quality>2.4214312434196472e-02</quality>
              <le>7.4313724040985107e-01</le></_></splits></_>
        <_>
          <depth>1</depth>
          <value>4.1085435092856580e-02</value>
          <splits>
            <_><var>516</var>
              <quality>3.3500257879495621e-02</quality>
              <le>9.8627460002899170e-01</le></_></splits></_>
        <_>
          <depth>2</depth>
          <value>8.3306972522035949e-02</value></_>
        <_>
          <depth>2</depth>
          <value>-8.6537936459410925e-01</value></_>
        <_>
          <depth>1</depth>
          <value>-4.5186299520563589e-01</value>
          <splits>
            <_><var>382</var>
              <quality>5.4826352745294571e-02</quality>
              <le>9.9019610881805420e-01</le></_></splits></_>
        <_>
          <depth>2</depth>
          <value>-6.8059312153571772e-01</value></_>
        <_>
          <depth>2</depth>
          <value>8.0211325045540327e-01</value></_></nodes></_>
    <_>
      <nodes>
        <_>
          <depth>0</depth>
          <value>-1.6019906401470781e-02</value>
          <splits>
            <_><var>438</var>
              <quality>2.4322733283042908e-02</quality>
              <le>1.4705882966518402e-01</le></_></splits></_>
        <_>
          <depth>1</depth>
          <value>1.6454673282761742e-01</value>
          <splits>
            <_><var>293</var>
              <quality>6.9111637771129608e-02</quality>
              <le>1.2352941930294037e-01</le></_></splits></_>
        <_>
          <depth>2</depth>
          <value>5.0418358556228138e-01</value></_>
        <_>
          <depth>2</depth>
          <value>-2.4546533871477183e-01</value></_>
        <_>
          <depth>1</depth>
          <value>-1.5639135345532132e-01</value>
          <splits>
            <_><var>294</var>
              <quality>5.7049579918384552e-02</quality>
              <le>1.6666667163372040e-01</le></_></splits></_>
        <_>
          <depth>2</depth>
          <value>-4.4724059388500242e-01</value></_>
        <_>
          <depth>2</depth>
          <value>1.2650030081858485e-01</value></_></nodes></_>
    <_>
      <nodes>
        <_>
          <depth>0</depth>
          <value>-1.8010068265757660e-02</value>
          <splits>
            <_><var>405</var>
              <quality>2.1331449970602989e-02</quality>
              <le>9.0000009536743164e-01</le></_></splits></_>
        <_>
          <depth>1</depth>
          <value>-1.3200644045091833e-01</value>
          <splits>
            <_><var>491</var>
              <quality>4.3222226202487946e-02</quality>
              <le>7.9803931713104248e-01</le></_></splits></_>
        <_>
          <depth>2</depth>
          <value>-1.0065439117665428e-02</value></_>
        <_>
          <depth>2</depth>
          <value>-5.8131223207489569e-01</value></_>
        <_>
          <depth>1</depth>
          <value>1.7611882607014026e-01</value>
          <splits>
            <_><var>347</var>
              <quality>5.5656131356954575e-02</quality>
              <le>4.3725493550300598e-01</le></_></splits></_>
        <_>
          <depth>2</depth>
          <value>4.4870201313810587e-01</value></_>
        <_>
          <depth>2</depth>
          <value>-2.9102778451302158e-01</value></_></nodes></_>
    <_>
      <nodes>
        <_>
          <depth>0</depth>
          <value>-1.6344436746026845e-02</value>
          <splits>
            <_><var>385</var>
              <quality>2.2558191791176796e-02</quality>
              <le>9.5686280727386475e-01</le></_></splits></_>
        <_>
          <depth>1</depth>
          <value>8.5095031626368778e-03</value>
          <splits>
            <_><var>316</var>
              <quality>2.0329238846898079e-02</quality>
              <le>9.8627460002899170e-01</le></_></splits></_>
        <_>
          <depth>2</depth>
          <value>4.3682371559003813e-02</value></_>
        <_>
          <depth>2</depth>
          <value>-6.1384239465257984e-01</value></_>
        <_>
          <depth>1</depth>
          <value>-9.6100091008293775e-01</value>
          <splits>
            <_><var>580</var>
              <quality>3.8165505975484848e-02</quality>
              <le>9.8627460002899170e-01</le></_></splits></_>
        <_>
          <depth>2</depth>
          <value>-1.3167098058211941e+00</value></_>
        <_>
          <depth>2</depth>
          <value>8.4838060149560457e-01</value></_></nodes></_>
    <_>
      <nodes>
        <_>
          <depth>0</depth>
          <value>-1.4934024333489041e-02</value>
          <splits>
            <_><var>135</var>
              <quality>1.7993751913309097e-02</quality>
              <le>2.5294119119644165e-01</le></_></splits></_>
        <_>
          <depth>1</depth>
          <value>-3.9268360554751231e-03</value>
          <splits>
            <_><var>626</var>
              <quality>1.9158868119120598e-02</quality>
              <le>1.4313726127147675e-01</le></_></splits></_>
        <_>
          <depth>2</depth>
          <value>-1.7437466108331903e-01</value></_>
        <_>
          <depth>2</depth>
          <value>1.1506672754058347e-01</value></_>
        <_>
          <depth>1</depth>
          <value>-1.7154245445793574e+00</value>
          <splits>
            <_><var>350</var>
              <quality>2.9816061258316040e-02</quality>
              <le>9.9803924560546875e-01</le></_></splits></_>
        <_>
          <depth>2</depth>
          <value>-1.3215308864250390e+00</value></_>
        <_>
          <depth>2</depth>
          <value>-6.6339018189314203e+00</value></_></nodes></_>
    <_>
      <nodes>
        <_>
          <depth>0</depth>
          <value>-3.0332388109013896e-03</value>
          <splits>
            <_><var>708</var>
              <quality>1.7882036045193672e-02</quality>
              <le>8.7647068500518799e-01</le></_></splits></_>
        <_>
          <depth>1</depth>
          <value>-1.5094117023310564e-02</value>
          <splits>
            <_><var>304</var>
              <quality>1.7695307731628418e-02</quality>
              <le>1.3725491240620613e-02</le></_></splits></_>
        <_>
          <depth>2</depth>
          <value>-1.2350416460936520e-03</value></_>
        <_>
          <depth>2</depth>
          <value>-1.3530591577776589e+00</value></_>
        <_>
          <depth>1</depth>
          <value>1.5568973094872953e+00</value>
          <splits>
            <_><var>544</var>
              <quality>3.5904441028833389e-02</quality>
              <le>8.6274512112140656e-02</le></_></splits></_>
        <_>
          <depth>2</depth>
          <value>2.5042122293575955e+00</value></_>
        <_>
          <depth>2</depth>
          <value>-1.0843808777837571e+00</value></_></nodes></_>
    <_>
      <nodes>
        <_>
          <depth>0</depth>
          <value>-8.8575446934771097e-04</value>
          <splits>
            <_><var>501</var>
              <quality>1.7272058874368668e-02</quality>
              <le>5.8823535218834877e-03</le></_></splits></_>
        <_>
          <depth>1</depth>
          <value>1.2105635970877110e-02</value>
          <splits>
            <_><var>238</var>
              <quality>1.4910332858562469e-02</quality>
              <le>3.7254903465509415e-02</le></_></splits></_>
        <_>
          <depth>2</depth>
          <value>-1.5679473883398004e-01</value></_>
        <_>
          <depth>2</depth>
          <value>1.0502638479075072e-01</value></_>
        <_>
          <depth>1</depth>
          <value>-1.4003086620515062e+00</value>
          <splits>
            <_><var>485</var>
              <quality>1.7551591619849205e-02</quality>
              <le>5.4313731193542480e-01</le></_></splits></_>
        <_>
          <depth>2</depth>
          <value>-1.5577111332818239e+00</value></_>
        <_>
          <depth>2</depth>
          <value>-1.0967798603264569e+00</value></_></nodes></_>
    <_>
      <nodes>
        <_>
          <depth>0</depth>
          <value>-3.0833069627886648e-03</value>
          <splits>
            <_><var>263</var>
              <quality>1.7494125291705132e-02</quality>
              <le>2.9607844352722168e-01</le></_></splits></_>
        <_>
          <depth>1</depth>
          <value>9.2029402545919417e-02</value>
          <splits>
            <_><var>319</var>
              <quality>7.2431296110153198e-02</quality>
              <le>5.5098044872283936e-01</le></_></splits></_>
        <_>
          <depth>2</depth>
          <value>-7.6586607464255288e-02</value></_>
        <_>
          <depth>2</depth>
          <value>7.1622268424900026e-01</value></_>
        <_>
          <depth>1</depth>
          <value>-1.9659556416422994e-01</value>
          <splits>
            <_><var>238</var>
              <quality>8.2609109580516815e-02</quality>
              <le>4.1176471859216690e-02</le></_></splits></_>
        <_>
          <depth>2</depth>
          <value>-1.0129889644653918e+00</value></_>
        <_>
          <depth>2</depth>
          <value>7.9285729476167549e-02</value></_></nodes></_>
    <_>
      <nodes>
        <_>
          <depth>0</depth>
          <value>-1.8232918629133159e-02</value>
          <splits>
            <_><var>239</var>
              <quality>2.3323809728026390e-02</quality>
              <le>9.5098042488098145e-01</le></_></splits></_>
        <_>
          <depth>1</depth>
          <value>8.8359192608357645e-02</value>
          <splits>
            <_><var>264</var>
              <quality>4.7289792448282242e-02</quality>
              <le>6.2549018859863281e-01</le></_></splits></_>
        <_>
          <depth>2</depth>
          <value>2.3274984491556447e-01</value></_>
        <_>
          <depth>2</depth>
          <value>-3.6405154983505750e-01</value></_>
        <_>
          <depth>1</depth>
          <value>-2.4544293078431290e-01</value>
          <splits>
            <_><var>263</var>
              <quality>4.8351388424634933e-02</quality>
              <le>4.2941179871559143e-01</le></_></splits></_>
        <_>
          <depth>2</depth>
          <value>-4.8689474087038132e-01</value></_>
        <_>
          <depth>2</depth>
          <value>1.6516711185891578e-01</value></_></nodes></_>
    <_>
      <nodes>
        <_>
          <depth>0</depth>
          <value>-1.1161108026576315e-02</value>
          <splits>
            <_><var>478</var>
              <quality>2.0208660513162613e-02</quality>
              <le>7.6862752437591553e-01</le></_></splits></_>
        <_>
          <depth>1</depth>
          <value>-1.6240705318422016e-02</value>
          <splits>
            <_><var>373</var>
              <quality>1.9523220136761665e-02</quality>
              <le>5.5098044872283936e-01</le></_></splits></_>
        <_>
          <depth>2</depth>
          <value>5.8186763291020079e-02</value></_>
        <_>
          <depth>2</depth>
          <value>-2.8915265801101669e-01</value></_>
        <_>
          <depth>1</depth>
          <value>4.1521181049507394e+00</value></_></nodes></_>
    <_>
      <nodes>
        <_>
          <depth>0</depth>
          <value>-3.9115634815957475e-03</value>
          <splits>
            <_><var>257</var>
              <quality>1.6304545104503632e-02</quality>
              <le>9.9411773681640625e-01</le></_></splits></_>
        <_>
          <depth>1</depth>
          <value>-1.4152164048729099e-02</value>
          <splits>
            <_><var>523</var>
              <quality>1.5920272096991539e-02</quality>
              <le>5.5490195751190186e-01</le></_></splits></_>
        <_>
          <depth>2</depth>
          <value>-1.0110866808654226e-01</value></_>
        <_>
          <depth>2</depth>
          <value>1.7744319244257739e-01</value></_>
        <_>
          <depth>1</depth>
          <value>1.6705463429758391e+00</value>
          <splits>
            <_><var>431</var>
              <quality>3.2771781086921692e-02</quality>
              <le>9.8039221763610840e-01</le></_></splits></_>
        <_>
          <depth>2</depth>
          <value>8.6638074907165852e-01</value></_>
        <_>
          <depth>2</depth>
          <value>5.2573651314548933e+00</value></_></nodes></_>
    <_>
      <nodes>
        <_>
          <depth>0</depth>
          <value>-1.3283313974467892e-02</value>
          <splits>
            <_><var>313</var>
              <quality>2.4551765993237495e-02</quality>
              <le>4.4117650389671326e-01</le></_></splits></_>
        <_>
          <depth>1</depth>
          <value>1.6916277633568517e-02</value>
          <splits>
            <_><var>410</var>
              <quality>2.0663773640990257e-02</quality>
              <le>9.9411773681640625e-01</le></_></splits></_>
        <_>
          <depth>2</depth>
          <value>6.1733977303215962e-02</value></_>
        <_>
          <depth>2</depth>
          <value>-4.7927501227193836e-01</value></_>
        <_>
          <depth>1</depth>
          <value>-8.6321675039248114e-01</value>
          <splits>
            <_><var>373</var>
              <quality>4.2114630341529846e-02</quality>
              <le>7.4509806931018829e-02</le></_></splits></_>
        <_>
          <depth>2</depth>
          <value>-1.1775299451401422e-01</value></_>
        <_>
          <depth>2</depth>
          <value>-1.5967810829604909e+00</value></_></nodes></_>
    <_>
      <nodes>
        <_>
          <depth>0</depth>
          <value>-1.0362466809865693e-02</value>
          <splits>
            <_><var>517</var>
              <quality>1.7096517607569695e-02</quality>
              <le>9.8627460002899170e-01</le></_></splits></_>
        <_>
          <depth>1</depth>
          <value>2.2967696007460608e-02</value>
          <splits>
            <_><var>545</var>
              <quality>2.9764972627162933e-02</quality>
              <le>9.9803924560546875e-01</le></_></splits></_>
        <_>
          <depth>2</depth>
          <value>8.8898915041259793e-03</value></_>
        <_>
          <depth>2</depth>
          <value>2.3493197154021179e+00</value></_>
        <_>
          <depth>1</depth>
          <value>-5.4708577292246896e-01</value>
          <splits>
            <_><var>544</var>
              <quality>4.6216379851102829e-02</quality>
              <le>1.4705882966518402e-01</le></_></splits></_>
        <_>
          <depth>2</depth>
          <value>1.4458866969515489e+00</value></_>
        <_>
          <depth>2</depth>
          <value>-8.1440246728700261e-01</value></_></nodes></_>
    <_>
      <nodes>
        <_>
          <depth>0</depth>
          <value>-1.5961891745668044e-02</value>
          <splits>
            <_><var>584</var>
              <quality>1.5877371653914452e-02</quality>
              <le>3.7254903465509415e-02</le></_></splits></_>
        <_>
          <depth>1</depth>
          <value>-3.5794415881044688e-03</value>
          <splits>
            <_><var>383</var>
              <quality>1.3871354050934315e-02</quality>
              <le>8.8823533058166504e-01</le></_></splits></_>
        <_>
          <depth>2</depth>
          <value>4.8895209823551632e-02</value></_>
        <_>
          <depth>2</depth>
          <value>-2.8418714404984824e-01</value></_>
        <_>
          <depth>1</depth>
          <value>-1.3451345681784528e+00</value>
          <splits>
            <_><var>127</var>
              <quality>3.9250098168849945e-02</quality>
              <le>9.9803924560546875e-01</le></_></splits></_>
        <_>
          <depth>2</depth>
          <value>-1.5802096440487745e+00</value></_>
        <_>
          <depth>2</depth>
          <value>10.</value></_></nodes></_>
    <_>
      <nodes>
        <_>
          <depth>0</depth>
          <value>-2.7068780523462291e-02</value>
          <splits>
            <_><var>584</var>
              <quality>5.8594178408384323e-02</quality>
              <le>4.7058828175067902e-02</le></_></splits></_>
        <_>
          <depth>1</depth>
          <value>-1.3081434804919174e-03</value>
          <splits>
            <_><var>470</var>
              <quality>1.6400080174207687e-02</quality>
              <le>4.9215689301490784e-01</le></_></splits></_>
        <_>
          <depth>2</depth>
          <value>-3.6192950881124293e-02</value></_>
        <_>
          <depth>2</depth>
          <value>4.9889661215502767e-01</value></_>
        <_>
          <depth>1</depth>
          <value>-2.3929075071328922e+00</value>
          <splits>
            <_><var>612</var>
              <quality>8.2674905657768250e-02</quality>
              <le>9.7254908084869385e-01</le></_></splits></_>
        <_>
          <depth>2</depth>
          <value>-1.7967723071501920e+00</value></_>
        <_>
          <depth>2</depth>
          <value>-6.3407806462518241e+00</value></_></nodes></_>
    <_>
      <nodes>
        <_>
          <depth>0</depth>
          <value>-3.1376057791044250e-03</value>
          <splits>
            <_><var>177</var>
              <quality>1.4665405265986919e-02</quality>
              <le>8.5294127464294434e-01</le></_></splits></_>
        <_>
          <depth>1</depth>
          <value>5.2401185015646758e-02</value>
          <splits>
            <_><var>265</var>
              <quality>3.2279927283525467e-02</quality>
              <le>7.3529410362243652e-01</le></_></splits></_>
        <_>
          <depth>2</depth>
          <value>1.8745538891915989e-01</value></_>
        <_>
          <depth>2</depth>
          <value>-2.2916767219600781e-01</value></_>
        <_>
          <depth>1</depth>
          <value>-2.8091783259676328e-01</value>
          <splits>
            <_><var>265</var>
              <quality>6.1965186148881912e-02</quality>
              <le>5.1568627357482910e-01</le></_></splits></_>
        <_>
          <depth>2</depth>
          <value>-6.2907971012313313e-01</value></_>
        <_>
          <depth>2</depth>
          <value>6.1679522377549478e-01</value></_></nodes></_>
    <_>
      <nodes>
        <_>
          <depth>0</depth>
          <value>6.4743202114279019e-04</value>
          <splits>
            <_><var>146</var>
              <quality>1.7096877098083496e-02</quality>
              <le>2.3921570181846619e-01</le></_></splits></_>
        <_>
          <depth>1</depth>
          <value>-2.4850889641431097e-02</value>
          <splits>
            <_><var>655</var>
              <quality>1.6207385808229446e-02</quality>
              <le>7.5882363319396973e-01</le></_></splits></_>
        <_>
          <depth>2</depth>
          <value>-1.1848542008771995e-01</value></_>
        <_>
          <depth>2</depth>
          <value>1.5733957834539292e-01</value></_>
        <_>
          <depth>1</depth>
          <value>7.0643612754786844e-01</value>
          <splits>
            <_><var>264</var>
              <quality>4.3686866760253906e-02</quality>
              <le>9.9019610881805420e-01</le></_></splits></_>
        <_>
          <depth>2</depth>
          <value>4.4007321704221952e-01</value></_>
        <_>
          <depth>2</depth>
          <value>3.7843140066912380e+00</value></_></nodes></_>
    <_>
      <nodes>
        <_>
          <depth>0</depth>
          <value>-3.5976460192288645e-03</value>
          <splits>
            <_><var>289</var>
              <quality>1.3894176110625267e-02</quality>
              <le>4.7647061944007874e-01</le></_></splits></_>
        <_>
          <depth>1</depth>
          <value>5.3600751073334632e-02</value>
          <splits>
            <_><var>315</var>
              <quality>2.6353657245635986e-02</quality>
              <le>8.4509813785552979e-01</le></_></splits></_>
        <_>
          <depth>2</depth>
          <value>8.4778642586532907e-02</value></_>
        <_>
          <depth>2</depth>
          <value>-9.4322614204751387e-01</value></_>
        <_>
          <depth>1</depth>
          <value>-2.5907121593876603e-01</value>
          <splits>
            <_><var>265</var>
              <quality>6.9437518715858459e-02</quality>
              <le>6.3137257099151611e-01</le></_></splits></_>
        <_>
          <depth>2</depth>
          <value>-6.5829732075221636e-01</value></_>
        <_>
          <depth>2</depth>
          <value>5.7364238758612851e-01</value></_></nodes></_>
    <_>
      <nodes>
        <_>
          <depth>0</depth>
          <value>-1.5901119960442824e-02</value>
          <splits>
            <_><var>288</var>
              <quality>2.1878615021705627e-02</quality>
              <le>1.1568628251552582e-01</le></_></splits></_>
        <_>
          <depth>1</depth>
          <value>-8.6665576480259174e-02</value>
          <splits>
            <_><var>344</var>
              <quality>4.4355060905218124e-02</quality>
              <le>6.8627454340457916e-02</le></_></splits></_>
        <_>
          <depth>2</depth>
          <value>-1.5862212638544590e-01</value></_>
        <_>
          <depth>2</depth>
          <value>6.0046741492056810e-01</value></_>
        <_>
          <depth>1</depth>
          <value>3.0597588611794591e-01</value>
          <splits>
            <_><var>345</var>
              <quality>6.4283192157745361e-02</quality>
              <le>4.8431375622749329e-01</le></_></splits></_>
        <_>
          <depth>2</depth>
          <value>7.5950727981349331e-01</value></_>
        <_>
          <depth>2</depth>
          <value>-3.1544523117305412e-01</value></_></nodes></_>
    <_>
      <nodes>
        <_>
          <depth>0</depth>
          <value>-3.1280007722061971e-03</value>
          <splits>
            <_><var>263</var>
              <quality>2.8421990573406219e-02</quality>
              <le>7.7843141555786133e-01</le></_></splits></_>
        <_>
          <depth>1</depth>
          <value>8.7939230703398277e-02</value>
          <splits>
            <_><var>179</var>
              <quality>3.4184355288743973e-02</quality>
              <le>1.7647059634327888e-02</le></_></splits></_>
        <_>
          <depth>2</depth>
          <value>-1.4601007396308696e-01</value></_>
        <_>
          <depth>2</depth>
          <value>2.5134445170464920e-01</value></_>
        <_>
          <depth>1</depth>
          <value>-3.3154959305286974e-01</value>
          <splits>
            <_><var>326</var>
              <quality>4.8507794737815857e-02</quality>
              <le>2.3333334922790527e-01</le></_></splits></_>
        <_>
          <depth>2</depth>
          <value>-7.0084143001045518e-01</value></_>
        <_>
          <depth>2</depth>
          <value>7.7007109684772389e-03</value></_></nodes></_>
    <_>
      <nodes>
        <_>
          <depth>0</depth>
          <value>-1.3258085671548991e-02</value>
          <splits>
            <_><var>386</var>
              <quality>1.8415622413158417e-02</quality>
              <le>8.4117650985717773e-01</le></_></splits></_>
        <_>
          <depth>1</depth>
          <value>4.3833450775836698e-03</value>
          <splits>
            <_><var>513</var>
              <quality>1.6633180901408195e-02</quality>
              <le>1.9607844296842813e-03</le></_></splits></_>
        <_>
          <depth>2</depth>
          <value>8.3919400364143318e-02</value></_>
        <_>
          <depth>2</depth>
          <value>-2.1907590342313440e-01</value></_>
        <_>
          <depth>1</depth>
          <value>-1.1021204061709462e+00</value>
          <splits>
            <_><var>540</var>
              <quality>3.5305604338645935e-02</quality>
              <le>9.9411773681640625e-01</le></_></splits></_>
        <_>
          <depth>2</depth>
          <value>-1.4152434274859316e+00</value></_>
        <_>
          <depth>2</depth>
          <value>2.4629760163325063e+00</value></_></nodes></_>
    <_>
      <nodes>
        <_>
          <depth>0</depth>
          <value>-9.9295354282503377e-03</value>
          <splits>
            <_><var>570</var>
              <quality>2.1061565726995468e-02</quality>
              <le>9.8235297203063965e-01</le></_></splits></_>
        <_>
          <depth>1</depth>
          <value>-7.1928432002587264e-02</value>
          <splits>
            <_><var>455</var>
              <quality>3.3021692186594009e-02</quality>
              <le>6.6862750053405762e-01</le></_></splits></_>
        <_>
          <depth>2</depth>
          <value>-2.4716286738426217e-02</value></_>
        <_>
          <depth>2</depth>
          <value>-8.2681821350317619e-01</value></_>
        <_>
          <depth>1</depth>
          <value>3.4607251087151225e-01</value>
          <splits>
            <_><var>179</var>
              <quality>6.0981508344411850e-02</quality>
              <le>1.0392157733440399e-01</le></_></splits></_>
        <_>
          <depth>2</depth>
          <value>1.0060943526474262e+00</value></_>
        <_>
          <depth>2</depth>
          <value>-1.2818388042491477e-01</value></_></nodes></_>
    <_>
      <nodes>
        <_>
          <depth>0</depth>
          <value>-4.9543205504494403e-03</value>
          <splits>
            <_><var>402</var>
              <quality>1.6178773716092110e-02</quality>
              <le>9.7450983524322510e-01</le></_></splits></_>
        <_>
          <depth>1</depth>
          <value>-6.3254210088504514e-02</value>
          <splits>
            <_><var>544</var>
              <quality>2.2073619067668915e-02</quality>
              <le>4.1176471859216690e-02</le></_></splits></_>
        <_>
          <depth>2</depth>
          <value>3.9481580495208238e-02</value></_>
        <_>
          <depth>2</depth>
          <value>-2.9567947595404603e-01</value></_>
        <_>
          <depth>1</depth>
          <value>2.8674152364596112e-01</value>
          <splits>
            <_><var>232</var>
              <quality>4.1650962084531784e-02</quality>
              <le>9.5098042488098145e-01</le></_></splits></_>
        <_>
          <depth>2</depth>
          <value>1.1927269708772496e-01</value></_>
        <_>
          <depth>2</depth>
          <value>1.3674629003084886e+00</value></_></nodes></_>
    <_>
      <nodes>
        <_>
          <depth>0</depth>
          <value>-3.6909112362174426e-03</value>
          <splits>
            <_><var>371</var>
              <quality>2.1239848807454109e-02</quality>
              <le>5.4313731193542480e-01</le></_></splits></_>
        <_>
          <depth>1</depth>
          <value>3.2227752028291021e-02</value>
          <splits>
            <_><var>327</var>
              <quality>1.7006929963827133e-02</quality>
              <le>7.9411768913269043e-01</le></_></splits></_>
        <_>
          <depth>2</depth>
          <value>-2.8968472597986288e-02</value></_>
        <_>
          <depth>2</depth>
          <value>3.2468382628530884e-01</value></_>
        <_>
          <depth>1</depth>
          <value>-6.2577107458065451e-01</value>
          <splits>
            <_><var>347</var>
              <quality>3.6538075655698776e-02</quality>
              <le>5.0588238239288330e-01</le></_></splits></_>
        <_>
          <depth>2</depth>
          <value>-1.1482984869126440e+00</value></_>
        <_>
          <depth>2</depth>
          <value>-2.6777091396867805e-02</value></_></nodes></_>
    <_>
      <nodes>
        <_>
          <depth>0</depth>
