<?xml version="1.0"?>
<opencv_storage>
<opencv_ml_boost>
  <format>3</format>
  <is_classifier>1</is_classifier>
  <var_all>785</var_all>
  <var_count>784</var_count>
  <ord_var_count>784</ord_var_count>
  <cat_var_count>1</cat_var_count>
  <training_params>
    <boosting_type>LogitBoost</boosting_type>
    <use_surrogates>0</use_surrogates>
    <max_categories>10</max_categories>
    <regression_accuracy>9.9999997764825821e-03</regression_accuracy>
    <max_depth>2</max_depth>
    <min_sample_count>10</min_sample_count>
    <cross_validation_folds>0</cross_validation_folds>
    <weight_trimming_rate>9.4999999999999996e-01</weight_trimming_rate></training_params>
  <global_var_idx>1</global_var_idx>
  <var_idx>
    0 1 2 3 4 5 6 7 8 9 10 11 12 13 14 15 16 17 18 19 20 21 22 23 24 25
    26 27 28 29 30 31 32 33 34 35 36 37 38 39 40 41 42 43 44 45 46 47 48
    49 50 51 52 53 54 55 56 57 58 59 60 61 62 63 64 65 66 67 68 69 70 71
    72 73 74 75 76 77 78 79 80 81 82 83 84 85 86 87 88 89 90 91 92 93 94
    95 96 97 98 99 100 101 102 103 104 105 106 107 108 109 110 111 112
    113 114 115 116 117 118 119 120 121 122 123 124 125 126 127 128 129
    130 131 132 133 134 135 136 137 138 139 140 141 142 143 144 145 146
    147 148 149 150 151 152 153 154 155 156 157 158 159 160 161 162 163
    164 165 166 167 168 169 170 171 172 173 174 175 176 177 178 179 180
    181 182 183 184 185 186 187 188 189 190 191 192 193 194 195 196 197
    198 199 200 201 202 203 204 205 206 207 208 209 210 211 212 213 214
    215 216 217 218 219 220 221 222 223 224 225 226 227 228 229 230 231
    232 233 234 235 236 237 238 239 240 241 242 243 244 245 246 247 248
    249 250 251 252 253 254 255 256 257 258 259 260 261 262 263 264 265
    266 267 268 269 270 271 272 273 274 275 276 277 278 279 280 281 282
    283 284 285 286 287 288 289 290 291 292 293 294 295 296 297 298 299
    300 301 302 303 304 305 306 307 308 309 310 311 312 313 314 315 316
    317 318 319 320 321 322 323 324 325 326 327 328 329 330 331 332 333
    334 335 336 337 338 339 340 341 342 343 344 345 346 347 348 349 350
    351 352 353 354 355 356 357 358 359 360 361 362 363 364 365 366 367
    368 369 370 371 372 373 374 375 376 377 378 379 380 381 382 383 384
    385 386 387 388 389 390 391 392 393 394 395 396 397 398 399 400 401
    402 403 404 405 406 407 408 409 410 411 412 413 414 415 416 417 418
    419 420 421 422 423 424 425 426 427 428 429 430 431 432 433 434 435
    436 437 438 439 440 441 442 443 444 445 446 447 448 449 450 451 452
    453 454 455 456 457 458 459 460 461 462 463 464 465 466 467 468 469
    470 471 472 473 474 475 476 477 478 479 480 481 482 483 484 485 486
    487 488 489 490 491 492 493 494 495 496 497 498 499 500 501 502 503
    504 505 506 507 508 509 510 511 512 513 514 515 516 517 518 519 520
    521 522 523 524 525 526 527 528 529 530 531 532 533 534 535 536 537
    538 539 540 541 542 543 544 545 546 547 548 549 550 551 552 553 554
    555 556 557 558 559 560 561 562 563 564 565 566 567 568 569 570 571
    572 573 574 575 576 577 578 579 580 581 582 583 584 585 586 587 588
    589 590 591 592 593 594 595 596 597 598 599 600 601 602 603 604 605
    606 607 608 609 610 611 612 613 614 615 616 617 618 619 620 621 622
    623 624 625 626 627 628 629 630 631 632 633 634 635 636 637 638 639
    640 641 642 643 644 645 646 647 648 649 650 651 652 653 654 655 656
    657 658 659 660 661 662 663 664 665 666 667 668 669 670 671 672 673
    674 675 676 677 678 679 680 681 682 683 684 685 686 687 688 689 690
    691 692 693 694 695 696 697 698 699 700 701 702 703 704 705 706 707
    708 709 710 711 712 713 714 715 716 717 718 719 720 721 722 723 724
    725 726 727 728 729 730 731 732 733 734 735 736 737 738 739 740 741
    742 743 744 745 746 747 748 749 750 751 752 753 754 755 756 757 758
    759 760 761 762 763 764 765 766 767 768 769 770 771 772 773 774 775
    776 777 778 779 780 781 782 783</var_idx>
  <var_type>
    0 0 0 0 0 0 0 0 0 0 0 0 0 0 0 0 0 0 0 0 0 0 0 0 0 0 0 0 0 0 0 0 0 0
    0 0 0 0 0 0 0 0 0 0 0 0 0 0 0 0 0 0 0 0 0 0 0 0 0 0 0 0 0 0 0 0 0 0
    0 0 0 0 0 0 0 0 0 0 0 0 0 0 0 0 0 0 0 0 0 0 0 0 0 0 0 0 0 0 0 0 0 0
    0 0 0 0 0 0 0 0 0 0 0 0 0 0 0 0 0 0 0 0 0 0 0 0 0 0 0 0 0 0 0 0 0 0
    0 0 0 0 0 0 0 0 0 0 0 0 0 0 0 0 0 0 0 0 0 0 0 0 0 0 0 0 0 0 0 0 0 0
    0 0 0 0 0 0 0 0 0 0 0 0 0 0 0 0 0 0 0 0 0 0 0 0 0 0 0 0 0 0 0 0 0 0
    0 0 0 0 0 0 0 0 0 0 0 0 0 0 0 0 0 0 0 0 0 0 0 0 0 0 0 0 0 0 0 0 0 0
    0 0 0 0 0 0 0 0 0 0 0 0 0 0 0 0 0 0 0 0 0 0 0 0 0 0 0 0 0 0 0 0 0 0
    0 0 0 0 0 0 0 0 0 0 0 0 0 0 0 0 0 0 0 0 0 0 0 0 0 0 0 0 0 0 0 0 0 0
    0 0 0 0 0 0 0 0 0 0 0 0 0 0 0 0 0 0 0 0 0 0 0 0 0 0 0 0 0 0 0 0 0 0
    0 0 0 0 0 0 0 0 0 0 0 0 0 0 0 0 0 0 0 0 0 0 0 0 0 0 0 0 0 0 0 0 0 0
    0 0 0 0 0 0 0 0 0 0 0 0 0 0 0 0 0 0 0 0 0 0 0 0 0 0 0 0 0 0 0 0 0 0
    0 0 0 0 0 0 0 0 0 0 0 0 0 0 0 0 0 0 0 0 0 0 0 0 0 0 0 0 0 0 0 0 0 0
    0 0 0 0 0 0 0 0 0 0 0 0 0 0 0 0 0 0 0 0 0 0 0 0 0 0 0 0 0 0 0 0 0 0
    0 0 0 0 0 0 0 0 0 0 0 0 0 0 0 0 0 0 0 0 0 0 0 0 0 0 0 0 0 0 0 0 0 0
    0 0 0 0 0 0 0 0 0 0 0 0 0 0 0 0 0 0 0 0 0 0 0 0 0 0 0 0 0 0 0 0 0 0
    0 0 0 0 0 0 0 0 0 0 0 0 0 0 0 0 0 0 0 0 0 0 0 0 0 0 0 0 0 0 0 0 0 0
    0 0 0 0 0 0 0 0 0 0 0 0 0 0 0 0 0 0 0 0 0 0 0 0 0 0 0 0 0 0 0 0 0 0
    0 0 0 0 0 0 0 0 0 0 0 0 0 0 0 0 0 0 0 0 0 0 0 0 0 0 0 0 0 0 0 0 0 0
    0 0 0 0 0 0 0 0 0 0 0 0 0 0 0 0 0 0 0 0 0 0 0 0 0 0 0 0 0 0 0 0 0 0
    0 0 0 0 0 0 0 0 0 0 0 0 0 0 0 0 0 0 0 0 0 0 0 0 0 0 0 0 0 0 0 0 0 0
    0 0 0 0 0 0 0 0 0 0 0 0 0 0 0 0 0 0 0 0 0 0 0 0 0 0 0 0 0 0 0 0 0 0
    0 0 0 0 0 0 0 0 0 0 0 0 0 0 0 0 0 0 0 0 0 0 0 0 0 0 0 0 0 0 0 0 0 0
    0 0 1</var_type>
  <cat_ofs>
    0 0 0 0 0 0 0 0 0 0 0 0 0 0 0 0 0 0 0 0 0 0 0 0 0 0 0 0 0 0 0 0 0 0
    0 0 0 0 0 0 0 0 0 0 0 0 0 0 0 0 0 0 0 0 0 0 0 0 0 0 0 0 0 0 0 0 0 0
    0 0 0 0 0 0 0 0 0 0 0 0 0 0 0 0 0 0 0 0 0 0 0 0 0 0 0 0 0 0 0 0 0 0
    0 0 0 0 0 0 0 0 0 0 0 0 0 0 0 0 0 0 0 0 0 0 0 0 0 0 0 0 0 0 0 0 0 0
    0 0 0 0 0 0 0 0 0 0 0 0 0 0 0 0 0 0 0 0 0 0 0 0 0 0 0 0 0 0 0 0 0 0
    0 0 0 0 0 0 0 0 0 0 0 0 0 0 0 0 0 0 0 0 0 0 0 0 0 0 0 0 0 0 0 0 0 0
    0 0 0 0 0 0 0 0 0 0 0 0 0 0 0 0 0 0 0 0 0 0 0 0 0 0 0 0 0 0 0 0 0 0
    0 0 0 0 0 0 0 0 0 0 0 0 0 0 0 0 0 0 0 0 0 0 0 0 0 0 0 0 0 0 0 0 0 0
    0 0 0 0 0 0 0 0 0 0 0 0 0 0 0 0 0 0 0 0 0 0 0 0 0 0 0 0 0 0 0 0 0 0
    0 0 0 0 0 0 0 0 0 0 0 0 0 0 0 0 0 0 0 0 0 0 0 0 0 0 0 0 0 0 0 0 0 0
    0 0 0 0 0 0 0 0 0 0 0 0 0 0 0 0 0 0 0 0 0 0 0 0 0 0 0 0 0 0 0 0 0 0
    0 0 0 0 0 0 0 0 0 0 0 0 0 0 0 0 0 0 0 0 0 0 0 0 0 0 0 0 0 0 0 0 0 0
    0 0 0 0 0 0 0 0 0 0 0 0 0 0 0 0 0 0 0 0 0 0 0 0 0 0 0 0 0 0 0 0 0 0
    0 0 0 0 0 0 0 0 0 0 0 0 0 0 0 0 0 0 0 0 0 0 0 0 0 0 0 0 0 0 0 0 0 0
    0 0 0 0 0 0 0 0 0 0 0 0 0 0 0 0 0 0 0 0 0 0 0 0 0 0 0 0 0 0 0 0 0 0
    0 0 0 0 0 0 0 0 0 0 0 0 0 0 0 0 0 0 0 0 0 0 0 0 0 0 0 0 0 0 0 0 0 0
    0 0 0 0 0 0 0 0 0 0 0 0 0 0 0 0 0 0 0 0 0 0 0 0 0 0 0 0 0 0 0 0 0 0
    0 0 0 0 0 0 0 0 0 0 0 0 0 0 0 0 0 0 0 0 0 0 0 0 0 0 0 0 0 0 0 0 0 0
    0 0 0 0 0 0 0 0 0 0 0 0 0 0 0 0 0 0 0 0 0 0 0 0 0 0 0 0 0 0 0 0 0 0
    0 0 0 0 0 0 0 0 0 0 0 0 0 0 0 0 0 0 0 0 0 0 0 0 0 0 0 0 0 0 0 0 0 0
    0 0 0 0 0 0 0 0 0 0 0 0 0 0 0 0 0 0 0 0 0 0 0 0 0 0 0 0 0 0 0 0 0 0
    0 0 0 0 0 0 0 0 0 0 0 0 0 0 0 0 0 0 0 0 0 0 0 0 0 0 0 0 0 0 0 0 0 0
    0 0 0 0 0 0 0 0 0 0 0 0 0 0 0 0 0 0 0 0 0 0 0 0 0 0 0 0 0 0 0 0 0 0
    0 0 0 0 0 0 0 0 0 0 0 0 0 0 0 0 0 0 0 0 0 0 0 0 0 0 0 0 0 0 0 0 0 0
    0 0 0 0 0 0 0 0 0 0 0 0 0 0 0 0 0 0 0 0 0 0 0 0 0 0 0 0 0 0 0 0 0 0
    0 0 0 0 0 0 0 0 0 0 0 0 0 0 0 0 0 0 0 0 0 0 0 0 0 0 0 0 0 0 0 0 0 0
    0 0 0 0 0 0 0 0 0 0 0 0 0 0 0 0 0 0 0 0 0 0 0 0 0 0 0 0 0 0 0 0 0 0
    0 0 0 0 0 0 0 0 0 0 0 0 0 0 0 0 0 0 0 0 0 0 0 0 0 0 0 0 0 0 0 0 0 0
    0 0 0 0 0 0 0 0 0 0 0 0 0 0 0 0 0 0 0 0 0 0 0 0 0 0 0 0 0 0 0 0 0 0
    0 0 0 0 0 0 0 0 0 0 0 0 0 0 0 0 0 0 0 0 0 0 0 0 0 0 0 0 0 0 0 0 0 0
    0 0 0 0 0 0 0 0 0 0 0 0 0 0 0 0 0 0 0 0 0 0 0 0 0 0 0 0 0 0 0 0 0 0
    0 0 0 0 0 0 0 0 0 0 0 0 0 0 0 0 0 0 0 0 0 0 0 0 0 0 0 0 0 0 0 0 0 0
    0 0 0 0 0 0 0 0 0 0 0 0 0 0 0 0 0 0 0 0 0 0 0 0 0 0 0 0 0 0 0 0 0 0
    0 0 0 0 0 0 0 0 0 0 0 0 0 0 0 0 0 0 0 0 0 0 0 0 0 0 0 0 0 0 0 0 0 0
    0 0 0 0 0 0 0 0 0 0 0 0 0 0 0 0 0 0 0 0 0 0 0 0 0 0 0 0 0 0 0 0 0 0
    0 0 0 0 0 0 0 0 0 0 0 0 0 0 0 0 0 0 0 0 0 0 0 0 0 0 0 0 0 0 0 0 0 0
    0 0 0 0 0 0 0 0 0 0 0 0 0 0 0 0 0 0 0 0 0 0 0 0 0 0 0 0 0 0 0 0 0 0
    0 0 0 0 0 0 0 0 0 0 0 0 0 0 0 0 0 0 0 0 0 0 0 0 0 0 0 0 0 0 0 0 0 0
    0 0 0 0 0 0 0 0 0 0 0 0 0 0 0 0 0 0 0 0 0 0 0 0 0 0 0 0 0 0 0 0 0 0
    0 0 0 0 0 0 0 0 0 0 0 0 0 0 0 0 0 0 0 0 0 0 0 0 0 0 0 0 0 0 0 0 0 0
    0 0 0 0 0 0 0 0 0 0 0 0 0 0 0 0 0 0 0 0 0 0 0 0 0 0 0 0 0 0 0 0 0 0
    0 0 0 0 0 0 0 0 0 0 0 0 0 0 0 0 0 0 0 0 0 0 0 0 0 0 0 0 0 0 0 0 0 0
    0 0 0 0 0 0 0 0 0 0 0 0 0 0 0 0 0 0 0 0 0 0 0 0 0 0 0 0 0 0 0 0 0 0
    0 0 0 0 0 0 0 0 0 0 0 0 0 0 0 0 0 0 0 0 0 0 0 0 0 0 0 0 0 0 0 0 0 0
    0 0 0 0 0 0 0 0 0 0 0 0 0 0 0 0 0 0 0 0 0 0 0 0 0 0 0 0 0 0 0 0 0 0
    0 0 0 0 0 0 0 0 0 0 0 0 0 0 0 0 0 0 0 0 0 0 0 0 0 0 0 0 0 0 0 0 0 0
    0 0 0 0</cat_ofs>
  <class_labels>
    0 1</class_labels>
  <missing_subst>
    0. 0. 0. 0. 0. 0. 0. 0. 0. 0. 0. 0. 0. 0. 0. 0. 0. 0. 0. 0. 0. 0. 0.
    0. 0. 0. 0. 0. 0. 0. 0. 0. 0. 0. 0. 0. 0. 0. 0. 0. 0. 0. 0. 0. 0. 0.
    0. 0. 0. 0. 0. 0. 0. 0. 0. 0. 0. 0. 0. 0. 0. 0. 0. 0. 0. 0. 0. 0. 0.
    0. 0. 0. 0. 0. 0. 0. 0. 0. 0. 0. 0. 0. 0. 0. 0. 0. 0. 0. 0. 0. 0. 0.
    0. 0. 0. 0. 0. 0. 0. 0. 0. 0. 0. 0. 0. 0. 0. 0. 0. 0. 0. 0. 0. 0. 0.
    0. 0. 0. 0. 0. 0. 0. 0. 0. 0. 0. 0. 0. 0. 0. 0. 0. 0. 0. 0. 0. 0. 0.
    0. 0. 0. 0. 0. 0. 0. 0. 0. 0. 0. 0. 0. 0. 0. 0. 0. 0. 0. 0. 0. 0. 0.
    0. 0. 0. 0. 0. 0. 0. 0. 0. 0. 0. 0. 0. 0. 0. 0. 0. 0. 0. 0. 0. 0. 0.
    0. 0. 0. 0. 0. 0. 0. 0. 0. 0. 0. 0. 0. 0. 0. 0. 0. 0. 0. 0. 0. 0. 0.
    0. 0. 0. 0. 0. 0. 0. 0. 0. 0. 0. 0. 0. 0. 0. 0. 0. 0. 0. 0. 0. 0. 0.
    0. 0. 0. 0. 0. 0. 0. 0. 0. 0. 0. 0. 0. 0. 0. 0. 0. 0. 0. 0. 0. 0. 0.
    0. 0. 0. 0. 0. 0. 0. 0. 0. 0. 0. 0. 0. 0. 0. 0. 0. 0. 0. 0. 0. 0. 0.
    0. 0. 0. 0. 0. 0. 0. 0. 0. 0. 0. 0. 0. 0. 0. 0. 0. 0. 0. 0. 0. 0. 0.
    0. 0. 0. 0. 0. 0. 0. 0. 0. 0. 0. 0. 0. 0. 0. 0. 0. 0. 0. 0. 0. 0. 0.
    0. 0. 0. 0. 0. 0. 0. 0. 0. 0. 0. 0. 0. 0. 0. 0. 0. 0. 0. 0. 0. 0. 0.
    0. 0. 0. 0. 0. 0. 0. 0. 0. 0. 0. 0. 0. 0. 0. 0. 0. 0. 0. 0. 0. 0. 0.
    0. 0. 0. 0. 0. 0. 0. 0. 0. 0. 0. 0. 0. 0. 0. 0. 0. 0. 0. 0. 0. 0. 0.
    0. 0. 0. 0. 0. 0. 0. 0. 0. 0. 0. 0. 0. 0. 0. 0. 0. 0. 0. 0. 0. 0. 0.
    0. 0. 0. 0. 0. 0. 0. 0. 0. 0. 0. 0. 0. 0. 0. 0. 0. 0. 0. 0. 0. 0. 0.
    0. 0. 0. 0. 0. 0. 0. 0. 0. 0. 0. 0. 0. 0. 0. 0. 0. 0. 0. 0. 0. 0. 0.
    0. 0. 0. 0. 0. 0. 0. 0. 0. 0. 0. 0. 0. 0. 0. 0. 0. 0. 0. 0. 0. 0. 0.
    0. 0. 0. 0. 0. 0. 0. 0. 0. 0. 0. 0. 0. 0. 0. 0. 0. 0. 0. 0. 0. 0. 0.
    0. 0. 0. 0. 0. 0. 0. 0. 0. 0. 0. 0. 0. 0. 0. 0. 0. 0. 0. 0. 0. 0. 0.
    0. 0. 0. 0. 0. 0. 0. 0. 0. 0. 0. 0. 0. 0. 0. 0. 0. 0. 0. 0. 0. 0. 0.
    0. 0. 0. 0. 0. 0. 0. 0. 0. 0. 0. 0. 0. 0. 0. 0. 0. 0. 0. 0. 0. 0. 0.
    0. 0. 0. 0. 0. 0. 0. 0. 0. 0. 0. 0. 0. 0. 0. 0. 0. 0. 0. 0. 0. 0. 0.
    0. 0. 0. 0. 0. 0. 0. 0. 0. 0. 0. 0. 0. 0. 0. 0. 0. 0. 0. 0. 0. 0. 0.
    0. 0. 0. 0. 0. 0. 0. 0. 0. 0. 0. 0. 0. 0. 0. 0. 0. 0. 0. 0. 0. 0. 0.
    0. 0. 0. 0. 0. 0. 0. 0. 0. 0. 0. 0. 0. 0. 0. 0. 0. 0. 0. 0. 0. 0. 0.
    0. 0. 0. 0. 0. 0. 0. 0. 0. 0. 0. 0. 0. 0. 0. 0. 0. 0. 0. 0. 0. 0. 0.
    0. 0. 0. 0. 0. 0. 0. 0. 0. 0. 0. 0. 0. 0. 0. 0. 0. 0. 0. 0. 0. 0. 0.
    0. 0. 0. 0. 0. 0. 0. 0. 0. 0. 0. 0. 0. 0. 0. 0. 0. 0. 0. 0. 0. 0. 0.
    0. 0. 0. 0. 0. 0. 0. 0. 0. 0. 0. 0. 0. 0. 0. 0. 0. 0. 0. 0. 0. 0. 0.
    0. 0. 0. 0. 0. 0. 0. 0. 0. 0. 0. 0. 0. 0. 0. 0. 0. 0. 0. 0. 0. 0. 0.
    0. 0. 0.</missing_subst>
  <ntrees>100</ntrees>
  <trees>
    <_>
      <nodes>
        <_>
          <depth>0</depth>
          <value>-1.6386000000000018e+00</value>
          <splits>
            <_><var>220</var>
              <quality>2.8498501777648926e+00</quality>
              <le>1.3725491240620613e-02</le></_></splits></_>
        <_>
          <depth>1</depth>
          <value>-1.7354282996600390e+00</value>
          <splits>
            <_><var>163</var>
              <quality>2.8969500064849854e+00</quality>
              <le>4.9019612371921539e-02</le></_></splits></_>
        <_>
          <depth>2</depth>
          <value>-1.7753462503180790e+00</value></_>
        <_>
          <depth>2</depth>
          <value>-4.8260125499142026e-01</value></_>
        <_>
          <depth>1</depth>
          <value>6.3796841127285078e-02</value>
          <splits>
            <_><var>328</var>
              <quality>1.2732580304145813e-01</quality>
              <le>1.7647059634327888e-02</le></_></splits></_>
        <_>
          <depth>2</depth>
          <value>1.3598304186539170e+00</value></_>
        <_>
          <depth>2</depth>
          <value>-1.7585692995528885e+00</value></_></nodes></_>
    <_>
      <nodes>
        <_>
          <depth>0</depth>
          <value>-6.3827043446383980e-01</value>
          <splits>
            <_><var>347</var>
              <quality>5.6510174274444580e-01</quality>
              <le>3.0392158031463623e-01</le></_></splits></_>
        <_>
          <depth>1</depth>
          <value>-9.7540688238107420e-01</value>
          <splits>
            <_><var>277</var>
              <quality>5.8722341060638428e-01</quality>
              <le>1.3725491240620613e-02</le></_></splits></_>
        <_>
          <depth>2</depth>
          <value>-9.9798176025280483e-01</value></_>
        <_>
          <depth>2</depth>
          <value>1.6384506881639633e+00</value></_>
        <_>
          <depth>1</depth>
          <value>-1.7046998790816739e-01</value>
          <splits>
            <_><var>486</var>
              <quality>1.6939276456832886e-01</quality>
              <le>1.3725491240620613e-02</le></_></splits></_>
        <_>
          <depth>2</depth>
          <value>3.8639990588093759e-01</value></_>
        <_>
          <depth>2</depth>
          <value>-8.4455399577706725e-01</value></_></nodes></_>
    <_>
      <nodes>
        <_>
          <depth>0</depth>
          <value>-3.9650119610615842e-01</value>
          <splits>
            <_><var>326</var>
              <quality>3.9594379067420959e-01</quality>
              <le>5.8823535218834877e-03</le></_></splits></_>
        <_>
          <depth>1</depth>
          <value>1.5254581373909532e-01</value>
          <splits>
            <_><var>357</var>
              <quality>2.4759823083877563e-01</quality>
              <le>1.9607844296842813e-03</le></_></splits></_>
        <_>
          <depth>2</depth>
          <value>5.3440718246399344e-01</value></_>
        <_>
          <depth>2</depth>
          <value>-1.2537372035531908e+00</value></_>
        <_>
          <depth>1</depth>
          <value>-8.3177595075042321e-01</value>
          <splits>
            <_><var>408</var>
              <quality>4.7762769460678101e-01</quality>
              <le>3.7254903465509415e-02</le></_></splits></_>
        <_>
          <depth>2</depth>
          <value>-5.5173327030430729e-02</value></_>
        <_>
          <depth>2</depth>
          <value>-1.0442195789191884e+00</value></_></nodes></_>
    <_>
      <nodes>
        <_>
          <depth>0</depth>
          <value>-2.1555914575163732e-01</value>
          <splits>
            <_><var>517</var>
              <quality>2.5369071960449219e-01</quality>
              <le>5.8823535218834877e-03</le></_></splits></_>
        <_>
          <depth>1</depth>
          <value>2.1972070521055137e-01</value>
          <splits>
            <_><var>297</var>
              <quality>3.4714302420616150e-01</quality>
              <le>1.9607844296842813e-03</le></_></splits></_>
        <_>
          <depth>2</depth>
          <value>1.0123570890722959e+00</value></_>
        <_>
          <depth>2</depth>
          <value>-5.6431533748298668e-01</value></_>
        <_>
          <depth>1</depth>
          <value>-7.0253443353731249e-01</value>
          <splits>
            <_><var>276</var>
              <quality>3.6958542466163635e-01</quality>
              <le>2.5490198284387589e-02</le></_></splits></_>
        <_>
          <depth>2</depth>
          <value>-8.5902609521140505e-01</value></_>
        <_>
          <depth>2</depth>
          <value>1.2410680953674866e+00</value></_></nodes></_>
    <_>
      <nodes>
        <_>
          <depth>0</depth>
          <value>-2.3648220728851194e-01</value>
          <splits>
            <_><var>188</var>
              <quality>1.9748578965663910e-01</quality>
              <le>9.8039228469133377e-03</le></_></splits></_>
        <_>
          <depth>1</depth>
          <value>-5.2326297226299268e-01</value>
          <splits>
            <_><var>275</var>
              <quality>3.3540698885917664e-01</quality>
              <le>3.3333335071802139e-02</le></_></splits></_>
        <_>
          <depth>2</depth>
          <value>-7.1198077605711152e-01</value></_>
        <_>
          <depth>2</depth>
          <value>8.9409623000017791e-01</value></_>
        <_>
          <depth>1</depth>
          <value>2.8602294832495612e-01</value>
          <splits>
            <_><var>301</var>
              <quality>3.6773347854614258e-01</quality>
              <le>1.9607844296842813e-03</le></_></splits></_>
        <_>
          <depth>2</depth>
          <value>1.0093451232754065e+00</value></_>
        <_>
          <depth>2</depth>
          <value>-1.0957192364237700e+00</value></_></nodes></_>
    <_>
      <nodes>
        <_>
          <depth>0</depth>
          <value>-1.8176285235116185e-01</value>
          <splits>
            <_><var>358</var>
              <quality>1.7678481340408325e-01</quality>
              <le>6.8627454340457916e-02</le></_></splits></_>
        <_>
          <depth>1</depth>
          <value>-4.4158460952789032e-02</value>
          <splits>
            <_><var>289</var>
              <quality>1.5403668582439423e-01</quality>
              <le>2.9411766678094864e-02</le></_></splits></_>
        <_>
          <depth>2</depth>
          <value>-3.8016614090457035e-01</value></_>
        <_>
          <depth>2</depth>
          <value>4.9164282315362573e-01</value></_>
        <_>
          <depth>1</depth>
          <value>-1.2921317325308181e+00</value>
          <splits>
            <_><var>248</var>
              <quality>2.1137228608131409e-01</quality>
              <le>1.7647059634327888e-02</le></_></splits></_>
        <_>
          <depth>2</depth>
          <value>-9.0006817976342890e-01</value></_>
        <_>
          <depth>2</depth>
          <value>-2.1732820954902299e+00</value></_></nodes></_>
    <_>
      <nodes>
        <_>
          <depth>0</depth>
          <value>-9.6684645323417251e-02</value>
          <splits>
            <_><var>327</var>
              <quality>1.3936971127986908e-01</quality>
              <le>6.1372554302215576e-01</le></_></splits></_>
        <_>
          <depth>1</depth>
          <value>8.8820031587615436e-02</value>
          <splits>
            <_><var>515</var>
              <quality>1.3170751929283142e-01</quality>
              <le>4.1764709353446960e-01</le></_></splits></_>
        <_>
          <depth>2</depth>
          <value>3.0718830702174194e-01</value></_>
        <_>
          <depth>2</depth>
          <value>-6.6894139342458914e-01</value></_>
        <_>
          <depth>1</depth>
          <value>-8.3706136866445513e-01</value>
          <splits>
            <_><var>323</var>
              <quality>1.9640077650547028e-01</quality>
              <le>5.4705882072448730e-01</le></_></splits></_>
        <_>
          <depth>2</depth>
          <value>-1.1275205990075781e+00</value></_>
        <_>
          <depth>2</depth>
          <value>3.0282437607165497e-01</value></_></nodes></_>
    <_>
      <nodes>
        <_>
          <depth>0</depth>
          <value>-9.2514340659416452e-02</value>
          <splits>
            <_><var>359</var>
              <quality>1.0396048426628113e-01</quality>
              <le>2.6078432798385620e-01</le></_></splits></_>
        <_>
          <depth>1</depth>
          <value>-2.1285007650007615e-02</value>
          <splits>
            <_><var>246</var>
              <quality>1.2401743978261948e-01</quality>
              <le>9.8039228469133377e-03</le></_></splits></_>
        <_>
          <depth>2</depth>
          <value>-2.0043392158883755e-01</value></_>
        <_>
          <depth>2</depth>
          <value>7.4030347703814203e-01</value></_>
        <_>
          <depth>1</depth>
          <value>-1.5060903782768922e+00</value>
          <splits>
            <_><var>220</var>
              <quality>1.2111172825098038e-01</quality>
              <le>1.3725491240620613e-02</le></_></splits></_>
        <_>
          <depth>2</depth>
          <value>-1.1608858091271084e+00</value></_>
        <_>
          <depth>2</depth>
          <value>-2.6204916055813174e+00</value></_></nodes></_>
    <_>
      <nodes>
        <_>
          <depth>0</depth>
          <value>-4.1736482133722670e-02</value>
          <splits>
            <_><var>268</var>
              <quality>1.2762828171253204e-01</quality>
              <le>1.9607844296842813e-03</le></_></splits></_>
        <_>
          <depth>1</depth>
          <value>3.5993987901853541e-01</value>
          <splits>
            <_><var>300</var>
              <quality>3.2236993312835693e-01</quality>
              <le>9.8039228469133377e-03</le></_></splits></_>
        <_>
          <depth>2</depth>
          <value>8.2475152912856020e-01</value></_>
        <_>
          <depth>2</depth>
          <value>-9.7964343064168280e-01</value></_>
        <_>
          <depth>1</depth>
          <value>-3.7185181931063405e-01</value>
          <splits>
            <_><var>247</var>
              <quality>1.9176200032234192e-01</quality>
              <le>9.8039228469133377e-03</le></_></splits></_>
        <_>
          <depth>2</depth>
          <value>-6.2522813890448981e-01</value></_>
        <_>
          <depth>2</depth>
          <value>5.3376899744956274e-01</value></_></nodes></_>
    <_>
      <nodes>
        <_>
          <depth>0</depth>
          <value>-1.1437217600705597e-01</value>
          <splits>
            <_><var>435</var>
              <quality>1.0654021799564362e-01</quality>
              <le>2.7254903316497803e-01</le></_></splits></_>
        <_>
          <depth>1</depth>
          <value>2.1499821782028805e-01</value>
          <splits>
            <_><var>359</var>
              <quality>1.0738322138786316e-01</quality>
              <le>3.3333335071802139e-02</le></_></splits></_>
        <_>
          <depth>2</depth>
          <value>3.4308147036381892e-01</value></_>
        <_>
          <depth>2</depth>
          <value>-1.2715272598219933e+00</value></_>
        <_>
          <depth>1</depth>
          <value>-4.1446824571454705e-01</value>
          <splits>
            <_><var>353</var>
              <quality>1.8636330962181091e-01</quality>
              <le>1.7647059634327888e-02</le></_></splits></_>
        <_>
          <depth>2</depth>
          <value>-4.7291464326266699e-02</value></_>
        <_>
          <depth>2</depth>
          <value>-9.6563573718092877e-01</value></_></nodes></_>
    <_>
      <nodes>
        <_>
          <depth>0</depth>
          <value>-6.6134623462828612e-02</value>
          <splits>
            <_><var>186</var>
              <quality>1.0406493395566940e-01</quality>
              <le>5.8823535218834877e-03</le></_></splits></_>
        <_>
          <depth>1</depth>
          <value>-3.9374562900880883e-01</value>
          <splits>
            <_><var>538</var>
              <quality>2.5007295608520508e-01</quality>
              <le>1.9607844296842813e-03</le></_></splits></_>
        <_>
          <depth>2</depth>
          <value>-6.3994668760031048e-01</value></_>
        <_>
          <depth>2</depth>
          <value>1.1319685743320038e+00</value></_>
        <_>
          <depth>1</depth>
          <value>2.5327610086971591e-01</value>
          <splits>
            <_><var>270</var>
              <quality>1.9364660978317261e-01</quality>
              <le>7.6470591127872467e-02</le></_></splits></_>
        <_>
          <depth>2</depth>
          <value>7.1748582723723831e-01</value></_>
        <_>
          <depth>2</depth>
          <value>-4.7159843193728046e-01</value></_></nodes></_>
    <_>
      <nodes>
        <_>
          <depth>0</depth>
          <value>-6.3059942975107017e-02</value>
          <splits>
            <_><var>485</var>
              <quality>1.4292213320732117e-01</quality>
              <le>6.7647063732147217e-01</le></_></splits></_>
        <_>
          <depth>1</depth>
          <value>1.1751292765890660e-01</value>
          <splits>
            <_><var>455</var>
              <quality>1.2291237711906433e-01</quality>
              <le>5.8235299587249756e-01</le></_></splits></_>
        <_>
          <depth>2</depth>
          <value>2.5314092614417710e-01</value></_>
        <_>
          <depth>2</depth>
          <value>-9.4698426960398074e-01</value></_>
        <_>
          <depth>1</depth>
          <value>-8.7419257386398319e-01</value>
          <splits>
            <_><var>541</var>
              <quality>1.6796092689037323e-01</quality>
              <le>5.8823535218834877e-03</le></_></splits></_>
        <_>
          <depth>2</depth>
          <value>1.0666631311340621e-01</value></_>
        <_>
          <depth>2</depth>
          <value>-1.0850103904527089e+00</value></_></nodes></_>
    <_>
      <nodes>
        <_>
          <depth>0</depth>
          <value>-7.4806852470464869e-02</value>
          <splits>
            <_><var>207</var>
              <quality>7.3506213724613190e-02</quality>
              <le>7.8235304355621338e-01</le></_></splits></_>
        <_>
          <depth>1</depth>
          <value>-2.4020611115525634e-01</value>
          <splits>
            <_><var>305</var>
              <quality>1.1860485374927521e-01</quality>
              <le>1.9607844296842813e-03</le></_></splits></_>
        <_>
          <depth>2</depth>
          <value>-3.0625561663795015e-01</value></_>
        <_>
          <depth>2</depth>
          <value>1.4961410158507933e+00</value></_>
        <_>
          <depth>1</depth>
          <value>3.5898869468689926e-01</value>
          <splits>
            <_><var>318</var>
              <quality>1.0398520529270172e-01</quality>
              <le>2.3725491762161255e-01</le></_></splits></_>
        <_>
          <depth>2</depth>
          <value>-3.1015630871028332e-01</value></_>
        <_>
          <depth>2</depth>
          <value>7.5877061382972788e-01</value></_></nodes></_>
    <_>
      <nodes>
        <_>
          <depth>0</depth>
          <value>-2.7480222276707530e-03</value>
          <splits>
            <_><var>190</var>
              <quality>5.9668969362974167e-02</quality>
              <le>7.2549022734165192e-02</le></_></splits></_>
        <_>
          <depth>1</depth>
          <value>-1.2356858456489536e-01</value>
          <splits>
            <_><var>266</var>
              <quality>8.7154529988765717e-02</quality>
              <le>2.9215687513351440e-01</le></_></splits></_>
        <_>
          <depth>2</depth>
          <value>1.7267647102357739e-01</value></_>
        <_>
          <depth>2</depth>
          <value>-4.5369063016970984e-01</value></_>
        <_>
          <depth>1</depth>
          <value>5.1704830131815149e-01</value>
          <splits>
            <_><var>330</var>
              <quality>1.2589101493358612e-01</quality>
              <le>9.8039228469133377e-03</le></_></splits></_>
        <_>
          <depth>2</depth>
          <value>7.8227300621381080e-01</value></_>
        <_>
          <depth>2</depth>
          <value>-1.1241880121014418e+00</value></_></nodes></_>
    <_>
      <nodes>
        <_>
          <depth>0</depth>
          <value>-3.3935952082704939e-02</value>
          <splits>
            <_><var>486</var>
              <quality>7.5140699744224548e-02</quality>
              <le>8.9215695858001709e-01</le></_></splits></_>
        <_>
          <depth>1</depth>
          <value>7.1228401073503256e-02</value>
          <splits>
            <_><var>403</var>
              <quality>6.3827328383922577e-02</quality>
              <le>1.8235294520854950e-01</le></_></splits></_>
        <_>
          <depth>2</depth>
          <value>-2.4119728909332100e-01</value></_>
        <_>
          <depth>2</depth>
          <value>3.0051473679535667e-01</value></_>
        <_>
          <depth>1</depth>
          <value>-7.7496970806081167e-01</value>
          <splits>
            <_><var>542</var>
              <quality>9.6026755869388580e-02</quality>
              <le>2.9411766678094864e-02</le></_></splits></_>
        <_>
          <depth>2</depth>
          <value>1.5603700252074257e-01</value></_>
        <_>
          <depth>2</depth>
          <value>-1.0033496488776166e+00</value></_></nodes></_>
    <_>
      <nodes>
        <_>
          <depth>0</depth>
          <value>-3.2568782728234255e-02</value>
          <splits>
            <_><var>409</var>
              <quality>7.2511576116085052e-02</quality>
              <le>4.1176471859216690e-02</le></_></splits></_>
        <_>
          <depth>1</depth>
          <value>3.1476511173384347e-01</value>
          <splits>
            <_><var>379</var>
              <quality>1.6554810106754303e-01</quality>
              <le>4.1764709353446960e-01</le></_></splits></_>
        <_>
          <depth>2</depth>
          <value>7.1512182520128720e-01</value></_>
        <_>
          <depth>2</depth>
          <value>-5.7068424404511564e-01</value></_>
        <_>
          <depth>1</depth>
          <value>-2.4926869209346020e-01</value>
          <splits>
            <_><var>462</var>
              <quality>1.0538440942764282e-01</quality>
              <le>6.2156867980957031e-01</le></_></splits></_>
        <_>
          <depth>2</depth>
          <value>-8.0498708520064466e-02</value></_>
        <_>
          <depth>2</depth>
          <value>-9.4847652528175008e-01</value></_></nodes></_>
    <_>
      <nodes>
        <_>
          <depth>0</depth>
          <value>-2.8096570169767261e-02</value>
          <splits>
            <_><var>388</var>
              <quality>5.4535068571567535e-02</quality>
              <le>1.3529412448406219e-01</le></_></splits></_>
        <_>
          <depth>1</depth>
          <value>4.6470227082072392e-03</value>
          <splits>
            <_><var>304</var>
              <quality>7.2209611535072327e-02</quality>
              <le>6.4705885946750641e-02</le></_></splits></_>
        <_>
          <depth>2</depth>
          <value>-6.2947730547560393e-02</value></_>
        <_>
          <depth>2</depth>
          <value>1.1501057142109694e+00</value></_>
        <_>
          <depth>1</depth>
          <value>-1.7571434597298776e+00</value>
          <splits>
            <_><var>330</var>
              <quality>6.3159868121147156e-02</quality>
              <le>5.8823535218834877e-03</le></_></splits></_>
        <_>
          <depth>2</depth>
          <value>-2.6558392224697007e+00</value></_>
        <_>
          <depth>2</depth>
          <value>-1.2123300749706569e+00</value></_></nodes></_>
    <_>
      <nodes>
        <_>
          <depth>0</depth>
          <value>-2.3789611815251415e-03</value>
          <splits>
            <_><var>233</var>
              <quality>4.3957892805337906e-02</quality>
              <le>9.5098042488098145e-01</le></_></splits></_>
        <_>
          <depth>1</depth>
          <value>-8.6861090222931717e-02</value>
          <splits>
            <_><var>292</var>
              <quality>6.2478024512529373e-02</quality>
              <le>4.1372552514076233e-01</le></_></splits></_>
        <_>
          <depth>2</depth>
          <value>-3.5024681092289384e-01</value></_>
        <_>
          <depth>2</depth>
          <value>1.7265944796569277e-01</value></_>
        <_>
          <depth>1</depth>
          <value>5.4515309427711978e-01</value>
          <splits>
            <_><var>520</var>
              <quality>1.2775541841983795e-01</quality>
              <le>3.3333335071802139e-02</le></_></splits></_>
        <_>
          <depth>2</depth>
          <value>1.1150814959907180e+00</value></_>
        <_>
          <depth>2</depth>
          <value>-6.9825780467818532e-01</value></_></nodes></_>
    <_>
      <nodes>
        <_>
          <depth>0</depth>
          <value>-1.0420054168836861e-02</value>
          <splits>
            <_><var>456</var>
              <quality>5.3495667874813080e-02</quality>
              <le>8.3725500106811523e-01</le></_></splits></_>
        <_>
          <depth>1</depth>
          <value>7.5093100519367628e-02</value>
          <splits>
            <_><var>569</var>
              <quality>5.9718728065490723e-02</quality>
              <le>9.8039228469133377e-03</le></_></splits></_>
        <_>
          <depth>2</depth>
          <value>-1.5392960096273578e-01</value></_>
        <_>
          <depth>2</depth>
          <value>3.6064905921596430e-01</value></_>
        <_>
          <depth>1</depth>
          <value>-6.6762874685977025e-01</value>
          <splits>
            <_><var>511</var>
              <quality>9.3772448599338531e-02</quality>
              <le>5.6862749159336090e-02</le></_></splits></_>
        <_>
          <depth>2</depth>
          <value>2.8173120418711528e-01</value></_>
        <_>
          <depth>2</depth>
          <value>-1.1011368227370182e+00</value></_></nodes></_>
    <_>
      <nodes>
        <_>
          <depth>0</depth>
          <value>-2.4046701239577820e-02</value>
          <splits>
            <_><var>200</var>
              <quality>4.5739922672510147e-02</quality>
              <le>2.9411766678094864e-02</le></_></splits></_>
        <_>
          <depth>1</depth>
          <value>1.0535027881939198e-02</value>
          <splits>
            <_><var>610</var>
              <quality>3.6472138017416000e-02</quality>
              <le>6.0784317553043365e-02</le></_></splits></_>
        <_>
          <depth>2</depth>
          <value>-4.0117226645045662e-02</value></_>
        <_>
          <depth>2</depth>
          <value>7.8534622879571081e-01</value></_>
        <_>
          <depth>1</depth>
          <value>-1.3996015960202410e+00</value>
          <splits>
            <_><var>370</var>
              <quality>5.5776249617338181e-02</quality>
              <le>8.5490202903747559e-01</le></_></splits></_>
        <_>
          <depth>2</depth>
          <value>-1.5391314427879503e+00</value></_>
        <_>
          <depth>2</depth>
          <value>1.7194800192087254e+00</value></_></nodes></_>
    <_>
      <nodes>
        <_>
          <depth>0</depth>
          <value>-1.0547993619349922e-02</value>
          <splits>
            <_><var>263</var>
              <quality>3.8843702524900436e-02</quality>
              <le>5.7450985908508301e-01</le></_></splits></_>
        <_>
          <depth>1</depth>
          <value>-1.7115371392026540e-01</value>
          <splits>
            <_><var>550</var>
              <quality>1.0746359825134277e-01</quality>
              <le>4.9019612371921539e-02</le></_></splits></_>
        <_>
          <depth>2</depth>
          <value>2.4000838903202351e-01</value></_>
        <_>
          <depth>2</depth>
          <value>-5.4904537868253667e-01</value></_>
        <_>
          <depth>1</depth>
          <value>2.4332974485672818e-01</value>
          <splits>
            <_><var>550</var>
              <quality>8.8135607540607452e-02</quality>
              <le>9.8039228469133377e-03</le></_></splits></_>
        <_>
          <depth>2</depth>
          <value>-4.0369990132305872e-01</value></_>
        <_>
          <depth>2</depth>
          <value>5.2183740096876841e-01</value></_></nodes></_>
    <_>
      <nodes>
        <_>
          <depth>0</depth>
          <value>-2.0459425250623581e-02</value>
          <splits>
            <_><var>411</var>
              <quality>3.6983445286750793e-02</quality>
              <le>1.5882353484630585e-01</le></_></splits></_>
        <_>
          <depth>1</depth>
          <value>1.5099539177252758e-01</value>
          <splits>
            <_><var>524</var>
              <quality>6.5296493470668793e-02</quality>
              <le>8.4313727915287018e-02</le></_></splits></_>
        <_>
          <depth>2</depth>
          <value>3.2548641684472623e-01</value></_>
        <_>
          <depth>2</depth>
          <value>-4.1292619639262340e-01</value></_>
        <_>
          <depth>1</depth>
          <value>-2.4507405946289945e-01</value>
          <splits>
            <_><var>491</var>
              <quality>8.4101848304271698e-02</quality>
              <le>5.6666672229766846e-01</le></_></splits></_>
        <_>
          <depth>2</depth>
          <value>-1.0440010545151755e-01</value></_>
        <_>
          <depth>2</depth>
          <value>-1.2718673008595991e+00</value></_></nodes></_>
    <_>
      <nodes>
        <_>
          <depth>0</depth>
          <value>-2.9432024653659138e-02</value>
          <splits>
            <_><var>461</var>
              <quality>4.6326514333486557e-02</quality>
              <le>1.4705882966518402e-01</le></_></splits></_>
        <_>
          <depth>1</depth>
          <value>1.2698668175412892e-01</value>
          <splits>
            <_><var>517</var>
              <quality>5.0991863012313843e-02</quality>
              <le>4.6470591425895691e-01</le></_></splits></_>
        <_>
          <depth>2</depth>
          <value>5.6307681312211831e-02</value></_>
        <_>
          <depth>2</depth>
          <value>1.0461844399139630e+00</value></_>
        <_>
          <depth>1</depth>
          <value>-3.3565269995316654e-01</value>
          <splits>
            <_><var>379</var>
              <quality>8.8312841951847076e-02</quality>
              <le>1.7647059634327888e-02</le></_></splits></_>
        <_>
          <depth>2</depth>
          <value>1.2120507477145555e-01</value></_>
        <_>
          <depth>2</depth>
          <value>-6.9087989964644203e-01</value></_></nodes></_>
    <_>
      <nodes>
        <_>
          <depth>0</depth>
          <value>-1.9398716342240500e-02</value>
          <splits>
            <_><var>288</var>
              <quality>3.1172102317214012e-02</quality>
              <le>3.4705883264541626e-01</le></_></splits></_>
        <_>
          <depth>1</depth>
          <value>-1.1606809704297485e-01</value>
          <splits>
            <_><var>176</var>
              <quality>8.6293861269950867e-02</quality>
              <le>9.6078440546989441e-02</le></_></splits></_>
        <_>
          <depth>2</depth>
          <value>1.7041744604235718e-02</value></_>
        <_>
          <depth>2</depth>
          <value>-8.9386497372694818e-01</value></_>
        <_>
          <depth>1</depth>
          <value>3.1613636760631897e-01</value>
          <splits>
            <_><var>373</var>
              <quality>8.6493797600269318e-02</quality>
              <le>8.0392159521579742e-02</le></_></splits></_>
        <_>
          <depth>2</depth>
          <value>-5.4274306787059512e-01</value></_>
        <_>
          <depth>2</depth>
          <value>6.7371289373078669e-01</value></_></nodes></_>
    <_>
      <nodes>
        <_>
          <depth>0</depth>
          <value>-2.6758595233555494e-02</value>
          <splits>
            <_><var>655</var>
              <quality>3.8463003933429718e-02</quality>
              <le>5.8823535218834877e-03</le></_></splits></_>
        <_>
          <depth>1</depth>
          <value>-2.5289164095053029e-01</value>
          <splits>
            <_><var>273</var>
              <quality>8.8483430445194244e-02</quality>
              <le>6.4705885946750641e-02</le></_></splits></_>
        <_>
          <depth>2</depth>
          <value>-4.4480462440442309e-01</value></_>
        <_>
          <depth>2</depth>
          <value>5.2320030929327077e-01</value></_>
        <_>
          <depth>1</depth>
          <value>1.4911768280256352e-01</value>
          <splits>
            <_><var>514</var>
              <quality>7.3174826800823212e-02</quality>
              <le>2.6862746477127075e-01</le></_></splits></_>
        <_>
          <depth>2</depth>
          <value>3.0145881197205154e-01</value></_>
        <_>
          <depth>2</depth>
          <value>-6.0378381219447341e-01</value></_></nodes></_>
    <_>
      <nodes>
        <_>
          <depth>0</depth>
          <value>-2.6325822853926206e-02</value>
          <splits>
            <_><var>328</var>
              <quality>4.2875237762928009e-02</quality>
              <le>6.6470587253570557e-01</le></_></splits></_>
        <_>
          <depth>1</depth>
          <value>4.5731541369214986e-02</value>
          <splits>
            <_><var>330</var>
              <quality>4.5481849461793900e-02</quality>
              <le>4.8039218783378601e-01</le></_></splits></_>
        <_>
          <depth>2</depth>
          <value>8.9767183084378102e-02</value></_>
        <_>
          <depth>2</depth>
          <value>-1.1210094651331666e+00</value></_>
        <_>
          <depth>1</depth>
          <value>-6.4304106219140611e-01</value>
          <splits>
            <_><var>332</var>
              <quality>1.3103605806827545e-01</quality>
              <le>1.0784314572811127e-01</le></_></splits></_>
        <_>
          <depth>2</depth>
          <value>-9.9485303126976310e-01</value></_>
        <_>
          <depth>2</depth>
          <value>1.9292252712683771e+00</value></_></nodes></_>
    <_>
      <nodes>
        <_>
          <depth>0</depth>
          <value>-3.2398054131470920e-02</value>
          <splits>
            <_><var>292</var>
              <quality>3.5752661526203156e-02</quality>
              <le>9.8235297203063965e-01</le></_></splits></_>
        <_>
          <depth>1</depth>
          <value>-1.3810267073077748e-01</value>
          <splits>
            <_><var>297</var>
              <quality>5.5029585957527161e-02</quality>
              <le>7.5882363319396973e-01</le></_></splits></_>
        <_>
          <depth>2</depth>
          <value>-1.7759300842181816e-02</value></_>
        <_>
          <depth>2</depth>
          <value>-6.0796743368093953e-01</value></_>
        <_>
          <depth>1</depth>
          <value>3.1370705088946588e-01</value>
          <splits>
            <_><var>297</var>
              <quality>6.9781310856342316e-02</quality>
              <le>7.8431377187371254e-03</le></_></splits></_>
        <_>
          <depth>2</depth>
          <value>-5.4922025720525812e-02</value></_>
        <_>
          <depth>2</depth>
          <value>8.9844463065410740e-01</value></_></nodes></_>
    <_>
      <nodes>
        <_>
          <depth>0</depth>
          <value>-1.3227076209466093e-02</value>
          <splits>
            <_><var>388</var>
              <quality>3.2672237604856491e-02</quality>
              <le>8.8235296308994293e-02</le></_></splits></_>
        <_>
          <depth>1</depth>
          <value>9.6387646810165255e-03</value>
          <splits>
            <_><var>351</var>
              <quality>2.6925466954708099e-02</quality>
              <le>9.7843146324157715e-01</le></_></splits></_>
        <_>
          <depth>2</depth>
          <value>1.0592199522991957e-01</value></_>
        <_>
          <depth>2</depth>
          <value>-2.8814087112011166e-01</value></_>
        <_>
          <depth>1</depth>
          <value>-1.5090306792066890e+00</value>
          <splits>
            <_><var>529</var>
              <quality>4.3311230838298798e-02</quality>
              <le>5.6862749159336090e-02</le></_></splits></_>
        <_>
          <depth>2</depth>
          <value>-1.6058384558718888e+00</value></_>
        <_>
          <depth>2</depth>
          <value>6.2338187455144718e+00</value></_></nodes></_>
    <_>
      <nodes>
        <_>
          <depth>0</depth>
          <value>-1.4091042350952968e-02</value>
          <splits>
            <_><var>329</var>
              <quality>2.9438901692628860e-02</quality>
              <le>7.1176469326019287e-01</le></_></splits></_>
        <_>
          <depth>1</depth>
          <value>2.7995025010531121e-02</value>
          <splits>
            <_><var>385</var>
              <quality>3.3126857131719589e-02</quality>
              <le>9.8235297203063965e-01</le></_></splits></_>
        <_>
          <depth>2</depth>
          <value>6.1696381538288816e-04</value></_>
        <_>
          <depth>2</depth>
          <value>1.3463091286020652e+00</value></_>
        <_>
          <depth>1</depth>
          <value>-7.4568661305530293e-01</value>
          <splits>
            <_><var>384</var>
              <quality>7.9126968979835510e-02</quality>
              <le>3.9215688593685627e-03</le></_></splits></_>
        <_>
          <depth>2</depth>
          <value>9.3115797343743767e-01</value></_>
        <_>
          <depth>2</depth>
          <value>-1.3272178959025460e+00</value></_></nodes></_>
    <_>
      <nodes>
        <_>
          <depth>0</depth>
          <value>-1.3462415798317960e-02</value>
          <splits>
            <_><var>457</var>
              <quality>2.6427889242768288e-02</quality>
              <le>8.2941186428070068e-01</le></_></splits></_>
        <_>
          <depth>1</depth>
          <value>5.3573249000294705e-02</value>
          <splits>
            <_><var>513</var>
              <quality>4.7347292304039001e-02</quality>
              <le>9.1960787773132324e-01</le></_></splits></_>
        <_>
          <depth>2</depth>
          <value>-1.7094554330079640e-03</value></_>
        <_>
          <depth>2</depth>
          <value>1.0497796676442721e+00</value></_>
        <_>
          <depth>1</depth>
          <value>-4.2574542388812497e-01</value>
          <splits>
            <_><var>513</var>
              <quality>7.0914387702941895e-02</quality>
              <le>7.3921573162078857e-01</le></_></splits></_>
        <_>
          <depth>2</depth>
          <value>6.8660670609338698e-02</value></_>
        <_>
          <depth>2</depth>
          <value>-1.1386846147039011e+00</value></_></nodes></_>
    <_>
      <nodes>
        <_>
          <depth>0</depth>
          <value>-1.3550977988516356e-02</value>
          <splits>
            <_><var>491</var>
              <quality>2.2214440628886223e-02</quality>
              <le>7.6470591127872467e-02</le></_></splits></_>
        <_>
          <depth>1</depth>
          <value>1.0254535072362145e-01</value>
          <splits>
            <_><var>267</var>
              <quality>9.1503828763961792e-02</quality>
              <le>1.9607844296842813e-03</le></_></splits></_>
        <_>
          <depth>2</depth>
          <value>4.9054792820752641e-01</value></_>
        <_>
          <depth>2</depth>
          <value>-2.6282133437807675e-01</value></_>
        <_>
          <depth>1</depth>
          <value>-2.1338625463329211e-01</value>
          <splits>
            <_><var>268</var>
              <quality>7.9459428787231445e-02</quality>
              <le>9.8039228469133377e-03</le></_></splits></_>
        <_>
          <depth>2</depth>
          <value>-6.5170386932945346e-01</value></_>
        <_>
          <depth>2</depth>
          <value>2.0202124025090989e-01</value></_></nodes></_>
    <_>
      <nodes>
        <_>
          <depth>0</depth>
          <value>-2.1402392830832808e-02</value>
          <splits>
            <_><var>125</var>
              <quality>2.7431322261691093e-02</quality>
              <le>6.6862750053405762e-01</le></_></splits></_>
        <_>
          <depth>1</depth>
          <value>3.7077515776870913e-02</value>
          <splits>
            <_><var>381</var>
              <quality>2.8825294226408005e-02</quality>
              <le>2.3333334922790527e-01</le></_></splits></_>
        <_>
          <depth>2</depth>
          <value>2.0909204310586696e-01</value></_>
        <_>
          <depth>2</depth>
          <value>-1.5255402323558401e-01</value></_>
        <_>
          <depth>1</depth>
          <value>-5.0733168574673981e-01</value>
          <splits>
            <_><var>240</var>
              <quality>4.9463957548141479e-02</quality>
              <le>1.3725491240620613e-02</le></_></splits></_>
        <_>
          <depth>2</depth>
          <value>-1.1149147225250164e-01</value></_>
        <_>
          <depth>2</depth>
          <value>-1.0816247344723398e+00</value></_></nodes></_>
    <_>
      <nodes>
        <_>
          <depth>0</depth>
          <value>-1.3440752314066277e-02</value>
          <splits>
            <_><var>388</var>
              <quality>3.0575370416045189e-02</quality>
              <le>2.1568629890680313e-02</le></_></splits></_>
        <_>
          <depth>1</depth>
          <value>9.1902247432404920e-03</value>
          <splits>
            <_><var>459</var>
              <quality>2.5644725188612938e-02</quality>
              <le>3.5490196943283081e-01</le></_></splits></_>
        <_>
          <depth>2</depth>
          <value>1.1529106384255940e-01</value></_>
        <_>
          <depth>2</depth>
          <value>-2.4850928536576594e-01</value></_>
        <_>
          <depth>1</depth>
          <value>-1.4276143053723254e+00</value>
          <splits>
            <_><var>356</var>
              <quality>5.1608443260192871e-02</quality>
              <le>1.5098039805889130e-01</le></_></splits></_>
        <_>
          <depth>2</depth>
          <value>-1.8881784013236189e+00</value></_>
        <_>
          <depth>2</depth>
          <value>1.6358544082026039e+00</value></_></nodes></_>
    <_>
      <nodes>
        <_>
          <depth>0</depth>
          <value>-1.2560426667218665e-02</value>
          <splits>
            <_><var>358</var>
              <quality>2.2387122735381126e-02</quality>
              <le>6.6078436374664307e-01</le></_></splits></_>
        <_>
          <depth>1</depth>
          <value>1.2453386981972063e-02</value>
          <splits>
            <_><var>327</var>
              <quality>2.5393364951014519e-02</quality>
              <le>9.1176474094390869e-01</le></_></splits></_>
        <_>
          <depth>2</depth>
          <value>5.6866606190049566e-02</value></_>
        <_>
          <depth>2</depth>
          <value>-6.0198737520607226e-01</value></_>
        <_>
          <depth>1</depth>
          <value>-9.4834940671225487e-01</value>
          <splits>
            <_><var>351</var>
              <quality>5.6824754923582077e-02</quality>
              <le>9.9411773681640625e-01</le></_></splits></_>
        <_>
          <depth>2</depth>
          <value>-1.1656975974671191e+00</value></_>
        <_>
          <depth>2</depth>
          <value>5.4846616009836975e+00</value></_></nodes></_>
    <_>
      <nodes>
        <_>
          <depth>0</depth>
          <value>-1.5032795009717624e-02</value>
          <splits>
            <_><var>301</var>
              <quality>2.5203268975019455e-02</quality>
              <le>5.8823535218834877e-03</le></_></splits></_>
        <_>
          <depth>1</depth>
          <value>-7.8917662544452843e-02</value>
          <splits>
            <_><var>298</var>
              <quality>7.3196589946746826e-02</quality>
              <le>6.2549018859863281e-01</le></_></splits></_>
        <_>
          <depth>2</depth>
          <value>3.3973963625390187e-02</value></_>
        <_>
          <depth>2</depth>
          <value>-8.1215592036857542e-01</value></_>
        <_>
          <depth>1</depth>
          <value>3.9670719297861118e-01</value>
          <splits>
            <_><var>355</var>
              <quality>1.3429152965545654e-01</quality>
              <le>1.7647059634327888e-02</le></_></splits></_>
        <_>
          <depth>2</depth>
          <value>1.2458891880917318e+00</value></_>
        <_>
          <depth>2</depth>
          <value>-6.5731499142340521e-01</value></_></nodes></_>
    <_>
      <nodes>
        <_>
          <depth>0</depth>
          <value>-2.2747616941594273e-02</value>
          <splits>
            <_><var>242</var>
              <quality>3.1170006841421127e-02</quality>
              <le>9.8235297203063965e-01</le></_></splits></_>
        <_>
          <depth>1</depth>
          <value>-9.8010327498422159e-02</value>
          <splits>
            <_><var>326</var>
              <quality>5.1243029534816742e-02</quality>
              <le>5.8823535218834877e-03</le></_></splits></_>
        <_>
          <depth>2</depth>
          <value>-2.3887146680827903e-01</value></_>
        <_>
          <depth>2</depth>
          <value>2.8389517176654372e-01</value></_>
        <_>
          <depth>1</depth>
          <value>4.0632469705284885e-01</value>
          <splits>
            <_><var>239</var>
              <quality>1.1003980040550232e-01</quality>
              <le>8.7254905700683594e-01</le></_></splits></_>
        <_>
          <depth>2</depth>
          <value>-4.8399392168021532e-01</value></_>
        <_>
          <depth>2</depth>
          <value>1.0926937946831681e+00</value></_></nodes></_>
    <_>
      <nodes>
        <_>
          <depth>0</depth>
          <value>5.6613352310140802e-04</value>
          <splits>
            <_><var>427</var>
              <quality>3.0698770657181740e-02</quality>
              <le>9.1568636894226074e-01</le></_></splits></_>
        <_>
          <depth>1</depth>
          <value>4.8457165324654959e-02</value>
          <splits>
            <_><var>482</var>
              <quality>3.3699177205562592e-02</quality>
              <le>5.2352941036224365e-01</le></_></splits></_>
        <_>
          <depth>2</depth>
          <value>4.4446763452385331e-04</value></_>
        <_>
          <depth>2</depth>
          <value>7.9081763370617819e-01</value></_>
        <_>
          <depth>1</depth>
          <value>-6.7418270011930403e-01</value>
          <splits>
            <_><var>539</var>
              <quality>6.5396562218666077e-02</quality>
              <le>1.9607844296842813e-03</le></_></splits></_>
        <_>
          <depth>2</depth>
          <value>1.7929034241647979e-01</value></_>
        <_>
          <depth>2</depth>
          <value>-1.3586879381844230e+00</value></_></nodes></_>
    <_>
      <nodes>
        <_>
          <depth>0</depth>
          <value>-1.0535087829880611e-02</value>
          <splits>
            <_><var>228</var>
              <quality>2.7272529900074005e-02</quality>
              <le>4.5098043978214264e-02</le></_></splits></_>
        <_>
          <depth>1</depth>
          <value>1.2464868225389190e-02</value>
          <splits>
            <_><var>299</var>
              <quality>2.5642044842243195e-02</quality>
              <le>3.0784314870834351e-01</le></_></splits></_>
        <_>
          <depth>2</depth>
          <value>8.9595544784471737e-02</value></_>
        <_>
          <depth>2</depth>
          <value>-3.4194338964731580e-01</value></_>
        <_>
          <depth>1</depth>
          <value>-1.2538915903389427e+00</value>
          <splits>
            <_><var>397</var>
              <quality>3.4146629273891449e-02</quality>
              <le>1.8823529779911041e-01</le></_></splits></_>
        <_>
          <depth>2</depth>
          <value>-1.4354082499235421e+00</value></_>
        <_>
          <depth>2</depth>
          <value>9.8724602671011585e-01</value></_></nodes></_>
    <_>
      <nodes>
        <_>
          <depth>0</depth>
          <value>-1.1551336884465182e-02</value>
          <splits>
            <_><var>147</var>
              <quality>2.7720104902982712e-02</quality>
              <le>6.4313727617263794e-01</le></_></splits></_>
        <_>
          <depth>1</depth>
          <value>1.7545484779096839e-02</value>
          <splits>
            <_><var>291</var>
              <quality>2.5846097618341446e-02</quality>
              <le>1.3137255609035492e-01</le></_></splits></_>
        <_>
          <depth>2</depth>
          <value>-1.8444621635313888e-01</value></_>
        <_>
          <depth>2</depth>
          <value>1.5463827832707355e-01</value></_>
        <_>
          <depth>1</depth>
          <value>-1.0097923942019909e+00</value>
          <splits>
            <_><var>232</var>
              <quality>6.4436443150043488e-02</quality>
              <le>4.0588238835334778e-01</le></_></splits></_>
        <_>
          <depth>2</depth>
          <value>-1.7076025281456622e+00</value></_>
        <_>
          <depth>2</depth>
          <value>9.6088194949291428e-01</value></_></nodes></_>
    <_>
      <nodes>
        <_>
          <depth>0</depth>
          <value>-8.1493676051968052e-03</value>
          <splits>
            <_><var>627</var>
              <quality>2.1421710029244423e-02</quality>
              <le>2.1372550725936890e-01</le></_></splits></_>
        <_>
          <depth>1</depth>
          <value>-1.9341943473946085e-01</value>
          <splits>
            <_><var>270</var>
              <quality>5.1802504807710648e-02</quality>
              <le>9.9411773681640625e-01</le></_></splits></_>
        <_>
          <depth>2</depth>
          <value>-2.5416974699188682e-01</value></_>
        <_>
          <depth>2</depth>
          <value>1.4587304574435769e+00</value></_>
        <_>
          <depth>1</depth>
          <value>1.1320190651989270e-01</value>
          <splits>
            <_><var>239</var>
              <quality>6.0094546526670456e-02</quality>
              <le>5.8823535218834877e-03</le></_></splits></_>
        <_>
          <depth>2</depth>
          <value>5.1832275382249260e-01</value></_>
        <_>
          <depth>2</depth>
          <value>-1.1358511366717007e-01</value></_></nodes></_>
    <_>
      <nodes>
        <_>
          <depth>0</depth>
          <value>-1.4735863842137291e-02</value>
          <splits>
            <_><var>362</var>
              <quality>2.2637201473116875e-02</quality>
              <le>4.1764709353446960e-01</le></_></splits></_>
        <_>
          <depth>1</depth>
          <value>-1.8042712391653046e-02</value>
          <splits>
            <_><var>352</var>
              <quality>1.9489878788590431e-02</quality>
              <le>7.1176469326019287e-01</le></_></splits></_>
        <_>
          <depth>2</depth>
          <value>7.9340456543328580e-02</value></_>
        <_>
          <depth>2</depth>
          <value>-2.2546801538573405e-01</value></_>
        <_>
          <depth>1</depth>
          <value>7.1254807534195397e+00</value></_></nodes></_>
    <_>
      <nodes>
        <_>
          <depth>0</depth>
          <value>-6.6719809734314146e-03</value>
          <splits>
            <_><var>456</var>
              <quality>2.1856971085071564e-02</quality>
              <le>9.6274518966674805e-01</le></_></splits></_>
        <_>
          <depth>1</depth>
          <value>3.8705105636785239e-02</value>
          <splits>
            <_><var>269</var>
              <quality>2.6027144864201546e-02</quality>
              <le>2.7647060155868530e-01</le></_></splits></_>
        <_>
          <depth>2</depth>
          <value>1.5859163025180587e-01</value></_>
        <_>
          <depth>2</depth>
          <value>-1.9781724288785610e-01</value></_>
        <_>
          <depth>1</depth>
          <value>-5.1272085983678595e-01</value>
          <splits>
            <_><var>242</var>
              <quality>5.6155957281589508e-02</quality>
              <le>5.1960790157318115e-01</le></_></splits></_>
        <_>
          <depth>2</depth>
          <value>-1.0411035436759657e+00</value></_>
        <_>
          <depth>2</depth>
          <value>3.4925232114081484e-01</value></_></nodes></_>
    <_>
      <nodes>
        <_>
          <depth>0</depth>
          <value>-1.1021999752008215e-02</value>
          <splits>
            <_><var>358</var>
              <quality>1.6617069020867348e-02</quality>
              <le>4.3725493550300598e-01</le></_></splits></_>
        <_>
          <depth>1</depth>
          <value>1.6528806248443707e-02</value>
          <splits>
            <_><var>343</var>
              <quality>2.2338427603244781e-02</quality>
              <le>9.4705891609191895e-01</le></_></splits></_>
        <_>
          <depth>2</depth>
          <value>-2.4693609114859381e-02</value></_>
        <_>
          <depth>2</depth>
          <value>6.0525370218867280e-01</value></_>
        <_>
          <depth>1</depth>
          <value>-6.4150508796645223e-01</value>
          <splits>
            <_><var>327</var>
              <quality>4.5462813228368759e-02</quality>
              <le>2.2745099663734436e-01</le></_></splits></_>
        <_>
          <depth>2</depth>
          <value>-1.2457718337635149e+00</value></_>
        <_>
          <depth>2</depth>
          <value>5.6902332470851114e-01</value></_></nodes></_>
    <_>
      <nodes>
        <_>
          <depth>0</depth>
          <value>-7.7433562377943813e-03</value>
          <splits>
            <_><var>708</var>
              <quality>1.5915565192699432e-02</quality>
              <le>6.7843139171600342e-01</le></_></splits></_>
        <_>
          <depth>1</depth>
          <value>4.7673925902292809e-03</value>
          <splits>
            <_><var>599</var>
              <quality>1.6019700095057487e-02</quality>
              <le>6.7254900932312012e-01</le></_></splits></_>
        <_>
          <depth>2</depth>
          <value>-9.5982841704261024e-02</value></_>
        <_>
          <depth>2</depth>
          <value>1.7348526103342848e-01</value></_>
        <_>
          <depth>1</depth>
          <value>-1.3420685943453394e+00</value>
          <splits>
            <_><var>180</var>
              <quality>3.1510662287473679e-02</quality>
              <le>9.9803924560546875e-01</le></_></splits></_>
        <_>
          <depth>2</depth>
          <value>-1.4980966184967002e+00</value></_>
        <_>
          <depth>2</depth>
          <value>10.</value></_></nodes></_>
    <_>
      <nodes>
        <_>
          <depth>0</depth>
          <value>-5.1782774430505843e-03</value>
          <splits>
            <_><var>118</var>
              <quality>1.4537189155817032e-02</quality>
              <le>3.8823533058166504e-01</le></_></splits></_>
        <_>
          <depth>1</depth>
          <value>3.6561899201529927e-03</value>
          <splits>
            <_><var>556</var>
              <quality>1.4039091765880585e-02</quality>
              <le>5.2352941036224365e-01</le></_></splits></_>
        <_>
          <depth>2</depth>
          <value>-6.5224045927404668e-03</value></_>
        <_>
          <depth>2</depth>
          <value>1.4616335563994103e+00</value></_>
        <_>
          <depth>1</depth>
          <value>-1.7342607143546478e+00</value>
          <splits>
            <_><var>117</var>
              <quality>1.8914846703410149e-02</quality>
              <le>9.9803924560546875e-01</le></_></splits></_>
        <_>
          <depth>2</depth>
          <value>-1.5262908722165653e+00</value></_>
        <_>
          <depth>2</depth>
          <value>-6.1056453670731727e+00</value></_></nodes></_>
    <_>
      <nodes>
        <_>
          <depth>0</depth>
          <value>1.1373688544691572e-04</value>
          <splits>
            <_><var>430</var>
              <quality>1.2905944138765335e-02</quality>
              <le>9.9019610881805420e-01</le></_></splits></_>
        <_>
          <depth>1</depth>
          <value>-5.0303039899525274e-02</value>
          <splits>
            <_><var>433</var>
              <quality>2.2780241444706917e-02</quality>
              <le>7.3529410362243652e-01</le></_></splits></_>
        <_>
          <depth>2</depth>
          <value>4.1282569918514651e-02</value></_>
        <_>
          <depth>2</depth>
          <value>-3.3348658727985686e-01</value></_>
        <_>
          <depth>1</depth>
          <value>2.6957277895644405e-01</value>
          <splits>
            <_><var>684</var>
              <quality>4.2914677411317825e-02</quality>
              <le>1.6666667163372040e-01</le></_></splits></_>
        <_>
          <depth>2</depth>
          <value>-3.1013325846910637e-02</value></_>
        <_>
          <depth>2</depth>
          <value>9.8131577780225077e-01</value></_></nodes></_>
    <_>
      <nodes>
        <_>
          <depth>0</depth>
          <value>-2.9113796052106676e-03</value>
          <splits>
            <_><var>501</var>
              <quality>1.2760721147060394e-02</quality>
              <le>7.8431377187371254e-03</le></_></splits></_>
        <_>
          <depth>1</depth>
          <value>5.9630212032778379e-03</value>
          <splits>
            <_><var>182</var>
              <quality>1.2956206686794758e-02</quality>
              <le>1.7647059634327888e-02</le></_></splits></_>
        <_>
          <depth>2</depth>
          <value>1.8121894724379739e-01</value></_>
        <_>
          <depth>2</depth>
          <value>-7.2109121293096323e-02</value></_>
        <_>
          <depth>1</depth>
          <value>-1.5155656282523151e+00</value>
          <splits>
            <_><var>474</var>
              <quality>1.6132425516843796e-02</quality>
              <le>5.7058823108673096e-01</le></_></splits></_>
        <_>
          <depth>2</depth>
          <value>-1.3253360994351207e+00</value></_>
        <_>
          <depth>2</depth>
          <value>-4.7462494287020842e+00</value></_></nodes></_>
    <_>
      <nodes>
        <_>
          <depth>0</depth>
          <value>-3.5774851959982212e-03</value>
          <splits>
            <_><var>426</var>
              <quality>1.2724513188004494e-02</quality>
              <le>8.3725500106811523e-01</le></_></splits></_>
        <_>
          <depth>1</depth>
          <value>2.0574608568430457e-02</value>
          <splits>
            <_><var>425</var>
              <quality>2.1104177460074425e-02</quality>
              <le>1.9607844296842813e-03</le></_></splits></_>
        <_>
          <depth>2</depth>
          <value>-3.6735831158023289e-03</value></_>
        <_>
          <depth>2</depth>
          <value>9.5921028349744364e-01</value></_>
        <_>
          <depth>1</depth>
          <value>-5.5763116143250002e-01</value>
          <splits>
            <_><var>377</var>
              <quality>3.9440494030714035e-02</quality>
              <le>4.9215689301490784e-01</le></_></splits></_>
        <_>
          <depth>2</depth>
          <value>-1.1366999268394471e+00</value></_>
        <_>
          <depth>2</depth>
          <value>6.2178931517060032e-01</value></_></nodes></_>
    <_>
      <nodes>
        <_>
          <depth>0</depth>
          <value>-8.0043260860336793e-03</value>
          <splits>
            <_><var>710</var>
              <quality>1.2405007146298885e-02</quality>
              <le>8.9215695858001709e-01</le></_></splits></_>
        <_>
          <depth>1</depth>
          <value>7.9125712007258788e-03</value>
          <splits>
            <_><var>742</var>
              <quality>1.3118008151650429e-02</quality>
              <le>7.3137259483337402e-01</le></_></splits></_>
        <_>
          <depth>2</depth>
          <value>1.7092099006791990e-02</value></_>
        <_>
          <depth>2</depth>
          <value>-1.5188644552318256e+00</value></_>
        <_>
          <depth>1</depth>
          <value>-8.2436144648175957e-01</value>
          <splits>
            <_><var>266</var>
              <quality>2.6120137423276901e-02</quality>
              <le>9.2549026012420654e-01</le></_></splits></_>
        <_>
          <depth>2</depth>
          <value>-1.5165162574773998e+00</value></_>
        <_>
          <depth>2</depth>
          <value>2.7092007821862574e-01</value></_></nodes></_>
    <_>
      <nodes>
        <_>
          <depth>0</depth>
          <value>-5.3662900255160668e-03</value>
          <splits>
            <_><var>210</var>
              <quality>1.2331924401223660e-02</quality>
              <le>9.7058832645416260e-01</le></_></splits></_>
        <_>
          <depth>1</depth>
          <value>-7.8058807826861684e-02</value>
          <splits>
            <_><var>186</var>
              <quality>2.6561783626675606e-02</quality>
              <le>1.7647059634327888e-02</le></_></splits></_>
        <_>
          <depth>2</depth>
          <value>1.0149601079215008e-01</value></_>
        <_>
          <depth>2</depth>
          <value>-2.6337143892637943e-01</value></_>
        <_>
          <depth>1</depth>
          <value>1.7281261708975273e-01</value>
          <splits>
            <_><var>213</var>
              <quality>7.5029261410236359e-02</quality>
              <le>3.3333335071802139e-02</le></_></splits></_>
        <_>
          <depth>2</depth>
          <value>-6.8662344739756875e-01</value></_>
        <_>
          <depth>2</depth>
          <value>4.5520928727945964e-01</value></_></nodes></_>
    <_>
      <nodes>
        <_>
          <depth>0</depth>
          <value>-7.1971965372741734e-03</value>
          <splits>
            <_><var>271</var>
              <quality>1.7659483477473259e-02</quality>
              <le>2.6470589637756348e-01</le></_></splits></_>
        <_>
          <depth>1</depth>
          <value>7.3218094100498871e-02</value>
          <splits>
            <_><var>268</var>
              <quality>7.1074649691581726e-02</quality>
              <le>6.7647063732147217e-01</le></_></splits></_>
        <_>
          <depth>2</depth>
          <value>2.2821657418273544e-01</value></_>
        <_>
          <depth>2</depth>
          <value>-5.4326793227762993e-01</value></_>
        <_>
          <depth>1</depth>
          <value>-2.3771698211391137e-01</value>
          <splits>
            <_><var>267</var>
              <quality>9.9755614995956421e-02</quality>
              <le>4.1176471859216690e-02</le></_></splits></_>
        <_>
          <depth>2</depth>
          <value>-9.9866083399632999e-01</value></_>
        <_>
          <depth>2</depth>
          <value>2.2159711611073607e-01</value></_></nodes></_>
    <_>
      <nodes>
        <_>
          <depth>0</depth>
          <value>-2.7003394464924786e-02</value>
          <splits>
            <_><var>625</var>
              <quality>2.7927607297897339e-02</quality>
              <le>2.5490198284387589e-02</le></_></splits></_>
        <_>
          <depth>1</depth>
          <value>-1.9125698200786448e-01</value>
          <splits>
            <_><var>575</var>
              <quality>5.3683806210756302e-02</quality>
              <le>4.6470591425895691e-01</le></_></splits></_>
        <_>
          <depth>2</depth>
          <value>3.1136041431926529e-02</value></_>
        <_>
          <depth>2</depth>
          <value>-5.2000156360180338e-01</value></_>
        <_>
          <depth>1</depth>
          <value>1.4753524065353918e-01</value>
          <splits>
            <_><var>512</var>
              <quality>4.1615244001150131e-02</quality>
              <le>2.5294119119644165e-01</le></_></splits></_>
        <_>
          <depth>2</depth>
          <value>3.0192596098466196e-01</value></_>
        <_>
          <depth>2</depth>
          <value>-2.9671608284760753e-01</value></_></nodes></_>
    <_>
      <nodes>
        <_>
          <depth>0</depth>
          <value>-1.8589650145140205e-02</value>
          <splits>
            <_><var>653</var>
              <quality>1.9334821030497551e-02</quality>
              <le>9.9803924560546875e-01</le></_></splits></_>
        <_>
          <depth>1</depth>
          <value>-4.5442358421685864e-03</value>
          <splits>
            <_><var>572</var>
              <quality>1.7185091972351074e-02</quality>
              <le>9.8235297203063965e-01</le></_></splits></_>
        <_>
          <depth>2</depth>
          <value>-6.0920990339672410e-02</value></_>
        <_>
          <depth>2</depth>
          <value>3.1912307166575210e-01</value></_>
        <_>
          <depth>1</depth>
          <value>-1.4430327404639234e+00</value>
          <splits>
            <_><var>675</var>
              <quality>3.0250702053308487e-02</quality>
              <le>1.2549020349979401e-01</le></_></splits></_>
        <_>
          <depth>2</depth>
          <value>-1.2918383862154130e+00</value></_>
        <_>
          <depth>2</depth>
          <value>-9.2403318137763488e+00</value></_></nodes></_>
    <_>
      <nodes>
        <_>
          <depth>0</depth>
          <value>4.5597316238669641e-04</value>
          <splits>
            <_><var>708</var>
              <quality>1.7535246908664703e-02</quality>
              <le>6.8235296010971069e-01</le></_></splits></_>
        <_>
          <depth>1</depth>
          <value>1.5432424202984168e-02</value>
          <splits>
            <_><var>468</var>
              <quality>1.9050439819693565e-02</quality>
              <le>1.3725491240620613e-02</le></_></splits></_>
        <_>
          <depth>2</depth>
          <value>1.3179899098626943e-01</value></_>
        <_>
          <depth>2</depth>
          <value>-1.5694362907092385e-01</value></_>
        <_>
          <depth>1</depth>
          <value>-1.2320207883205359e+00</value>
          <splits>
            <_><var>271</var>
              <quality>2.7815617620944977e-02</quality>
              <le>1.7647059634327888e-02</le></_></splits></_>
        <_>
          <depth>2</depth>
          <value>4.9961766053789997e-01</value></_>
        <_>
          <depth>2</depth>
          <value>-1.7638711715899056e+00</value></_></nodes></_>
    <_>
      <nodes>
        <_>
          <depth>0</depth>
          <value>-8.2902866013397393e-03</value>
          <splits>
            <_><var>406</var>
              <quality>1.6103586181998253e-02</quality>
              <le>1.3725491240620613e-02</le></_></splits></_>
        <_>
          <depth>1</depth>
          <value>1.5951296570998436e-01</value>
          <splits>
            <_><var>297</var>
              <quality>5.4046332836151123e-02</quality>
              <le>5.8823535218834877e-03</le></_></splits></_>
        <_>
          <depth>2</depth>
          <value>-1.3932156412374955e-01</value></_>
        <_>
          <depth>2</depth>
          <value>5.8226932508803075e-01</value></_>
        <_>
          <depth>1</depth>
          <value>-1.0889912699513604e-01</value>
          <splits>
            <_><var>324</var>
              <quality>5.0338976085186005e-02</quality>
              <le>1.3725491240620613e-02</le></_></splits></_>
        <_>
          <depth>2</depth>
          <value>1.1644272565872192e-01</value></_>
        <_>
          <depth>2</depth>
          <value>-4.3240628975214512e-01</value></_></nodes></_>
    <_>
      <nodes>
        <_>
          <depth>0</depth>
          <value>-8.1230568507508708e-03</value>
          <splits>
            <_><var>407</var>
              <quality>1.6573999077081680e-02</quality>
              <le>7.5098043680191040e-01</le></_></splits></_>
        <_>
          <depth>1</depth>
          <value>-9.9376386357789379e-02</value>
          <splits>
            <_><var>436</var>
              <quality>3.1998358666896820e-02</quality>
              <le>1.3529412448406219e-01</le></_></splits></_>
        <_>
          <depth>2</depth>
          <value>3.4419001921006734e-02</value></_>
        <_>
          <depth>2</depth>
          <value>-3.9792755902781252e-01</value></_>
        <_>
          <depth>1</depth>
          <value>1.8234039351296999e-01</value>
          <splits>
            <_><var>538</var>
              <quality>3.9246689528226852e-02</quality>
              <le>7.2941178083419800e-01</le></_></splits></_>
        <_>
          <depth>2</depth>
          <value>7.9543360270645513e-02</value></_>
        <_>
          <depth>2</depth>
          <value>1.0996021446554514e+00</value></_></nodes></_>
    <_>
      <nodes>
        <_>
          <depth>0</depth>
          <value>-7.3952775006839219e-03</value>
          <splits>
            <_><var>357</var>
              <quality>1.8190540373325348e-02</quality>
              <le>3.3333334326744080e-01</le></_></splits></_>
        <_>
          <depth>1</depth>
          <value>3.2176275934398681e-02</value>
          <splits>
            <_><var>120</var>
              <quality>1.9122282043099403e-02</quality>
              <le>4.0588238835334778e-01</le></_></splits></_>
        <_>
          <depth>2</depth>
          <value>5.0678844257470844e-02</value></_>
        <_>
          <depth>2</depth>
          <value>-1.0889884981461828e+00</value></_>
        <_>
          <depth>1</depth>
          <value>-4.8989923606658509e-01</value>
          <splits>
            <_><var>609</var>
              <quality>4.5870374888181686e-02</quality>
              <le>9.8627460002899170e-01</le></_></splits></_>
        <_>
          <depth>2</depth>
          <value>-6.5509979834413501e-01</value></_>
        <_>
          <depth>2</depth>
          <value>1.9134426159762412e+00</value></_></nodes></_>
    <_>
      <nodes>
        <_>
          <depth>0</depth>
          <value>-7.6389163393587832e-03</value>
          <splits>
            <_><var>659</var>
              <quality>1.5473066829144955e-02</quality>
              <le>9.9411773681640625e-01</le></_></splits></_>
        <_>
          <depth>1</depth>
          <value>-4.3995436177799975e-02</value>
          <splits>
            <_><var>307</var>
              <quality>1.5891550108790398e-02</quality>
              <le>3.5294121503829956e-01</le></_></splits></_>
        <_>
          <depth>2</depth>
          <value>-4.2197081662265448e-02</value></_>
        <_>
          <depth>2</depth>
          <value>-9.0271724659519457e+00</value></_>
        <_>
          <depth>1</depth>
          <value>4.3875259990303350e-01</value>
          <splits>
            <_><var>321</var>
              <quality>4.6548452228307724e-02</quality>
              <le>7.7450990676879883e-01</le></_></splits></_>
        <_>
          <depth>2</depth>
          <value>9.4812476573770776e-01</value></_>
        <_>
          <depth>2</depth>
          <value>-4.6061159854170020e-01</value></_></nodes></_>
    <_>
      <nodes>
        <_>
          <depth>0</depth>
          <value>-1.8392658573319913e-03</value>
          <splits>
            <_><var>305</var>
              <quality>1.2890264391899109e-02</quality>
              <le>5.5098044872283936e-01</le></_></splits></_>
        <_>
          <depth>1</depth>
          <value>-1.3354648838111719e-02</value>
          <splits>
            <_><var>487</var>
              <quality>1.3508195988833904e-02</quality>
              <le>7.3529410362243652e-01</le></_></splits></_>
        <_>
          <depth>2</depth>
          <value>3.6052070081863327e-02</value></_>
        <_>
          <depth>2</depth>
          <value>-3.0035867210202549e-01</value></_>
        <_>
          <depth>1</depth>
          <value>1.1761879787390435e+00</value>
          <splits>
            <_><var>383</var>
              <quality>2.4745337665081024e-02</quality>
              <le>4.2156863212585449e-01</le></_></splits></_>
        <_>
          <depth>2</depth>
          <value>1.6869381439155160e+00</value></_>
        <_>
          <depth>2</depth>
          <value>-1.3834652689188516e+00</value></_></nodes></_>
    <_>
      <nodes>
        <_>
          <depth>0</depth>
          <value>-2.6352823510371057e-03</value>
          <splits>
            <_><var>486</var>
              <quality>1.6197530552744865e-02</quality>
              <le>5.8823535218834877e-03</le></_></splits></_>
        <_>
          <depth>1</depth>
          <value>-9.0146518755542374e-02</value>
          <splits>
            <_><var>129</var>
              <quality>4.0256913751363754e-02</quality>
              <le>5.8823535218834877e-03</le></_></splits></_>
        <_>
          <depth>2</depth>
          <value>-2.1890397657467481e-01</value></_>
        <_>
          <depth>2</depth>
          <value>3.2373968920679608e-01</value></_>
        <_>
          <depth>1</depth>
          <value>1.9211944934397415e-01</value>
          <splits>
            <_><var>542</var>
              <quality>7.8852035105228424e-02</quality>
              <le>6.0784317553043365e-02</le></_></splits></_>
        <_>
          <depth>2</depth>
          <value>8.0656012064828808e-01</value></_>
        <_>
          <depth>2</depth>
          <value>-1.8352995153678847e-01</value></_></nodes></_>
    <_>
      <nodes>
        <_>
          <depth>0</depth>
          <value>-1.0384319977173660e-03</value>
          <splits>
            <_><var>159</var>
              <quality>2.0318446680903435e-02</quality>
              <le>6.4901959896087646e-01</le></_></splits></_>
        <_>
          <depth>1</depth>
          <value>7.0386636376425671e-02</value>
          <splits>
            <_><var>243</var>
              <quality>3.3019747585058212e-02</quality>
              <le>1.9607844296842813e-03</le></_></splits></_>
        <_>
          <depth>2</depth>
          <value>-9.1096198529665301e-02</value></_>
        <_>
          <depth>2</depth>
          <value>3.0629118828211832e-01</value></_>
        <_>
          <depth>1</depth>
          <value>-3.0046943754686228e-01</value>
          <splits>
            <_><var>244</var>
              <quality>9.2876501381397247e-02</quality>
              <le>1.9607844296842813e-03</le></_></splits></_>
        <_>
          <depth>2</depth>
          <value>2.1512092077650388e-01</value></_>
        <_>
          <depth>2</depth>
          <value>-1.1099083185646228e+00</value></_></nodes></_>
    <_>
      <nodes>
        <_>
          <depth>0</depth>
          <value>-1.4664773397771882e-02</value>
          <splits>
            <_><var>457</var>
              <quality>2.5588605552911758e-02</quality>
              <le>6.3333332538604736e-01</le></_></splits></_>
        <_>
          <depth>1</depth>
          <value>6.0933348595369981e-02</value>
          <splits>
            <_><var>512</var>
              <quality>4.0365792810916901e-02</quality>
              <le>9.9019610881805420e-01</le></_></splits></_>
        <_>
          <depth>2</depth>
          <value>1.3328339064726143e-02</value></_>
        <_>
          <depth>2</depth>
          <value>1.0664095240477300e+00</value></_>
        <_>
          <depth>1</depth>
          <value>-3.6811882903307397e-01</value>
          <splits>
            <_><var>686</var>
              <quality>5.4719150066375732e-02</quality>
              <le>4.2549023032188416e-01</le></_></splits></_>
        <_>
          <depth>2</depth>
          <value>-5.9722553999438388e-01</value></_>
        <_>
          <depth>2</depth>
          <value>4.6725702394044477e-01</value></_></nodes></_>
    <_>
      <nodes>
        <_>
          <depth>0</depth>
          <value>-9.3194977631203338e-03</value>
          <splits>
            <_><var>270</var>
              <quality>1.8869535997509956e-02</quality>
              <le>6.2156867980957031e-01</le></_></splits></_>
        <_>
          <depth>1</depth>
          <value>6.6331006817578114e-02</value>
          <splits>
            <_><var>246</var>
              <quality>4.7804821282625198e-02</quality>
              <le>5.2352941036224365e-01</le></_></splits></_>
        <_>
          <depth>2</depth>
          <value>1.2801976463103598e-01</value></_>
        <_>
          <depth>2</depth>
          <value>-9.1413909678917371e-01</value></_>
        <_>
          <depth>1</depth>
          <value>-2.7073167537877596e-01</value>
          <splits>
            <_><var>325</var>
              <quality>6.1409208923578262e-02</quality>
              <le>1.4705882966518402e-01</le></_></splits></_>
        <_>
          <depth>2</depth>
          <value>2.8333129511723737e-01</value></_>
        <_>
          <depth>2</depth>
          <value>-6.5826393538520422e-01</value></_></nodes></_>
    <_>
      <nodes>
        <_>
          <depth>0</depth>
          <value>-1.2734307069676019e-02</value>
          <splits>
            <_><var>217</var>
              <quality>2.0298663526773453e-02</quality>
              <le>3.0392158031463623e-01</le></_></splits></_>
        <_>
          <depth>1</depth>
          <value>-8.6254609991369524e-02</value>
          <splits>
            <_><var>297</var>
              <quality>4.5268177986145020e-02</quality>
              <le>9.3529415130615234e-01</le></_></splits></_>
        <_>
          <depth>2</depth>
          <value>-1.5857841939691886e-01</value></_>
        <_>
          <depth>2</depth>
          <value>6.3767462327502666e-01</value></_>
        <_>
          <depth>1</depth>
          <value>2.7568760774336204e-01</value>
          <splits>
            <_><var>300</var>
              <quality>7.0962347090244293e-02</quality>
              <le>1.9607844296842813e-03</le></_></splits></_>
        <_>
          <depth>2</depth>
          <value>6.4616796575698687e-01</value></_>
        <_>
          <depth>2</depth>
          <value>-5.1175692474803403e-01</value></_></nodes></_>
    <_>
      <nodes>
        <_>
          <depth>0</depth>
          <value>-5.9822861779412683e-03</value>
          <splits>
            <_><var>267</var>
              <quality>2.3531710729002953e-02</quality>
              <le>7.6470591127872467e-02</le></_></splits></_>
        <_>
          <depth>1</depth>
          <value>1.5622968375668778e-01</value>
          <splits>
            <_><var>179</var>
              <quality>5.8252114802598953e-02</quality>
              <le>9.3529415130615234e-01</le></_></splits></_>
        <_>
          <depth>2</depth>
          <value>-2.4587678825189835e-02</value></_>
        <_>
          <depth>2</depth>
          <value>7.2111468736443030e-01</value></_>
        <_>
          <depth>1</depth>
          <value>-1.5846455211674829e-01</value>
          <splits>
            <_><var>270</var>
              <quality>5.0230015069246292e-02</quality>
              <le>3.3333335071802139e-02</le></_></splits></_>
        <_>
          <depth>2</depth>
          <value>-4.3412178198314816e-01</value></_>
        <_>
          <depth>2</depth>
          <value>1.2255474739827157e-01</value></_></nodes></_>
    <_>
      <nodes>
        <_>
          <depth>0</depth>
          <value>-7.9579524630818427e-03</value>
          <splits>
            <_><var>269</var>
              <quality>2.4087218567728996e-02</quality>
              <le>5.9411764144897461e-01</le></_></splits></_>
        <_>
          <depth>1</depth>
          <value>8.7806320883667369e-02</value>
          <splits>
            <_><var>324</var>
              <quality>4.5733951032161713e-02</quality>
              <le>2.2156864404678345e-01</le></_></splits></_>
        <_>
          <depth>2</depth>
          <value>-7.1965042557789599e-02</value></_>
        <_>
          <depth>2</depth>
          <value>4.5012073560194427e-01</value></_>
        <_>
          <depth>1</depth>
          <value>-2.7206319708654375e-01</value>
          <splits>
            <_><var>156</var>
              <quality>7.4675045907497406e-02</quality>
              <le>4.9019612371921539e-02</le></_></splits></_>
        <_>
          <depth>2</depth>
          <value>1.1695890145789954e-01</value></_>
        <_>
          <depth>2</depth>
          <value>-8.4111175309608366e-01</value></_></nodes></_>
    <_>
      <nodes>
        <_>
          <depth>0</depth>
          <value>-1.6313842299757155e-02</value>
          <splits>
            <_><var>354</var>
              <quality>2.3543348535895348e-02</quality>
              <le>9.8627460002899170e-01</le></_></splits></_>
        <_>
          <depth>1</depth>
          <value>4.0070765791607732e-02</value>
          <splits>
            <_><var>470</var>
              <quality>2.6967545971274376e-02</quality>
              <le>6.0784317553043365e-02</le></_></splits></_>
        <_>
          <depth>2</depth>
          <value>1.0761949414466571e-01</value></_>
        <_>
          <depth>2</depth>
          <value>-4.1089914993195736e-01</value></_>
        <_>
          <depth>1</depth>
          <value>-4.5112032022786897e-01</value>
          <splits>
            <_><var>157</var>
              <quality>6.2302548438310623e-02</quality>
              <le>9.8235297203063965e-01</le></_></splits></_>
        <_>
          <depth>2</depth>
          <value>-7.3987918043783663e-01</value></_>
        <_>
          <depth>2</depth>
          <value>8.2261464005335172e-01</value></_></nodes></_>
    <_>
      <nodes>
        <_>
          <depth>0</depth>
          <value>-1.1944474296901307e-02</value>
          <splits>
            <_><var>777</var>
              <quality>1.9771374762058258e-02</quality>
              <le>6.1764705181121826e-01</le></_></splits></_>
        <_>
          <depth>1</depth>
          <value>-9.8750571888131990e-03</value>
          <splits>
            <_><var>374</var>
              <quality>1.9957132637500763e-02</quality>
              <le>9.6274518966674805e-01</le></_></splits></_>
        <_>
          <depth>2</depth>
          <value>-1.0506612303739900e-01</value></_>
        <_>
          <depth>2</depth>
          <value>2.0983562851608797e-01</value></_>
        <_>
          <depth>1</depth>
          <value>-10.</value></_></nodes></_>
    <_>
      <nodes>
        <_>
          <depth>0</depth>
          <value>-2.5807683614543610e-03</value>
          <splits>
            <_><var>109</var>
              <quality>1.6682786867022514e-02</quality>
              <le>6.6078436374664307e-01</le></_></splits></_>
        <_>
          <depth>1</depth>
          <value>-4.3357343882659905e-03</value>
          <splits>
            <_><var>108</var>
              <quality>1.6186702996492386e-02</quality>
              <le>9.8823535442352295e-01</le></_></splits></_>
        <_>
          <depth>2</depth>
          <value>-2.1184420407528810e-03</value></_>
        <_>
          <depth>2</depth>
          <value>-7.6816477724172163e+00</value></_>
        <_>
          <depth>1</depth>
          <value>10.</value></_></nodes></_>
    <_>
      <nodes>
        <_>
          <depth>0</depth>
          <value>-4.6534752707877769e-05</value>
          <splits>
            <_><var>488</var>
              <quality>1.6075940802693367e-02</quality>
              <le>9.9803924560546875e-01</le></_></splits></_>
        <_>
          <depth>1</depth>
          <value>1.1562807388708504e-02</value>
          <splits>
            <_><var>249</var>
              <quality>1.7273386940360069e-02</quality>
              <le>5.8431375026702881e-01</le></_></splits></_>
        <_>
          <depth>2</depth>
          <value>-6.7822362816044677e-03</value></_>
        <_>
          <depth>2</depth>
          <value>1.0033212738190520e+00</value></_>
        <_>
          <depth>1</depth>
          <value>-1.4576870673091860e+00</value>
          <splits>
            <_><var>304</var>
              <quality>3.0429108068346977e-02</quality>
              <le>7.0784318447113037e-01</le></_></splits></_>
        <_>
          <depth>2</depth>
          <value>-1.2216328405252384e+00</value></_>
        <_>
          <depth>2</depth>
          <value>-9.6291866837323390e+00</value></_></nodes></_>
    <_>
      <nodes>
        <_>
          <depth>0</depth>
          <value>1.1476022714925996e-03</value>
          <splits>
            <_><var>456</var>
              <quality>1.6991226002573967e-02</quality>
              <le>5.8235299587249756e-01</le></_></splits></_>
        <_>
          <depth>1</depth>
          <value>5.3825623015857471e-02</value>
          <splits>
            <_><var>569</var>
              <quality>3.4936353564262390e-02</quality>
              <le>7.9019618034362793e-01</le></_></splits></_>
        <_>
          <depth>2</depth>
          <value>-3.7756536420867688e-02</value></_>
        <_>
          <depth>2</depth>
          <value>4.8605109888308062e-01</value></_>
        <_>
          <depth>1</depth>
          <value>-3.3835299621714365e-01</value>
          <splits>
            <_><var>568</var>
              <quality>3.8769148290157318e-02</quality>
              <le>3.2352942228317261e-01</le></_></splits></_>
        <_>
          <depth>2</depth>
          <value>3.6051604779871606e-02</value></_>
        <_>
          <depth>2</depth>
          <value>-8.4405835507409255e-01</value></_></nodes></_>
    <_>
      <nodes>
        <_>
          <depth>0</depth>
          <value>-7.5147069031833184e-03</value>
          <splits>
            <_><var>96</var>
              <quality>1.6524553298950195e-02</quality>
              <le>4.5294120907783508e-01</le></_></splits></_>
        <_>
          <depth>1</depth>
          <value>1.0070092240492701e-02</value>
          <splits>
            <_><var>297</var>
              <quality>1.5898048877716064e-02</quality>
              <le>3.3529412746429443e-01</le></_></splits></_>
        <_>
          <depth>2</depth>
          <value>8.9729300897134739e-02</value></_>
        <_>
          <depth>2</depth>
          <value>-2.0248366954049277e-01</value></_>
        <_>
          <depth>1</depth>
          <value>-9.9346901719105396e-01</value>
          <splits>
            <_><var>247</var>
              <quality>2.9072007164359093e-02</quality>
              <le>1.8039216101169586e-01</le></_></splits></_>
        <_>
          <depth>2</depth>
          <value>-9.0914809000404295e-01</value></_>
        <_>
          <depth>2</depth>
          <value>-10.</value></_></nodes></_>
    <_>
      <nodes>
        <_>
          <depth>0</depth>
          <value>-3.8619063100491292e-03</value>
          <splits>
            <_><var>409</var>
              <quality>1.4089331030845642e-02</quality>
              <le>9.7058832645416260e-01</le></_></splits></_>
        <_>
          <depth>1</depth>
          <value>6.1999039357542626e-02</value>
          <splits>
            <_><var>436</var>
              <quality>2.3693000897765160e-02</quality>
              <le>9.7450983524322510e-01</le></_></splits></_>
        <_>
          <depth>2</depth>
          <value>-1.2246000482072564e-02</value></_>
        <_>
          <depth>2</depth>
          <value>4.4448894337471628e-01</value></_>
        <_>
          <depth>1</depth>
          <value>-2.2882175863896931e-01</value>
          <splits>
            <_><var>350</var>
              <quality>4.3902006000280380e-02</quality>
              <le>5.0784313678741455e-01</le></_></splits></_>
        <_>
          <depth>2</depth>
          <value>-6.5034915058571341e-01</value></_>
        <_>
          <depth>2</depth>
          <value>1.3106536252253520e-01</value></_></nodes></_>
    <_>
      <nodes>
        <_>
          <depth>0</depth>
          <value>-2.1447466889236212e-03</value>
          <splits>
            <_><var>347</var>
              <quality>1.3615264557301998e-02</quality>
              <le>3.2352942228317261e-01</le></_></splits></_>
        <_>
          <depth>1</depth>
          <value>1.6589843431001239e-01</value>
          <splits>
            <_><var>320</var>
              <quality>3.7632841616868973e-02</quality>
              <le>7.6666676998138428e-01</le></_></splits></_>
        <_>
          <depth>2</depth>
          <value>1.8440731975793732e-02</value></_>
        <_>
          <depth>2</depth>
          <value>7.7738443048851202e-01</value></_>
        <_>
          <depth>1</depth>
          <value>-8.7404714182561488e-02</value>
          <splits>
            <_><var>347</var>
              <quality>2.6807265356183052e-02</quality>
              <le>5.5098044872283936e-01</le></_></splits></_>
        <_>
          <depth>2</depth>
          <value>-5.8253065340706967e-01</value></_>
        <_>
          <depth>2</depth>
          <value>-1.6925834896586948e-02</value></_></nodes></_>
    <_>
      <nodes>
        <_>
          <depth>0</depth>
          <value>-5.4935377371836481e-03</value>
          <splits>
            <_><var>402</var>
              <quality>2.0742667838931084e-02</quality>
              <le>4.4509807229042053e-01</le></_></splits></_>
        <_>
          <depth>1</depth>
          <value>-1.4328998019666853e-01</value>
          <splits>
            <_><var>459</var>
              <quality>3.6077179014682770e-02</quality>
              <le>6.6078436374664307e-01</le></_></splits></_>
        <_>
          <depth>2</depth>
          <value>-5.0501954626726998e-02</value></_>
        <_>
          <depth>2</depth>
          <value>-6.8770179662488273e-01</value></_>
        <_>
          <depth>1</depth>
          <value>1.5274195746104777e-01</value>
          <splits>
            <_><var>320</var>
              <quality>3.6408007144927979e-02</quality>
              <le>1.3529412448406219e-01</le></_></splits></_>
        <_>
          <depth>2</depth>
          <value>4.8334960411027561e-01</value></_>
        <_>
          <depth>2</depth>
          <value>-2.5726961767533450e-02</value></_></nodes></_>
    <_>
      <nodes>
        <_>
          <depth>0</depth>
          <value>-4.5641262181226406e-03</value>
          <splits>
            <_><var>613</var>
              <quality>1.7040174454450607e-02</quality>
              <le>9.8039221763610840e-01</le></_></splits></_>
        <_>
          <depth>1</depth>
          <value>-6.7352237784052225e-03</value>
          <splits>
            <_><var>210</var>
              <quality>1.3576065190136433e-02</quality>
              <le>9.7058832645416260e-01</le></_></splits></_>
        <_>
          <depth>2</depth>
          <value>-8.0972610410707746e-02</value></_>
        <_>
          <depth>2</depth>
          <value>1.8520344485780657e-01</value></_>
        <_>
          <depth>1</depth>
          <value>8.2475923896265098e+00</value></_></nodes></_>
    <_>
      <nodes>
        <_>
          <depth>0</depth>
          <value>1.8779064216169234e-03</value>
          <splits>
            <_><var>380</var>
              <quality>1.3617560267448425e-02</quality>
              <le>5.5882358551025391e-01</le></_></splits></_>
        <_>
          <depth>1</depth>
          <value>1.0252229311127810e-01</value>
          <splits>
            <_><var>326</var>
              <quality>3.4751050174236298e-02</quality>
              <le>8.4901964664459229e-01</le></_></splits></_>
        <_>
          <depth>2</depth>
          <value>1.8849895154898988e-02</value></_>
        <_>
          <depth>2</depth>
          <value>7.2309779253856454e-01</value></_>
        <_>
          <depth>1</depth>
          <value>-1.4051283411725188e-01</value>
          <splits>
            <_><var>326</var>
              <quality>3.9794359356164932e-02</quality>
              <le>5.2352941036224365e-01</le></_></splits></_>
        <_>
          <depth>2</depth>
          <value>-6.1595206090170728e-03</value></_>
        <_>
          <depth>2</depth>
          <value>-7.4644805702503370e-01</value></_></nodes></_>
    <_>
