<?xml version="1.0"?>
<opencv_storage>
<opencv_ml_boost>
  <format>3</format>
  <is_classifier>1</is_classifier>
  <var_all>785</var_all>
  <var_count>784</var_count>
  <ord_var_count>784</ord_var_count>
  <cat_var_count>1</cat_var_count>
  <training_params>
    <boosting_type>LogitBoost</boosting_type>
    <use_surrogates>0</use_surrogates>
    <max_categories>10</max_categories>
    <regression_accuracy>9.9999997764825821e-03</regression_accuracy>
    <max_depth>2</max_depth>
    <min_sample_count>10</min_sample_count>
    <cross_validation_folds>0</cross_validation_folds>
    <weight_trimming_rate>9.4999999999999996e-01</weight_trimming_rate></training_params>
  <global_var_idx>1</global_var_idx>
  <var_idx>
    0 1 2 3 4 5 6 7 8 9 10 11 12 13 14 15 16 17 18 19 20 21 22 23 24 25
    26 27 28 29 30 31 32 33 34 35 36 37 38 39 40 41 42 43 44 45 46 47 48
    49 50 51 52 53 54 55 56 57 58 59 60 61 62 63 64 65 66 67 68 69 70 71
    72 73 74 75 76 77 78 79 80 81 82 83 84 85 86 87 88 89 90 91 92 93 94
    95 96 97 98 99 100 101 102 103 104 105 106 107 108 109 110 111 112
    113 114 115 116 117 118 119 120 121 122 123 124 125 126 127 128 129
    130 131 132 133 134 135 136 137 138 139 140 141 142 143 144 145 146
    147 148 149 150 151 152 153 154 155 156 157 158 159 160 161 162 163
    164 165 166 167 168 169 170 171 172 173 174 175 176 177 178 179 180
    181 182 183 184 185 186 187 188 189 190 191 192 193 194 195 196 197
    198 199 200 201 202 203 204 205 206 207 208 209 210 211 212 213 214
    215 216 217 218 219 220 221 222 223 224 225 226 227 228 229 230 231
    232 233 234 235 236 237 238 239 240 241 242 243 244 245 246 247 248
    249 250 251 252 253 254 255 256 257 258 259 260 261 262 263 264 265
    266 267 268 269 270 271 272 273 274 275 276 277 278 279 280 281 282
    283 284 285 286 287 288 289 290 291 292 293 294 295 296 297 298 299
    300 301 302 303 304 305 306 307 308 309 310 311 312 313 314 315 316
    317 318 319 320 321 322 323 324 325 326 327 328 329 330 331 332 333
    334 335 336 337 338 339 340 341 342 343 344 345 346 347 348 349 350
    351 352 353 354 355 356 357 358 359 360 361 362 363 364 365 366 367
    368 369 370 371 372 373 374 375 376 377 378 379 380 381 382 383 384
    385 386 387 388 389 390 391 392 393 394 395 396 397 398 399 400 401
    402 403 404 405 406 407 408 409 410 411 412 413 414 415 416 417 418
    419 420 421 422 423 424 425 426 427 428 429 430 431 432 433 434 435
    436 437 438 439 440 441 442 443 444 445 446 447 448 449 450 451 452
    453 454 455 456 457 458 459 460 461 462 463 464 465 466 467 468 469
    470 471 472 473 474 475 476 477 478 479 480 481 482 483 484 485 486
    487 488 489 490 491 492 493 494 495 496 497 498 499 500 501 502 503
    504 505 506 507 508 509 510 511 512 513 514 515 516 517 518 519 520
    521 522 523 524 525 526 527 528 529 530 531 532 533 534 535 536 537
    538 539 540 541 542 543 544 545 546 547 548 549 550 551 552 553 554
    555 556 557 558 559 560 561 562 563 564 565 566 567 568 569 570 571
    572 573 574 575 576 577 578 579 580 581 582 583 584 585 586 587 588
    589 590 591 592 593 594 595 596 597 598 599 600 601 602 603 604 605
    606 607 608 609 610 611 612 613 614 615 616 617 618 619 620 621 622
    623 624 625 626 627 628 629 630 631 632 633 634 635 636 637 638 639
    640 641 642 643 644 645 646 647 648 649 650 651 652 653 654 655 656
    657 658 659 660 661 662 663 664 665 666 667 668 669 670 671 672 673
    674 675 676 677 678 679 680 681 682 683 684 685 686 687 688 689 690
    691 692 693 694 695 696 697 698 699 700 701 702 703 704 705 706 707
    708 709 710 711 712 713 714 715 716 717 718 719 720 721 722 723 724
    725 726 727 728 729 730 731 732 733 734 735 736 737 738 739 740 741
    742 743 744 745 746 747 748 749 750 751 752 753 754 755 756 757 758
    759 760 761 762 763 764 765 766 767 768 769 770 771 772 773 774 775
    776 777 778 779 780 781 782 783</var_idx>
  <var_type>
    0 0 0 0 0 0 0 0 0 0 0 0 0 0 0 0 0 0 0 0 0 0 0 0 0 0 0 0 0 0 0 0 0 0
    0 0 0 0 0 0 0 0 0 0 0 0 0 0 0 0 0 0 0 0 0 0 0 0 0 0 0 0 0 0 0 0 0 0
    0 0 0 0 0 0 0 0 0 0 0 0 0 0 0 0 0 0 0 0 0 0 0 0 0 0 0 0 0 0 0 0 0 0
    0 0 0 0 0 0 0 0 0 0 0 0 0 0 0 0 0 0 0 0 0 0 0 0 0 0 0 0 0 0 0 0 0 0
    0 0 0 0 0 0 0 0 0 0 0 0 0 0 0 0 0 0 0 0 0 0 0 0 0 0 0 0 0 0 0 0 0 0
    0 0 0 0 0 0 0 0 0 0 0 0 0 0 0 0 0 0 0 0 0 0 0 0 0 0 0 0 0 0 0 0 0 0
    0 0 0 0 0 0 0 0 0 0 0 0 0 0 0 0 0 0 0 0 0 0 0 0 0 0 0 0 0 0 0 0 0 0
    0 0 0 0 0 0 0 0 0 0 0 0 0 0 0 0 0 0 0 0 0 0 0 0 0 0 0 0 0 0 0 0 0 0
    0 0 0 0 0 0 0 0 0 0 0 0 0 0 0 0 0 0 0 0 0 0 0 0 0 0 0 0 0 0 0 0 0 0
    0 0 0 0 0 0 0 0 0 0 0 0 0 0 0 0 0 0 0 0 0 0 0 0 0 0 0 0 0 0 0 0 0 0
    0 0 0 0 0 0 0 0 0 0 0 0 0 0 0 0 0 0 0 0 0 0 0 0 0 0 0 0 0 0 0 0 0 0
    0 0 0 0 0 0 0 0 0 0 0 0 0 0 0 0 0 0 0 0 0 0 0 0 0 0 0 0 0 0 0 0 0 0
    0 0 0 0 0 0 0 0 0 0 0 0 0 0 0 0 0 0 0 0 0 0 0 0 0 0 0 0 0 0 0 0 0 0
    0 0 0 0 0 0 0 0 0 0 0 0 0 0 0 0 0 0 0 0 0 0 0 0 0 0 0 0 0 0 0 0 0 0
    0 0 0 0 0 0 0 0 0 0 0 0 0 0 0 0 0 0 0 0 0 0 0 0 0 0 0 0 0 0 0 0 0 0
    0 0 0 0 0 0 0 0 0 0 0 0 0 0 0 0 0 0 0 0 0 0 0 0 0 0 0 0 0 0 0 0 0 0
    0 0 0 0 0 0 0 0 0 0 0 0 0 0 0 0 0 0 0 0 0 0 0 0 0 0 0 0 0 0 0 0 0 0
    0 0 0 0 0 0 0 0 0 0 0 0 0 0 0 0 0 0 0 0 0 0 0 0 0 0 0 0 0 0 0 0 0 0
    0 0 0 0 0 0 0 0 0 0 0 0 0 0 0 0 0 0 0 0 0 0 0 0 0 0 0 0 0 0 0 0 0 0
    0 0 0 0 0 0 0 0 0 0 0 0 0 0 0 0 0 0 0 0 0 0 0 0 0 0 0 0 0 0 0 0 0 0
    0 0 0 0 0 0 0 0 0 0 0 0 0 0 0 0 0 0 0 0 0 0 0 0 0 0 0 0 0 0 0 0 0 0
    0 0 0 0 0 0 0 0 0 0 0 0 0 0 0 0 0 0 0 0 0 0 0 0 0 0 0 0 0 0 0 0 0 0
    0 0 0 0 0 0 0 0 0 0 0 0 0 0 0 0 0 0 0 0 0 0 0 0 0 0 0 0 0 0 0 0 0 0
    0 0 1</var_type>
  <cat_ofs>
    0 0 0 0 0 0 0 0 0 0 0 0 0 0 0 0 0 0 0 0 0 0 0 0 0 0 0 0 0 0 0 0 0 0
    0 0 0 0 0 0 0 0 0 0 0 0 0 0 0 0 0 0 0 0 0 0 0 0 0 0 0 0 0 0 0 0 0 0
    0 0 0 0 0 0 0 0 0 0 0 0 0 0 0 0 0 0 0 0 0 0 0 0 0 0 0 0 0 0 0 0 0 0
    0 0 0 0 0 0 0 0 0 0 0 0 0 0 0 0 0 0 0 0 0 0 0 0 0 0 0 0 0 0 0 0 0 0
    0 0 0 0 0 0 0 0 0 0 0 0 0 0 0 0 0 0 0 0 0 0 0 0 0 0 0 0 0 0 0 0 0 0
    0 0 0 0 0 0 0 0 0 0 0 0 0 0 0 0 0 0 0 0 0 0 0 0 0 0 0 0 0 0 0 0 0 0
    0 0 0 0 0 0 0 0 0 0 0 0 0 0 0 0 0 0 0 0 0 0 0 0 0 0 0 0 0 0 0 0 0 0
    0 0 0 0 0 0 0 0 0 0 0 0 0 0 0 0 0 0 0 0 0 0 0 0 0 0 0 0 0 0 0 0 0 0
    0 0 0 0 0 0 0 0 0 0 0 0 0 0 0 0 0 0 0 0 0 0 0 0 0 0 0 0 0 0 0 0 0 0
    0 0 0 0 0 0 0 0 0 0 0 0 0 0 0 0 0 0 0 0 0 0 0 0 0 0 0 0 0 0 0 0 0 0
    0 0 0 0 0 0 0 0 0 0 0 0 0 0 0 0 0 0 0 0 0 0 0 0 0 0 0 0 0 0 0 0 0 0
    0 0 0 0 0 0 0 0 0 0 0 0 0 0 0 0 0 0 0 0 0 0 0 0 0 0 0 0 0 0 0 0 0 0
    0 0 0 0 0 0 0 0 0 0 0 0 0 0 0 0 0 0 0 0 0 0 0 0 0 0 0 0 0 0 0 0 0 0
    0 0 0 0 0 0 0 0 0 0 0 0 0 0 0 0 0 0 0 0 0 0 0 0 0 0 0 0 0 0 0 0 0 0
    0 0 0 0 0 0 0 0 0 0 0 0 0 0 0 0 0 0 0 0 0 0 0 0 0 0 0 0 0 0 0 0 0 0
    0 0 0 0 0 0 0 0 0 0 0 0 0 0 0 0 0 0 0 0 0 0 0 0 0 0 0 0 0 0 0 0 0 0
    0 0 0 0 0 0 0 0 0 0 0 0 0 0 0 0 0 0 0 0 0 0 0 0 0 0 0 0 0 0 0 0 0 0
    0 0 0 0 0 0 0 0 0 0 0 0 0 0 0 0 0 0 0 0 0 0 0 0 0 0 0 0 0 0 0 0 0 0
    0 0 0 0 0 0 0 0 0 0 0 0 0 0 0 0 0 0 0 0 0 0 0 0 0 0 0 0 0 0 0 0 0 0
    0 0 0 0 0 0 0 0 0 0 0 0 0 0 0 0 0 0 0 0 0 0 0 0 0 0 0 0 0 0 0 0 0 0
    0 0 0 0 0 0 0 0 0 0 0 0 0 0 0 0 0 0 0 0 0 0 0 0 0 0 0 0 0 0 0 0 0 0
    0 0 0 0 0 0 0 0 0 0 0 0 0 0 0 0 0 0 0 0 0 0 0 0 0 0 0 0 0 0 0 0 0 0
    0 0 0 0 0 0 0 0 0 0 0 0 0 0 0 0 0 0 0 0 0 0 0 0 0 0 0 0 0 0 0 0 0 0
    0 0 0 0 0 0 0 0 0 0 0 0 0 0 0 0 0 0 0 0 0 0 0 0 0 0 0 0 0 0 0 0 0 0
    0 0 0 0 0 0 0 0 0 0 0 0 0 0 0 0 0 0 0 0 0 0 0 0 0 0 0 0 0 0 0 0 0 0
    0 0 0 0 0 0 0 0 0 0 0 0 0 0 0 0 0 0 0 0 0 0 0 0 0 0 0 0 0 0 0 0 0 0
    0 0 0 0 0 0 0 0 0 0 0 0 0 0 0 0 0 0 0 0 0 0 0 0 0 0 0 0 0 0 0 0 0 0
    0 0 0 0 0 0 0 0 0 0 0 0 0 0 0 0 0 0 0 0 0 0 0 0 0 0 0 0 0 0 0 0 0 0
    0 0 0 0 0 0 0 0 0 0 0 0 0 0 0 0 0 0 0 0 0 0 0 0 0 0 0 0 0 0 0 0 0 0
    0 0 0 0 0 0 0 0 0 0 0 0 0 0 0 0 0 0 0 0 0 0 0 0 0 0 0 0 0 0 0 0 0 0
    0 0 0 0 0 0 0 0 0 0 0 0 0 0 0 0 0 0 0 0 0 0 0 0 0 0 0 0 0 0 0 0 0 0
    0 0 0 0 0 0 0 0 0 0 0 0 0 0 0 0 0 0 0 0 0 0 0 0 0 0 0 0 0 0 0 0 0 0
    0 0 0 0 0 0 0 0 0 0 0 0 0 0 0 0 0 0 0 0 0 0 0 0 0 0 0 0 0 0 0 0 0 0
    0 0 0 0 0 0 0 0 0 0 0 0 0 0 0 0 0 0 0 0 0 0 0 0 0 0 0 0 0 0 0 0 0 0
    0 0 0 0 0 0 0 0 0 0 0 0 0 0 0 0 0 0 0 0 0 0 0 0 0 0 0 0 0 0 0 0 0 0
    0 0 0 0 0 0 0 0 0 0 0 0 0 0 0 0 0 0 0 0 0 0 0 0 0 0 0 0 0 0 0 0 0 0
    0 0 0 0 0 0 0 0 0 0 0 0 0 0 0 0 0 0 0 0 0 0 0 0 0 0 0 0 0 0 0 0 0 0
    0 0 0 0 0 0 0 0 0 0 0 0 0 0 0 0 0 0 0 0 0 0 0 0 0 0 0 0 0 0 0 0 0 0
    0 0 0 0 0 0 0 0 0 0 0 0 0 0 0 0 0 0 0 0 0 0 0 0 0 0 0 0 0 0 0 0 0 0
    0 0 0 0 0 0 0 0 0 0 0 0 0 0 0 0 0 0 0 0 0 0 0 0 0 0 0 0 0 0 0 0 0 0
    0 0 0 0 0 0 0 0 0 0 0 0 0 0 0 0 0 0 0 0 0 0 0 0 0 0 0 0 0 0 0 0 0 0
    0 0 0 0 0 0 0 0 0 0 0 0 0 0 0 0 0 0 0 0 0 0 0 0 0 0 0 0 0 0 0 0 0 0
    0 0 0 0 0 0 0 0 0 0 0 0 0 0 0 0 0 0 0 0 0 0 0 0 0 0 0 0 0 0 0 0 0 0
    0 0 0 0 0 0 0 0 0 0 0 0 0 0 0 0 0 0 0 0 0 0 0 0 0 0 0 0 0 0 0 0 0 0
    0 0 0 0 0 0 0 0 0 0 0 0 0 0 0 0 0 0 0 0 0 0 0 0 0 0 0 0 0 0 0 0 0 0
    0 0 0 0 0 0 0 0 0 0 0 0 0 0 0 0 0 0 0 0 0 0 0 0 0 0 0 0 0 0 0 0 0 0
    0 0 0 0</cat_ofs>
  <class_labels>
    0 1</class_labels>
  <missing_subst>
    0. 0. 0. 0. 0. 0. 0. 0. 0. 0. 0. 0. 0. 0. 0. 0. 0. 0. 0. 0. 0. 0. 0.
    0. 0. 0. 0. 0. 0. 0. 0. 0. 0. 0. 0. 0. 0. 0. 0. 0. 0. 0. 0. 0. 0. 0.
    0. 0. 0. 0. 0. 0. 0. 0. 0. 0. 0. 0. 0. 0. 0. 0. 0. 0. 0. 0. 0. 0. 0.
    0. 0. 0. 0. 0. 0. 0. 0. 0. 0. 0. 0. 0. 0. 0. 0. 0. 0. 0. 0. 0. 0. 0.
    0. 0. 0. 0. 0. 0. 0. 0. 0. 0. 0. 0. 0. 0. 0. 0. 0. 0. 0. 0. 0. 0. 0.
    0. 0. 0. 0. 0. 0. 0. 0. 0. 0. 0. 0. 0. 0. 0. 0. 0. 0. 0. 0. 0. 0. 0.
    0. 0. 0. 0. 0. 0. 0. 0. 0. 0. 0. 0. 0. 0. 0. 0. 0. 0. 0. 0. 0. 0. 0.
    0. 0. 0. 0. 0. 0. 0. 0. 0. 0. 0. 0. 0. 0. 0. 0. 0. 0. 0. 0. 0. 0. 0.
    0. 0. 0. 0. 0. 0. 0. 0. 0. 0. 0. 0. 0. 0. 0. 0. 0. 0. 0. 0. 0. 0. 0.
    0. 0. 0. 0. 0. 0. 0. 0. 0. 0. 0. 0. 0. 0. 0. 0. 0. 0. 0. 0. 0. 0. 0.
    0. 0. 0. 0. 0. 0. 0. 0. 0. 0. 0. 0. 0. 0. 0. 0. 0. 0. 0. 0. 0. 0. 0.
    0. 0. 0. 0. 0. 0. 0. 0. 0. 0. 0. 0. 0. 0. 0. 0. 0. 0. 0. 0. 0. 0. 0.
    0. 0. 0. 0. 0. 0. 0. 0. 0. 0. 0. 0. 0. 0. 0. 0. 0. 0. 0. 0. 0. 0. 0.
    0. 0. 0. 0. 0. 0. 0. 0. 0. 0. 0. 0. 0. 0. 0. 0. 0. 0. 0. 0. 0. 0. 0.
    0. 0. 0. 0. 0. 0. 0. 0. 0. 0. 0. 0. 0. 0. 0. 0. 0. 0. 0. 0. 0. 0. 0.
    0. 0. 0. 0. 0. 0. 0. 0. 0. 0. 0. 0. 0. 0. 0. 0. 0. 0. 0. 0. 0. 0. 0.
    0. 0. 0. 0. 0. 0. 0. 0. 0. 0. 0. 0. 0. 0. 0. 0. 0. 0. 0. 0. 0. 0. 0.
    0. 0. 0. 0. 0. 0. 0. 0. 0. 0. 0. 0. 0. 0. 0. 0. 0. 0. 0. 0. 0. 0. 0.
    0. 0. 0. 0. 0. 0. 0. 0. 0. 0. 0. 0. 0. 0. 0. 0. 0. 0. 0. 0. 0. 0. 0.
    0. 0. 0. 0. 0. 0. 0. 0. 0. 0. 0. 0. 0. 0. 0. 0. 0. 0. 0. 0. 0. 0. 0.
    0. 0. 0. 0. 0. 0. 0. 0. 0. 0. 0. 0. 0. 0. 0. 0. 0. 0. 0. 0. 0. 0. 0.
    0. 0. 0. 0. 0. 0. 0. 0. 0. 0. 0. 0. 0. 0. 0. 0. 0. 0. 0. 0. 0. 0. 0.
    0. 0. 0. 0. 0. 0. 0. 0. 0. 0. 0. 0. 0. 0. 0. 0. 0. 0. 0. 0. 0. 0. 0.
    0. 0. 0. 0. 0. 0. 0. 0. 0. 0. 0. 0. 0. 0. 0. 0. 0. 0. 0. 0. 0. 0. 0.
    0. 0. 0. 0. 0. 0. 0. 0. 0. 0. 0. 0. 0. 0. 0. 0. 0. 0. 0. 0. 0. 0. 0.
    0. 0. 0. 0. 0. 0. 0. 0. 0. 0. 0. 0. 0. 0. 0. 0. 0. 0. 0. 0. 0. 0. 0.
    0. 0. 0. 0. 0. 0. 0. 0. 0. 0. 0. 0. 0. 0. 0. 0. 0. 0. 0. 0. 0. 0. 0.
    0. 0. 0. 0. 0. 0. 0. 0. 0. 0. 0. 0. 0. 0. 0. 0. 0. 0. 0. 0. 0. 0. 0.
    0. 0. 0. 0. 0. 0. 0. 0. 0. 0. 0. 0. 0. 0. 0. 0. 0. 0. 0. 0. 0. 0. 0.
    0. 0. 0. 0. 0. 0. 0. 0. 0. 0. 0. 0. 0. 0. 0. 0. 0. 0. 0. 0. 0. 0. 0.
    0. 0. 0. 0. 0. 0. 0. 0. 0. 0. 0. 0. 0. 0. 0. 0. 0. 0. 0. 0. 0. 0. 0.
    0. 0. 0. 0. 0. 0. 0. 0. 0. 0. 0. 0. 0. 0. 0. 0. 0. 0. 0. 0. 0. 0. 0.
    0. 0. 0. 0. 0. 0. 0. 0. 0. 0. 0. 0. 0. 0. 0. 0. 0. 0. 0. 0. 0. 0. 0.
    0. 0. 0. 0. 0. 0. 0. 0. 0. 0. 0. 0. 0. 0. 0. 0. 0. 0. 0. 0. 0. 0. 0.
    0. 0. 0.</missing_subst>
  <ntrees>100</ntrees>
  <trees>
    <_>
      <nodes>
        <_>
          <depth>0</depth>
          <value>-1.6054666666666686e+00</value>
          <splits>
            <_><var>101</var>
              <quality>2.9444711208343506e+00</quality>
              <le>5.8823535218834877e-03</le></_></splits></_>
        <_>
          <depth>1</depth>
          <value>-1.7802451750347554e+00</value>
          <splits>
            <_><var>70</var>
              <quality>3.1261289119720459e+00</quality>
              <le>1.9607844296842813e-03</le></_></splits></_>
        <_>
          <depth>2</depth>
          <value>-1.8434242218095580e+00</value></_>
        <_>
          <depth>2</depth>
          <value>1.6559999999999895e+00</value></_>
        <_>
          <depth>1</depth>
          <value>4.9403600086752003e-01</value>
          <splits>
            <_><var>243</var>
              <quality>1.8049575388431549e-01</quality>
              <le>5.8823535218834877e-03</le></_></splits></_>
        <_>
          <depth>2</depth>
          <value>1.3787563225231128e+00</value></_>
        <_>
          <depth>2</depth>
          <value>-1.8847999999999911e+00</value></_></nodes></_>
    <_>
      <nodes>
        <_>
          <depth>0</depth>
          <value>-7.1559720095990309e-01</value>
          <splits>
            <_><var>514</var>
              <quality>7.4160480499267578e-01</quality>
              <le>5.2352941036224365e-01</le></_></splits></_>
        <_>
          <depth>1</depth>
          <value>-1.0259716477846759e+00</value>
          <splits>
            <_><var>77</var>
              <quality>7.8692698478698730e-01</quality>
              <le>2.5490198284387589e-02</le></_></splits></_>
        <_>
          <depth>2</depth>
          <value>-1.0382086166026250e+00</value></_>
        <_>
          <depth>2</depth>
          <value>4.4087141778041854e+00</value></_>
        <_>
          <depth>1</depth>
          <value>7.2121493215619295e-02</value>
          <splits>
            <_><var>270</var>
              <quality>3.3162543177604675e-01</quality>
              <le>1.9607844296842813e-03</le></_></splits></_>
        <_>
          <depth>2</depth>
          <value>1.2628414946974216e+00</value></_>
        <_>
          <depth>2</depth>
          <value>-9.2874222183909028e-01</value></_></nodes></_>
    <_>
      <nodes>
        <_>
          <depth>0</depth>
          <value>-5.6900695891646813e-01</value>
          <splits>
            <_><var>656</var>
              <quality>5.2178746461868286e-01</quality>
              <le>1.9607844296842813e-03</le></_></splits></_>
        <_>
          <depth>1</depth>
          <value>-1.3857872554562181e-01</value>
          <splits>
            <_><var>601</var>
              <quality>2.8559491038322449e-01</quality>
              <le>4.0196081995964050e-01</le></_></splits></_>
        <_>
          <depth>2</depth>
          <value>-8.1734903302323791e-01</value></_>
        <_>
          <depth>2</depth>
          <value>6.4439272203319031e-01</value></_>
        <_>
          <depth>1</depth>
          <value>-1.0484637569007635e+00</value>
          <splits>
            <_><var>131</var>
              <quality>5.1943367719650269e-01</quality>
              <le>2.5490198284387589e-02</le></_></splits></_>
        <_>
          <depth>2</depth>
          <value>-1.1010909623239589e+00</value></_>
        <_>
          <depth>2</depth>
          <value>-7.3805110251644901e-01</value></_></nodes></_>
    <_>
      <nodes>
        <_>
          <depth>0</depth>
          <value>-2.9705837532609131e-01</value>
          <splits>
            <_><var>241</var>
              <quality>3.7302497029304504e-01</quality>
              <le>1.3725491240620613e-02</le></_></splits></_>
        <_>
          <depth>1</depth>
          <value>2.6584454003772273e-01</value>
          <splits>
            <_><var>216</var>
              <quality>3.4350448846817017e-01</quality>
              <le>1.9607844296842813e-03</le></_></splits></_>
        <_>
          <depth>2</depth>
          <value>7.4463646450904608e-01</value></_>
        <_>
          <depth>2</depth>
          <value>-1.1022570633989903e+00</value></_>
        <_>
          <depth>1</depth>
          <value>-8.0299508793523655e-01</value>
          <splits>
            <_><var>104</var>
              <quality>6.9601660966873169e-01</quality>
              <le>7.6470591127872467e-02</le></_></splits></_>
        <_>
          <depth>2</depth>
          <value>-1.0217383486827087e+00</value></_>
        <_>
          <depth>2</depth>
          <value>2.2912122695589221e+00</value></_></nodes></_>
    <_>
      <nodes>
        <_>
          <depth>0</depth>
          <value>-3.1881391468682707e-01</value>
          <splits>
            <_><var>414</var>
              <quality>4.0376320481300354e-01</quality>
              <le>1.7647059634327888e-02</le></_></splits></_>
        <_>
          <depth>1</depth>
          <value>-5.9943669935729205e-01</value>
          <splits>
            <_><var>402</var>
              <quality>5.3074955940246582e-01</quality>
              <le>1.3137255609035492e-01</le></_></splits></_>
        <_>
          <depth>2</depth>
          <value>-1.1093114306000413e+00</value></_>
        <_>
          <depth>2</depth>
          <value>1.5883566665879957e-02</value></_>
        <_>
          <depth>1</depth>
          <value>7.6957562793744150e-01</value>
          <splits>
            <_><var>217</var>
              <quality>2.8404885530471802e-01</quality>
              <le>1.9607844296842813e-03</le></_></splits></_>
        <_>
          <depth>2</depth>
          <value>1.2090098865726520e+00</value></_>
        <_>
          <depth>2</depth>
          <value>-1.0619291188462541e+00</value></_></nodes></_>
    <_>
      <nodes>
        <_>
          <depth>0</depth>
          <value>-1.6282101315159933e-01</value>
          <splits>
            <_><var>544</var>
              <quality>3.4592863917350769e-01</quality>
              <le>4.6078434586524963e-01</le></_></splits></_>
        <_>
          <depth>1</depth>
          <value>-7.2432555371167073e-01</value>
          <splits>
            <_><var>571</var>
              <quality>3.4241726994514465e-01</quality>
              <le>4.5686277747154236e-01</le></_></splits></_>
        <_>
          <depth>2</depth>
          <value>-1.0110924572862943e+00</value></_>
        <_>
          <depth>2</depth>
          <value>-1.3285216143336737e-01</value></_>
        <_>
          <depth>1</depth>
          <value>4.3308452768283812e-01</value>
          <splits>
            <_><var>596</var>
              <quality>3.0760496854782104e-01</quality>
              <le>9.8039228469133377e-03</le></_></splits></_>
        <_>
          <depth>2</depth>
          <value>9.2817185999125418e-01</value></_>
        <_>
          <depth>2</depth>
          <value>-5.2498356974936466e-01</value></_></nodes></_>
    <_>
      <nodes>
        <_>
          <depth>0</depth>
          <value>-1.2858613598853991e-01</value>
          <splits>
            <_><var>549</var>
              <quality>2.3497617244720459e-01</quality>
              <le>5.8823535218834877e-03</le></_></splits></_>
        <_>
          <depth>1</depth>
          <value>-8.2847268477466252e-01</value>
          <splits>
            <_><var>578</var>
              <quality>2.3762273788452148e-01</quality>
              <le>5.1960790157318115e-01</le></_></splits></_>
        <_>
          <depth>2</depth>
          <value>-9.6457552011754988e-01</value></_>
        <_>
          <depth>2</depth>
          <value>-1.3341570607545450e-01</value></_>
        <_>
          <depth>1</depth>
          <value>2.0118238602688843e-01</value>
          <splits>
            <_><var>268</var>
              <quality>1.9085612893104553e-01</quality>
              <le>7.6470591127872467e-02</le></_></splits></_>
        <_>
          <depth>2</depth>
          <value>6.0844221903028495e-01</value></_>
        <_>
          <depth>2</depth>
          <value>-4.2514083164696964e-01</value></_></nodes></_>
    <_>
      <nodes>
        <_>
          <depth>0</depth>
          <value>-1.0114826176022058e-01</value>
          <splits>
            <_><var>458</var>
              <quality>1.6673099994659424e-01</quality>
              <le>6.0784317553043365e-02</le></_></splits></_>
        <_>
          <depth>1</depth>
          <value>-6.0396381221374118e-01</value>
          <splits>
            <_><var>455</var>
              <quality>3.0172711610794067e-01</quality>
              <le>4.9019612371921539e-02</le></_></splits></_>
        <_>
          <depth>2</depth>
          <value>-1.1114070240027207e+00</value></_>
        <_>
          <depth>2</depth>
          <value>2.6048665880653810e-01</value></_>
        <_>
          <depth>1</depth>
          <value>2.2752319373437824e-01</value>
          <splits>
            <_><var>245</var>
              <quality>1.9004453718662262e-01</quality>
              <le>9.6078440546989441e-02</le></_></splits></_>
        <_>
          <depth>2</depth>
          <value>4.5876277407839000e-01</value></_>
        <_>
          <depth>2</depth>
          <value>-9.7908823689813307e-01</value></_></nodes></_>
    <_>
      <nodes>
        <_>
          <depth>0</depth>
          <value>-1.0175808234784810e-01</value>
          <splits>
            <_><var>181</var>
              <quality>1.7056089639663696e-01</quality>
              <le>2.5490198284387589e-02</le></_></splits></_>
        <_>
          <depth>1</depth>
          <value>3.8369957336419525e-01</value>
          <splits>
            <_><var>236</var>
              <quality>2.1934862434864044e-01</quality>
              <le>5.9803926944732666e-01</le></_></splits></_>
        <_>
          <depth>2</depth>
          <value>6.3813628410977252e-01</value></_>
        <_>
          <depth>2</depth>
          <value>-1.2090751945979228e+00</value></_>
        <_>
          <depth>1</depth>
          <value>-4.5019389021339773e-01</value>
          <splits>
            <_><var>267</var>
              <quality>2.7620643377304077e-01</quality>
              <le>2.4901962280273438e-01</le></_></splits></_>
        <_>
          <depth>2</depth>
          <value>-8.3545618502392380e-02</value></_>
        <_>
          <depth>2</depth>
          <value>-1.2593065342289851e+00</value></_></nodes></_>
    <_>
      <nodes>
        <_>
          <depth>0</depth>
          <value>-6.9191027068511546e-02</value>
          <splits>
            <_><var>243</var>
              <quality>1.4313368499279022e-01</quality>
              <le>3.6666667461395264e-01</le></_></splits></_>
        <_>
          <depth>1</depth>
          <value>1.2221050272643219e-01</value>
          <splits>
            <_><var>246</var>
              <quality>1.3858488202095032e-01</quality>
              <le>9.6078440546989441e-02</le></_></splits></_>
        <_>
          <depth>2</depth>
          <value>2.5618342377911041e-01</value></_>
        <_>
          <depth>2</depth>
          <value>-1.1285269800101470e+00</value></_>
        <_>
          <depth>1</depth>
          <value>-8.3128686042452338e-01</value>
          <splits>
            <_><var>107</var>
              <quality>1.8321578204631805e-01</quality>
              <le>2.8039216995239258e-01</le></_></splits></_>
        <_>
          <depth>2</depth>
          <value>-8.9440075965812194e-01</value></_>
        <_>
          <depth>2</depth>
          <value>3.4408894820373486e+00</value></_></nodes></_>
    <_>
      <nodes>
        <_>
          <depth>0</depth>
          <value>-7.9917761340397672e-02</value>
          <splits>
            <_><var>575</var>
              <quality>1.3603283464908600e-01</quality>
              <le>5.2941180765628815e-02</le></_></splits></_>
        <_>
          <depth>1</depth>
          <value>-7.0223880486054835e-01</value>
          <splits>
            <_><var>631</var>
              <quality>1.7870755493640900e-01</quality>
              <le>4.2549023032188416e-01</le></_></splits></_>
        <_>
          <depth>2</depth>
          <value>-1.0185267278860264e+00</value></_>
        <_>
          <depth>2</depth>
          <value>1.7058065205973073e-02</value></_>
        <_>
          <depth>1</depth>
          <value>1.3991442242241481e-01</value>
          <splits>
            <_><var>462</var>
              <quality>1.6900919377803802e-01</quality>
              <le>1.3725491240620613e-02</le></_></splits></_>
        <_>
          <depth>2</depth>
          <value>-4.5124998276844741e-01</value></_>
        <_>
          <depth>2</depth>
          <value>5.1404605872081022e-01</value></_></nodes></_>
    <_>
      <nodes>
        <_>
          <depth>0</depth>
          <value>-4.6366352110398475e-02</value>
          <splits>
            <_><var>582</var>
              <quality>1.3093487918376923e-01</quality>
              <le>2.1372550725936890e-01</le></_></splits></_>
        <_>
          <depth>1</depth>
          <value>8.8562369765371213e-02</value>
          <splits>
            <_><var>543</var>
              <quality>1.2896344065666199e-01</quality>
              <le>1.9607844296842813e-03</le></_></splits></_>
        <_>
          <depth>2</depth>
          <value>-5.4320251419097909e-01</value></_>
        <_>
          <depth>2</depth>
          <value>3.1985536815045146e-01</value></_>
        <_>
          <depth>1</depth>
          <value>-1.0519022188417178e+00</value>
          <splits>
            <_><var>399</var>
              <quality>1.5427747368812561e-01</quality>
              <le>3.1372550874948502e-02</le></_></splits></_>
        <_>
          <depth>2</depth>
          <value>-1.4560319020578805e+00</value></_>
        <_>
          <depth>2</depth>
          <value>-3.9336634885903721e-01</value></_></nodes></_>
    <_>
      <nodes>
        <_>
          <depth>0</depth>
          <value>-4.8792980461872935e-02</value>
          <splits>
            <_><var>324</var>
              <quality>1.0635280609130859e-01</quality>
              <le>2.5490198284387589e-02</le></_></splits></_>
        <_>
          <depth>1</depth>
          <value>2.6290147105213996e-01</value>
          <splits>
            <_><var>299</var>
              <quality>2.7246394753456116e-01</quality>
              <le>1.9607844296842813e-03</le></_></splits></_>
        <_>
          <depth>2</depth>
          <value>6.7770537123131069e-01</value></_>
        <_>
          <depth>2</depth>
          <value>-8.7496585016637285e-01</value></_>
        <_>
          <depth>1</depth>
          <value>-4.0032247429658524e-01</value>
          <splits>
            <_><var>357</var>
              <quality>2.6686775684356689e-01</quality>
              <le>1.0000000894069672e-01</le></_></splits></_>
        <_>
          <depth>2</depth>
          <value>-7.8215143636368234e-01</value></_>
        <_>
          <depth>2</depth>
          <value>7.4540296269172235e-01</value></_></nodes></_>
    <_>
      <nodes>
        <_>
          <depth>0</depth>
          <value>-2.7898661564031590e-02</value>
          <splits>
            <_><var>457</var>
              <quality>1.0114877671003342e-01</quality>
              <le>4.3333336710929871e-01</le></_></splits></_>
        <_>
          <depth>1</depth>
          <value>-3.3018108053274142e-01</value>
          <splits>
            <_><var>459</var>
              <quality>1.8044088780879974e-01</quality>
              <le>6.9607841968536377e-01</le></_></splits></_>
        <_>
          <depth>2</depth>
          <value>-7.1765081105337691e-01</value></_>
        <_>
          <depth>2</depth>
          <value>3.0244686640456231e-01</value></_>
        <_>
          <depth>1</depth>
          <value>3.2175630943899292e-01</value>
          <splits>
            <_><var>599</var>
              <quality>1.8046016991138458e-01</quality>
              <le>4.5098043978214264e-02</le></_></splits></_>
        <_>
          <depth>2</depth>
          <value>-5.4734376084297676e-01</value></_>
        <_>
          <depth>2</depth>
          <value>6.7402923150224103e-01</value></_></nodes></_>
    <_>
      <nodes>
        <_>
          <depth>0</depth>
          <value>-2.7540581345557532e-02</value>
          <splits>
            <_><var>155</var>
              <quality>1.2641705572605133e-01</quality>
              <le>3.1568628549575806e-01</le></_></splits></_>
        <_>
          <depth>1</depth>
          <value>3.2239262298125104e-01</value>
          <splits>
            <_><var>237</var>
              <quality>2.3752212524414062e-01</quality>
              <le>2.0588237047195435e-01</le></_></splits></_>
        <_>
          <depth>2</depth>
          <value>7.9590993210780081e-01</value></_>
        <_>
          <depth>2</depth>
          <value>-4.7479150811174176e-01</value></_>
        <_>
          <depth>1</depth>
          <value>-4.0564831997343981e-01</value>
          <splits>
            <_><var>237</var>
              <quality>2.0350463688373566e-01</quality>
              <le>2.3725491762161255e-01</le></_></splits></_>
        <_>
          <depth>2</depth>
          <value>-1.0399305572587152e+00</value></_>
        <_>
          <depth>2</depth>
          <value>3.7575147346926484e-02</value></_></nodes></_>
    <_>
      <nodes>
        <_>
          <depth>0</depth>
          <value>-3.2881376595852246e-02</value>
          <splits>
            <_><var>388</var>
              <quality>8.0046914517879486e-02</quality>
              <le>3.5882353782653809e-01</le></_></splits></_>
        <_>
          <depth>1</depth>
          <value>-1.1447301740336108e-01</value>
          <splits>
            <_><var>275</var>
              <quality>1.0411754250526428e-01</quality>
              <le>4.9019612371921539e-02</le></_></splits></_>
        <_>
          <depth>2</depth>
          <value>-9.0604878433689987e-03</value></_>
        <_>
          <depth>2</depth>
          <value>-1.1130769537746945e+00</value></_>
        <_>
          <depth>1</depth>
          <value>9.8657413981029918e-01</value>
          <splits>
            <_><var>329</var>
              <quality>1.6600799560546875e-01</quality>
              <le>5.2941180765628815e-02</le></_></splits></_>
        <_>
          <depth>2</depth>
          <value>-8.0193089700203324e-01</value></_>
        <_>
          <depth>2</depth>
          <value>1.7608515697934650e+00</value></_></nodes></_>
    <_>
      <nodes>
        <_>
          <depth>0</depth>
          <value>-3.2405846413965669e-02</value>
          <splits>
            <_><var>296</var>
              <quality>7.8767605125904083e-02</quality>
              <le>9.6274518966674805e-01</le></_></splits></_>
        <_>
          <depth>1</depth>
          <value>8.1685840614892813e-02</value>
          <splits>
            <_><var>178</var>
              <quality>9.3495994806289673e-02</quality>
              <le>1.9607844296842813e-03</le></_></splits></_>
        <_>
          <depth>2</depth>
          <value>3.1361114839077958e-01</value></_>
        <_>
          <depth>2</depth>
          <value>-3.8136411080728694e-01</value></_>
        <_>
          <depth>1</depth>
          <value>-7.4992386980596282e-01</value>
          <splits>
            <_><var>243</var>
              <quality>1.3749647140502930e-01</quality>
              <le>3.3333335071802139e-02</le></_></splits></_>
        <_>
          <depth>2</depth>
          <value>-1.2061731135152918e+00</value></_>
        <_>
          <depth>2</depth>
          <value>3.2967120501347941e-01</value></_></nodes></_>
    <_>
      <nodes>
        <_>
          <depth>0</depth>
          <value>-2.4765431976196149e-02</value>
          <splits>
            <_><var>565</var>
              <quality>8.0303430557250977e-02</quality>
              <le>9.8039228469133377e-03</le></_></splits></_>
        <_>
          <depth>1</depth>
          <value>6.5050605670359710e-02</value>
          <splits>
            <_><var>687</var>
              <quality>6.8870224058628082e-02</quality>
              <le>1.9607844296842813e-03</le></_></splits></_>
        <_>
          <depth>2</depth>
          <value>1.3403992434545034e-01</value></_>
        <_>
          <depth>2</depth>
          <value>-1.0254489958233608e+00</value></_>
        <_>
          <depth>1</depth>
          <value>-9.5908798987117316e-01</value>
          <splits>
            <_><var>371</var>
              <quality>1.0156572610139847e-01</quality>
              <le>6.9607841968536377e-01</le></_></splits></_>
        <_>
          <depth>2</depth>
          <value>-1.1923779194084767e+00</value></_>
        <_>
          <depth>2</depth>
          <value>3.2355438460708219e-01</value></_></nodes></_>
    <_>
      <nodes>
        <_>
          <depth>0</depth>
          <value>-2.8462102419508726e-02</value>
          <splits>
            <_><var>128</var>
              <quality>6.2151227146387100e-02</quality>
              <le>9.5882356166839600e-01</le></_></splits></_>
        <_>
          <depth>1</depth>
          <value>7.3514880451764478e-02</value>
          <splits>
            <_><var>576</var>
              <quality>7.5747653841972351e-02</quality>
              <le>2.6470589637756348e-01</le></_></splits></_>
        <_>
          <depth>2</depth>
          <value>-3.2798928542950817e-01</value></_>
        <_>
          <depth>2</depth>
          <value>2.9060789612161081e-01</value></_>
        <_>
          <depth>1</depth>
          <value>-6.6206347412108657e-01</value>
          <splits>
            <_><var>350</var>
              <quality>1.3205757737159729e-01</quality>
              <le>2.6274511218070984e-01</le></_></splits></_>
        <_>
          <depth>2</depth>
          <value>7.9030267908620569e-02</value></_>
        <_>
          <depth>2</depth>
          <value>-1.4235991504175372e+00</value></_></nodes></_>
    <_>
      <nodes>
        <_>
          <depth>0</depth>
          <value>-8.7730008804148309e-03</value>
          <splits>
            <_><var>516</var>
              <quality>7.0355772972106934e-02</quality>
              <le>3.9411768317222595e-01</le></_></splits></_>
        <_>
          <depth>1</depth>
          <value>-2.8046953188818474e-01</value>
          <splits>
            <_><var>541</var>
              <quality>1.1267918348312378e-01</quality>
              <le>1.9607844296842813e-03</le></_></splits></_>
        <_>
          <depth>2</depth>
          <value>-9.1991087901818325e-01</value></_>
        <_>
          <depth>2</depth>
          <value>-3.2916673976848318e-02</value></_>
        <_>
          <depth>1</depth>
          <value>2.6352307802801184e-01</value>
          <splits>
            <_><var>514</var>
              <quality>1.6590367257595062e-01</quality>
              <le>5.2352941036224365e-01</le></_></splits></_>
        <_>
          <depth>2</depth>
          <value>9.6311984024614194e-01</value></_>
        <_>
          <depth>2</depth>
          <value>-1.3701137509522951e-01</value></_></nodes></_>
    <_>
      <nodes>
        <_>
          <depth>0</depth>
          <value>-2.4022873479636553e-02</value>
          <splits>
            <_><var>408</var>
              <quality>7.1405179798603058e-02</quality>
              <le>1.9607844296842813e-03</le></_></splits></_>
        <_>
          <depth>1</depth>
          <value>-3.7372730292526291e-01</value>
          <splits>
            <_><var>459</var>
              <quality>1.3158431649208069e-01</quality>
              <le>3.3333335071802139e-02</le></_></splits></_>
        <_>
          <depth>2</depth>
          <value>-9.2484112408467911e-01</value></_>
        <_>
          <depth>2</depth>
          <value>3.6245265072562434e-02</value></_>
        <_>
          <depth>1</depth>
          <value>1.8926119670907596e-01</value>
          <splits>
            <_><var>297</var>
              <quality>1.0995303094387054e-01</quality>
              <le>4.8823532462120056e-01</le></_></splits></_>
        <_>
          <depth>2</depth>
          <value>4.0239769267938041e-01</value></_>
        <_>
          <depth>2</depth>
          <value>-5.1690686482951975e-01</value></_></nodes></_>
    <_>
      <nodes>
        <_>
          <depth>0</depth>
          <value>-2.3936338230884414e-02</value>
          <splits>
            <_><var>428</var>
              <quality>7.7248327434062958e-02</quality>
              <le>2.1568629890680313e-02</le></_></splits></_>
        <_>
          <depth>1</depth>
          <value>-3.1614439951437201e-01</value>
          <splits>
            <_><var>406</var>
              <quality>1.3027246296405792e-01</quality>
              <le>9.0392160415649414e-01</le></_></splits></_>
        <_>
          <depth>2</depth>
          <value>-1.5113628745854183e-02</value></_>
        <_>
          <depth>2</depth>
          <value>-9.2139840083385960e-01</value></_>
        <_>
          <depth>1</depth>
          <value>2.5238034456792224e-01</value>
          <splits>
            <_><var>551</var>
              <quality>1.1116505414247513e-01</quality>
              <le>5.8823535218834877e-03</le></_></splits></_>
        <_>
          <depth>2</depth>
          <value>-2.9941484589838202e-01</value></_>
        <_>
          <depth>2</depth>
          <value>5.4954597981500219e-01</value></_></nodes></_>
    <_>
      <nodes>
        <_>
          <depth>0</depth>
          <value>-9.9779409052958810e-03</value>
          <splits>
            <_><var>70</var>
              <quality>6.3706159591674805e-02</quality>
              <le>5.2941180765628815e-02</le></_></splits></_>
        <_>
          <depth>1</depth>
          <value>4.1850044166285592e-02</value>
          <splits>
            <_><var>207</var>
              <quality>7.6537199318408966e-02</quality>
              <le>3.7254903465509415e-02</le></_></splits></_>
        <_>
          <depth>2</depth>
          <value>3.1068353779680030e-01</value></_>
        <_>
          <depth>2</depth>
          <value>-2.6334370651947192e-01</value></_>
        <_>
          <depth>1</depth>
          <value>-1.3019403667672169e+00</value>
          <splits>
            <_><var>571</var>
              <quality>9.3625262379646301e-02</quality>
              <le>2.0588237047195435e-01</le></_></splits></_>
        <_>
          <depth>2</depth>
          <value>3.5450525059785354e-01</value></_>
        <_>
          <depth>2</depth>
          <value>-1.8212631442141802e+00</value></_></nodes></_>
    <_>
      <nodes>
        <_>
          <depth>0</depth>
          <value>-6.8028637116984156e-03</value>
          <splits>
            <_><var>238</var>
              <quality>5.8137148618698120e-02</quality>
              <le>5.6862749159336090e-02</le></_></splits></_>
        <_>
          <depth>1</depth>
          <value>2.5819899031287508e-01</value>
          <splits>
            <_><var>157</var>
              <quality>1.3371798396110535e-01</quality>
              <le>3.3921569585800171e-01</le></_></splits></_>
        <_>
          <depth>2</depth>
          <value>5.3966693602555782e-01</value></_>
        <_>
          <depth>2</depth>
          <value>-5.7931814777655932e-01</value></_>
        <_>
          <depth>1</depth>
          <value>-2.3755885577747812e-01</value>
          <splits>
            <_><var>348</var>
              <quality>1.4895200729370117e-01</quality>
              <le>5.3137254714965820e-01</le></_></splits></_>
        <_>
          <depth>2</depth>
          <value>-7.9640638348242221e-01</value></_>
        <_>
          <depth>2</depth>
          <value>1.8632635232603856e-01</value></_></nodes></_>
    <_>
      <nodes>
        <_>
          <depth>0</depth>
          <value>-2.9596095350474225e-02</value>
          <splits>
            <_><var>435</var>
              <quality>4.9775335937738419e-02</quality>
              <le>1.9607844296842813e-03</le></_></splits></_>
        <_>
          <depth>1</depth>
          <value>-3.1492851311583264e-01</value>
          <splits>
            <_><var>460</var>
              <quality>9.8353214561939240e-02</quality>
              <le>5.6862749159336090e-02</le></_></splits></_>
        <_>
          <depth>2</depth>
          <value>-7.0657459112648824e-01</value></_>
        <_>
          <depth>2</depth>
          <value>1.1391743162860304e-01</value></_>
        <_>
          <depth>1</depth>
          <value>1.5096304475743633e-01</value>
          <splits>
            <_><var>541</var>
              <quality>9.9762357771396637e-02</quality>
              <le>2.9607844352722168e-01</le></_></splits></_>
        <_>
          <depth>2</depth>
          <value>-2.5993092629972669e-01</value></_>
        <_>
          <depth>2</depth>
          <value>5.1279942924803790e-01</value></_></nodes></_>
    <_>
      <nodes>
        <_>
          <depth>0</depth>
          <value>-1.3436582858252315e-02</value>
          <splits>
            <_><var>603</var>
              <quality>4.8652440309524536e-02</quality>
              <le>4.9019612371921539e-02</le></_></splits></_>
        <_>
          <depth>1</depth>
          <value>-3.6417703741566437e-01</value>
          <splits>
            <_><var>547</var>
              <quality>8.6381986737251282e-02</quality>
              <le>4.0980395674705505e-01</le></_></splits></_>
        <_>
          <depth>2</depth>
          <value>-8.5547987617228560e-01</value></_>
        <_>
          <depth>2</depth>
          <value>-2.9004225813864218e-03</value></_>
        <_>
          <depth>1</depth>
          <value>1.3206466379269030e-01</value>
          <splits>
            <_><var>212</var>
              <quality>7.8218959271907806e-02</quality>
              <le>6.0784317553043365e-02</le></_></splits></_>
        <_>
          <depth>2</depth>
          <value>4.5195278351935481e-01</value></_>
        <_>
          <depth>2</depth>
          <value>-1.7758190679955008e-01</value></_></nodes></_>
    <_>
      <nodes>
        <_>
          <depth>0</depth>
          <value>-1.2466186212974739e-02</value>
          <splits>
            <_><var>556</var>
              <quality>4.6888109296560287e-02</quality>
              <le>5.1568627357482910e-01</le></_></splits></_>
        <_>
          <depth>1</depth>
          <value>2.2607208027242122e-02</value>
          <splits>
            <_><var>243</var>
              <quality>4.7057826071977615e-02</quality>
              <le>9.0392160415649414e-01</le></_></splits></_>
        <_>
          <depth>2</depth>
          <value>8.9973929087353174e-02</value></_>
        <_>
          <depth>2</depth>
          <value>-7.2349393118678929e-01</value></_>
        <_>
          <depth>1</depth>
          <value>-1.4152651754107299e+00</value>
          <splits>
            <_><var>35</var>
              <quality>5.4244253784418106e-02</quality>
              <le>2.5490198284387589e-02</le></_></splits></_>
        <_>
          <depth>2</depth>
          <value>-1.3759058286071306e+00</value></_>
        <_>
          <depth>2</depth>
          <value>-10.</value></_></nodes></_>
    <_>
      <nodes>
        <_>
          <depth>0</depth>
          <value>-1.3916479077366234e-02</value>
          <splits>
            <_><var>440</var>
              <quality>4.3468926101922989e-02</quality>
              <le>7.8235304355621338e-01</le></_></splits></_>
        <_>
          <depth>1</depth>
          <value>-1.3991236178101732e-01</value>
          <splits>
            <_><var>415</var>
              <quality>9.5474340021610260e-02</quality>
              <le>2.6862746477127075e-01</le></_></splits></_>
        <_>
          <depth>2</depth>
          <value>-2.6770424928235537e-01</value></_>
        <_>
          <depth>2</depth>
          <value>7.6734409774495238e-01</value></_>
        <_>
          <depth>1</depth>
          <value>3.4770904703763145e-01</value>
          <splits>
            <_><var>286</var>
              <quality>1.0493294894695282e-01</quality>
              <le>2.5490198284387589e-02</le></_></splits></_>
        <_>
          <depth>2</depth>
          <value>5.6801096015414543e-01</value></_>
        <_>
          <depth>2</depth>
          <value>-1.0439242410438054e+00</value></_></nodes></_>
    <_>
      <nodes>
        <_>
          <depth>0</depth>
          <value>-1.7468726060425821e-02</value>
          <splits>
            <_><var>178</var>
              <quality>5.5325139313936234e-02</quality>
              <le>2.5294119119644165e-01</le></_></splits></_>
        <_>
          <depth>1</depth>
          <value>1.1082338194098068e-01</value>
          <splits>
            <_><var>327</var>
              <quality>1.3253916800022125e-01</quality>
              <le>2.0196080207824707e-01</le></_></splits></_>
        <_>
          <depth>2</depth>
          <value>3.7487111097760789e-01</value></_>
        <_>
          <depth>2</depth>
          <value>-5.2114959907917224e-01</value></_>
        <_>
          <depth>1</depth>
          <value>-4.6903296751363405e-01</value>
          <splits>
            <_><var>209</var>
              <quality>1.4337125420570374e-01</quality>
              <le>9.2156872153282166e-02</le></_></splits></_>
        <_>
          <depth>2</depth>
          <value>1.6292874620775147e-01</value></_>
        <_>
          <depth>2</depth>
          <value>-1.2002934690589755e+00</value></_></nodes></_>
    <_>
      <nodes>
        <_>
          <depth>0</depth>
          <value>-1.5322488408605929e-02</value>
          <splits>
            <_><var>508</var>
              <quality>5.4299402981996536e-02</quality>
              <le>2.9411766678094864e-02</le></_></splits></_>
        <_>
          <depth>1</depth>
          <value>2.6305887835144232e-02</value>
          <splits>
            <_><var>543</var>
              <quality>5.6374721229076385e-02</quality>
              <le>7.6274514198303223e-01</le></_></splits></_>
        <_>
          <depth>2</depth>
          <value>-2.0443548471592735e-01</value></_>
        <_>
          <depth>2</depth>
          <value>2.8831965301100870e-01</value></_>
        <_>
          <depth>1</depth>
          <value>-1.3827426220899344e+00</value>
          <splits>
            <_><var>71</var>
              <quality>7.4880696833133698e-02</quality>
              <le>9.9803924560546875e-01</le></_></splits></_>
        <_>
          <depth>2</depth>
          <value>-1.5088072134176198e+00</value></_>
        <_>
          <depth>2</depth>
          <value>4.6145819332352938e+00</value></_></nodes></_>
    <_>
      <nodes>
        <_>
          <depth>0</depth>
          <value>-1.3854340008175293e-02</value>
          <splits>
            <_><var>467</var>
              <quality>4.2025476694107056e-02</quality>
              <le>6.8627454340457916e-02</le></_></splits></_>
        <_>
          <depth>1</depth>
          <value>-2.5160012728379694e-01</value>
          <splits>
            <_><var>445</var>
              <quality>7.5666137039661407e-02</quality>
              <le>2.8823530673980713e-01</le></_></splits></_>
        <_>
          <depth>2</depth>
          <value>-3.1517412808424466e-01</value></_>
        <_>
          <depth>2</depth>
          <value>1.6133034598856024e+00</value></_>
        <_>
          <depth>1</depth>
          <value>1.7141101739936473e-01</value>
          <splits>
            <_><var>461</var>
              <quality>7.4280820786952972e-02</quality>
              <le>5.8823535218834877e-03</le></_></splits></_>
        <_>
          <depth>2</depth>
          <value>-2.1461945286232051e-01</value></_>
        <_>
          <depth>2</depth>
          <value>4.5569202115070745e-01</value></_></nodes></_>
    <_>
      <nodes>
        <_>
          <depth>0</depth>
          <value>-3.5943091875464310e-03</value>
          <splits>
            <_><var>629</var>
              <quality>4.5457284897565842e-02</quality>
              <le>3.5882353782653809e-01</le></_></splits></_>
        <_>
          <depth>1</depth>
          <value>-2.2917213334591888e-01</value>
          <splits>
            <_><var>294</var>
              <quality>8.5690893232822418e-02</quality>
              <le>1.1568628251552582e-01</le></_></splits></_>
        <_>
          <depth>2</depth>
          <value>9.0074326518191014e-02</value></_>
        <_>
          <depth>2</depth>
          <value>-6.4775423425335676e-01</value></_>
        <_>
          <depth>1</depth>
          <value>2.0847073509194020e-01</value>
          <splits>
            <_><var>179</var>
              <quality>8.8941223919391632e-02</quality>
              <le>1.7647059634327888e-02</le></_></splits></_>
        <_>
          <depth>2</depth>
          <value>5.1857312254416710e-01</value></_>
        <_>
          <depth>2</depth>
          <value>-2.3711626315478021e-01</value></_></nodes></_>
    <_>
      <nodes>
        <_>
          <depth>0</depth>
          <value>-1.2216919424028598e-02</value>
          <splits>
            <_><var>64</var>
              <quality>4.2197581380605698e-02</quality>
              <le>4.1176474094390869e-01</le></_></splits></_>
        <_>
          <depth>1</depth>
          <value>-2.4832466435654375e-02</value>
          <splits>
            <_><var>402</var>
              <quality>4.0041148662567139e-02</quality>
              <le>9.9411773681640625e-01</le></_></splits></_>
        <_>
          <depth>2</depth>
          <value>-1.1117341347052309e-01</value></_>
        <_>
          <depth>2</depth>
          <value>4.5795067505306669e-01</value></_>
        <_>
          <depth>1</depth>
          <value>3.4969275562040392e+00</value>
          <splits>
            <_><var>285</var>
              <quality>7.3372907936573029e-02</quality>
              <le>6.2745101749897003e-02</le></_></splits></_>
        <_>
          <depth>2</depth>
          <value>1.2796492779093325e+00</value></_>
        <_>
          <depth>2</depth>
          <value>7.7059610272523926e+00</value></_></nodes></_>
    <_>
      <nodes>
        <_>
          <depth>0</depth>
          <value>-6.1125309559705021e-03</value>
          <splits>
            <_><var>436</var>
              <quality>4.3923340737819672e-02</quality>
              <le>9.9019610881805420e-01</le></_></splits></_>
        <_>
          <depth>1</depth>
          <value>1.0223290492480566e-01</value>
          <splits>
            <_><var>522</var>
              <quality>5.5784296244382858e-02</quality>
              <le>9.6274518966674805e-01</le></_></splits></_>
        <_>
          <depth>2</depth>
          <value>2.6342302984657873e-01</value></_>
        <_>
          <depth>2</depth>
          <value>-2.8978917717002184e-01</value></_>
        <_>
          <depth>1</depth>
          <value>-4.3251025034619106e-01</value>
          <splits>
            <_><var>321</var>
              <quality>7.6995059847831726e-02</quality>
              <le>9.3529415130615234e-01</le></_></splits></_>
        <_>
          <depth>2</depth>
          <value>-7.0017083259127022e-01</value></_>
        <_>
          <depth>2</depth>
          <value>3.6309485852958850e-01</value></_></nodes></_>
    <_>
      <nodes>
        <_>
          <depth>0</depth>
          <value>-6.8381341949597160e-03</value>
          <splits>
            <_><var>433</var>
              <quality>3.5493012517690659e-02</quality>
              <le>9.4705891609191895e-01</le></_></splits></_>
        <_>
          <depth>1</depth>
          <value>1.1152266618883759e-01</value>
          <splits>
            <_><var>491</var>
              <quality>4.8331085592508316e-02</quality>
              <le>1.7058824002742767e-01</le></_></splits></_>
        <_>
          <depth>2</depth>
          <value>-1.3549691334390032e-01</value></_>
        <_>
          <depth>2</depth>
          <value>3.4445549495006955e-01</value></_>
        <_>
          <depth>1</depth>
          <value>-3.2210336325342115e-01</value>
          <splits>
            <_><var>484</var>
              <quality>8.9558154344558716e-02</quality>
              <le>6.5686273574829102e-01</le></_></splits></_>
        <_>
          <depth>2</depth>
          <value>-6.3545181240575044e-01</value></_>
        <_>
          <depth>2</depth>
          <value>4.4901819692901546e-01</value></_></nodes></_>
    <_>
      <nodes>
        <_>
          <depth>0</depth>
          <value>-9.4592084868163808e-03</value>
          <splits>
            <_><var>277</var>
              <quality>3.2785814255475998e-02</quality>
              <le>2.9215687513351440e-01</le></_></splits></_>
        <_>
          <depth>1</depth>
          <value>1.2783717211902787e-02</value>
          <splits>
            <_><var>595</var>
              <quality>3.1803302466869354e-02</quality>
              <le>7.7058827877044678e-01</le></_></splits></_>
        <_>
          <depth>2</depth>
          <value>6.6337740236469683e-02</value></_>
        <_>
          <depth>2</depth>
          <value>-6.1826790240344964e-01</value></_>
        <_>
          <depth>1</depth>
          <value>-1.5570240092309262e+00</value>
          <splits>
            <_><var>344</var>
              <quality>3.8781512528657913e-02</quality>
              <le>9.2549026012420654e-01</le></_></splits></_>
        <_>
          <depth>2</depth>
          <value>-1.1670331498145061e+00</value></_>
        <_>
          <depth>2</depth>
          <value>-2.7283265495431102e+00</value></_></nodes></_>
    <_>
      <nodes>
        <_>
          <depth>0</depth>
          <value>-6.7289204021890106e-03</value>
          <splits>
            <_><var>134</var>
              <quality>3.8949444890022278e-02</quality>
              <le>4.3529415130615234e-01</le></_></splits></_>
        <_>
          <depth>1</depth>
          <value>-6.7077435738508842e-02</value>
          <splits>
            <_><var>242</var>
              <quality>5.6289870291948318e-02</quality>
              <le>2.9607844352722168e-01</le></_></splits></_>
        <_>
          <depth>2</depth>
          <value>5.9397423481263950e-02</value></_>
        <_>
          <depth>2</depth>
          <value>-5.4165920589277561e-01</value></_>
        <_>
          <depth>1</depth>
          <value>6.7190256348868616e-01</value>
          <splits>
            <_><var>484</var>
              <quality>1.0902785509824753e-01</quality>
              <le>2.1764707565307617e-01</le></_></splits></_>
        <_>
          <depth>2</depth>
          <value>-8.0951811413661690e-01</value></_>
        <_>
          <depth>2</depth>
          <value>1.3158055864070122e+00</value></_></nodes></_>
    <_>
      <nodes>
        <_>
          <depth>0</depth>
          <value>-8.9217131130126786e-03</value>
          <splits>
            <_><var>191</var>
              <quality>3.3592246472835541e-02</quality>
              <le>1.3921569287776947e-01</le></_></splits></_>
        <_>
          <depth>1</depth>
          <value>4.1774689359938749e-02</value>
          <splits>
            <_><var>245</var>
              <quality>3.5268712788820267e-02</quality>
              <le>1.9607844296842813e-03</le></_></splits></_>
        <_>
          <depth>2</depth>
          <value>-2.9443246690612861e-02</value></_>
        <_>
          <depth>2</depth>
          <value>5.7653212849973434e-01</value></_>
        <_>
          <depth>1</depth>
          <value>-7.0484229489664696e-01</value>
          <splits>
            <_><var>267</var>
              <quality>1.0685647279024124e-01</quality>
              <le>7.2941178083419800e-01</le></_></splits></_>
        <_>
          <depth>2</depth>
          <value>-1.4010151829565738e+00</value></_>
        <_>
          <depth>2</depth>
          <value>9.6101173533644291e-01</value></_></nodes></_>
    <_>
      <nodes>
        <_>
          <depth>0</depth>
          <value>-4.7201716614757288e-03</value>
          <splits>
            <_><var>121</var>
              <quality>3.1603321433067322e-02</quality>
              <le>9.9411773681640625e-01</le></_></splits></_>
        <_>
          <depth>1</depth>
          <value>1.8902643831332028e-02</value>
          <splits>
            <_><var>480</var>
              <quality>3.3353976905345917e-02</quality>
              <le>5.8823535218834877e-03</le></_></splits></_>
        <_>
          <depth>2</depth>
          <value>4.9205970916145286e-02</value></_>
        <_>
          <depth>2</depth>
          <value>-1.1473612263719897e+00</value></_>
        <_>
          <depth>1</depth>
          <value>-1.4120272895244206e+00</value>
          <splits>
            <_><var>123</var>
              <quality>4.9470379948616028e-02</quality>
              <le>4.6078434586524963e-01</le></_></splits></_>
        <_>
          <depth>2</depth>
          <value>4.7235310299072414e-01</value></_>
        <_>
          <depth>2</depth>
          <value>-2.0278982479437806e+00</value></_></nodes></_>
    <_>
      <nodes>
        <_>
          <depth>0</depth>
          <value>-1.2767934906925085e-02</value>
          <splits>
            <_><var>159</var>
              <quality>3.0616771429777145e-02</quality>
              <le>1.2352941930294037e-01</le></_></splits></_>
        <_>
          <depth>1</depth>
          <value>-1.3693985073085038e-01</value>
          <splits>
            <_><var>240</var>
              <quality>8.4799811244010925e-02</quality>
              <le>3.7254903465509415e-02</le></_></splits></_>
        <_>
          <depth>2</depth>
          <value>1.0052919344065779e-01</value></_>
        <_>
          <depth>2</depth>
          <value>-6.1462141677945759e-01</value></_>
        <_>
          <depth>1</depth>
          <value>2.4546896380412447e-01</value>
          <splits>
            <_><var>267</var>
              <quality>1.3478675484657288e-01</quality>
              <le>5.5686277151107788e-01</le></_></splits></_>
        <_>
          <depth>2</depth>
          <value>-2.7426685573828535e-01</value></_>
        <_>
          <depth>2</depth>
          <value>9.7025957652947525e-01</value></_></nodes></_>
    <_>
      <nodes>
        <_>
          <depth>0</depth>
          <value>-1.2169827779655917e-02</value>
          <splits>
            <_><var>324</var>
              <quality>3.8870099931955338e-02</quality>
              <le>5.6274509429931641e-01</le></_></splits></_>
        <_>
          <depth>1</depth>
          <value>-1.2414660781888612e-01</value>
          <splits>
            <_><var>273</var>
              <quality>9.2411868274211884e-02</quality>
              <le>1.7647059634327888e-02</le></_></splits></_>
        <_>
          <depth>2</depth>
          <value>3.4357426092391834e-02</value></_>
        <_>
          <depth>2</depth>
          <value>-8.2939027447248703e-01</value></_>
        <_>
          <depth>1</depth>
          <value>3.5191123129597435e-01</value>
          <splits>
            <_><var>245</var>
              <quality>1.3670864701271057e-01</quality>
              <le>9.0196087956428528e-02</le></_></splits></_>
        <_>
          <depth>2</depth>
          <value>8.8355742556161979e-02</value></_>
        <_>
          <depth>2</depth>
          <value>2.2033751736444009e+00</value></_></nodes></_>
    <_>
      <nodes>
        <_>
          <depth>0</depth>
          <value>-5.2980669193239405e-03</value>
          <splits>
            <_><var>622</var>
              <quality>3.8649946451187134e-02</quality>
              <le>3.0196079611778259e-01</le></_></splits></_>
        <_>
          <depth>1</depth>
          <value>2.2148793978794351e-02</value>
          <splits>
            <_><var>572</var>
              <quality>3.6655206233263016e-02</quality>
              <le>1.9607844296842813e-03</le></_></splits></_>
        <_>
          <depth>2</depth>
          <value>-3.9972342545636863e-01</value></_>
        <_>
          <depth>2</depth>
          <value>1.1414092270230447e-01</value></_>
        <_>
          <depth>1</depth>
          <value>-1.4865680203264489e+00</value>
          <splits>
            <_><var>136</var>
              <quality>5.8698244392871857e-02</quality>
              <le>8.3529412746429443e-01</le></_></splits></_>
        <_>
          <depth>2</depth>
          <value>-1.3471990249055847e+00</value></_>
        <_>
          <depth>2</depth>
          <value>-10.</value></_></nodes></_>
    <_>
      <nodes>
        <_>
          <depth>0</depth>
          <value>-7.9262329399489486e-03</value>
          <splits>
            <_><var>372</var>
              <quality>3.4038443118333817e-02</quality>
              <le>4.5098043978214264e-02</le></_></splits></_>
        <_>
          <depth>1</depth>
          <value>-1.6218533915249031e-01</value>
          <splits>
            <_><var>552</var>
              <quality>1.0233455896377563e-01</quality>
              <le>9.9019610881805420e-01</le></_></splits></_>
        <_>
          <depth>2</depth>
          <value>-4.4754563146451716e-02</value></_>
        <_>
          <depth>2</depth>
          <value>-1.4657965573528360e+00</value></_>
        <_>
          <depth>1</depth>
          <value>2.2393989102539383e-01</value>
          <splits>
            <_><var>569</var>
              <quality>1.2451294809579849e-01</quality>
              <le>1.9607844296842813e-03</le></_></splits></_>
        <_>
          <depth>2</depth>
          <value>-4.9347738677812714e-01</value></_>
        <_>
          <depth>2</depth>
          <value>6.1133706397747800e-01</value></_></nodes></_>
    <_>
      <nodes>
        <_>
          <depth>0</depth>
          <value>-8.2749563023469565e-03</value>
          <splits>
            <_><var>487</var>
              <quality>5.3705595433712006e-02</quality>
              <le>3.4313726425170898e-01</le></_></splits></_>
        <_>
          <depth>1</depth>
          <value>-2.7264725374631482e-01</value>
          <splits>
            <_><var>376</var>
              <quality>1.1373651027679443e-01</quality>
              <le>1.7058824002742767e-01</le></_></splits></_>
        <_>
          <depth>2</depth>
          <value>1.7452082451652198e-01</value></_>
        <_>
          <depth>2</depth>
          <value>-7.0556075267082541e-01</value></_>
        <_>
          <depth>1</depth>
          <value>2.0530564266546997e-01</value>
          <splits>
            <_><var>511</var>
              <quality>9.4970978796482086e-02</quality>
              <le>3.4313726425170898e-01</le></_></splits></_>
        <_>
          <depth>2</depth>
          <value>3.9420235244378582e-01</value></_>
        <_>
          <depth>2</depth>
          <value>-5.2835235018020932e-01</value></_></nodes></_>
    <_>
      <nodes>
        <_>
          <depth>0</depth>
          <value>-1.4842842160859298e-02</value>
          <splits>
            <_><var>298</var>
              <quality>3.0022233724594116e-02</quality>
              <le>2.1764707565307617e-01</le></_></splits></_>
        <_>
          <depth>1</depth>
          <value>9.5341538278576263e-02</value>
          <splits>
            <_><var>149</var>
              <quality>7.8486949205398560e-02</quality>
              <le>1.9607844296842813e-03</le></_></splits></_>
        <_>
          <depth>2</depth>
          <value>2.1357005973689497e-01</value></_>
        <_>
          <depth>2</depth>
          <value>-7.9692115557944421e-01</value></_>
        <_>
          <depth>1</depth>
          <value>-2.9966074400341419e-01</value>
          <splits>
            <_><var>437</var>
              <quality>9.7685858607292175e-02</quality>
              <le>2.5490198284387589e-02</le></_></splits></_>
        <_>
          <depth>2</depth>
          <value>2.1593130552100506e-01</value></_>
        <_>
          <depth>2</depth>
          <value>-8.4046824021461786e-01</value></_></nodes></_>
    <_>
      <nodes>
        <_>
          <depth>0</depth>
          <value>-1.5811394333204696e-02</value>
          <splits>
            <_><var>95</var>
              <quality>4.0582530200481415e-02</quality>
              <le>3.7254903465509415e-02</le></_></splits></_>
        <_>
          <depth>1</depth>
          <value>-9.4326875778630290e-02</value>
          <splits>
            <_><var>154</var>
              <quality>5.2112638950347900e-02</quality>
              <le>9.1176474094390869e-01</le></_></splits></_>
        <_>
          <depth>2</depth>
          <value>-2.2148762595510615e-01</value></_>
        <_>
          <depth>2</depth>
          <value>3.2971976303527967e-01</value></_>
        <_>
          <depth>1</depth>
          <value>5.2509601855554633e-01</value>
          <splits>
            <_><var>211</var>
              <quality>1.2015923857688904e-01</quality>
              <le>3.9215688593685627e-03</le></_></splits></_>
        <_>
          <depth>2</depth>
          <value>1.0554877441420685e+00</value></_>
        <_>
          <depth>2</depth>
          <value>-8.3644807876883887e-01</value></_></nodes></_>
    <_>
      <nodes>
        <_>
          <depth>0</depth>
          <value>1.6323678024071629e-03</value>
          <splits>
            <_><var>454</var>
              <quality>3.7510242313146591e-02</quality>
              <le>9.9411773681640625e-01</le></_></splits></_>
        <_>
          <depth>1</depth>
          <value>-3.0640370694913949e-02</value>
          <splits>
            <_><var>263</var>
              <quality>4.2458899319171906e-02</quality>
              <le>1.5882353484630585e-01</le></_></splits></_>
        <_>
          <depth>2</depth>
          <value>1.8634459006785162e-01</value></_>
        <_>
          <depth>2</depth>
          <value>-2.3772530291790053e-01</value></_>
        <_>
          <depth>1</depth>
          <value>1.2250268245607039e+00</value>
          <splits>
            <_><var>100</var>
              <quality>5.9896044433116913e-02</quality>
              <le>5.1960790157318115e-01</le></_></splits></_>
        <_>
          <depth>2</depth>
          <value>8.7557963476947942e-01</value></_>
        <_>
          <depth>2</depth>
          <value>3.9505556057639928e+00</value></_></nodes></_>
    <_>
      <nodes>
        <_>
          <depth>0</depth>
          <value>-7.5978934728514816e-03</value>
          <splits>
            <_><var>374</var>
              <quality>4.2067371308803558e-02</quality>
              <le>6.6470587253570557e-01</le></_></splits></_>
        <_>
          <depth>1</depth>
          <value>-1.8957432773831631e-01</value>
          <splits>
            <_><var>291</var>
              <quality>9.4366163015365601e-02</quality>
              <le>7.1176469326019287e-01</le></_></splits></_>
        <_>
          <depth>2</depth>
          <value>1.3714397471036630e-02</value></_>
        <_>
          <depth>2</depth>
          <value>-8.6731257201873180e-01</value></_>
        <_>
          <depth>1</depth>
          <value>2.3542145360584238e-01</value>
          <splits>
            <_><var>457</var>
              <quality>1.0977872461080551e-01</quality>
              <le>2.3529413342475891e-01</le></_></splits></_>
        <_>
          <depth>2</depth>
          <value>-5.4473793495516543e-01</value></_>
        <_>
          <depth>2</depth>
          <value>5.1030512113328563e-01</value></_></nodes></_>
    <_>
      <nodes>
        <_>
          <depth>0</depth>
          <value>-4.6298789719824074e-03</value>
          <splits>
            <_><var>76</var>
              <quality>3.9677739143371582e-02</quality>
              <le>9.9411773681640625e-01</le></_></splits></_>
        <_>
          <depth>1</depth>
          <value>3.9760072464970399e-03</value>
          <splits>
            <_><var>295</var>
              <quality>3.7658967077732086e-02</quality>
              <le>1.7450980842113495e-01</le></_></splits></_>
        <_>
          <depth>2</depth>
          <value>1.6080197850605257e-01</value></_>
        <_>
          <depth>2</depth>
          <value>-2.4914303356902320e-01</value></_>
        <_>
          <depth>1</depth>
          <value>-4.8553460172159104e+00</value></_></nodes></_>
    <_>
      <nodes>
        <_>
          <depth>0</depth>
          <value>2.7214142589210406e-02</value>
          <splits>
            <_><var>76</var>
              <quality>6.6352203488349915e-02</quality>
              <le>4.3529415130615234e-01</le></_></splits></_>
        <_>
          <depth>1</depth>
          <value>-1.2646160350010371e-02</value>
          <splits>
            <_><var>453</var>
              <quality>3.4415930509567261e-02</quality>
              <le>9.9803924560546875e-01</le></_></splits></_>
        <_>
          <depth>2</depth>
          <value>-4.3487402559411366e-03</value></_>
        <_>
          <depth>2</depth>
          <value>-4.4598585037278422e+00</value></_>
        <_>
          <depth>1</depth>
          <value>1.7608677847733261e+00</value>
          <splits>
            <_><var>351</var>
              <quality>8.2959152758121490e-02</quality>
              <le>9.5294123888015747e-01</le></_></splits></_>
        <_>
          <depth>2</depth>
          <value>1.6042649430966007e+00</value></_>
        <_>
          <depth>2</depth>
          <value>6.7719118973270174e+00</value></_></nodes></_>
    <_>
      <nodes>
        <_>
          <depth>0</depth>
          <value>7.1339695232399188e-03</value>
          <splits>
            <_><var>658</var>
              <quality>3.3153209835290909e-02</quality>
              <le>9.9411773681640625e-01</le></_></splits></_>
        <_>
          <depth>1</depth>
          <value>-2.3282003339479593e-02</value>
          <splits>
            <_><var>466</var>
              <quality>2.9013738036155701e-02</quality>
              <le>3.3333335071802139e-02</le></_></splits></_>
        <_>
          <depth>2</depth>
          <value>-2.5124136718096590e-01</value></_>
        <_>
          <depth>2</depth>
          <value>1.1187323557513063e-01</value></_>
        <_>
          <depth>1</depth>
          <value>1.1528362649864514e+00</value>
          <splits>
            <_><var>631</var>
              <quality>8.8257521390914917e-02</quality>
              <le>4.8039218783378601e-01</le></_></splits></_>
        <_>
          <depth>2</depth>
          <value>8.1018934464455938e+00</value></_>
        <_>
          <depth>2</depth>
          <value>8.2712986837580904e-01</value></_></nodes></_>
    <_>
      <nodes>
        <_>
          <depth>0</depth>
          <value>-1.1521867891885833e-01</value>
          <splits>
            <_><var>658</var>
              <quality>1.2482054531574249e-01</quality>
              <le>9.9411773681640625e-01</le></_></splits></_>
        <_>
          <depth>1</depth>
          <value>-3.8602442528046909e-03</value>
          <splits>
            <_><var>101</var>
              <quality>2.8222002089023590e-02</quality>
              <le>1.5686275437474251e-02</le></_></splits></_>
        <_>
          <depth>2</depth>
          <value>9.0960513330673107e-02</value></_>
        <_>
          <depth>2</depth>
          <value>-3.4990383640566547e-01</value></_>
        <_>
          <depth>1</depth>
          <value>-1.1759186429375605e+00</value>
          <splits>
            <_><var>512</var>
              <quality>1.8926969170570374e-01</quality>
              <le>1.5686275064945221e-01</le></_></splits></_>
        <_>
          <depth>2</depth>
          <value>-1.5476839236184508e+00</value></_>
        <_>
          <depth>2</depth>
          <value>7.4517129712651731e-01</value></_></nodes></_>
    <_>
      <nodes>
        <_>
          <depth>0</depth>
          <value>-3.9437629631893650e-02</value>
          <splits>
            <_><var>686</var>
              <quality>5.7293694466352463e-02</quality>
              <le>3.3921569585800171e-01</le></_></splits></_>
        <_>
          <depth>1</depth>
          <value>6.9755107027470592e-03</value>
          <splits>
            <_><var>248</var>
              <quality>2.6136893779039383e-02</quality>
              <le>4.9215689301490784e-01</le></_></splits></_>
        <_>
          <depth>2</depth>
          <value>2.9133746634916583e-02</value></_>
        <_>
          <depth>2</depth>
          <value>-1.2780135474731456e+00</value></_>
        <_>
          <depth>1</depth>
          <value>-1.3053487877844445e+00</value>
          <splits>
            <_><var>600</var>
              <quality>6.9834955036640167e-02</quality>
              <le>3.0392158031463623e-01</le></_></splits></_>
        <_>
          <depth>2</depth>
          <value>-1.7913587734930607e+00</value></_>
        <_>
          <depth>2</depth>
          <value>-5.3458420044444732e-01</value></_></nodes></_>
    <_>
      <nodes>
        <_>
          <depth>0</depth>
          <value>-1.7403525025848514e-02</value>
          <splits>
            <_><var>88</var>
              <quality>2.4773683398962021e-02</quality>
              <le>3.0000001192092896e-01</le></_></splits></_>
        <_>
          <depth>1</depth>
          <value>-2.1781987920191623e-02</value>
          <splits>
            <_><var>376</var>
              <quality>2.3575266823172569e-02</quality>
              <le>8.0588245391845703e-01</le></_></splits></_>
        <_>
          <depth>2</depth>
          <value>-1.3731492470087100e-01</value></_>
        <_>
          <depth>2</depth>
          <value>1.8907319251050816e-01</value></_>
        <_>
          <depth>1</depth>
          <value>5.8694472574238103e+00</value></_></nodes></_>
    <_>
      <nodes>
        <_>
          <depth>0</depth>
          <value>4.8409312261265121e-04</value>
          <splits>
            <_><var>293</var>
              <quality>3.3276345580816269e-02</quality>
              <le>9.5490205287933350e-01</le></_></splits></_>
        <_>
          <depth>1</depth>
          <value>1.1401117666193424e-01</value>
          <splits>
            <_><var>184</var>
              <quality>6.1289958655834198e-02</quality>
              <le>9.9019610881805420e-01</le></_></splits></_>
        <_>
          <depth>2</depth>
          <value>2.1790087290663845e-01</value></_>
        <_>
          <depth>2</depth>
          <value>-6.1038858065772339e-01</value></_>
        <_>
          <depth>1</depth>
          <value>-3.0806342847231999e-01</value>
          <splits>
            <_><var>267</var>
              <quality>6.9092914462089539e-02</quality>
              <le>3.9215687662363052e-02</le></_></splits></_>
        <_>
          <depth>2</depth>
          <value>-1.1714136571119951e+00</value></_>
        <_>
          <depth>2</depth>
          <value>-1.0478520225161649e-01</value></_></nodes></_>
    <_>
      <nodes>
        <_>
          <depth>0</depth>
          <value>-4.7604355313645283e-03</value>
          <splits>
            <_><var>272</var>
              <quality>2.7490064501762390e-02</quality>
              <le>1.0000000894069672e-01</le></_></splits></_>
        <_>
          <depth>1</depth>
          <value>8.0555888463563541e-02</value>
          <splits>
            <_><var>270</var>
              <quality>7.9860702157020569e-02</quality>
              <le>5.0784313678741455e-01</le></_></splits></_>
        <_>
          <depth>2</depth>
          <value>1.8083072351757085e-01</value></_>
        <_>
          <depth>2</depth>
          <value>-9.0413114146409179e-01</value></_>
        <_>
          <depth>1</depth>
          <value>-3.4367665570392025e-01</value>
          <splits>
            <_><var>121</var>
              <quality>6.8021960556507111e-02</quality>
              <le>6.9019609689712524e-01</le></_></splits></_>
        <_>
          <depth>2</depth>
          <value>-5.0670448662441359e-01</value></_>
        <_>
          <depth>2</depth>
          <value>1.1158012497796410e+00</value></_></nodes></_>
    <_>
      <nodes>
        <_>
          <depth>0</depth>
          <value>-1.4362165591658663e-02</value>
          <splits>
            <_><var>362</var>
              <quality>3.3079538494348526e-02</quality>
              <le>5.8823535218834877e-03</le></_></splits></_>
        <_>
          <depth>1</depth>
          <value>7.0522575276246301e-04</value>
          <splits>
            <_><var>517</var>
              <quality>3.0843155458569527e-02</quality>
              <le>2.0196080207824707e-01</le></_></splits></_>
        <_>
          <depth>2</depth>
          <value>-1.8425994454543868e-01</value></_>
        <_>
          <depth>2</depth>
          <value>1.7738211581110236e-01</value></_>
        <_>
          <depth>1</depth>
          <value>-2.3116712961545614e+00</value>
          <splits>
            <_><var>306</var>
              <quality>3.6403354257345200e-02</quality>
              <le>3.5882353782653809e-01</le></_></splits></_>
        <_>
          <depth>2</depth>
          <value>-1.9873378334630705e+00</value></_>
        <_>
          <depth>2</depth>
          <value>-3.9674625008182010e+00</value></_></nodes></_>
    <_>
      <nodes>
        <_>
          <depth>0</depth>
          <value>2.7256387880636181e-03</value>
          <splits>
            <_><var>597</var>
              <quality>2.9706809669733047e-02</quality>
              <le>7.1960783004760742e-01</le></_></splits></_>
        <_>
          <depth>1</depth>
          <value>-1.0814668305464829e-01</value>
          <splits>
            <_><var>389</var>
              <quality>4.3492637574672699e-02</quality>
              <le>9.5098042488098145e-01</le></_></splits></_>
        <_>
          <depth>2</depth>
          <value>-1.0129095220341493e-01</value></_>
        <_>
          <depth>2</depth>
          <value>-7.7058726606725667e+00</value></_>
        <_>
          <depth>1</depth>
          <value>2.8470029527541474e-01</value>
          <splits>
            <_><var>428</var>
              <quality>8.4056191146373749e-02</quality>
              <le>4.4117650389671326e-01</le></_></splits></_>
        <_>
          <depth>2</depth>
          <value>-1.8882562741251219e-01</value></_>
        <_>
          <depth>2</depth>
          <value>7.7560268141317223e-01</value></_></nodes></_>
    <_>
      <nodes>
        <_>
          <depth>0</depth>
          <value>1.4083245312315433e-02</value>
          <splits>
            <_><var>389</var>
              <quality>2.8666928410530090e-02</quality>
              <le>9.9019610881805420e-01</le></_></splits></_>
        <_>
          <depth>1</depth>
          <value>4.7304041095068434e-03</value>
          <splits>
            <_><var>356</var>
              <quality>2.8192555531859398e-02</quality>
              <le>4.6862748265266418e-01</le></_></splits></_>
        <_>
          <depth>2</depth>
          <value>9.7050864183667165e-02</value></_>
        <_>
          <depth>2</depth>
          <value>-3.1741712178697767e-01</value></_>
        <_>
          <depth>1</depth>
          <value>3.2192689377079367e+00</value></_></nodes></_>
    <_>
      <nodes>
        <_>
          <depth>0</depth>
          <value>3.3557889989870773e-03</value>
          <splits>
            <_><var>353</var>
              <quality>2.5822719559073448e-02</quality>
              <le>8.0196082592010498e-01</le></_></splits></_>
        <_>
          <depth>1</depth>
          <value>-8.2618252192523889e-02</value>
          <splits>
            <_><var>468</var>
              <quality>5.6340660899877548e-02</quality>
              <le>8.0588245391845703e-01</le></_></splits></_>
        <_>
          <depth>2</depth>
          <value>6.6601099209096987e-02</value></_>
        <_>
          <depth>2</depth>
          <value>-5.4244594856563888e-01</value></_>
        <_>
          <depth>1</depth>
          <value>3.1939462083780634e-01</value>
          <splits>
            <_><var>242</var>
              <quality>8.3383753895759583e-02</quality>
              <le>7.3333334922790527e-01</le></_></splits></_>
        <_>
          <depth>2</depth>
          <value>5.2425787601336815e-01</value></_>
        <_>
          <depth>2</depth>
          <value>-1.1860865428539071e+00</value></_></nodes></_>
    <_>
      <nodes>
        <_>
          <depth>0</depth>
          <value>-5.0140511218839893e-03</value>
          <splits>
            <_><var>440</var>
              <quality>3.6321125924587250e-02</quality>
              <le>4.9019612371921539e-02</le></_></splits></_>
        <_>
          <depth>1</depth>
          <value>-1.8069972265029258e-01</value>
          <splits>
            <_><var>325</var>
              <quality>6.8907976150512695e-02</quality>
              <le>3.1960785388946533e-01</le></_></splits></_>
        <_>
          <depth>2</depth>
          <value>-4.9455935306082829e-03</value></_>
        <_>
          <depth>2</depth>
          <value>-7.4102427267027526e-01</value></_>
        <_>
          <depth>1</depth>
          <value>2.1246596035367349e-01</value>
          <splits>
            <_><var>629</var>
              <quality>5.8694142848253250e-02</quality>
              <le>9.7450983524322510e-01</le></_></splits></_>
        <_>
          <depth>2</depth>
          <value>3.9603343242341127e-01</value></_>
        <_>
          <depth>2</depth>
          <value>-2.9483765066000256e-01</value></_></nodes></_>
    <_>
      <nodes>
        <_>
          <depth>0</depth>
          <value>-7.9993405095906342e-03</value>
          <splits>
            <_><var>628</var>
              <quality>3.2728791236877441e-02</quality>
              <le>4.7647061944007874e-01</le></_></splits></_>
        <_>
          <depth>1</depth>
          <value>-1.8156947720125072e-01</value>
          <splits>
            <_><var>658</var>
              <quality>6.9247871637344360e-02</quality>
              <le>1.7843137681484222e-01</le></_></splits></_>
        <_>
          <depth>2</depth>
          <value>-6.9349870027191299e-02</value></_>
        <_>
          <depth>2</depth>
          <value>-1.1064364229355812e+00</value></_>
        <_>
          <depth>1</depth>
          <value>1.9012536150735312e-01</value>
          <splits>
            <_><var>486</var>
              <quality>6.1583399772644043e-02</quality>
              <le>3.6862745881080627e-01</le></_></splits></_>
        <_>
          <depth>2</depth>
          <value>-1.9210410238415790e-01</value></_>
        <_>
          <depth>2</depth>
          <value>4.5875167028379804e-01</value></_></nodes></_>
    <_>
      <nodes>
        <_>
          <depth>0</depth>
          <value>-7.0004317225422922e-03</value>
          <splits>
            <_><var>514</var>
              <quality>2.8221059590578079e-02</quality>
              <le>5.0000000000000000e-01</le></_></splits></_>
        <_>
          <depth>1</depth>
          <value>1.8159017233074567e-01</value>
          <splits>
            <_><var>512</var>
              <quality>6.2091439962387085e-02</quality>
              <le>6.9607841968536377e-01</le></_></splits></_>
        <_>
          <depth>2</depth>
          <value>-1.8047470948092045e-02</value></_>
        <_>
          <depth>2</depth>
          <value>7.3643793441736793e-01</value></_>
        <_>
          <depth>1</depth>
          <value>-1.6426375266518908e-01</value>
          <splits>
            <_><var>270</var>
              <quality>8.3827212452888489e-02</quality>
              <le>7.8431377187371254e-03</le></_></splits></_>
        <_>
          <depth>2</depth>
          <value>-4.0944982871776558e-01</value></_>
        <_>
          <depth>2</depth>
          <value>3.8570074714779928e-01</value></_></nodes></_>
    <_>
      <nodes>
        <_>
          <depth>0</depth>
          <value>-2.6292225484635177e-03</value>
          <splits>
            <_><var>241</var>
              <quality>4.2093191295862198e-02</quality>
              <le>8.9215695858001709e-01</le></_></splits></_>
        <_>
          <depth>1</depth>
          <value>8.1746160640138996e-02</value>
          <splits>
            <_><var>576</var>
              <quality>4.4687934219837189e-02</quality>
              <le>2.0196080207824707e-01</le></_></splits></_>
        <_>
          <depth>2</depth>
          <value>3.8882674616620783e-01</value></_>
        <_>
          <depth>2</depth>
          <value>-7.4294304225739502e-02</value></_>
        <_>
          <depth>1</depth>
          <value>-5.2768717993690484e-01</value>
          <splits>
            <_><var>322</var>
              <quality>9.2188321053981781e-02</quality>
              <le>7.2352945804595947e-01</le></_></splits></_>
        <_>
          <depth>2</depth>
          <value>-1.1551070200515043e+00</value></_>
        <_>
          <depth>2</depth>
          <value>1.4564362434229775e-01</value></_></nodes></_>
    <_>
      <nodes>
        <_>
          <depth>0</depth>
          <value>-1.3600091865941634e-02</value>
          <splits>
            <_><var>329</var>
              <quality>4.1649401187896729e-02</quality>
              <le>9.5098042488098145e-01</le></_></splits></_>
        <_>
          <depth>1</depth>
          <value>5.1515655760765139e-02</value>
          <splits>
            <_><var>659</var>
              <quality>4.2512565851211548e-02</quality>
              <le>5.4313731193542480e-01</le></_></splits></_>
        <_>
          <depth>2</depth>
          <value>-4.1597379445628704e-02</value></_>
        <_>
          <depth>2</depth>
          <value>5.5030183858512149e-01</value></_>
        <_>
          <depth>1</depth>
          <value>-6.8406025349360233e-01</value>
          <splits>
            <_><var>174</var>
              <quality>6.6329419612884521e-02</quality>
              <le>8.1960791349411011e-01</le></_></splits></_>
        <_>
          <depth>2</depth>
          <value>-8.4228710035275922e-01</value></_>
        <_>
          <depth>2</depth>
          <value>1.3434197459361579e+00</value></_></nodes></_>
    <_>
      <nodes>
        <_>
          <depth>0</depth>
          <value>-3.0995978770155270e-03</value>
          <splits>
            <_><var>396</var>
              <quality>4.3359212577342987e-02</quality>
              <le>9.9019610881805420e-01</le></_></splits></_>
        <_>
          <depth>1</depth>
          <value>2.3170008930382792e-03</value>
          <splits>
            <_><var>145</var>
              <quality>2.7956742793321609e-02</quality>
              <le>9.9411773681640625e-01</le></_></splits></_>
        <_>
          <depth>2</depth>
          <value>7.5651698867893434e-03</value></_>
        <_>
          <depth>2</depth>
          <value>-5.6077697827652324e+00</value></_>
        <_>
          <depth>1</depth>
          <value>-8.4277941378049217e+00</value></_></nodes></_>
    <_>
      <nodes>
        <_>
          <depth>0</depth>
          <value>7.1620417700705092e-03</value>
          <splits>
            <_><var>186</var>
              <quality>2.8916291892528534e-02</quality>
              <le>7.4705886840820312e-01</le></_></splits></_>
        <_>
          <depth>1</depth>
          <value>1.0213440514163488e-01</value>
          <splits>
            <_><var>660</var>
              <quality>4.4986937195062637e-02</quality>
              <le>7.5490200519561768e-01</le></_></splits></_>
        <_>
          <depth>2</depth>
          <value>1.6630888894261014e-01</value></_>
        <_>
          <depth>2</depth>
          <value>-6.9227759969320191e-01</value></_>
        <_>
          <depth>1</depth>
          <value>-3.1280305534244540e-01</value>
          <splits>
            <_><var>485</var>
              <quality>6.5330624580383301e-02</quality>
              <le>9.5882356166839600e-01</le></_></splits></_>
        <_>
          <depth>2</depth>
          <value>-6.7679027340474263e-01</value></_>
        <_>
          <depth>2</depth>
          <value>2.4385911996581250e-01</value></_></nodes></_>
    <_>
      <nodes>
        <_>
          <depth>0</depth>
          <value>-1.6808241553798980e-02</value>
          <splits>
            <_><var>73</var>
              <quality>2.4588311091065407e-02</quality>
              <le>9.9803924560546875e-01</le></_></splits></_>
        <_>
          <depth>1</depth>
          <value>-2.2979813312812781e-02</value>
          <splits>
            <_><var>631</var>
              <quality>2.5077097117900848e-02</quality>
              <le>4.8039218783378601e-01</le></_></splits></_>
        <_>
          <depth>2</depth>
          <value>-1.5677490997193461e-01</value></_>
        <_>
          <depth>2</depth>
          <value>1.7066108347863729e-01</value></_>
        <_>
          <depth>1</depth>
          <value>4.1312389152766507e+00</value></_></nodes></_>
    <_>
      <nodes>
        <_>
          <depth>0</depth>
          <value>-1.2218090743730565e-03</value>
          <splits>
            <_><var>547</var>
              <quality>2.7385096997022629e-02</quality>
              <le>3.1568628549575806e-01</le></_></splits></_>
        <_>
          <depth>1</depth>
          <value>-1.9711677903465166e-01</value>
          <splits>
            <_><var>155</var>
              <quality>8.2035593688488007e-02</quality>
              <le>9.0392160415649414e-01</le></_></splits></_>
        <_>
          <depth>2</depth>
          <value>-4.7089688682004344e-01</value></_>
        <_>
          <depth>2</depth>
          <value>3.9628434661731465e-01</value></_>
        <_>
          <depth>1</depth>
          <value>1.4592375529142768e-01</value>
          <splits>
            <_><var>237</var>
              <quality>6.0458078980445862e-02</quality>
              <le>5.0392162799835205e-01</le></_></splits></_>
        <_>
          <depth>2</depth>
          <value>4.0028575925427645e-01</value></_>
        <_>
          <depth>2</depth>
          <value>-2.0849187941337435e-01</value></_></nodes></_>
    <_>
      <nodes>
        <_>
          <depth>0</depth>
          <value>4.6381591995119532e-03</value>
          <splits>
            <_><var>123</var>
              <quality>2.5154953822493553e-02</quality>
              <le>2.5686275959014893e-01</le></_></splits></_>
        <_>
          <depth>1</depth>
          <value>7.0623319641227270e-02</value>
          <splits>
            <_><var>68</var>
              <quality>4.4959537684917450e-02</quality>
              <le>2.0196080207824707e-01</le></_></splits></_>
        <_>
          <depth>2</depth>
          <value>9.2227010358661377e-02</value></_>
        <_>
          <depth>2</depth>
          <value>-2.2496532675876026e+00</value></_>
        <_>
          <depth>1</depth>
          <value>-3.9632181527066296e-01</value>
          <splits>
            <_><var>599</var>
              <quality>8.0626152455806732e-02</quality>
              <le>3.8431376218795776e-01</le></_></splits></_>
        <_>
          <depth>2</depth>
          <value>5.7914263049651671e-01</value></_>
        <_>
          <depth>2</depth>
          <value>-8.5098828470945620e-01</value></_></nodes></_>
    <_>
      <nodes>
        <_>
          <depth>0</depth>
          <value>-9.0807586185394275e-03</value>
          <splits>
            <_><var>526</var>
              <quality>3.7930019199848175e-02</quality>
              <le>9.9803924560546875e-01</le></_></splits></_>
        <_>
          <depth>1</depth>
          <value>3.2526567638485227e-03</value>
          <splits>
            <_><var>379</var>
              <quality>2.6526635512709618e-02</quality>
              <le>9.5882356166839600e-01</le></_></splits></_>
        <_>
          <depth>2</depth>
          <value>9.2209100827706211e-02</value></_>
        <_>
          <depth>2</depth>
          <value>-3.1172676722211939e-01</value></_>
        <_>
          <depth>1</depth>
          <value>-3.2397196772160304e+00</value>
          <splits>
            <_><var>70</var>
              <quality>6.6920801997184753e-02</quality>
              <le>6.1176472902297974e-01</le></_></splits></_>
        <_>
          <depth>2</depth>
          <value>-2.0523343326583592e+00</value></_>
        <_>
          <depth>2</depth>
          <value>-10.</value></_></nodes></_>
    <_>
      <nodes>
        <_>
          <depth>0</depth>
          <value>2.3910767317077419e-02</value>
          <splits>
            <_><var>526</var>
              <quality>4.3425992131233215e-02</quality>
              <le>9.9803924560546875e-01</le></_></splits></_>
        <_>
          <depth>1</depth>
          <value>1.2299725048842608e-04</value>
          <splits>
            <_><var>125</var>
              <quality>2.4704601615667343e-02</quality>
              <le>6.6078436374664307e-01</le></_></splits></_>
        <_>
          <depth>2</depth>
          <value>-7.9569207602038616e-02</value></_>
        <_>
          <depth>2</depth>
          <value>3.3052994301241317e-01</value></_>
        <_>
          <depth>1</depth>
          <value>1.9215211875516820e+00</value>
          <splits>
            <_><var>430</var>
              <quality>6.1005078256130219e-02</quality>
              <le>5.3137254714965820e-01</le></_></splits></_>
        <_>
          <depth>2</depth>
          <value>4.4185921787584146e+00</value></_>
        <_>
          <depth>2</depth>
          <value>1.3229629075817042e+00</value></_></nodes></_>
    <_>
      <nodes>
        <_>
          <depth>0</depth>
          <value>-9.3742259155556191e-03</value>
          <splits>
            <_><var>399</var>
              <quality>2.3580811917781830e-02</quality>
              <le>1.5686275064945221e-01</le></_></splits></_>
        <_>
          <depth>1</depth>
          <value>-1.0432414459050954e-01</value>
          <splits>
            <_><var>459</var>
              <quality>5.3393442183732986e-02</quality>
              <le>7.5882363319396973e-01</le></_></splits></_>
        <_>
          <depth>2</depth>
          <value>-3.5047385353236443e-01</value></_>
        <_>
          <depth>2</depth>
          <value>1.6302334132534163e-01</value></_>
        <_>
          <depth>1</depth>
          <value>2.5112757373417860e-01</value>
          <splits>
            <_><var>540</var>
              <quality>7.3471724987030029e-02</quality>
              <le>2.9215687513351440e-01</le></_></splits></_>
        <_>
          <depth>2</depth>
          <value>-3.5072826611083341e-01</value></_>
        <_>
          <depth>2</depth>
          <value>6.2740470003070570e-01</value></_></nodes></_>
    <_>
      <nodes>
        <_>
          <depth>0</depth>
          <value>-3.2564635649829821e-03</value>
          <splits>
            <_><var>508</var>
              <quality>2.8458990156650543e-02</quality>
              <le>9.9607849121093750e-01</le></_></splits></_>
        <_>
          <depth>1</depth>
          <value>-1.1408069763127818e-02</value>
          <splits>
            <_><var>493</var>
              <quality>2.6124894618988037e-02</quality>
              <le>9.1960787773132324e-01</le></_></splits></_>
        <_>
          <depth>2</depth>
          <value>1.0035136634664651e-01</value></_>
        <_>
          <depth>2</depth>
          <value>-2.5685317478669917e-01</value></_>
        <_>
          <depth>1</depth>
          <value>3.6704088089736273e+00</value></_></nodes></_>
    <_>
      <nodes>
        <_>
          <depth>0</depth>
          <value>-7.6199216754688475e-04</value>
          <splits>
            <_><var>152</var>
              <quality>2.5813501328229904e-02</quality>
              <le>1.2941177189350128e-01</le></_></splits></_>
        <_>
          <depth>1</depth>
          <value>1.1836876840530852e-01</value>
          <splits>
            <_><var>234</var>
              <quality>7.2350852191448212e-02</quality>
              <le>9.3529415130615234e-01</le></_></splits></_>
        <_>
          <depth>2</depth>
          <value>2.0552413654682619e-01</value></_>
        <_>
          <depth>2</depth>
          <value>-1.0511274958151624e+00</value></_>
        <_>
          <depth>1</depth>
          <value>-2.2884729116825320e-01</value>
          <splits>
            <_><var>158</var>
              <quality>7.3563471436500549e-02</quality>
              <le>3.9215688593685627e-03</le></_></splits></_>
        <_>
          <depth>2</depth>
          <value>7.9748601465446434e-02</value></_>
        <_>
          <depth>2</depth>
          <value>-7.9050018975693503e-01</value></_></nodes></_>
    <_>
      <nodes>
        <_>
          <depth>0</depth>
          <value>-1.9314964191437824e-02</value>
          <splits>
            <_><var>295</var>
              <quality>3.5161793231964111e-02</quality>
              <le>6.1372554302215576e-01</le></_></splits></_>
        <_>
          <depth>1</depth>
          <value>9.6621364399849599e-02</value>
          <splits>
            <_><var>189</var>
              <quality>5.0843138247728348e-02</quality>
              <le>6.0784317553043365e-02</le></_></splits></_>
        <_>
          <depth>2</depth>
          <value>2.1893540220392732e-01</value></_>
        <_>
          <depth>2</depth>
          <value>-4.2513228190034680e-01</value></_>
        <_>
          <depth>1</depth>
          <value>-3.3534953876482992e-01</value>
          <splits>
            <_><var>107</var>
              <quality>9.0263314545154572e-02</quality>
              <le>9.9803924560546875e-01</le></_></splits></_>
        <_>
          <depth>2</depth>
          <value>-3.5895245166926942e-01</value></_>
        <_>
          <depth>2</depth>
          <value>9.8990499814886022e+00</value></_></nodes></_>
    <_>
      <nodes>
        <_>
          <depth>0</depth>
          <value>-5.0348824838511276e-03</value>
          <splits>
            <_><var>517</var>
              <quality>2.4641323834657669e-02</quality>
              <le>7.3921573162078857e-01</le></_></splits></_>
        <_>
          <depth>1</depth>
          <value>-1.2457239323136957e-01</value>
          <splits>
            <_><var>485</var>
              <quality>4.2088136076927185e-02</quality>
              <le>5.5098044872283936e-01</le></_></splits></_>
        <_>
          <depth>2</depth>
          <value>-3.4206266605137592e-01</value></_>
        <_>
          <depth>2</depth>
          <value>1.2010934219101241e-01</value></_>
        <_>
          <depth>1</depth>
          <value>2.1174414586595347e-01</value>
          <splits>
            <_><var>603</var>
              <quality>7.9837903380393982e-02</quality>
              <le>7.7450990676879883e-01</le></_></splits></_>
        <_>
          <depth>2</depth>
          <value>-1.5093681043014956e-01</value></_>
        <_>
          <depth>2</depth>
          <value>7.4006575623116100e-01</value></_></nodes></_>
    <_>
      <nodes>
        <_>
          <depth>0</depth>
          <value>1.7806168251363402e-03</value>
          <splits>
            <_><var>301</var>
              <quality>3.1755886971950531e-02</quality>
              <le>6.1372554302215576e-01</le></_></splits></_>
        <_>
          <depth>1</depth>
          <value>6.5973298863981261e-02</value>
          <splits>
            <_><var>326</var>
              <quality>3.9614696055650711e-02</quality>
              <le>9.5098042488098145e-01</le></_></splits></_>
        <_>
          <depth>2</depth>
          <value>1.3605830930982024e-01</value></_>
        <_>
          <depth>2</depth>
