<?xml version="1.0"?>
<opencv_storage>
<opencv_ml_boost>
  <format>3</format>
  <is_classifier>1</is_classifier>
  <var_all>785</var_all>
  <var_count>784</var_count>
  <ord_var_count>784</ord_var_count>
  <cat_var_count>1</cat_var_count>
  <training_params>
    <boosting_type>LogitBoost</boosting_type>
    <use_surrogates>0</use_surrogates>
    <max_categories>10</max_categories>
    <regression_accuracy>9.9999997764825821e-03</regression_accuracy>
    <max_depth>2</max_depth>
    <min_sample_count>10</min_sample_count>
    <cross_validation_folds>0</cross_validation_folds>
    <weight_trimming_rate>9.4999999999999996e-01</weight_trimming_rate></training_params>
  <global_var_idx>1</global_var_idx>
  <var_idx>
    0 1 2 3 4 5 6 7 8 9 10 11 12 13 14 15 16 17 18 19 20 21 22 23 24 25
    26 27 28 29 30 31 32 33 34 35 36 37 38 39 40 41 42 43 44 45 46 47 48
    49 50 51 52 53 54 55 56 57 58 59 60 61 62 63 64 65 66 67 68 69 70 71
    72 73 74 75 76 77 78 79 80 81 82 83 84 85 86 87 88 89 90 91 92 93 94
    95 96 97 98 99 100 101 102 103 104 105 106 107 108 109 110 111 112
    113 114 115 116 117 118 119 120 121 122 123 124 125 126 127 128 129
    130 131 132 133 134 135 136 137 138 139 140 141 142 143 144 145 146
    147 148 149 150 151 152 153 154 155 156 157 158 159 160 161 162 163
    164 165 166 167 168 169 170 171 172 173 174 175 176 177 178 179 180
    181 182 183 184 185 186 187 188 189 190 191 192 193 194 195 196 197
    198 199 200 201 202 203 204 205 206 207 208 209 210 211 212 213 214
    215 216 217 218 219 220 221 222 223 224 225 226 227 228 229 230 231
    232 233 234 235 236 237 238 239 240 241 242 243 244 245 246 247 248
    249 250 251 252 253 254 255 256 257 258 259 260 261 262 263 264 265
    266 267 268 269 270 271 272 273 274 275 276 277 278 279 280 281 282
    283 284 285 286 287 288 289 290 291 292 293 294 295 296 297 298 299
    300 301 302 303 304 305 306 307 308 309 310 311 312 313 314 315 316
    317 318 319 320 321 322 323 324 325 326 327 328 329 330 331 332 333
    334 335 336 337 338 339 340 341 342 343 344 345 346 347 348 349 350
    351 352 353 354 355 356 357 358 359 360 361 362 363 364 365 366 367
    368 369 370 371 372 373 374 375 376 377 378 379 380 381 382 383 384
    385 386 387 388 389 390 391 392 393 394 395 396 397 398 399 400 401
    402 403 404 405 406 407 408 409 410 411 412 413 414 415 416 417 418
    419 420 421 422 423 424 425 426 427 428 429 430 431 432 433 434 435
    436 437 438 439 440 441 442 443 444 445 446 447 448 449 450 451 452
    453 454 455 456 457 458 459 460 461 462 463 464 465 466 467 468 469
    470 471 472 473 474 475 476 477 478 479 480 481 482 483 484 485 486
    487 488 489 490 491 492 493 494 495 496 497 498 499 500 501 502 503
    504 505 506 507 508 509 510 511 512 513 514 515 516 517 518 519 520
    521 522 523 524 525 526 527 528 529 530 531 532 533 534 535 536 537
    538 539 540 541 542 543 544 545 546 547 548 549 550 551 552 553 554
    555 556 557 558 559 560 561 562 563 564 565 566 567 568 569 570 571
    572 573 574 575 576 577 578 579 580 581 582 583 584 585 586 587 588
    589 590 591 592 593 594 595 596 597 598 599 600 601 602 603 604 605
    606 607 608 609 610 611 612 613 614 615 616 617 618 619 620 621 622
    623 624 625 626 627 628 629 630 631 632 633 634 635 636 637 638 639
    640 641 642 643 644 645 646 647 648 649 650 651 652 653 654 655 656
    657 658 659 660 661 662 663 664 665 666 667 668 669 670 671 672 673
    674 675 676 677 678 679 680 681 682 683 684 685 686 687 688 689 690
    691 692 693 694 695 696 697 698 699 700 701 702 703 704 705 706 707
    708 709 710 711 712 713 714 715 716 717 718 719 720 721 722 723 724
    725 726 727 728 729 730 731 732 733 734 735 736 737 738 739 740 741
    742 743 744 745 746 747 748 749 750 751 752 753 754 755 756 757 758
    759 760 761 762 763 764 765 766 767 768 769 770 771 772 773 774 775
    776 777 778 779 780 781 782 783</var_idx>
  <var_type>
    0 0 0 0 0 0 0 0 0 0 0 0 0 0 0 0 0 0 0 0 0 0 0 0 0 0 0 0 0 0 0 0 0 0
    0 0 0 0 0 0 0 0 0 0 0 0 0 0 0 0 0 0 0 0 0 0 0 0 0 0 0 0 0 0 0 0 0 0
    0 0 0 0 0 0 0 0 0 0 0 0 0 0 0 0 0 0 0 0 0 0 0 0 0 0 0 0 0 0 0 0 0 0
    0 0 0 0 0 0 0 0 0 0 0 0 0 0 0 0 0 0 0 0 0 0 0 0 0 0 0 0 0 0 0 0 0 0
    0 0 0 0 0 0 0 0 0 0 0 0 0 0 0 0 0 0 0 0 0 0 0 0 0 0 0 0 0 0 0 0 0 0
    0 0 0 0 0 0 0 0 0 0 0 0 0 0 0 0 0 0 0 0 0 0 0 0 0 0 0 0 0 0 0 0 0 0
    0 0 0 0 0 0 0 0 0 0 0 0 0 0 0 0 0 0 0 0 0 0 0 0 0 0 0 0 0 0 0 0 0 0
    0 0 0 0 0 0 0 0 0 0 0 0 0 0 0 0 0 0 0 0 0 0 0 0 0 0 0 0 0 0 0 0 0 0
    0 0 0 0 0 0 0 0 0 0 0 0 0 0 0 0 0 0 0 0 0 0 0 0 0 0 0 0 0 0 0 0 0 0
    0 0 0 0 0 0 0 0 0 0 0 0 0 0 0 0 0 0 0 0 0 0 0 0 0 0 0 0 0 0 0 0 0 0
    0 0 0 0 0 0 0 0 0 0 0 0 0 0 0 0 0 0 0 0 0 0 0 0 0 0 0 0 0 0 0 0 0 0
    0 0 0 0 0 0 0 0 0 0 0 0 0 0 0 0 0 0 0 0 0 0 0 0 0 0 0 0 0 0 0 0 0 0
    0 0 0 0 0 0 0 0 0 0 0 0 0 0 0 0 0 0 0 0 0 0 0 0 0 0 0 0 0 0 0 0 0 0
    0 0 0 0 0 0 0 0 0 0 0 0 0 0 0 0 0 0 0 0 0 0 0 0 0 0 0 0 0 0 0 0 0 0
    0 0 0 0 0 0 0 0 0 0 0 0 0 0 0 0 0 0 0 0 0 0 0 0 0 0 0 0 0 0 0 0 0 0
    0 0 0 0 0 0 0 0 0 0 0 0 0 0 0 0 0 0 0 0 0 0 0 0 0 0 0 0 0 0 0 0 0 0
    0 0 0 0 0 0 0 0 0 0 0 0 0 0 0 0 0 0 0 0 0 0 0 0 0 0 0 0 0 0 0 0 0 0
    0 0 0 0 0 0 0 0 0 0 0 0 0 0 0 0 0 0 0 0 0 0 0 0 0 0 0 0 0 0 0 0 0 0
    0 0 0 0 0 0 0 0 0 0 0 0 0 0 0 0 0 0 0 0 0 0 0 0 0 0 0 0 0 0 0 0 0 0
    0 0 0 0 0 0 0 0 0 0 0 0 0 0 0 0 0 0 0 0 0 0 0 0 0 0 0 0 0 0 0 0 0 0
    0 0 0 0 0 0 0 0 0 0 0 0 0 0 0 0 0 0 0 0 0 0 0 0 0 0 0 0 0 0 0 0 0 0
    0 0 0 0 0 0 0 0 0 0 0 0 0 0 0 0 0 0 0 0 0 0 0 0 0 0 0 0 0 0 0 0 0 0
    0 0 0 0 0 0 0 0 0 0 0 0 0 0 0 0 0 0 0 0 0 0 0 0 0 0 0 0 0 0 0 0 0 0
    0 0 1</var_type>
  <cat_ofs>
    0 0 0 0 0 0 0 0 0 0 0 0 0 0 0 0 0 0 0 0 0 0 0 0 0 0 0 0 0 0 0 0 0 0
    0 0 0 0 0 0 0 0 0 0 0 0 0 0 0 0 0 0 0 0 0 0 0 0 0 0 0 0 0 0 0 0 0 0
    0 0 0 0 0 0 0 0 0 0 0 0 0 0 0 0 0 0 0 0 0 0 0 0 0 0 0 0 0 0 0 0 0 0
    0 0 0 0 0 0 0 0 0 0 0 0 0 0 0 0 0 0 0 0 0 0 0 0 0 0 0 0 0 0 0 0 0 0
    0 0 0 0 0 0 0 0 0 0 0 0 0 0 0 0 0 0 0 0 0 0 0 0 0 0 0 0 0 0 0 0 0 0
    0 0 0 0 0 0 0 0 0 0 0 0 0 0 0 0 0 0 0 0 0 0 0 0 0 0 0 0 0 0 0 0 0 0
    0 0 0 0 0 0 0 0 0 0 0 0 0 0 0 0 0 0 0 0 0 0 0 0 0 0 0 0 0 0 0 0 0 0
    0 0 0 0 0 0 0 0 0 0 0 0 0 0 0 0 0 0 0 0 0 0 0 0 0 0 0 0 0 0 0 0 0 0
    0 0 0 0 0 0 0 0 0 0 0 0 0 0 0 0 0 0 0 0 0 0 0 0 0 0 0 0 0 0 0 0 0 0
    0 0 0 0 0 0 0 0 0 0 0 0 0 0 0 0 0 0 0 0 0 0 0 0 0 0 0 0 0 0 0 0 0 0
    0 0 0 0 0 0 0 0 0 0 0 0 0 0 0 0 0 0 0 0 0 0 0 0 0 0 0 0 0 0 0 0 0 0
    0 0 0 0 0 0 0 0 0 0 0 0 0 0 0 0 0 0 0 0 0 0 0 0 0 0 0 0 0 0 0 0 0 0
    0 0 0 0 0 0 0 0 0 0 0 0 0 0 0 0 0 0 0 0 0 0 0 0 0 0 0 0 0 0 0 0 0 0
    0 0 0 0 0 0 0 0 0 0 0 0 0 0 0 0 0 0 0 0 0 0 0 0 0 0 0 0 0 0 0 0 0 0
    0 0 0 0 0 0 0 0 0 0 0 0 0 0 0 0 0 0 0 0 0 0 0 0 0 0 0 0 0 0 0 0 0 0
    0 0 0 0 0 0 0 0 0 0 0 0 0 0 0 0 0 0 0 0 0 0 0 0 0 0 0 0 0 0 0 0 0 0
    0 0 0 0 0 0 0 0 0 0 0 0 0 0 0 0 0 0 0 0 0 0 0 0 0 0 0 0 0 0 0 0 0 0
    0 0 0 0 0 0 0 0 0 0 0 0 0 0 0 0 0 0 0 0 0 0 0 0 0 0 0 0 0 0 0 0 0 0
    0 0 0 0 0 0 0 0 0 0 0 0 0 0 0 0 0 0 0 0 0 0 0 0 0 0 0 0 0 0 0 0 0 0
    0 0 0 0 0 0 0 0 0 0 0 0 0 0 0 0 0 0 0 0 0 0 0 0 0 0 0 0 0 0 0 0 0 0
    0 0 0 0 0 0 0 0 0 0 0 0 0 0 0 0 0 0 0 0 0 0 0 0 0 0 0 0 0 0 0 0 0 0
    0 0 0 0 0 0 0 0 0 0 0 0 0 0 0 0 0 0 0 0 0 0 0 0 0 0 0 0 0 0 0 0 0 0
    0 0 0 0 0 0 0 0 0 0 0 0 0 0 0 0 0 0 0 0 0 0 0 0 0 0 0 0 0 0 0 0 0 0
    0 0 0 0 0 0 0 0 0 0 0 0 0 0 0 0 0 0 0 0 0 0 0 0 0 0 0 0 0 0 0 0 0 0
    0 0 0 0 0 0 0 0 0 0 0 0 0 0 0 0 0 0 0 0 0 0 0 0 0 0 0 0 0 0 0 0 0 0
    0 0 0 0 0 0 0 0 0 0 0 0 0 0 0 0 0 0 0 0 0 0 0 0 0 0 0 0 0 0 0 0 0 0
    0 0 0 0 0 0 0 0 0 0 0 0 0 0 0 0 0 0 0 0 0 0 0 0 0 0 0 0 0 0 0 0 0 0
    0 0 0 0 0 0 0 0 0 0 0 0 0 0 0 0 0 0 0 0 0 0 0 0 0 0 0 0 0 0 0 0 0 0
    0 0 0 0 0 0 0 0 0 0 0 0 0 0 0 0 0 0 0 0 0 0 0 0 0 0 0 0 0 0 0 0 0 0
    0 0 0 0 0 0 0 0 0 0 0 0 0 0 0 0 0 0 0 0 0 0 0 0 0 0 0 0 0 0 0 0 0 0
    0 0 0 0 0 0 0 0 0 0 0 0 0 0 0 0 0 0 0 0 0 0 0 0 0 0 0 0 0 0 0 0 0 0
    0 0 0 0 0 0 0 0 0 0 0 0 0 0 0 0 0 0 0 0 0 0 0 0 0 0 0 0 0 0 0 0 0 0
    0 0 0 0 0 0 0 0 0 0 0 0 0 0 0 0 0 0 0 0 0 0 0 0 0 0 0 0 0 0 0 0 0 0
    0 0 0 0 0 0 0 0 0 0 0 0 0 0 0 0 0 0 0 0 0 0 0 0 0 0 0 0 0 0 0 0 0 0
    0 0 0 0 0 0 0 0 0 0 0 0 0 0 0 0 0 0 0 0 0 0 0 0 0 0 0 0 0 0 0 0 0 0
    0 0 0 0 0 0 0 0 0 0 0 0 0 0 0 0 0 0 0 0 0 0 0 0 0 0 0 0 0 0 0 0 0 0
    0 0 0 0 0 0 0 0 0 0 0 0 0 0 0 0 0 0 0 0 0 0 0 0 0 0 0 0 0 0 0 0 0 0
    0 0 0 0 0 0 0 0 0 0 0 0 0 0 0 0 0 0 0 0 0 0 0 0 0 0 0 0 0 0 0 0 0 0
    0 0 0 0 0 0 0 0 0 0 0 0 0 0 0 0 0 0 0 0 0 0 0 0 0 0 0 0 0 0 0 0 0 0
    0 0 0 0 0 0 0 0 0 0 0 0 0 0 0 0 0 0 0 0 0 0 0 0 0 0 0 0 0 0 0 0 0 0
    0 0 0 0 0 0 0 0 0 0 0 0 0 0 0 0 0 0 0 0 0 0 0 0 0 0 0 0 0 0 0 0 0 0
    0 0 0 0 0 0 0 0 0 0 0 0 0 0 0 0 0 0 0 0 0 0 0 0 0 0 0 0 0 0 0 0 0 0
    0 0 0 0 0 0 0 0 0 0 0 0 0 0 0 0 0 0 0 0 0 0 0 0 0 0 0 0 0 0 0 0 0 0
    0 0 0 0 0 0 0 0 0 0 0 0 0 0 0 0 0 0 0 0 0 0 0 0 0 0 0 0 0 0 0 0 0 0
    0 0 0 0 0 0 0 0 0 0 0 0 0 0 0 0 0 0 0 0 0 0 0 0 0 0 0 0 0 0 0 0 0 0
    0 0 0 0 0 0 0 0 0 0 0 0 0 0 0 0 0 0 0 0 0 0 0 0 0 0 0 0 0 0 0 0 0 0
    0 0 0 0</cat_ofs>
  <class_labels>
    0 1</class_labels>
  <missing_subst>
    0. 0. 0. 0. 0. 0. 0. 0. 0. 0. 0. 0. 0. 0. 0. 0. 0. 0. 0. 0. 0. 0. 0.
    0. 0. 0. 0. 0. 0. 0. 0. 0. 0. 0. 0. 0. 0. 0. 0. 0. 0. 0. 0. 0. 0. 0.
    0. 0. 0. 0. 0. 0. 0. 0. 0. 0. 0. 0. 0. 0. 0. 0. 0. 0. 0. 0. 0. 0. 0.
    0. 0. 0. 0. 0. 0. 0. 0. 0. 0. 0. 0. 0. 0. 0. 0. 0. 0. 0. 0. 0. 0. 0.
    0. 0. 0. 0. 0. 0. 0. 0. 0. 0. 0. 0. 0. 0. 0. 0. 0. 0. 0. 0. 0. 0. 0.
    0. 0. 0. 0. 0. 0. 0. 0. 0. 0. 0. 0. 0. 0. 0. 0. 0. 0. 0. 0. 0. 0. 0.
    0. 0. 0. 0. 0. 0. 0. 0. 0. 0. 0. 0. 0. 0. 0. 0. 0. 0. 0. 0. 0. 0. 0.
    0. 0. 0. 0. 0. 0. 0. 0. 0. 0. 0. 0. 0. 0. 0. 0. 0. 0. 0. 0. 0. 0. 0.
    0. 0. 0. 0. 0. 0. 0. 0. 0. 0. 0. 0. 0. 0. 0. 0. 0. 0. 0. 0. 0. 0. 0.
    0. 0. 0. 0. 0. 0. 0. 0. 0. 0. 0. 0. 0. 0. 0. 0. 0. 0. 0. 0. 0. 0. 0.
    0. 0. 0. 0. 0. 0. 0. 0. 0. 0. 0. 0. 0. 0. 0. 0. 0. 0. 0. 0. 0. 0. 0.
    0. 0. 0. 0. 0. 0. 0. 0. 0. 0. 0. 0. 0. 0. 0. 0. 0. 0. 0. 0. 0. 0. 0.
    0. 0. 0. 0. 0. 0. 0. 0. 0. 0. 0. 0. 0. 0. 0. 0. 0. 0. 0. 0. 0. 0. 0.
    0. 0. 0. 0. 0. 0. 0. 0. 0. 0. 0. 0. 0. 0. 0. 0. 0. 0. 0. 0. 0. 0. 0.
    0. 0. 0. 0. 0. 0. 0. 0. 0. 0. 0. 0. 0. 0. 0. 0. 0. 0. 0. 0. 0. 0. 0.
    0. 0. 0. 0. 0. 0. 0. 0. 0. 0. 0. 0. 0. 0. 0. 0. 0. 0. 0. 0. 0. 0. 0.
    0. 0. 0. 0. 0. 0. 0. 0. 0. 0. 0. 0. 0. 0. 0. 0. 0. 0. 0. 0. 0. 0. 0.
    0. 0. 0. 0. 0. 0. 0. 0. 0. 0. 0. 0. 0. 0. 0. 0. 0. 0. 0. 0. 0. 0. 0.
    0. 0. 0. 0. 0. 0. 0. 0. 0. 0. 0. 0. 0. 0. 0. 0. 0. 0. 0. 0. 0. 0. 0.
    0. 0. 0. 0. 0. 0. 0. 0. 0. 0. 0. 0. 0. 0. 0. 0. 0. 0. 0. 0. 0. 0. 0.
    0. 0. 0. 0. 0. 0. 0. 0. 0. 0. 0. 0. 0. 0. 0. 0. 0. 0. 0. 0. 0. 0. 0.
    0. 0. 0. 0. 0. 0. 0. 0. 0. 0. 0. 0. 0. 0. 0. 0. 0. 0. 0. 0. 0. 0. 0.
    0. 0. 0. 0. 0. 0. 0. 0. 0. 0. 0. 0. 0. 0. 0. 0. 0. 0. 0. 0. 0. 0. 0.
    0. 0. 0. 0. 0. 0. 0. 0. 0. 0. 0. 0. 0. 0. 0. 0. 0. 0. 0. 0. 0. 0. 0.
    0. 0. 0. 0. 0. 0. 0. 0. 0. 0. 0. 0. 0. 0. 0. 0. 0. 0. 0. 0. 0. 0. 0.
    0. 0. 0. 0. 0. 0. 0. 0. 0. 0. 0. 0. 0. 0. 0. 0. 0. 0. 0. 0. 0. 0. 0.
    0. 0. 0. 0. 0. 0. 0. 0. 0. 0. 0. 0. 0. 0. 0. 0. 0. 0. 0. 0. 0. 0. 0.
    0. 0. 0. 0. 0. 0. 0. 0. 0. 0. 0. 0. 0. 0. 0. 0. 0. 0. 0. 0. 0. 0. 0.
    0. 0. 0. 0. 0. 0. 0. 0. 0. 0. 0. 0. 0. 0. 0. 0. 0. 0. 0. 0. 0. 0. 0.
    0. 0. 0. 0. 0. 0. 0. 0. 0. 0. 0. 0. 0. 0. 0. 0. 0. 0. 0. 0. 0. 0. 0.
    0. 0. 0. 0. 0. 0. 0. 0. 0. 0. 0. 0. 0. 0. 0. 0. 0. 0. 0. 0. 0. 0. 0.
    0. 0. 0. 0. 0. 0. 0. 0. 0. 0. 0. 0. 0. 0. 0. 0. 0. 0. 0. 0. 0. 0. 0.
    0. 0. 0. 0. 0. 0. 0. 0. 0. 0. 0. 0. 0. 0. 0. 0. 0. 0. 0. 0. 0. 0. 0.
    0. 0. 0. 0. 0. 0. 0. 0. 0. 0. 0. 0. 0. 0. 0. 0. 0. 0. 0. 0. 0. 0. 0.
    0. 0. 0.</missing_subst>
  <ntrees>100</ntrees>
  <trees>
    <_>
      <nodes>
        <_>
          <depth>0</depth>
          <value>-1.6099333333333352e+00</value>
          <splits>
            <_><var>487</var>
              <quality>2.6854331493377686e+00</quality>
              <le>5.8823535218834877e-03</le></_></splits></_>
        <_>
          <depth>1</depth>
          <value>-1.8932309407320256e+00</value>
          <splits>
            <_><var>489</var>
              <quality>1.9340443611145020e+00</quality>
              <le>5.5490195751190186e-01</le></_></splits></_>
        <_>
          <depth>2</depth>
          <value>-1.9379352104147751e+00</value></_>
        <_>
          <depth>2</depth>
          <value>-1.6919931856899644e+00</value></_>
        <_>
          <depth>1</depth>
          <value>-1.2797228037248325e+00</value>
          <splits>
            <_><var>657</var>
              <quality>9.9628943204879761e-01</quality>
              <le>4.5686277747154236e-01</le></_></splits></_>
        <_>
          <depth>2</depth>
          <value>-1.7642374390946753e+00</value></_>
        <_>
          <depth>2</depth>
          <value>-2.0675252349461953e-01</value></_></nodes></_>
    <_>
      <nodes>
        <_>
          <depth>0</depth>
          <value>-6.1575388448996249e-01</value>
          <splits>
            <_><var>376</var>
              <quality>5.8455252647399902e-01</quality>
              <le>2.7254903316497803e-01</le></_></splits></_>
        <_>
          <depth>1</depth>
          <value>-9.9881251367149970e-01</value>
          <splits>
            <_><var>349</var>
              <quality>6.2502962350845337e-01</quality>
              <le>8.6862754821777344e-01</le></_></splits></_>
        <_>
          <depth>2</depth>
          <value>-1.0636547954350108e+00</value></_>
        <_>
          <depth>2</depth>
          <value>1.4108073152413259e-01</value></_>
        <_>
          <depth>1</depth>
          <value>-7.9544312195479666e-02</value>
          <splits>
            <_><var>461</var>
              <quality>1.6749149560928345e-01</quality>
              <le>3.1568628549575806e-01</le></_></splits></_>
        <_>
          <depth>2</depth>
          <value>-7.2675433207869700e-01</value></_>
        <_>
          <depth>2</depth>
          <value>5.3172649470145439e-01</value></_></nodes></_>
    <_>
      <nodes>
        <_>
          <depth>0</depth>
          <value>-3.6704157089576234e-01</value>
          <splits>
            <_><var>514</var>
              <quality>3.5095670819282532e-01</quality>
              <le>1.9607844296842813e-03</le></_></splits></_>
        <_>
          <depth>1</depth>
          <value>-8.3203718044527852e-01</value>
          <splits>
            <_><var>516</var>
              <quality>3.9803081750869751e-01</quality>
              <le>3.5098040103912354e-01</le></_></splits></_>
        <_>
          <depth>2</depth>
          <value>-1.0133102102561129e+00</value></_>
        <_>
          <depth>2</depth>
          <value>-2.5971949432569552e-01</value></_>
        <_>
          <depth>1</depth>
          <value>9.7989068324093417e-02</value>
          <splits>
            <_><var>655</var>
              <quality>3.9376360177993774e-01</quality>
              <le>1.3725491240620613e-02</le></_></splits></_>
        <_>
          <depth>2</depth>
          <value>-8.6438172974388194e-01</value></_>
        <_>
          <depth>2</depth>
          <value>9.0636251428055192e-01</value></_></nodes></_>
    <_>
      <nodes>
        <_>
          <depth>0</depth>
          <value>-2.9654935341814020e-01</value>
          <splits>
            <_><var>406</var>
              <quality>2.8863224387168884e-01</quality>
              <le>9.8039228469133377e-03</le></_></splits></_>
        <_>
          <depth>1</depth>
          <value>-1.0875104230536639e+00</value>
          <splits>
            <_><var>486</var>
              <quality>2.9807391762733459e-01</quality>
              <le>8.0980396270751953e-01</le></_></splits></_>
        <_>
          <depth>2</depth>
          <value>-9.2908193387189530e-01</value></_>
        <_>
          <depth>2</depth>
          <value>-1.3689628452585454e+00</value></_>
        <_>
          <depth>1</depth>
          <value>-4.2819128806954744e-02</value>
          <splits>
            <_><var>300</var>
              <quality>2.2048735618591309e-01</quality>
              <le>5.8823535218834877e-03</le></_></splits></_>
        <_>
          <depth>2</depth>
          <value>-4.9320706527223990e-01</value></_>
        <_>
          <depth>2</depth>
          <value>5.9970122520420521e-01</value></_></nodes></_>
    <_>
      <nodes>
        <_>
          <depth>0</depth>
          <value>-1.2041370063517468e-01</value>
          <splits>
            <_><var>660</var>
              <quality>2.1170794963836670e-01</quality>
              <le>1.9607844296842813e-03</le></_></splits></_>
        <_>
          <depth>1</depth>
          <value>-4.8765570290854249e-01</value>
          <splits>
            <_><var>596</var>
              <quality>2.6171761751174927e-01</quality>
              <le>5.8823535218834877e-03</le></_></splits></_>
        <_>
          <depth>2</depth>
          <value>-9.1673839322891104e-01</value></_>
        <_>
          <depth>2</depth>
          <value>1.5323965503250329e-02</value></_>
        <_>
          <depth>1</depth>
          <value>4.4648360382535940e-01</value>
          <splits>
            <_><var>603</var>
              <quality>2.6287776231765747e-01</quality>
              <le>7.9019618034362793e-01</le></_></splits></_>
        <_>
          <depth>2</depth>
          <value>1.1819995147085358e+00</value></_>
        <_>
          <depth>2</depth>
          <value>-2.3875572455256469e-01</value></_></nodes></_>
    <_>
      <nodes>
        <_>
          <depth>0</depth>
          <value>-1.0531423358689401e-01</value>
          <splits>
            <_><var>439</var>
              <quality>1.8941925466060638e-01</quality>
              <le>1.6666667163372040e-01</le></_></splits></_>
        <_>
          <depth>1</depth>
          <value>2.0412967630902917e-01</value>
          <splits>
            <_><var>291</var>
              <quality>2.2346690297126770e-01</quality>
              <le>5.8823535218834877e-03</le></_></splits></_>
        <_>
          <depth>2</depth>
          <value>-4.1756936643731757e-01</value></_>
        <_>
          <depth>2</depth>
          <value>7.0664266167649092e-01</value></_>
        <_>
          <depth>1</depth>
          <value>-7.1164597017265752e-01</value>
          <splits>
            <_><var>521</var>
              <quality>2.1016801893711090e-01</quality>
              <le>1.9607844296842813e-03</le></_></splits></_>
        <_>
          <depth>2</depth>
          <value>-1.8229028119104726e-01</value></_>
        <_>
          <depth>2</depth>
          <value>-9.8757656771683089e-01</value></_></nodes></_>
    <_>
      <nodes>
        <_>
          <depth>0</depth>
          <value>-9.0677625730265277e-02</value>
          <splits>
            <_><var>428</var>
              <quality>1.5620164573192596e-01</quality>
              <le>2.6470589637756348e-01</le></_></splits></_>
        <_>
          <depth>1</depth>
          <value>1.4246832111700430e-01</value>
          <splits>
            <_><var>267</var>
              <quality>1.3310459256172180e-01</quality>
              <le>9.7058832645416260e-01</le></_></splits></_>
        <_>
          <depth>2</depth>
          <value>3.5447996688347105e-01</value></_>
        <_>
          <depth>2</depth>
          <value>-6.5263385016210940e-01</value></_>
        <_>
          <depth>1</depth>
          <value>-7.6064754025148085e-01</value>
          <splits>
            <_><var>378</var>
              <quality>1.7346428334712982e-01</quality>
              <le>9.8235297203063965e-01</le></_></splits></_>
        <_>
          <depth>2</depth>
          <value>-9.5877831275232428e-01</value></_>
        <_>
          <depth>2</depth>
          <value>-1.1100326945366500e-01</value></_></nodes></_>
    <_>
      <nodes>
        <_>
          <depth>0</depth>
          <value>-8.4574570609446315e-02</value>
          <splits>
            <_><var>302</var>
              <quality>1.1139441281557083e-01</quality>
              <le>1.9411766529083252e-01</le></_></splits></_>
        <_>
          <depth>1</depth>
          <value>-2.2343219202921105e-01</value>
          <splits>
            <_><var>155</var>
              <quality>1.4448715746402740e-01</quality>
              <le>1.9607844296842813e-03</le></_></splits></_>
        <_>
          <depth>2</depth>
          <value>-6.6584572197730918e-01</value></_>
        <_>
          <depth>2</depth>
          <value>6.7658290525188666e-02</value></_>
        <_>
          <depth>1</depth>
          <value>7.0823402407441438e-01</value>
          <splits>
            <_><var>382</var>
              <quality>1.5020750463008881e-01</quality>
              <le>5.8823535218834877e-03</le></_></splits></_>
        <_>
          <depth>2</depth>
          <value>-5.4995303624439473e-01</value></_>
        <_>
          <depth>2</depth>
          <value>1.1526139472001693e+00</value></_></nodes></_>
    <_>
      <nodes>
        <_>
          <depth>0</depth>
          <value>-4.5526993287494641e-02</value>
          <splits>
            <_><var>405</var>
              <quality>1.1321096122264862e-01</quality>
              <le>1.3725491240620613e-02</le></_></splits></_>
        <_>
          <depth>1</depth>
          <value>-7.8187521206308008e-01</value>
          <splits>
            <_><var>431</var>
              <quality>1.3048550486564636e-01</quality>
              <le>4.6862748265266418e-01</le></_></splits></_>
        <_>
          <depth>2</depth>
          <value>-1.0338298009843034e+00</value></_>
        <_>
          <depth>2</depth>
          <value>-1.3878656579596529e-01</value></_>
        <_>
          <depth>1</depth>
          <value>1.1349659789831594e-01</value>
          <splits>
            <_><var>290</var>
              <quality>8.7566144764423370e-02</quality>
              <le>5.8823535218834877e-03</le></_></splits></_>
        <_>
          <depth>2</depth>
          <value>-2.1954973691983759e-01</value></_>
        <_>
          <depth>2</depth>
          <value>4.1135226988739759e-01</value></_></nodes></_>
    <_>
      <nodes>
        <_>
          <depth>0</depth>
          <value>-4.4143137825795653e-02</value>
          <splits>
            <_><var>516</var>
              <quality>8.9340999722480774e-02</quality>
              <le>1.9607844296842813e-03</le></_></splits></_>
        <_>
          <depth>1</depth>
          <value>-4.1018020419055767e-01</value>
          <splits>
            <_><var>513</var>
              <quality>2.2435827553272247e-01</quality>
              <le>1.9411766529083252e-01</le></_></splits></_>
        <_>
          <depth>2</depth>
          <value>-9.0436469218626558e-01</value></_>
        <_>
          <depth>2</depth>
          <value>4.2221010999702274e-01</value></_>
        <_>
          <depth>1</depth>
          <value>2.0728762740064205e-01</value>
          <splits>
            <_><var>686</var>
              <quality>1.7046827077865601e-01</quality>
              <le>1.9607844296842813e-03</le></_></splits></_>
        <_>
          <depth>2</depth>
          <value>-1.4909951799548352e-01</value></_>
        <_>
          <depth>2</depth>
          <value>9.3551662712718509e-01</value></_></nodes></_>
    <_>
      <nodes>
        <_>
          <depth>0</depth>
          <value>-6.3961656220959659e-02</value>
          <splits>
            <_><var>598</var>
              <quality>8.0109290778636932e-02</quality>
              <le>9.7058832645416260e-01</le></_></splits></_>
        <_>
          <depth>1</depth>
          <value>1.3565212016775660e-01</value>
          <splits>
            <_><var>429</var>
              <quality>9.0873919427394867e-02</quality>
              <le>6.8627454340457916e-02</le></_></splits></_>
        <_>
          <depth>2</depth>
          <value>4.2302508678827344e-01</value></_>
        <_>
          <depth>2</depth>
          <value>-2.9848553688774215e-01</value></_>
        <_>
          <depth>1</depth>
          <value>-4.6590829436301373e-01</value>
          <splits>
            <_><var>599</var>
              <quality>1.2996779382228851e-01</quality>
              <le>8.5686278343200684e-01</le></_></splits></_>
        <_>
          <depth>2</depth>
          <value>3.7086666988803413e-01</value></_>
        <_>
          <depth>2</depth>
          <value>-6.9920363777784678e-01</value></_></nodes></_>
    <_>
      <nodes>
        <_>
          <depth>0</depth>
          <value>-4.9530850603639612e-02</value>
          <splits>
            <_><var>407</var>
              <quality>7.0832289755344391e-02</quality>
              <le>1.9607844296842813e-03</le></_></splits></_>
        <_>
          <depth>1</depth>
          <value>-7.4372672645221793e-01</value>
          <splits>
            <_><var>436</var>
              <quality>9.7387619316577911e-02</quality>
              <le>8.6470592021942139e-01</le></_></splits></_>
        <_>
          <depth>2</depth>
          <value>-8.7489327080168444e-01</value></_>
        <_>
          <depth>2</depth>
          <value>1.0440586246052557e+00</value></_>
        <_>
          <depth>1</depth>
          <value>5.4331686905707770e-02</value>
          <splits>
            <_><var>349</var>
              <quality>6.7250601947307587e-02</quality>
              <le>4.9607846140861511e-01</le></_></splits></_>
        <_>
          <depth>2</depth>
          <value>-2.0560595026575265e-01</value></_>
        <_>
          <depth>2</depth>
          <value>3.5603049286476174e-01</value></_></nodes></_>
    <_>
      <nodes>
        <_>
          <depth>0</depth>
          <value>-3.2085138844782965e-02</value>
          <splits>
            <_><var>304</var>
              <quality>7.7262014150619507e-02</quality>
              <le>3.7254903465509415e-02</le></_></splits></_>
        <_>
          <depth>1</depth>
          <value>-9.4702409338151550e-02</value>
          <splits>
            <_><var>288</var>
              <quality>6.8302810192108154e-02</quality>
              <le>2.7647060155868530e-01</le></_></splits></_>
        <_>
          <depth>2</depth>
          <value>-2.3261855590436537e-01</value></_>
        <_>
          <depth>2</depth>
          <value>3.8704013455233760e-01</value></_>
        <_>
          <depth>1</depth>
          <value>1.2502966036921734e+00</value>
          <splits>
            <_><var>383</var>
              <quality>1.1346113681793213e-01</quality>
              <le>1.9607844296842813e-03</le></_></splits></_>
        <_>
          <depth>2</depth>
          <value>-2.7370221192068234e-01</value></_>
        <_>
          <depth>2</depth>
          <value>1.9078723959800992e+00</value></_></nodes></_>
    <_>
      <nodes>
        <_>
          <depth>0</depth>
          <value>3.8685808909176326e-03</value>
          <splits>
            <_><var>239</var>
              <quality>5.9094831347465515e-02</quality>
              <le>9.7843146324157715e-01</le></_></splits></_>
        <_>
          <depth>1</depth>
          <value>1.5969991826886357e-01</value>
          <splits>
            <_><var>184</var>
              <quality>9.5022797584533691e-02</quality>
              <le>9.8039228469133377e-03</le></_></splits></_>
        <_>
          <depth>2</depth>
          <value>-4.6304264832677838e-01</value></_>
        <_>
          <depth>2</depth>
          <value>3.4208116291272506e-01</value></_>
        <_>
          <depth>1</depth>
          <value>-3.9521835309763825e-01</value>
          <splits>
            <_><var>540</var>
              <quality>6.9598071277141571e-02</quality>
              <le>1.9607844296842813e-03</le></_></splits></_>
        <_>
          <depth>2</depth>
          <value>-6.3032448393921592e-01</value></_>
        <_>
          <depth>2</depth>
          <value>5.0058113889232363e-02</value></_></nodes></_>
    <_>
      <nodes>
        <_>
          <depth>0</depth>
          <value>-2.4796400467619249e-02</value>
          <splits>
            <_><var>467</var>
              <quality>6.2002237886190414e-02</quality>
              <le>3.3333335071802139e-02</le></_></splits></_>
        <_>
          <depth>1</depth>
          <value>1.5278745971625041e-01</value>
          <splits>
            <_><var>581</var>
              <quality>8.9589029550552368e-02</quality>
              <le>1.9607844296842813e-03</le></_></splits></_>
        <_>
          <depth>2</depth>
          <value>2.8003881200454683e-01</value></_>
        <_>
          <depth>2</depth>
          <value>-7.6635007859291682e-01</value></_>
        <_>
          <depth>1</depth>
          <value>-3.8885523807099864e-01</value>
          <splits>
            <_><var>520</var>
              <quality>8.5682496428489685e-02</quality>
              <le>2.8431373834609985e-01</le></_></splits></_>
        <_>
          <depth>2</depth>
          <value>-1.3573670707793314e-01</value></_>
        <_>
          <depth>2</depth>
          <value>-8.7828965087222266e-01</value></_></nodes></_>
    <_>
      <nodes>
        <_>
          <depth>0</depth>
          <value>-4.6380478891365998e-02</value>
          <splits>
            <_><var>432</var>
              <quality>5.9784237295389175e-02</quality>
              <le>5.8823535218834877e-03</le></_></splits></_>
        <_>
          <depth>1</depth>
          <value>-5.8610752784498599e-01</value>
          <splits>
            <_><var>434</var>
              <quality>7.7670305967330933e-02</quality>
              <le>7.9803931713104248e-01</le></_></splits></_>
        <_>
          <depth>2</depth>
          <value>-8.5298118870986672e-01</value></_>
        <_>
          <depth>2</depth>
          <value>-9.8656045792179126e-02</value></_>
        <_>
          <depth>1</depth>
          <value>6.6231421754631523e-02</value>
          <splits>
            <_><var>541</var>
              <quality>5.6684620678424835e-02</quality>
              <le>1.7647059634327888e-02</le></_></splits></_>
        <_>
          <depth>2</depth>
          <value>-1.9221379330426905e-01</value></_>
        <_>
          <depth>2</depth>
          <value>3.2830237360296677e-01</value></_></nodes></_>
    <_>
      <nodes>
        <_>
          <depth>0</depth>
          <value>-3.1697277699162613e-02</value>
          <splits>
            <_><var>213</var>
              <quality>5.2855152636766434e-02</quality>
              <le>9.8235297203063965e-01</le></_></splits></_>
        <_>
          <depth>1</depth>
          <value>1.4848207322958751e-01</value>
          <splits>
            <_><var>298</var>
              <quality>6.9784350693225861e-02</quality>
              <le>1.9607844296842813e-03</le></_></splits></_>
        <_>
          <depth>2</depth>
          <value>-2.4650165857248635e-01</value></_>
        <_>
          <depth>2</depth>
          <value>3.8915390726004306e-01</value></_>
        <_>
          <depth>1</depth>
          <value>-3.3490820763165541e-01</value>
          <splits>
            <_><var>320</var>
              <quality>7.9465247690677643e-02</quality>
              <le>1.4705882966518402e-01</le></_></splits></_>
        <_>
          <depth>2</depth>
          <value>-6.4706908479666514e-01</value></_>
        <_>
          <depth>2</depth>
          <value>2.4678734740938495e-02</value></_></nodes></_>
    <_>
      <nodes>
        <_>
          <depth>0</depth>
          <value>-2.5067871251700870e-02</value>
          <splits>
            <_><var>271</var>
              <quality>5.3332783281803131e-02</quality>
              <le>9.7843146324157715e-01</le></_></splits></_>
        <_>
          <depth>1</depth>
          <value>1.1996738601397422e-01</value>
          <splits>
            <_><var>272</var>
              <quality>5.5269751697778702e-02</quality>
              <le>1.9607844296842813e-03</le></_></splits></_>
        <_>
          <depth>2</depth>
          <value>-7.0251861734647522e-02</value></_>
        <_>
          <depth>2</depth>
          <value>4.6602682242515275e-01</value></_>
        <_>
          <depth>1</depth>
          <value>-4.0777637872386757e-01</value>
          <splits>
            <_><var>183</var>
              <quality>6.9022163748741150e-02</quality>
              <le>3.9215688593685627e-03</le></_></splits></_>
        <_>
          <depth>2</depth>
          <value>-9.4104721081285359e-01</value></_>
        <_>
          <depth>2</depth>
          <value>-2.2388184021408206e-01</value></_></nodes></_>
    <_>
      <nodes>
        <_>
          <depth>0</depth>
          <value>-1.3612004481076660e-02</value>
          <splits>
            <_><var>315</var>
              <quality>5.4819796234369278e-02</quality>
              <le>3.9803925156593323e-01</le></_></splits></_>
        <_>
          <depth>1</depth>
          <value>-1.0431437037688407e-01</value>
          <splits>
            <_><var>176</var>
              <quality>7.1404360234737396e-02</quality>
              <le>3.7254903465509415e-02</le></_></splits></_>
        <_>
          <depth>2</depth>
          <value>6.4392035960151679e-03</value></_>
        <_>
          <depth>2</depth>
          <value>-7.8177816703216974e-01</value></_>
        <_>
          <depth>1</depth>
          <value>6.2054934942386253e-01</value>
          <splits>
            <_><var>290</var>
              <quality>1.2727068364620209e-01</quality>
              <le>5.5490195751190186e-01</le></_></splits></_>
        <_>
          <depth>2</depth>
          <value>1.4420226783726195e+00</value></_>
        <_>
          <depth>2</depth>
          <value>-2.1399918261475692e-01</value></_></nodes></_>
    <_>
      <nodes>
        <_>
          <depth>0</depth>
          <value>-1.6603162135690980e-02</value>
          <splits>
            <_><var>322</var>
              <quality>5.9839040040969849e-02</quality>
              <le>3.5882353782653809e-01</le></_></splits></_>
        <_>
          <depth>1</depth>
          <value>-2.1367577299315871e-01</value>
          <splits>
            <_><var>347</var>
              <quality>9.1381907463073730e-02</quality>
              <le>1.3725491240620613e-02</le></_></splits></_>
        <_>
          <depth>2</depth>
          <value>-6.4391723510391230e-01</value></_>
        <_>
          <depth>2</depth>
          <value>4.2201945049896813e-02</value></_>
        <_>
          <depth>1</depth>
          <value>3.0156639390844342e-01</value>
          <splits>
            <_><var>489</var>
              <quality>9.5528833568096161e-02</quality>
              <le>9.7843146324157715e-01</le></_></splits></_>
        <_>
          <depth>2</depth>
          <value>6.3371101855975698e-01</value></_>
        <_>
          <depth>2</depth>
          <value>-2.1603353518198484e-01</value></_></nodes></_>
    <_>
      <nodes>
        <_>
          <depth>0</depth>
          <value>-2.9229997088273167e-02</value>
          <splits>
            <_><var>433</var>
              <quality>4.5149799436330795e-02</quality>
              <le>9.9411773681640625e-01</le></_></splits></_>
        <_>
          <depth>1</depth>
          <value>-1.2866342482667273e-01</value>
          <splits>
            <_><var>630</var>
              <quality>5.0123289227485657e-02</quality>
              <le>1.9607844296842813e-03</le></_></splits></_>
        <_>
          <depth>2</depth>
          <value>-5.0631533221743497e-01</value></_>
        <_>
          <depth>2</depth>
          <value>-3.1926860826880133e-03</value></_>
        <_>
          <depth>1</depth>
          <value>4.4014773585199191e-01</value>
          <splits>
            <_><var>437</var>
              <quality>5.8011945337057114e-02</quality>
              <le>7.9803931713104248e-01</le></_></splits></_>
        <_>
          <depth>2</depth>
          <value>6.8927607171117700e-01</value></_>
        <_>
          <depth>2</depth>
          <value>-1.8441297975229978e-01</value></_></nodes></_>
    <_>
      <nodes>
        <_>
          <depth>0</depth>
          <value>-1.9543020248520802e-02</value>
          <splits>
            <_><var>516</var>
              <quality>4.4957898557186127e-02</quality>
              <le>1.9803923368453979e-01</le></_></splits></_>
        <_>
          <depth>1</depth>
          <value>-2.5471352735814590e-01</value>
          <splits>
            <_><var>485</var>
              <quality>1.0976101458072662e-01</quality>
              <le>1.3921569287776947e-01</le></_></splits></_>
        <_>
          <depth>2</depth>
          <value>-6.6373549438686041e-01</value></_>
        <_>
          <depth>2</depth>
          <value>2.0193916889358945e-01</value></_>
        <_>
          <depth>1</depth>
          <value>1.8006690071560419e-01</value>
          <splits>
            <_><var>317</var>
              <quality>7.4230022728443146e-02</quality>
              <le>1.1176471412181854e-01</le></_></splits></_>
        <_>
          <depth>2</depth>
          <value>-9.5288372253997403e-02</value></_>
        <_>
          <depth>2</depth>
          <value>5.8694124716530005e-01</value></_></nodes></_>
    <_>
      <nodes>
        <_>
          <depth>0</depth>
          <value>-1.9638315870054750e-02</value>
          <splits>
            <_><var>426</var>
              <quality>5.2387665957212448e-02</quality>
              <le>4.5294120907783508e-01</le></_></splits></_>
        <_>
          <depth>1</depth>
          <value>3.6328911515492994e-02</value>
          <splits>
            <_><var>375</var>
              <quality>5.0292152911424637e-02</quality>
              <le>9.8627460002899170e-01</le></_></splits></_>
        <_>
          <depth>2</depth>
          <value>1.8478710816895513e-01</value></_>
        <_>
          <depth>2</depth>
          <value>-3.3177371892295637e-01</value></_>
        <_>
          <depth>1</depth>
          <value>-9.9806052933484346e-01</value>
          <splits>
            <_><var>520</var>
              <quality>6.3610576093196869e-02</quality>
              <le>1.9607844296842813e-03</le></_></splits></_>
        <_>
          <depth>2</depth>
          <value>-3.2948326943370837e-01</value></_>
        <_>
          <depth>2</depth>
          <value>-1.3591456708435024e+00</value></_></nodes></_>
    <_>
      <nodes>
        <_>
          <depth>0</depth>
          <value>-2.0790214370069646e-02</value>
          <splits>
            <_><var>570</var>
              <quality>4.3459288775920868e-02</quality>
              <le>9.7843146324157715e-01</le></_></splits></_>
        <_>
          <depth>1</depth>
          <value>1.0891863847116774e-01</value>
          <splits>
            <_><var>657</var>
              <quality>7.4484944343566895e-02</quality>
              <le>9.7843146324157715e-01</le></_></splits></_>
        <_>
          <depth>2</depth>
          <value>3.3194447628995682e-01</value></_>
        <_>
          <depth>2</depth>
          <value>-3.1996642552878457e-01</value></_>
        <_>
          <depth>1</depth>
          <value>-3.7014543058520344e-01</value>
          <splits>
            <_><var>596</var>
              <quality>8.1446789205074310e-02</quality>
              <le>1.9607844296842813e-03</le></_></splits></_>
        <_>
          <depth>2</depth>
          <value>2.1084962058285994e-01</value></_>
        <_>
          <depth>2</depth>
          <value>-6.7933764449529399e-01</value></_></nodes></_>
    <_>
      <nodes>
        <_>
          <depth>0</depth>
          <value>-1.7195101076265016e-02</value>
          <splits>
            <_><var>708</var>
              <quality>4.6646766364574432e-02</quality>
              <le>5.6862749159336090e-02</le></_></splits></_>
        <_>
          <depth>1</depth>
          <value>3.1815933982236491e-02</value>
          <splits>
            <_><var>381</var>
              <quality>4.6296294778585434e-02</quality>
              <le>1.9607844296842813e-03</le></_></splits></_>
        <_>
          <depth>2</depth>
          <value>-3.0033626174173789e-01</value></_>
        <_>
          <depth>2</depth>
          <value>1.8268967355077576e-01</value></_>
        <_>
          <depth>1</depth>
          <value>-1.0128895933942612e+00</value>
          <splits>
            <_><var>567</var>
              <quality>7.4629247188568115e-02</quality>
              <le>4.3137259781360626e-02</le></_></splits></_>
        <_>
          <depth>2</depth>
          <value>-1.3304405867905613e+00</value></_>
        <_>
          <depth>2</depth>
          <value>1.0288154007480961e+00</value></_></nodes></_>
    <_>
      <nodes>
        <_>
          <depth>0</depth>
          <value>-1.4996874954551343e-02</value>
          <splits>
            <_><var>327</var>
              <quality>3.4197315573692322e-02</quality>
              <le>9.8235297203063965e-01</le></_></splits></_>
        <_>
          <depth>1</depth>
          <value>7.9670903131908416e-02</value>
          <splits>
            <_><var>356</var>
              <quality>5.3120627999305725e-02</quality>
              <le>3.7254903465509415e-02</le></_></splits></_>
        <_>
          <depth>2</depth>
          <value>-3.3654450268858445e-02</value></_>
        <_>
          <depth>2</depth>
          <value>6.4069076276027359e-01</value></_>
        <_>
          <depth>1</depth>
          <value>-3.9286909364831524e-01</value>
          <splits>
            <_><var>411</var>
              <quality>5.6246541440486908e-02</quality>
              <le>2.5490198284387589e-02</le></_></splits></_>
        <_>
          <depth>2</depth>
          <value>2.9219264133396049e-02</value></_>
        <_>
          <depth>2</depth>
          <value>-7.2737044131448325e-01</value></_></nodes></_>
    <_>
      <nodes>
        <_>
          <depth>0</depth>
          <value>-7.2844885769123499e-03</value>
          <splits>
            <_><var>662</var>
              <quality>3.0541140586137772e-02</quality>
              <le>1.3529412448406219e-01</le></_></splits></_>
        <_>
          <depth>1</depth>
          <value>-9.9301326134583812e-02</value>
          <splits>
            <_><var>627</var>
              <quality>6.4679153263568878e-02</quality>
              <le>5.8823535218834877e-03</le></_></splits></_>
        <_>
          <depth>2</depth>
          <value>-6.0159601618641312e-01</value></_>
        <_>
          <depth>2</depth>
          <value>5.2370151914671800e-02</value></_>
        <_>
          <depth>1</depth>
          <value>3.4151684835773216e-01</value>
          <splits>
            <_><var>545</var>
              <quality>1.2290089577436447e-01</quality>
              <le>5.4705882072448730e-01</le></_></splits></_>
        <_>
          <depth>2</depth>
          <value>-9.7943172152619079e-02</value></_>
        <_>
          <depth>2</depth>
          <value>1.4863948543170820e+00</value></_></nodes></_>
    <_>
      <nodes>
        <_>
          <depth>0</depth>
          <value>-6.1635285753624995e-03</value>
          <splits>
            <_><var>406</var>
              <quality>3.2614260911941528e-02</quality>
              <le>9.9411773681640625e-01</le></_></splits></_>
        <_>
          <depth>1</depth>
          <value>-1.0161173517864175e-01</value>
          <splits>
            <_><var>628</var>
              <quality>4.1145160794258118e-02</quality>
              <le>9.7843146324157715e-01</le></_></splits></_>
        <_>
          <depth>2</depth>
          <value>7.9999515916885006e-02</value></_>
        <_>
          <depth>2</depth>
          <value>-3.4659574960037759e-01</value></_>
        <_>
          <depth>1</depth>
          <value>3.5311846484384168e-01</value>
          <splits>
            <_><var>243</var>
              <quality>4.0978141129016876e-02</quality>
              <le>6.8627454340457916e-02</le></_></splits></_>
        <_>
          <depth>2</depth>
          <value>2.3230225479590284e-02</value></_>
        <_>
          <depth>2</depth>
          <value>5.9807648976411776e-01</value></_></nodes></_>
    <_>
      <nodes>
        <_>
          <depth>0</depth>
          <value>-8.2916006421590513e-03</value>
          <splits>
            <_><var>321</var>
              <quality>2.8840802609920502e-02</quality>
              <le>3.7450981140136719e-01</le></_></splits></_>
        <_>
          <depth>1</depth>
          <value>-1.5574805146456353e-01</value>
          <splits>
            <_><var>375</var>
              <quality>1.0207694023847580e-01</quality>
              <le>9.8039228469133377e-03</le></_></splits></_>
        <_>
          <depth>2</depth>
          <value>-7.2119993101324964e-01</value></_>
        <_>
          <depth>2</depth>
          <value>1.2778438647285398e-01</value></_>
        <_>
          <depth>1</depth>
          <value>1.9712560811234345e-01</value>
          <splits>
            <_><var>266</var>
              <quality>9.1717012226581573e-02</quality>
              <le>8.2549023628234863e-01</le></_></splits></_>
        <_>
          <depth>2</depth>
          <value>6.1374892334171471e-01</value></_>
        <_>
          <depth>2</depth>
          <value>-2.6415294504126607e-01</value></_></nodes></_>
    <_>
      <nodes>
        <_>
          <depth>0</depth>
          <value>-2.7488029612840872e-02</value>
          <splits>
            <_><var>469</var>
              <quality>3.4082371741533279e-02</quality>
              <le>4.0588238835334778e-01</le></_></splits></_>
        <_>
          <depth>1</depth>
          <value>3.7738710888481193e-02</value>
          <splits>
            <_><var>386</var>
              <quality>3.9185617119073868e-02</quality>
              <le>2.4901962280273438e-01</le></_></splits></_>
        <_>
          <depth>2</depth>
          <value>-5.4585140657064683e-03</value></_>
        <_>
          <depth>2</depth>
          <value>1.0753218337734809e+00</value></_>
        <_>
          <depth>1</depth>
          <value>-5.6592780275228460e-01</value>
          <splits>
            <_><var>523</var>
              <quality>7.2561413049697876e-02</quality>
              <le>3.3137255907058716e-01</le></_></splits></_>
        <_>
          <depth>2</depth>
          <value>2.0178790088902571e-01</value></_>
        <_>
          <depth>2</depth>
          <value>-1.0695258499558224e+00</value></_></nodes></_>
    <_>
      <nodes>
        <_>
          <depth>0</depth>
          <value>-1.3208938841860488e-02</value>
          <splits>
            <_><var>289</var>
              <quality>3.2123792916536331e-02</quality>
              <le>4.1764709353446960e-01</le></_></splits></_>
        <_>
          <depth>1</depth>
          <value>-1.3915198771592238e-01</value>
          <splits>
            <_><var>374</var>
              <quality>7.1010850369930267e-02</quality>
              <le>7.8235304355621338e-01</le></_></splits></_>
        <_>
          <depth>2</depth>
          <value>4.6468043308187025e-02</value></_>
        <_>
          <depth>2</depth>
          <value>-6.2740716772367200e-01</value></_>
        <_>
          <depth>1</depth>
          <value>2.5389741634148721e-01</value>
          <splits>
            <_><var>403</var>
              <quality>6.8866126239299774e-02</quality>
              <le>2.1568629890680313e-02</le></_></splits></_>
        <_>
          <depth>2</depth>
          <value>-5.4632121742642059e-01</value></_>
        <_>
          <depth>2</depth>
          <value>4.5605413114081833e-01</value></_></nodes></_>
    <_>
      <nodes>
        <_>
          <depth>0</depth>
          <value>-1.3242051524391528e-02</value>
          <splits>
            <_><var>711</var>
              <quality>2.7899837121367455e-02</quality>
              <le>4.5098043978214264e-02</le></_></splits></_>
        <_>
          <depth>1</depth>
          <value>3.5966108600910533e-02</value>
          <splits>
            <_><var>182</var>
              <quality>2.8160231187939644e-02</quality>
              <le>9.7843146324157715e-01</le></_></splits></_>
        <_>
          <depth>2</depth>
          <value>1.7714160137714177e-01</value></_>
        <_>
          <depth>2</depth>
          <value>-1.8225603786582151e-01</value></_>
        <_>
          <depth>1</depth>
          <value>-6.0649742443663068e-01</value>
          <splits>
            <_><var>570</var>
              <quality>8.2921616733074188e-02</quality>
              <le>5.0000000000000000e-01</le></_></splits></_>
        <_>
          <depth>2</depth>
          <value>-1.0744645634001067e+00</value></_>
        <_>
          <depth>2</depth>
          <value>1.0427061904647184e+00</value></_></nodes></_>
    <_>
      <nodes>
        <_>
          <depth>0</depth>
          <value>-1.4033918423767161e-02</value>
          <splits>
            <_><var>629</var>
              <quality>3.3600155264139175e-02</quality>
              <le>5.8823535218834877e-03</le></_></splits></_>
        <_>
          <depth>1</depth>
          <value>-3.7392777029962171e-01</value>
          <splits>
            <_><var>684</var>
              <quality>8.6271271109580994e-02</quality>
              <le>2.1568629890680313e-02</le></_></splits></_>
        <_>
          <depth>2</depth>
          <value>-6.4887124156030496e-01</value></_>
        <_>
          <depth>2</depth>
          <value>6.6415907766748605e-01</value></_>
        <_>
          <depth>1</depth>
          <value>8.3694102186063227e-02</value>
          <splits>
            <_><var>298</var>
              <quality>4.8169776797294617e-02</quality>
              <le>1.7647059634327888e-02</le></_></splits></_>
        <_>
          <depth>2</depth>
          <value>-2.3730268768164525e-01</value></_>
        <_>
          <depth>2</depth>
          <value>2.6272783771259955e-01</value></_></nodes></_>
    <_>
      <nodes>
        <_>
          <depth>0</depth>
          <value>-2.3376972198693814e-02</value>
          <splits>
            <_><var>297</var>
              <quality>4.2003903537988663e-02</quality>
              <le>9.7843146324157715e-01</le></_></splits></_>
        <_>
          <depth>1</depth>
          <value>1.0226602770985797e-01</value>
          <splits>
            <_><var>295</var>
              <quality>5.3398370742797852e-02</quality>
              <le>1.9607844296842813e-03</le></_></splits></_>
        <_>
          <depth>2</depth>
          <value>-1.2461548480036326e-01</value></_>
        <_>
          <depth>2</depth>
          <value>3.9347765520467592e-01</value></_>
        <_>
          <depth>1</depth>
          <value>-3.7093694839784408e-01</value>
          <splits>
            <_><var>292</var>
              <quality>7.4932143092155457e-02</quality>
              <le>1.5490196645259857e-01</le></_></splits></_>
        <_>
          <depth>2</depth>
          <value>-7.4652986772721230e-01</value></_>
        <_>
          <depth>2</depth>
          <value>5.3657040473763899e-02</value></_></nodes></_>
    <_>
      <nodes>
        <_>
          <depth>0</depth>
          <value>-1.6057886660102522e-02</value>
          <splits>
            <_><var>434</var>
              <quality>3.6435969173908234e-02</quality>
              <le>1.7647059634327888e-02</le></_></splits></_>
        <_>
          <depth>1</depth>
          <value>-4.7716476120350088e-01</value>
          <splits>
            <_><var>431</var>
              <quality>6.0957226902246475e-02</quality>
              <le>9.8039228469133377e-03</le></_></splits></_>
        <_>
          <depth>2</depth>
          <value>-1.1582207328443463e+00</value></_>
        <_>
          <depth>2</depth>
          <value>-1.9143392766280495e-01</value></_>
        <_>
          <depth>1</depth>
          <value>6.6560386205102087e-02</value>
          <splits>
            <_><var>315</var>
              <quality>3.7203114479780197e-02</quality>
              <le>7.9411768913269043e-01</le></_></splits></_>
        <_>
          <depth>2</depth>
          <value>9.1902753196831520e-04</value></_>
        <_>
          <depth>2</depth>
          <value>7.0255595796972647e-01</value></_></nodes></_>
    <_>
      <nodes>
        <_>
          <depth>0</depth>
          <value>-1.2821396991892619e-02</value>
          <splits>
            <_><var>400</var>
              <quality>3.0084984377026558e-02</quality>
              <le>9.6666669845581055e-01</le></_></splits></_>
        <_>
          <depth>1</depth>
          <value>4.5554284244660077e-02</value>
          <splits>
            <_><var>456</var>
              <quality>4.1528541594743729e-02</quality>
              <le>9.1568636894226074e-01</le></_></splits></_>
        <_>
          <depth>2</depth>
          <value>-8.9486692818648676e-03</value></_>
        <_>
          <depth>2</depth>
          <value>8.9629035575268612e-01</value></_>
        <_>
          <depth>1</depth>
          <value>-5.5249964341622670e-01</value>
          <splits>
            <_><var>345</var>
              <quality>7.3112711310386658e-02</quality>
              <le>6.0588240623474121e-01</le></_></splits></_>
        <_>
          <depth>2</depth>
          <value>6.2040634257206462e-01</value></_>
        <_>
          <depth>2</depth>
          <value>-9.6446972944868414e-01</value></_></nodes></_>
    <_>
      <nodes>
        <_>
          <depth>0</depth>
          <value>-1.7627429813622107e-02</value>
          <splits>
            <_><var>458</var>
              <quality>3.1473178416490555e-02</quality>
              <le>9.8235297203063965e-01</le></_></splits></_>
        <_>
          <depth>1</depth>
          <value>8.3401039269365457e-02</value>
          <splits>
            <_><var>457</var>
              <quality>6.1008706688880920e-02</quality>
              <le>7.1568632125854492e-01</le></_></splits></_>
        <_>
          <depth>2</depth>
          <value>-6.8584652313012535e-03</value></_>
        <_>
          <depth>2</depth>
          <value>9.3911689406603938e-01</value></_>
        <_>
          <depth>1</depth>
          <value>-3.4247626042202467e-01</value>
          <splits>
            <_><var>568</var>
              <quality>7.0287123322486877e-02</quality>
              <le>1.9607844296842813e-03</le></_></splits></_>
        <_>
          <depth>2</depth>
          <value>-7.9823152483273974e-01</value></_>
        <_>
          <depth>2</depth>
          <value>8.4494703832740492e-02</value></_></nodes></_>
    <_>
      <nodes>
        <_>
          <depth>0</depth>
          <value>-8.0679362629401778e-03</value>
          <splits>
            <_><var>407</var>
              <quality>2.7498118579387665e-02</quality>
              <le>9.9803924560546875e-01</le></_></splits></_>
        <_>
          <depth>1</depth>
          <value>-5.3586853422961975e-02</value>
          <splits>
            <_><var>655</var>
              <quality>3.2832566648721695e-02</quality>
              <le>9.7843146324157715e-01</le></_></splits></_>
        <_>
          <depth>2</depth>
          <value>6.2687497779636642e-02</value></_>
        <_>
          <depth>2</depth>
          <value>-3.4744932717092103e-01</value></_>
        <_>
          <depth>1</depth>
          <value>6.2640243936771078e-01</value>
          <splits>
            <_><var>317</var>
              <quality>4.0013600140810013e-02</quality>
              <le>7.6274514198303223e-01</le></_></splits></_>
        <_>
          <depth>2</depth>
          <value>3.4252383607012565e-01</value></_>
        <_>
          <depth>2</depth>
          <value>1.4606682801527027e+00</value></_></nodes></_>
    <_>
      <nodes>
        <_>
          <depth>0</depth>
          <value>-4.4942274106701220e-03</value>
          <splits>
            <_><var>515</var>
              <quality>2.3787589743733406e-02</quality>
              <le>3.3137255907058716e-01</le></_></splits></_>
        <_>
          <depth>1</depth>
          <value>-1.5968905269486883e-01</value>
          <splits>
            <_><var>353</var>
              <quality>5.6477427482604980e-02</quality>
              <le>1.9607844296842813e-03</le></_></splits></_>
        <_>
          <depth>2</depth>
          <value>-5.8700421928875679e-01</value></_>
        <_>
          <depth>2</depth>
          <value>5.3690641027772462e-02</value></_>
        <_>
          <depth>1</depth>
          <value>1.5671925378778148e-01</value>
          <splits>
            <_><var>484</var>
              <quality>7.5871042907238007e-02</quality>
              <le>2.5294119119644165e-01</le></_></splits></_>
        <_>
          <depth>2</depth>
          <value>3.4239570765464622e-01</value></_>
        <_>
          <depth>2</depth>
          <value>-5.8793982808789902e-01</value></_></nodes></_>
    <_>
      <nodes>
        <_>
          <depth>0</depth>
          <value>-1.2337680347888850e-02</value>
          <splits>
            <_><var>264</var>
              <quality>3.0231641605496407e-02</quality>
              <le>1.9607844296842813e-03</le></_></splits></_>
        <_>
          <depth>1</depth>
          <value>-2.4980109157140204e-01</value>
          <splits>
            <_><var>346</var>
              <quality>1.2052965909242630e-01</quality>
              <le>3.7254903465509415e-02</le></_></splits></_>
        <_>
          <depth>2</depth>
          <value>-6.6700460228814806e-01</value></_>
        <_>
          <depth>2</depth>
          <value>4.4618666696490333e-01</value></_>
        <_>
          <depth>1</depth>
          <value>1.2103272388089904e-01</value>
          <splits>
            <_><var>210</var>
              <quality>4.7919247299432755e-02</quality>
              <le>9.5882356166839600e-01</le></_></splits></_>
        <_>
          <depth>2</depth>
          <value>3.7584337781917265e-01</value></_>
        <_>
          <depth>2</depth>
          <value>-1.3061543555218608e-01</value></_></nodes></_>
    <_>
      <nodes>
        <_>
          <depth>0</depth>
          <value>-2.0049685874246371e-02</value>
          <splits>
            <_><var>409</var>
              <quality>3.2247766852378845e-02</quality>
              <le>9.7058832645416260e-01</le></_></splits></_>
        <_>
          <depth>1</depth>
          <value>1.0346112742919809e-01</value>
          <splits>
            <_><var>491</var>
              <quality>5.1175884902477264e-02</quality>
              <le>3.3333335071802139e-02</le></_></splits></_>
        <_>
          <depth>2</depth>
          <value>-2.0374388245586370e-01</value></_>
        <_>
          <depth>2</depth>
          <value>3.2371901847753792e-01</value></_>
        <_>
          <depth>1</depth>
          <value>-2.9162996949834269e-01</value>
          <splits>
            <_><var>512</var>
              <quality>6.6123850643634796e-02</quality>
              <le>4.1176471859216690e-02</le></_></splits></_>
        <_>
          <depth>2</depth>
          <value>-5.8046205859715416e-01</value></_>
        <_>
          <depth>2</depth>
          <value>1.8478714320906139e-01</value></_></nodes></_>
    <_>
      <nodes>
        <_>
          <depth>0</depth>
          <value>-1.2066004190864602e-02</value>
          <splits>
            <_><var>324</var>
              <quality>2.6755340397357941e-02</quality>
              <le>9.8235297203063965e-01</le></_></splits></_>
        <_>
          <depth>1</depth>
          <value>8.7084192032437641e-02</value>
          <splits>
            <_><var>544</var>
              <quality>4.4018633663654327e-02</quality>
              <le>6.8627454340457916e-02</le></_></splits></_>
        <_>
          <depth>2</depth>
          <value>-1.8945992380343685e-01</value></_>
        <_>
          <depth>2</depth>
          <value>2.8600346886310762e-01</value></_>
        <_>
          <depth>1</depth>
          <value>-2.9464864828509613e-01</value>
          <splits>
            <_><var>631</var>
              <quality>6.6444411873817444e-02</quality>
              <le>1.9607844296842813e-03</le></_></splits></_>
        <_>
          <depth>2</depth>
          <value>-9.6956611847901619e-01</value></_>
        <_>
          <depth>2</depth>
          <value>-2.4301502962741896e-02</value></_></nodes></_>
    <_>
      <nodes>
        <_>
          <depth>0</depth>
          <value>-1.0826653904960990e-02</value>
          <splits>
            <_><var>572</var>
              <quality>3.4066811203956604e-02</quality>
              <le>9.7450983524322510e-01</le></_></splits></_>
        <_>
          <depth>1</depth>
          <value>1.0909967331339875e-01</value>
          <splits>
            <_><var>632</var>
              <quality>4.2496811598539352e-02</quality>
              <le>9.5490205287933350e-01</le></_></splits></_>
        <_>
          <depth>2</depth>
          <value>2.5312339550443158e-01</value></_>
        <_>
          <depth>2</depth>
          <value>-2.4383634711396082e-01</value></_>
        <_>
          <depth>1</depth>
          <value>-3.0886634692628795e-01</value>
          <splits>
            <_><var>659</var>
              <quality>6.8195149302482605e-02</quality>
              <le>1.5490196645259857e-01</le></_></splits></_>
        <_>
          <depth>2</depth>
          <value>-6.3302819622217010e-01</value></_>
        <_>
          <depth>2</depth>
          <value>1.6862741363192127e-01</value></_></nodes></_>
    <_>
      <nodes>
        <_>
          <depth>0</depth>
          <value>-1.7779863592928456e-02</value>
          <splits>
            <_><var>186</var>
              <quality>2.8205048292875290e-02</quality>
              <le>1.3725491240620613e-02</le></_></splits></_>
        <_>
          <depth>1</depth>
          <value>-2.5426060317771432e-01</value>
          <splits>
            <_><var>293</var>
              <quality>6.9249816238880157e-02</quality>
              <le>7.8627455234527588e-01</le></_></splits></_>
        <_>
          <depth>2</depth>
          <value>5.5166858807087785e-02</value></_>
        <_>
          <depth>2</depth>
          <value>-7.2942248477475236e-01</value></_>
        <_>
          <depth>1</depth>
          <value>1.0643120607527154e-01</value>
          <splits>
            <_><var>343</var>
              <quality>3.3818546682596207e-02</quality>
              <le>4.8431375622749329e-01</le></_></splits></_>
        <_>
          <depth>2</depth>
          <value>3.1955830740202987e-02</value></_>
        <_>
          <depth>2</depth>
          <value>6.8338873444437964e-01</value></_></nodes></_>
    <_>
      <nodes>
        <_>
          <depth>0</depth>
          <value>-1.2167103774652141e-02</value>
          <splits>
            <_><var>322</var>
              <quality>3.5989262163639069e-02</quality>
              <le>2.1568629890680313e-02</le></_></splits></_>
        <_>
          <depth>1</depth>
          <value>-2.3194224984040737e-01</value>
          <splits>
            <_><var>408</var>
              <quality>5.1073804497718811e-02</quality>
              <le>9.6274518966674805e-01</le></_></splits></_>
        <_>
          <depth>2</depth>
          <value>2.4725967832195817e-02</value></_>
        <_>
          <depth>2</depth>
          <value>-4.9991506542141295e-01</value></_>
        <_>
          <depth>1</depth>
          <value>1.5953435518342204e-01</value>
          <splits>
            <_><var>376</var>
              <quality>6.2424238771200180e-02</quality>
              <le>2.0196080207824707e-01</le></_></splits></_>
        <_>
          <depth>2</depth>
          <value>7.2338604178566157e-01</value></_>
        <_>
          <depth>2</depth>
          <value>-2.9123597281930807e-03</value></_></nodes></_>
    <_>
      <nodes>
        <_>
          <depth>0</depth>
          <value>-5.3294177241477239e-03</value>
          <splits>
            <_><var>380</var>
              <quality>2.9070688411593437e-02</quality>
              <le>2.1568629890680313e-02</le></_></splits></_>
        <_>
          <depth>1</depth>
          <value>-3.4748961962048303e-01</value>
          <splits>
            <_><var>463</var>
              <quality>5.8676443994045258e-02</quality>
              <le>1.9411766529083252e-01</le></_></splits></_>
        <_>
          <depth>2</depth>
          <value>-9.3669404762514052e-01</value></_>
        <_>
          <depth>2</depth>
          <value>-4.6172640777565520e-02</value></_>
        <_>
          <depth>1</depth>
          <value>8.4021591639131352e-02</value>
          <splits>
            <_><var>431</var>
              <quality>3.4702558070421219e-02</quality>
              <le>2.7647060155868530e-01</le></_></splits></_>
        <_>
          <depth>2</depth>
          <value>-1.7451048504992656e-01</value></_>
        <_>
          <depth>2</depth>
          <value>2.3490634847286448e-01</value></_></nodes></_>
    <_>
      <nodes>
        <_>
          <depth>0</depth>
          <value>-1.2694182420381077e-02</value>
          <splits>
            <_><var>353</var>
              <quality>2.3826306685805321e-02</quality>
              <le>9.7843146324157715e-01</le></_></splits></_>
        <_>
          <depth>1</depth>
          <value>9.2910399680712671e-02</value>
          <splits>
            <_><var>629</var>
              <quality>3.1741730868816376e-02</quality>
              <le>9.7058832645416260e-01</le></_></splits></_>
        <_>
          <depth>2</depth>
          <value>2.5242502911598325e-01</value></_>
        <_>
          <depth>2</depth>
          <value>-1.5618060199736086e-01</value></_>
        <_>
          <depth>1</depth>
          <value>-2.4866309316709348e-01</value>
          <splits>
            <_><var>603</var>
              <quality>4.4489674270153046e-02</quality>
              <le>1.7647059634327888e-02</le></_></splits></_>
        <_>
          <depth>2</depth>
          <value>-7.2197805016476568e-01</value></_>
        <_>
          <depth>2</depth>
          <value>-5.9272050041542221e-02</value></_></nodes></_>
    <_>
      <nodes>
        <_>
          <depth>0</depth>
          <value>-7.3666065756284420e-03</value>
          <splits>
            <_><var>600</var>
              <quality>2.5472939014434814e-02</quality>
              <le>1.5882353484630585e-01</le></_></splits></_>
        <_>
          <depth>1</depth>
          <value>-2.4754709261061345e-01</value>
          <splits>
            <_><var>574</var>
              <quality>4.5909207314252853e-02</quality>
              <le>3.7058824300765991e-01</le></_></splits></_>
        <_>
          <depth>2</depth>
          <value>-4.3899795828407923e-01</value></_>
        <_>
          <depth>2</depth>
          <value>2.2894238033668851e-01</value></_>
        <_>
          <depth>1</depth>
          <value>1.0404784516746030e-01</value>
          <splits>
            <_><var>601</var>
              <quality>4.5005951076745987e-02</quality>
              <le>9.5882356166839600e-01</le></_></splits></_>
        <_>
          <depth>2</depth>
          <value>3.4628084712629387e-01</value></_>
        <_>
          <depth>2</depth>
          <value>-1.3755997563241448e-01</value></_></nodes></_>
    <_>
      <nodes>
        <_>
          <depth>0</depth>
          <value>-7.8682761840228772e-03</value>
          <splits>
            <_><var>658</var>
              <quality>1.6435615718364716e-02</quality>
              <le>9.7450983524322510e-01</le></_></splits></_>
        <_>
          <depth>1</depth>
          <value>7.9283011136888987e-02</value>
          <splits>
            <_><var>464</var>
              <quality>3.2651331275701523e-02</quality>
              <le>9.6666669845581055e-01</le></_></splits></_>
        <_>
          <depth>2</depth>
          <value>2.0642319601182488e-01</value></_>
        <_>
          <depth>2</depth>
          <value>-2.6071507978692715e-01</value></_>
        <_>
          <depth>1</depth>
          <value>-2.0567147554909693e-01</value>
          <splits>
            <_><var>517</var>
              <quality>5.8316454291343689e-02</quality>
              <le>5.9803926944732666e-01</le></_></splits></_>
        <_>
          <depth>2</depth>
          <value>-5.2578271129992515e-01</value></_>
        <_>
          <depth>2</depth>
          <value>2.8918801733349031e-01</value></_></nodes></_>
    <_>
      <nodes>
        <_>
          <depth>0</depth>
          <value>-8.9831955845667312e-03</value>
          <splits>
            <_><var>182</var>
              <quality>2.5165181607007980e-02</quality>
              <le>1.9607844296842813e-03</le></_></splits></_>
        <_>
          <depth>1</depth>
          <value>-2.9045007539196849e-01</value>
          <splits>
            <_><var>594</var>
              <quality>5.6513067334890366e-02</quality>
              <le>4.9215689301490784e-01</le></_></splits></_>
        <_>
          <depth>2</depth>
          <value>-4.2615540163962579e-01</value></_>
        <_>
          <depth>2</depth>
          <value>8.4127789950993581e-01</value></_>
        <_>
          <depth>1</depth>
          <value>8.4843701163691665e-02</value>
          <splits>
            <_><var>436</var>
              <quality>3.8805481046438217e-02</quality>
              <le>3.1568628549575806e-01</le></_></splits></_>
        <_>
          <depth>2</depth>
          <value>-1.9562779239521055e-01</value></_>
        <_>
          <depth>2</depth>
          <value>2.5336867869837437e-01</value></_></nodes></_>
    <_>
      <nodes>
        <_>
          <depth>0</depth>
          <value>-7.8812992752040865e-03</value>
          <splits>
            <_><var>290</var>
              <quality>2.2086985409259796e-02</quality>
              <le>6.4117646217346191e-01</le></_></splits></_>
        <_>
          <depth>1</depth>
          <value>-1.1973514657919505e-01</value>
          <splits>
            <_><var>317</var>
              <quality>5.3668007254600525e-02</quality>
              <le>3.9803925156593323e-01</le></_></splits></_>
        <_>
          <depth>2</depth>
          <value>-2.2482546993177299e-01</value></_>
        <_>
          <depth>2</depth>
          <value>5.7146258224845325e-01</value></_>
        <_>
          <depth>1</depth>
          <value>1.9941945640236919e-01</value>
          <splits>
            <_><var>348</var>
              <quality>5.3695946931838989e-02</quality>
              <le>4.5294120907783508e-01</le></_></splits></_>
        <_>
          <depth>2</depth>
          <value>-1.3165623267014306e-01</value></_>
        <_>
          <depth>2</depth>
          <value>5.6642789563309626e-01</value></_></nodes></_>
    <_>
      <nodes>
        <_>
          <depth>0</depth>
          <value>-4.1290921992976314e-03</value>
          <splits>
            <_><var>345</var>
              <quality>2.0486146211624146e-02</quality>
              <le>9.8627460002899170e-01</le></_></splits></_>
        <_>
          <depth>1</depth>
          <value>6.3455664216312338e-02</value>
          <splits>
            <_><var>630</var>
              <quality>3.3406492322683334e-02</quality>
              <le>9.6274518966674805e-01</le></_></splits></_>
        <_>
          <depth>2</depth>
          <value>2.2271164800678236e-01</value></_>
        <_>
          <depth>2</depth>
          <value>-1.7887623868882849e-01</value></_>
        <_>
          <depth>1</depth>
          <value>-3.2295111145240379e-01</value>
          <splits>
            <_><var>318</var>
              <quality>4.8861756920814514e-02</quality>
              <le>6.9607841968536377e-01</le></_></splits></_>
        <_>
          <depth>2</depth>
          <value>4.1893812998310703e-01</value></_>
        <_>
          <depth>2</depth>
          <value>-5.7874257489854408e-01</value></_></nodes></_>
    <_>
      <nodes>
        <_>
          <depth>0</depth>
          <value>-7.8006435830511329e-03</value>
          <splits>
            <_><var>629</var>
              <quality>2.0294528454542160e-02</quality>
              <le>1.0784314572811127e-01</le></_></splits></_>
        <_>
          <depth>1</depth>
          <value>-2.6516820912522993e-01</value>
          <splits>
            <_><var>516</var>
              <quality>3.7515658885240555e-02</quality>
              <le>8.5294127464294434e-01</le></_></splits></_>
        <_>
          <depth>2</depth>
          <value>-2.1212413853035918e-03</value></_>
        <_>
          <depth>2</depth>
          <value>-6.1480482365768430e-01</value></_>
        <_>
          <depth>1</depth>
          <value>7.4967488341836405e-02</value>
          <splits>
            <_><var>627</var>
              <quality>2.2061722353100777e-02</quality>
              <le>7.5882363319396973e-01</le></_></splits></_>
        <_>
          <depth>2</depth>
          <value>2.5812090663089282e-01</value></_>
        <_>
          <depth>2</depth>
          <value>-6.1918467584174360e-02</value></_></nodes></_>
    <_>
      <nodes>
        <_>
          <depth>0</depth>
          <value>-7.9441190811327129e-03</value>
          <splits>
            <_><var>459</var>
              <quality>2.0502014085650444e-02</quality>
              <le>1.9019609689712524e-01</le></_></splits></_>
        <_>
          <depth>1</depth>
          <value>-1.9936139436430017e-01</value>
          <splits>
            <_><var>457</var>
              <quality>5.2383199334144592e-02</quality>
              <le>5.1176476478576660e-01</le></_></splits></_>
        <_>
          <depth>2</depth>
          <value>-3.2882222815262102e-01</value></_>
        <_>
          <depth>2</depth>
          <value>6.4481430956493713e-01</value></_>
        <_>
          <depth>1</depth>
          <value>1.0447023455892537e-01</value>
          <splits>
            <_><var>570</var>
              <quality>3.9133064448833466e-02</quality>
              <le>2.2549021244049072e-01</le></_></splits></_>
        <_>
          <depth>2</depth>
          <value>-1.6309349619282762e-01</value></_>
        <_>
          <depth>2</depth>
          <value>3.0804915165336749e-01</value></_></nodes></_>
    <_>
      <nodes>
        <_>
          <depth>0</depth>
          <value>-6.7755103021192864e-03</value>
          <splits>
            <_><var>441</var>
              <quality>2.4228358641266823e-02</quality>
              <le>1.7647059634327888e-02</le></_></splits></_>
        <_>
          <depth>1</depth>
          <value>5.8818892334616374e-02</value>
          <splits>
            <_><var>155</var>
              <quality>2.4963175877928734e-02</quality>
              <le>9.7058832645416260e-01</le></_></splits></_>
        <_>
          <depth>2</depth>
          <value>1.5557668332847202e-01</value></_>
        <_>
          <depth>2</depth>
          <value>-2.2290117932624032e-01</value></_>
        <_>
          <depth>1</depth>
          <value>-3.9488420356465154e-01</value>
          <splits>
            <_><var>521</var>
              <quality>4.4681753963232040e-02</quality>
              <le>9.6078440546989441e-02</le></_></splits></_>
        <_>
          <depth>2</depth>
          <value>-1.0649552374434014e-01</value></_>
        <_>
          <depth>2</depth>
          <value>-9.8224677219200829e-01</value></_></nodes></_>
    <_>
      <nodes>
        <_>
          <depth>0</depth>
          <value>-8.9645052201004667e-03</value>
          <splits>
            <_><var>209</var>
              <quality>1.6719928011298180e-02</quality>
              <le>9.9803924560546875e-01</le></_></splits></_>
        <_>
          <depth>1</depth>
          <value>-2.8097698901421556e-02</value>
          <splits>
            <_><var>571</var>
              <quality>1.9669221714138985e-02</quality>
              <le>9.8235297203063965e-01</le></_></splits></_>
        <_>
          <depth>2</depth>
          <value>5.4867108799145727e-02</value></_>
        <_>
          <depth>2</depth>
          <value>-2.7335423813478665e-01</value></_>
        <_>
          <depth>1</depth>
          <value>9.0670180797126154e-01</value>
          <splits>
            <_><var>294</var>
              <quality>2.8747631236910820e-02</quality>
              <le>5.2745103836059570e-01</le></_></splits></_>
        <_>
          <depth>2</depth>
          <value>3.4560425881010615e-01</value></_>
        <_>
          <depth>2</depth>
          <value>2.0764743392858191e+00</value></_></nodes></_>
    <_>
      <nodes>
        <_>
          <depth>0</depth>
          <value>-6.1270608538872805e-03</value>
          <splits>
            <_><var>489</var>
              <quality>1.9483583047986031e-02</quality>
              <le>2.0588237047195435e-01</le></_></splits></_>
        <_>
          <depth>1</depth>
          <value>-1.8227362628301672e-01</value>
          <splits>
            <_><var>350</var>
              <quality>5.8759402483701706e-02</quality>
              <le>9.9019610881805420e-01</le></_></splits></_>
        <_>
          <depth>2</depth>
          <value>-4.0280397852091193e-01</value></_>
        <_>
          <depth>2</depth>
          <value>3.7263787074476090e-01</value></_>
        <_>
          <depth>1</depth>
          <value>1.1009246644157027e-01</value>
          <splits>
            <_><var>212</var>
              <quality>3.9400923997163773e-02</quality>
              <le>5.8823535218834877e-03</le></_></splits></_>
        <_>
          <depth>2</depth>
          <value>-3.4147172288342559e-01</value></_>
        <_>
          <depth>2</depth>
          <value>2.3569900891101095e-01</value></_></nodes></_>
    <_>
      <nodes>
        <_>
          <depth>0</depth>
          <value>-7.8755737738236929e-03</value>
          <splits>
            <_><var>323</var>
              <quality>2.4548811838030815e-02</quality>
              <le>9.7843146324157715e-01</le></_></splits></_>
        <_>
          <depth>1</depth>
          <value>8.3699613769004061e-02</value>
          <splits>
            <_><var>322</var>
              <quality>3.3559888601303101e-02</quality>
              <le>4.6078434586524963e-01</le></_></splits></_>
        <_>
          <depth>2</depth>
          <value>-3.5493681814834845e-02</value></_>
        <_>
          <depth>2</depth>
          <value>4.1771589556601169e-01</value></_>
        <_>
          <depth>1</depth>
          <value>-2.8938087474497926e-01</value>
          <splits>
            <_><var>511</var>
              <quality>4.3311819434165955e-02</quality>
              <le>2.8431373834609985e-01</le></_></splits></_>
        <_>
          <depth>2</depth>
          <value>-4.3741974464633032e-01</value></_>
        <_>
          <depth>2</depth>
          <value>3.9962811870601611e-01</value></_></nodes></_>
    <_>
      <nodes>
        <_>
          <depth>0</depth>
          <value>-4.6666943047460685e-03</value>
          <splits>
            <_><var>290</var>
              <quality>2.0268229767680168e-02</quality>
              <le>6.4117646217346191e-01</le></_></splits></_>
        <_>
          <depth>1</depth>
          <value>-1.1092213295010865e-01</value>
          <splits>
            <_><var>313</var>
              <quality>3.8875814527273178e-02</quality>
              <le>9.8235297203063965e-01</le></_></splits></_>
        <_>
          <depth>2</depth>
          <value>-1.3766550400905564e-01</value></_>
        <_>
          <depth>2</depth>
          <value>1.7697621603886291e+00</value></_>
        <_>
          <depth>1</depth>
          <value>1.9591852095839932e-01</value>
          <splits>
            <_><var>264</var>
              <quality>4.4682268053293228e-02</quality>
              <le>6.1764705181121826e-01</le></_></splits></_>
        <_>
          <depth>2</depth>
          <value>5.7412993169705850e-01</value></_>
        <_>
          <depth>2</depth>
          <value>-6.1713521019534340e-02</value></_></nodes></_>
    <_>
      <nodes>
        <_>
          <depth>0</depth>
          <value>1.3628498841747258e-03</value>
          <splits>
            <_><var>573</var>
              <quality>1.9194195047020912e-02</quality>
              <le>8.7647068500518799e-01</le></_></splits></_>
        <_>
          <depth>1</depth>
          <value>9.9889654854964510e-02</value>
          <splits>
            <_><var>126</var>
              <quality>4.3019581586122513e-02</quality>
              <le>8.0392159521579742e-02</le></_></splits></_>
        <_>
          <depth>2</depth>
          <value>-2.8627982238571770e-02</value></_>
        <_>
          <depth>2</depth>
          <value>5.4391605891360728e-01</value></_>
        <_>
          <depth>1</depth>
          <value>-2.0368390680832643e-01</value>
          <splits>
            <_><var>574</var>
              <quality>4.0788292884826660e-02</quality>
              <le>4.2941179871559143e-01</le></_></splits></_>
        <_>
          <depth>2</depth>
          <value>5.0958901434653103e-01</value></_>
        <_>
          <depth>2</depth>
          <value>-3.3098644341492295e-01</value></_></nodes></_>
    <_>
      <nodes>
        <_>
          <depth>0</depth>
          <value>-9.3774904198792846e-03</value>
          <splits>
            <_><var>265</var>
              <quality>2.1221099421381950e-02</quality>
              <le>2.0980393886566162e-01</le></_></splits></_>
        <_>
          <depth>1</depth>
          <value>-1.6949216791171640e-01</value>
          <splits>
            <_><var>514</var>
              <quality>5.4519213736057281e-02</quality>
              <le>1.9607844296842813e-03</le></_></splits></_>
        <_>
          <depth>2</depth>
          <value>1.8613866596979292e-01</value></_>
        <_>
          <depth>2</depth>
          <value>-4.3601922434154433e-01</value></_>
        <_>
          <depth>1</depth>
          <value>1.2958701387739363e-01</value>
          <splits>
            <_><var>352</var>
              <quality>5.5853489786386490e-02</quality>
              <le>2.9411766678094864e-02</le></_></splits></_>
        <_>
          <depth>2</depth>
          <value>-3.1967400269956875e-01</value></_>
        <_>
          <depth>2</depth>
          <value>3.3665649964161787e-01</value></_></nodes></_>
    <_>
      <nodes>
        <_>
          <depth>0</depth>
          <value>-5.0437966300379529e-03</value>
          <splits>
            <_><var>330</var>
              <quality>2.2761559113860130e-02</quality>
              <le>2.5490198284387589e-02</le></_></splits></_>
        <_>
          <depth>1</depth>
          <value>-6.8039196881979652e-02</value>
          <splits>
            <_><var>593</var>
              <quality>3.0596977099776268e-02</quality>
              <le>9.6078440546989441e-02</le></_></splits></_>
        <_>
          <depth>2</depth>
          <value>-2.2564331432705299e-02</value></_>
        <_>
          <depth>2</depth>
          <value>-7.9192147275246216e-01</value></_>
        <_>
          <depth>1</depth>
          <value>3.7489332318740015e-01</value>
          <splits>
            <_><var>300</var>
              <quality>5.5823732167482376e-02</quality>
              <le>3.4313726425170898e-01</le></_></splits></_>
        <_>
          <depth>2</depth>
          <value>1.1234739861231047e+00</value></_>
        <_>
          <depth>2</depth>
          <value>1.0705709501316520e-02</value></_></nodes></_>
    <_>
      <nodes>
        <_>
          <depth>0</depth>
          <value>4.7470999098677448e-03</value>
          <splits>
            <_><var>403</var>
              <quality>1.9969750195741653e-02</quality>
              <le>9.8627460002899170e-01</le></_></splits></_>
        <_>
          <depth>1</depth>
          <value>1.0999192046261623e-01</value>
          <splits>
            <_><var>430</var>
              <quality>3.5198424011468887e-02</quality>
              <le>1.0392157733440399e-01</le></_></splits></_>
        <_>
          <depth>2</depth>
          <value>-6.4449488165917376e-02</value></_>
        <_>
          <depth>2</depth>
          <value>3.6507461680496678e-01</value></_>
        <_>
          <depth>1</depth>
          <value>-1.9477128840705429e-01</value>
          <splits>
            <_><var>376</var>
              <quality>4.8921249806880951e-02</quality>
              <le>2.8039216995239258e-01</le></_></splits></_>
        <_>
          <depth>2</depth>
          <value>8.1743950283403777e-01</value></_>
        <_>
          <depth>2</depth>
          <value>-3.0461426867418334e-01</value></_></nodes></_>
    <_>
      <nodes>
        <_>
          <depth>0</depth>
          <value>-1.3574909027001425e-03</value>
          <splits>
            <_><var>377</var>
              <quality>2.2130034863948822e-02</quality>
              <le>5.7058823108673096e-01</le></_></splits></_>
        <_>
          <depth>1</depth>
          <value>-1.8033631321551455e-01</value>
          <splits>
            <_><var>485</var>
              <quality>4.1532166302204132e-02</quality>
              <le>1.0000000894069672e-01</le></_></splits></_>
        <_>
          <depth>2</depth>
          <value>5.1083481673128296e-02</value></_>
        <_>
          <depth>2</depth>
          <value>-4.8852153443940277e-01</value></_>
        <_>
          <depth>1</depth>
          <value>1.2878704170895747e-01</value>
          <splits>
            <_><var>271</var>
              <quality>3.6801949143409729e-02</quality>
              <le>1.9607844296842813e-03</le></_></splits></_>
        <_>
          <depth>2</depth>
          <value>-1.2656571435971306e-01</value></_>
        <_>
          <depth>2</depth>
          <value>3.2585687481581294e-01</value></_></nodes></_>
    <_>
      <nodes>
        <_>
          <depth>0</depth>
          <value>-1.1020058131398759e-02</value>
          <splits>
            <_><var>710</var>
              <quality>2.5086371228098869e-02</quality>
              <le>1.9607844296842813e-03</le></_></splits></_>
        <_>
          <depth>1</depth>
          <value>3.0316114371627782e-02</value>
          <splits>
            <_><var>713</var>
              <quality>1.9810590893030167e-02</quality>
              <le>8.1372559070587158e-01</le></_></splits></_>
        <_>
          <depth>2</depth>
          <value>5.1969352924416741e-02</value></_>
        <_>
          <depth>2</depth>
          <value>-9.5290448415939311e-01</value></_>
        <_>
          <depth>1</depth>
          <value>-6.4691489345074193e-01</value>
          <splits>
            <_><var>514</var>
              <quality>5.7991191744804382e-02</quality>
              <le>8.0196082592010498e-01</le></_></splits></_>
        <_>
          <depth>2</depth>
          <value>-9.1170223780134574e-01</value></_>
        <_>
          <depth>2</depth>
          <value>1.5496104478777220e+00</value></_></nodes></_>
    <_>
      <nodes>
        <_>
          <depth>0</depth>
          <value>-9.6209217278004945e-03</value>
          <splits>
            <_><var>488</var>
              <quality>1.8373413011431694e-02</quality>
              <le>7.9411768913269043e-01</le></_></splits></_>
        <_>
          <depth>1</depth>
          <value>-1.2190314823189032e-01</value>
          <splits>
            <_><var>599</var>
              <quality>4.6284399926662445e-02</quality>
              <le>7.3137259483337402e-01</le></_></splits></_>
        <_>
          <depth>2</depth>
          <value>1.0050179370743213e-01</value></_>
        <_>
          <depth>2</depth>
          <value>-4.1763352363701883e-01</value></_>
        <_>
          <depth>1</depth>
          <value>1.6180355510905986e-01</value>
          <splits>
            <_><var>324</var>
              <quality>5.2307054400444031e-02</quality>
              <le>9.2745101451873779e-01</le></_></splits></_>
        <_>
          <depth>2</depth>
          <value>3.8352828201913863e-01</value></_>
        <_>
          <depth>2</depth>
          <value>-3.4757483587172910e-01</value></_></nodes></_>
    <_>
      <nodes>
        <_>
          <depth>0</depth>
          <value>-4.7028428180719796e-03</value>
          <splits>
            <_><var>599</var>
              <quality>1.9644457846879959e-02</quality>
              <le>2.9411766678094864e-02</le></_></splits></_>
        <_>
          <depth>1</depth>
          <value>-2.2504721167974198e-01</value>
          <splits>
            <_><var>635</var>
              <quality>5.7826254516839981e-02</quality>
              <le>1.3725491240620613e-02</le></_></splits></_>
        <_>
          <depth>2</depth>
          <value>-4.6974700976406331e-01</value></_>
        <_>
          <depth>2</depth>
          <value>4.0141723038449428e-01</value></_>
        <_>
          <depth>1</depth>
          <value>8.9043347453058447e-02</value>
          <splits>
            <_><var>601</var>
              <quality>2.3511607199907303e-02</quality>
              <le>4.0980395674705505e-01</le></_></splits></_>
        <_>
          <depth>2</depth>
          <value>3.2588258114537688e-01</value></_>
        <_>
          <depth>2</depth>
          <value>-2.6436770844635991e-02</value></_></nodes></_>
    <_>
      <nodes>
        <_>
          <depth>0</depth>
          <value>-3.6036206468085920e-03</value>
          <splits>
            <_><var>244</var>
              <quality>1.8701031804084778e-02</quality>
              <le>9.5882356166839600e-01</le></_></splits></_>
        <_>
          <depth>1</depth>
          <value>6.4954673243809727e-02</value>
          <splits>
            <_><var>270</var>
              <quality>2.4783277884125710e-02</quality>
              <le>5.8823535218834877e-03</le></_></splits></_>
        <_>
          <depth>2</depth>
          <value>-1.3870606937265847e-01</value></_>
        <_>
          <depth>2</depth>
          <value>2.0293786174280282e-01</value></_>
        <_>
          <depth>1</depth>
          <value>-2.9054830792758424e-01</value>
          <splits>
            <_><var>262</var>
              <quality>3.3350396901369095e-02</quality>
              <le>9.9019610881805420e-01</le></_></splits></_>
        <_>
          <depth>2</depth>
          <value>-1.4108159694305386e-01</value></_>
        <_>
          <depth>2</depth>
          <value>-9.4367208756590926e-01</value></_></nodes></_>
    <_>
      <nodes>
        <_>
          <depth>0</depth>
          <value>-5.6853220669923219e-03</value>
          <splits>
            <_><var>602</var>
              <quality>1.6663493588566780e-02</quality>
              <le>1.7647059634327888e-02</le></_></splits></_>
        <_>
          <depth>1</depth>
          <value>-2.1175334994449063e-01</value>
          <splits>
            <_><var>512</var>
              <quality>4.1652351617813110e-02</quality>
              <le>7.0000004768371582e-01</le></_></splits></_>
        <_>
          <depth>2</depth>
          <value>-3.7271740769091055e-01</value></_>
        <_>
          <depth>2</depth>
          <value>4.4271099206290421e-01</value></_>
        <_>
          <depth>1</depth>
          <value>7.9278567240540956e-02</value>
          <splits>
            <_><var>345</var>
              <quality>2.4055955931544304e-02</quality>
              <le>7.8235304355621338e-01</le></_></splits></_>
        <_>
          <depth>2</depth>
          <value>-2.2590636238543276e-02</value></_>
        <_>
          <depth>2</depth>
          <value>3.6864764052490934e-01</value></_></nodes></_>
    <_>
      <nodes>
        <_>
          <depth>0</depth>
          <value>-1.6160805319734304e-03</value>
          <splits>
            <_><var>469</var>
              <quality>2.1790023893117905e-02</quality>
              <le>9.4705891609191895e-01</le></_></splits></_>
        <_>
          <depth>1</depth>
          <value>3.2023666777171549e-02</value>
          <splits>
            <_><var>326</var>
              <quality>1.9981577992439270e-02</quality>
              <le>9.3137264251708984e-01</le></_></splits></_>
        <_>
          <depth>2</depth>
          <value>1.2315409097108136e-01</value></_>
        <_>
          <depth>2</depth>
          <value>-1.9891623951712722e-01</value></_>
        <_>
          <depth>1</depth>
          <value>-6.8337980229036643e-01</value>
          <splits>
            <_><var>382</var>
              <quality>3.9211321622133255e-02</quality>
              <le>9.8627460002899170e-01</le></_></splits></_>
        <_>
          <depth>2</depth>
          <value>-1.2760992640468365e+00</value></_>
        <_>
          <depth>2</depth>
          <value>9.6581019480501979e-03</value></_></nodes></_>
    <_>
      <nodes>
        <_>
          <depth>0</depth>
          <value>-6.4026291451593298e-03</value>
          <splits>
            <_><var>691</var>
              <quality>1.7630858346819878e-02</quality>
              <le>9.9411773681640625e-01</le></_></splits></_>
        <_>
          <depth>1</depth>
          <value>-1.2478349587777269e-02</value>
          <splits>
            <_><var>300</var>
              <quality>1.7750861123204231e-02</quality>
              <le>9.6078440546989441e-02</le></_></splits></_>
        <_>
          <depth>2</depth>
          <value>-1.2131115882748778e-01</value></_>
        <_>
          <depth>2</depth>
          <value>1.5811991146890744e-01</value></_>
        <_>
          <depth>1</depth>
          <value>3.0414395369236806e+00</value>
          <splits>
            <_><var>297</var>
              <quality>3.2141141593456268e-02</quality>
              <le>3.3529412746429443e-01</le></_></splits></_>
        <_>
          <depth>2</depth>
          <value>7.1819642351601531e-01</value></_>
        <_>
          <depth>2</depth>
          <value>6.3796539829635979e+00</value></_></nodes></_>
    <_>
      <nodes>
        <_>
          <depth>0</depth>
          <value>-1.7859141989623999e-02</value>
          <splits>
            <_><var>691</var>
              <quality>2.3036552593111992e-02</quality>
              <le>9.9411773681640625e-01</le></_></splits></_>
        <_>
          <depth>1</depth>
          <value>-9.0526413051961565e-04</value>
          <splits>
            <_><var>201</var>
              <quality>1.3597622513771057e-02</quality>
              <le>5.6274509429931641e-01</le></_></splits></_>
        <_>
          <depth>2</depth>
          <value>1.3043736889202380e-02</value></_>
        <_>
          <depth>2</depth>
          <value>-1.0392888183387461e+00</value></_>
        <_>
          <depth>1</depth>
          <value>-1.4293410663143675e+00</value>
          <splits>
            <_><var>603</var>
              <quality>2.9379613697528839e-02</quality>
              <le>2.2156864404678345e-01</le></_></splits></_>
        <_>
          <depth>2</depth>
          <value>-1.6563371772367792e+00</value></_>
        <_>
          <depth>2</depth>
          <value>1.0492328499558257e+00</value></_></nodes></_>
    <_>
      <nodes>
        <_>
          <depth>0</depth>
          <value>-5.4982596779028460e-03</value>
          <splits>
            <_><var>163</var>
              <quality>1.3874769210815430e-02</quality>
              <le>1.4313726127147675e-01</le></_></splits></_>
        <_>
          <depth>1</depth>
          <value>2.3849806614559755e-02</value>
          <splits>
            <_><var>659</var>
              <quality>1.5080294571816921e-02</quality>
              <le>4.1176471859216690e-02</le></_></splits></_>
        <_>
          <depth>2</depth>
          <value>-1.2899885044377737e-01</value></_>
        <_>
          <depth>2</depth>
          <value>1.3012110293716792e-01</value></_>
        <_>
          <depth>1</depth>
          <value>-5.0212155218986254e-01</value>
          <splits>
            <_><var>660</var>
              <quality>3.5168565809726715e-02</quality>
              <le>3.9215688593685627e-03</le></_></splits></_>
        <_>
          <depth>2</depth>
          <value>9.7978549308174357e-04</value></_>
        <_>
          <depth>2</depth>
          <value>-1.3197279458644424e+00</value></_></nodes></_>
    <_>
      <nodes>
        <_>
          <depth>0</depth>
          <value>-7.6514810609427308e-03</value>
          <splits>
            <_><var>606</var>
              <quality>1.3940682634711266e-02</quality>
              <le>9.4705891609191895e-01</le></_></splits></_>
        <_>
          <depth>1</depth>
          <value>5.3610627852521096e-02</value>
          <splits>
            <_><var>436</var>
              <quality>2.8557723388075829e-02</quality>
              <le>9.5098042488098145e-01</le></_></splits></_>
        <_>
          <depth>2</depth>
          <value>1.9045438725066613e-01</value></_>
        <_>
          <depth>2</depth>
          <value>-2.0146748199061587e-01</value></_>
        <_>
          <depth>1</depth>
          <value>-2.4623224597472368e-01</value>
          <splits>
            <_><var>347</var>
              <quality>4.1806057095527649e-02</quality>
              <le>3.3137255907058716e-01</le></_></splits></_>
        <_>
          <depth>2</depth>
          <value>-6.6251671262245915e-01</value></_>
        <_>
          <depth>2</depth>
          <value>1.2552595097145272e-01</value></_></nodes></_>
    <_>
      <nodes>
        <_>
          <depth>0</depth>
          <value>-6.4713636966670287e-03</value>
          <splits>
            <_><var>542</var>
              <quality>1.2794028036296368e-02</quality>
              <le>5.6862749159336090e-02</le></_></splits></_>
        <_>
          <depth>1</depth>
          <value>-1.3307552040749129e-01</value>
          <splits>
            <_><var>483</var>
              <quality>6.0857307165861130e-02</quality>
              <le>1.5490196645259857e-01</le></_></splits></_>
        <_>
          <depth>2</depth>
          <value>-3.0246306287097646e-01</value></_>
        <_>
          <depth>2</depth>
          <value>5.9208138645417119e-01</value></_>
        <_>
          <depth>1</depth>
          <value>9.9572328513810524e-02</value>
          <splits>
            <_><var>483</var>
              <quality>4.6567190438508987e-02</quality>
              <le>7.2549022734165192e-02</le></_></splits></_>
        <_>
          <depth>2</depth>
          <value>2.3701888045893063e-01</value></_>
        <_>
          <depth>2</depth>
          <value>-4.8364616962109197e-01</value></_></nodes></_>
    <_>
      <nodes>
        <_>
          <depth>0</depth>
          <value>-8.5657250102258182e-03</value>
          <splits>
            <_><var>235</var>
              <quality>1.5835011377930641e-02</quality>
              <le>1.0784314572811127e-01</le></_></splits></_>
        <_>
          <depth>1</depth>
          <value>-1.6588496817466206e-01</value>
          <splits>
            <_><var>232</var>
              <quality>4.5050770044326782e-02</quality>
              <le>6.6862750053405762e-01</le></_></splits></_>
        <_>
          <depth>2</depth>
          <value>-2.7592894170017357e-01</value></_>
        <_>
          <depth>2</depth>
          <value>6.5767573141609248e-01</value></_>
        <_>
          <depth>1</depth>
          <value>9.6921720415180004e-02</value>
          <splits>
            <_><var>464</var>
