<?xml version="1.0"?>
<opencv_storage>
<opencv_ml_boost>
  <format>3</format>
  <is_classifier>1</is_classifier>
  <var_all>785</var_all>
  <var_count>784</var_count>
  <ord_var_count>784</ord_var_count>
  <cat_var_count>1</cat_var_count>
  <training_params>
    <boosting_type>LogitBoost</boosting_type>
    <use_surrogates>0</use_surrogates>
    <max_categories>10</max_categories>
    <regression_accuracy>9.9999997764825821e-03</regression_accuracy>
    <max_depth>2</max_depth>
    <min_sample_count>10</min_sample_count>
    <cross_validation_folds>0</cross_validation_folds>
    <weight_trimming_rate>9.4999999999999996e-01</weight_trimming_rate></training_params>
  <global_var_idx>1</global_var_idx>
  <var_idx>
    0 1 2 3 4 5 6 7 8 9 10 11 12 13 14 15 16 17 18 19 20 21 22 23 24 25
    26 27 28 29 30 31 32 33 34 35 36 37 38 39 40 41 42 43 44 45 46 47 48
    49 50 51 52 53 54 55 56 57 58 59 60 61 62 63 64 65 66 67 68 69 70 71
    72 73 74 75 76 77 78 79 80 81 82 83 84 85 86 87 88 89 90 91 92 93 94
    95 96 97 98 99 100 101 102 103 104 105 106 107 108 109 110 111 112
    113 114 115 116 117 118 119 120 121 122 123 124 125 126 127 128 129
    130 131 132 133 134 135 136 137 138 139 140 141 142 143 144 145 146
    147 148 149 150 151 152 153 154 155 156 157 158 159 160 161 162 163
    164 165 166 167 168 169 170 171 172 173 174 175 176 177 178 179 180
    181 182 183 184 185 186 187 188 189 190 191 192 193 194 195 196 197
    198 199 200 201 202 203 204 205 206 207 208 209 210 211 212 213 214
    215 216 217 218 219 220 221 222 223 224 225 226 227 228 229 230 231
    232 233 234 235 236 237 238 239 240 241 242 243 244 245 246 247 248
    249 250 251 252 253 254 255 256 257 258 259 260 261 262 263 264 265
    266 267 268 269 270 271 272 273 274 275 276 277 278 279 280 281 282
    283 284 285 286 287 288 289 290 291 292 293 294 295 296 297 298 299
    300 301 302 303 304 305 306 307 308 309 310 311 312 313 314 315 316
    317 318 319 320 321 322 323 324 325 326 327 328 329 330 331 332 333
    334 335 336 337 338 339 340 341 342 343 344 345 346 347 348 349 350
    351 352 353 354 355 356 357 358 359 360 361 362 363 364 365 366 367
    368 369 370 371 372 373 374 375 376 377 378 379 380 381 382 383 384
    385 386 387 388 389 390 391 392 393 394 395 396 397 398 399 400 401
    402 403 404 405 406 407 408 409 410 411 412 413 414 415 416 417 418
    419 420 421 422 423 424 425 426 427 428 429 430 431 432 433 434 435
    436 437 438 439 440 441 442 443 444 445 446 447 448 449 450 451 452
    453 454 455 456 457 458 459 460 461 462 463 464 465 466 467 468 469
    470 471 472 473 474 475 476 477 478 479 480 481 482 483 484 485 486
    487 488 489 490 491 492 493 494 495 496 497 498 499 500 501 502 503
    504 505 506 507 508 509 510 511 512 513 514 515 516 517 518 519 520
    521 522 523 524 525 526 527 528 529 530 531 532 533 534 535 536 537
    538 539 540 541 542 543 544 545 546 547 548 549 550 551 552 553 554
    555 556 557 558 559 560 561 562 563 564 565 566 567 568 569 570 571
    572 573 574 575 576 577 578 579 580 581 582 583 584 585 586 587 588
    589 590 591 592 593 594 595 596 597 598 599 600 601 602 603 604 605
    606 607 608 609 610 611 612 613 614 615 616 617 618 619 620 621 622
    623 624 625 626 627 628 629 630 631 632 633 634 635 636 637 638 639
    640 641 642 643 644 645 646 647 648 649 650 651 652 653 654 655 656
    657 658 659 660 661 662 663 664 665 666 667 668 669 670 671 672 673
    674 675 676 677 678 679 680 681 682 683 684 685 686 687 688 689 690
    691 692 693 694 695 696 697 698 699 700 701 702 703 704 705 706 707
    708 709 710 711 712 713 714 715 716 717 718 719 720 721 722 723 724
    725 726 727 728 729 730 731 732 733 734 735 736 737 738 739 740 741
    742 743 744 745 746 747 748 749 750 751 752 753 754 755 756 757 758
    759 760 761 762 763 764 765 766 767 768 769 770 771 772 773 774 775
    776 777 778 779 780 781 782 783</var_idx>
  <var_type>
    0 0 0 0 0 0 0 0 0 0 0 0 0 0 0 0 0 0 0 0 0 0 0 0 0 0 0 0 0 0 0 0 0 0
    0 0 0 0 0 0 0 0 0 0 0 0 0 0 0 0 0 0 0 0 0 0 0 0 0 0 0 0 0 0 0 0 0 0
    0 0 0 0 0 0 0 0 0 0 0 0 0 0 0 0 0 0 0 0 0 0 0 0 0 0 0 0 0 0 0 0 0 0
    0 0 0 0 0 0 0 0 0 0 0 0 0 0 0 0 0 0 0 0 0 0 0 0 0 0 0 0 0 0 0 0 0 0
    0 0 0 0 0 0 0 0 0 0 0 0 0 0 0 0 0 0 0 0 0 0 0 0 0 0 0 0 0 0 0 0 0 0
    0 0 0 0 0 0 0 0 0 0 0 0 0 0 0 0 0 0 0 0 0 0 0 0 0 0 0 0 0 0 0 0 0 0
    0 0 0 0 0 0 0 0 0 0 0 0 0 0 0 0 0 0 0 0 0 0 0 0 0 0 0 0 0 0 0 0 0 0
    0 0 0 0 0 0 0 0 0 0 0 0 0 0 0 0 0 0 0 0 0 0 0 0 0 0 0 0 0 0 0 0 0 0
    0 0 0 0 0 0 0 0 0 0 0 0 0 0 0 0 0 0 0 0 0 0 0 0 0 0 0 0 0 0 0 0 0 0
    0 0 0 0 0 0 0 0 0 0 0 0 0 0 0 0 0 0 0 0 0 0 0 0 0 0 0 0 0 0 0 0 0 0
    0 0 0 0 0 0 0 0 0 0 0 0 0 0 0 0 0 0 0 0 0 0 0 0 0 0 0 0 0 0 0 0 0 0
    0 0 0 0 0 0 0 0 0 0 0 0 0 0 0 0 0 0 0 0 0 0 0 0 0 0 0 0 0 0 0 0 0 0
    0 0 0 0 0 0 0 0 0 0 0 0 0 0 0 0 0 0 0 0 0 0 0 0 0 0 0 0 0 0 0 0 0 0
    0 0 0 0 0 0 0 0 0 0 0 0 0 0 0 0 0 0 0 0 0 0 0 0 0 0 0 0 0 0 0 0 0 0
    0 0 0 0 0 0 0 0 0 0 0 0 0 0 0 0 0 0 0 0 0 0 0 0 0 0 0 0 0 0 0 0 0 0
    0 0 0 0 0 0 0 0 0 0 0 0 0 0 0 0 0 0 0 0 0 0 0 0 0 0 0 0 0 0 0 0 0 0
    0 0 0 0 0 0 0 0 0 0 0 0 0 0 0 0 0 0 0 0 0 0 0 0 0 0 0 0 0 0 0 0 0 0
    0 0 0 0 0 0 0 0 0 0 0 0 0 0 0 0 0 0 0 0 0 0 0 0 0 0 0 0 0 0 0 0 0 0
    0 0 0 0 0 0 0 0 0 0 0 0 0 0 0 0 0 0 0 0 0 0 0 0 0 0 0 0 0 0 0 0 0 0
    0 0 0 0 0 0 0 0 0 0 0 0 0 0 0 0 0 0 0 0 0 0 0 0 0 0 0 0 0 0 0 0 0 0
    0 0 0 0 0 0 0 0 0 0 0 0 0 0 0 0 0 0 0 0 0 0 0 0 0 0 0 0 0 0 0 0 0 0
    0 0 0 0 0 0 0 0 0 0 0 0 0 0 0 0 0 0 0 0 0 0 0 0 0 0 0 0 0 0 0 0 0 0
    0 0 0 0 0 0 0 0 0 0 0 0 0 0 0 0 0 0 0 0 0 0 0 0 0 0 0 0 0 0 0 0 0 0
    0 0 1</var_type>
  <cat_ofs>
    0 0 0 0 0 0 0 0 0 0 0 0 0 0 0 0 0 0 0 0 0 0 0 0 0 0 0 0 0 0 0 0 0 0
    0 0 0 0 0 0 0 0 0 0 0 0 0 0 0 0 0 0 0 0 0 0 0 0 0 0 0 0 0 0 0 0 0 0
    0 0 0 0 0 0 0 0 0 0 0 0 0 0 0 0 0 0 0 0 0 0 0 0 0 0 0 0 0 0 0 0 0 0
    0 0 0 0 0 0 0 0 0 0 0 0 0 0 0 0 0 0 0 0 0 0 0 0 0 0 0 0 0 0 0 0 0 0
    0 0 0 0 0 0 0 0 0 0 0 0 0 0 0 0 0 0 0 0 0 0 0 0 0 0 0 0 0 0 0 0 0 0
    0 0 0 0 0 0 0 0 0 0 0 0 0 0 0 0 0 0 0 0 0 0 0 0 0 0 0 0 0 0 0 0 0 0
    0 0 0 0 0 0 0 0 0 0 0 0 0 0 0 0 0 0 0 0 0 0 0 0 0 0 0 0 0 0 0 0 0 0
    0 0 0 0 0 0 0 0 0 0 0 0 0 0 0 0 0 0 0 0 0 0 0 0 0 0 0 0 0 0 0 0 0 0
    0 0 0 0 0 0 0 0 0 0 0 0 0 0 0 0 0 0 0 0 0 0 0 0 0 0 0 0 0 0 0 0 0 0
    0 0 0 0 0 0 0 0 0 0 0 0 0 0 0 0 0 0 0 0 0 0 0 0 0 0 0 0 0 0 0 0 0 0
    0 0 0 0 0 0 0 0 0 0 0 0 0 0 0 0 0 0 0 0 0 0 0 0 0 0 0 0 0 0 0 0 0 0
    0 0 0 0 0 0 0 0 0 0 0 0 0 0 0 0 0 0 0 0 0 0 0 0 0 0 0 0 0 0 0 0 0 0
    0 0 0 0 0 0 0 0 0 0 0 0 0 0 0 0 0 0 0 0 0 0 0 0 0 0 0 0 0 0 0 0 0 0
    0 0 0 0 0 0 0 0 0 0 0 0 0 0 0 0 0 0 0 0 0 0 0 0 0 0 0 0 0 0 0 0 0 0
    0 0 0 0 0 0 0 0 0 0 0 0 0 0 0 0 0 0 0 0 0 0 0 0 0 0 0 0 0 0 0 0 0 0
    0 0 0 0 0 0 0 0 0 0 0 0 0 0 0 0 0 0 0 0 0 0 0 0 0 0 0 0 0 0 0 0 0 0
    0 0 0 0 0 0 0 0 0 0 0 0 0 0 0 0 0 0 0 0 0 0 0 0 0 0 0 0 0 0 0 0 0 0
    0 0 0 0 0 0 0 0 0 0 0 0 0 0 0 0 0 0 0 0 0 0 0 0 0 0 0 0 0 0 0 0 0 0
    0 0 0 0 0 0 0 0 0 0 0 0 0 0 0 0 0 0 0 0 0 0 0 0 0 0 0 0 0 0 0 0 0 0
    0 0 0 0 0 0 0 0 0 0 0 0 0 0 0 0 0 0 0 0 0 0 0 0 0 0 0 0 0 0 0 0 0 0
    0 0 0 0 0 0 0 0 0 0 0 0 0 0 0 0 0 0 0 0 0 0 0 0 0 0 0 0 0 0 0 0 0 0
    0 0 0 0 0 0 0 0 0 0 0 0 0 0 0 0 0 0 0 0 0 0 0 0 0 0 0 0 0 0 0 0 0 0
    0 0 0 0 0 0 0 0 0 0 0 0 0 0 0 0 0 0 0 0 0 0 0 0 0 0 0 0 0 0 0 0 0 0
    0 0 0 0 0 0 0 0 0 0 0 0 0 0 0 0 0 0 0 0 0 0 0 0 0 0 0 0 0 0 0 0 0 0
    0 0 0 0 0 0 0 0 0 0 0 0 0 0 0 0 0 0 0 0 0 0 0 0 0 0 0 0 0 0 0 0 0 0
    0 0 0 0 0 0 0 0 0 0 0 0 0 0 0 0 0 0 0 0 0 0 0 0 0 0 0 0 0 0 0 0 0 0
    0 0 0 0 0 0 0 0 0 0 0 0 0 0 0 0 0 0 0 0 0 0 0 0 0 0 0 0 0 0 0 0 0 0
    0 0 0 0 0 0 0 0 0 0 0 0 0 0 0 0 0 0 0 0 0 0 0 0 0 0 0 0 0 0 0 0 0 0
    0 0 0 0 0 0 0 0 0 0 0 0 0 0 0 0 0 0 0 0 0 0 0 0 0 0 0 0 0 0 0 0 0 0
    0 0 0 0 0 0 0 0 0 0 0 0 0 0 0 0 0 0 0 0 0 0 0 0 0 0 0 0 0 0 0 0 0 0
    0 0 0 0 0 0 0 0 0 0 0 0 0 0 0 0 0 0 0 0 0 0 0 0 0 0 0 0 0 0 0 0 0 0
    0 0 0 0 0 0 0 0 0 0 0 0 0 0 0 0 0 0 0 0 0 0 0 0 0 0 0 0 0 0 0 0 0 0
    0 0 0 0 0 0 0 0 0 0 0 0 0 0 0 0 0 0 0 0 0 0 0 0 0 0 0 0 0 0 0 0 0 0
    0 0 0 0 0 0 0 0 0 0 0 0 0 0 0 0 0 0 0 0 0 0 0 0 0 0 0 0 0 0 0 0 0 0
    0 0 0 0 0 0 0 0 0 0 0 0 0 0 0 0 0 0 0 0 0 0 0 0 0 0 0 0 0 0 0 0 0 0
    0 0 0 0 0 0 0 0 0 0 0 0 0 0 0 0 0 0 0 0 0 0 0 0 0 0 0 0 0 0 0 0 0 0
    0 0 0 0 0 0 0 0 0 0 0 0 0 0 0 0 0 0 0 0 0 0 0 0 0 0 0 0 0 0 0 0 0 0
    0 0 0 0 0 0 0 0 0 0 0 0 0 0 0 0 0 0 0 0 0 0 0 0 0 0 0 0 0 0 0 0 0 0
    0 0 0 0 0 0 0 0 0 0 0 0 0 0 0 0 0 0 0 0 0 0 0 0 0 0 0 0 0 0 0 0 0 0
    0 0 0 0 0 0 0 0 0 0 0 0 0 0 0 0 0 0 0 0 0 0 0 0 0 0 0 0 0 0 0 0 0 0
    0 0 0 0 0 0 0 0 0 0 0 0 0 0 0 0 0 0 0 0 0 0 0 0 0 0 0 0 0 0 0 0 0 0
    0 0 0 0 0 0 0 0 0 0 0 0 0 0 0 0 0 0 0 0 0 0 0 0 0 0 0 0 0 0 0 0 0 0
    0 0 0 0 0 0 0 0 0 0 0 0 0 0 0 0 0 0 0 0 0 0 0 0 0 0 0 0 0 0 0 0 0 0
    0 0 0 0 0 0 0 0 0 0 0 0 0 0 0 0 0 0 0 0 0 0 0 0 0 0 0 0 0 0 0 0 0 0
    0 0 0 0 0 0 0 0 0 0 0 0 0 0 0 0 0 0 0 0 0 0 0 0 0 0 0 0 0 0 0 0 0 0
    0 0 0 0 0 0 0 0 0 0 0 0 0 0 0 0 0 0 0 0 0 0 0 0 0 0 0 0 0 0 0 0 0 0
    0 0 0 0</cat_ofs>
  <class_labels>
    0 1</class_labels>
  <missing_subst>
    0. 0. 0. 0. 0. 0. 0. 0. 0. 0. 0. 0. 0. 0. 0. 0. 0. 0. 0. 0. 0. 0. 0.
    0. 0. 0. 0. 0. 0. 0. 0. 0. 0. 0. 0. 0. 0. 0. 0. 0. 0. 0. 0. 0. 0. 0.
    0. 0. 0. 0. 0. 0. 0. 0. 0. 0. 0. 0. 0. 0. 0. 0. 0. 0. 0. 0. 0. 0. 0.
    0. 0. 0. 0. 0. 0. 0. 0. 0. 0. 0. 0. 0. 0. 0. 0. 0. 0. 0. 0. 0. 0. 0.
    0. 0. 0. 0. 0. 0. 0. 0. 0. 0. 0. 0. 0. 0. 0. 0. 0. 0. 0. 0. 0. 0. 0.
    0. 0. 0. 0. 0. 0. 0. 0. 0. 0. 0. 0. 0. 0. 0. 0. 0. 0. 0. 0. 0. 0. 0.
    0. 0. 0. 0. 0. 0. 0. 0. 0. 0. 0. 0. 0. 0. 0. 0. 0. 0. 0. 0. 0. 0. 0.
    0. 0. 0. 0. 0. 0. 0. 0. 0. 0. 0. 0. 0. 0. 0. 0. 0. 0. 0. 0. 0. 0. 0.
    0. 0. 0. 0. 0. 0. 0. 0. 0. 0. 0. 0. 0. 0. 0. 0. 0. 0. 0. 0. 0. 0. 0.
    0. 0. 0. 0. 0. 0. 0. 0. 0. 0. 0. 0. 0. 0. 0. 0. 0. 0. 0. 0. 0. 0. 0.
    0. 0. 0. 0. 0. 0. 0. 0. 0. 0. 0. 0. 0. 0. 0. 0. 0. 0. 0. 0. 0. 0. 0.
    0. 0. 0. 0. 0. 0. 0. 0. 0. 0. 0. 0. 0. 0. 0. 0. 0. 0. 0. 0. 0. 0. 0.
    0. 0. 0. 0. 0. 0. 0. 0. 0. 0. 0. 0. 0. 0. 0. 0. 0. 0. 0. 0. 0. 0. 0.
    0. 0. 0. 0. 0. 0. 0. 0. 0. 0. 0. 0. 0. 0. 0. 0. 0. 0. 0. 0. 0. 0. 0.
    0. 0. 0. 0. 0. 0. 0. 0. 0. 0. 0. 0. 0. 0. 0. 0. 0. 0. 0. 0. 0. 0. 0.
    0. 0. 0. 0. 0. 0. 0. 0. 0. 0. 0. 0. 0. 0. 0. 0. 0. 0. 0. 0. 0. 0. 0.
    0. 0. 0. 0. 0. 0. 0. 0. 0. 0. 0. 0. 0. 0. 0. 0. 0. 0. 0. 0. 0. 0. 0.
    0. 0. 0. 0. 0. 0. 0. 0. 0. 0. 0. 0. 0. 0. 0. 0. 0. 0. 0. 0. 0. 0. 0.
    0. 0. 0. 0. 0. 0. 0. 0. 0. 0. 0. 0. 0. 0. 0. 0. 0. 0. 0. 0. 0. 0. 0.
    0. 0. 0. 0. 0. 0. 0. 0. 0. 0. 0. 0. 0. 0. 0. 0. 0. 0. 0. 0. 0. 0. 0.
    0. 0. 0. 0. 0. 0. 0. 0. 0. 0. 0. 0. 0. 0. 0. 0. 0. 0. 0. 0. 0. 0. 0.
    0. 0. 0. 0. 0. 0. 0. 0. 0. 0. 0. 0. 0. 0. 0. 0. 0. 0. 0. 0. 0. 0. 0.
    0. 0. 0. 0. 0. 0. 0. 0. 0. 0. 0. 0. 0. 0. 0. 0. 0. 0. 0. 0. 0. 0. 0.
    0. 0. 0. 0. 0. 0. 0. 0. 0. 0. 0. 0. 0. 0. 0. 0. 0. 0. 0. 0. 0. 0. 0.
    0. 0. 0. 0. 0. 0. 0. 0. 0. 0. 0. 0. 0. 0. 0. 0. 0. 0. 0. 0. 0. 0. 0.
    0. 0. 0. 0. 0. 0. 0. 0. 0. 0. 0. 0. 0. 0. 0. 0. 0. 0. 0. 0. 0. 0. 0.
    0. 0. 0. 0. 0. 0. 0. 0. 0. 0. 0. 0. 0. 0. 0. 0. 0. 0. 0. 0. 0. 0. 0.
    0. 0. 0. 0. 0. 0. 0. 0. 0. 0. 0. 0. 0. 0. 0. 0. 0. 0. 0. 0. 0. 0. 0.
    0. 0. 0. 0. 0. 0. 0. 0. 0. 0. 0. 0. 0. 0. 0. 0. 0. 0. 0. 0. 0. 0. 0.
    0. 0. 0. 0. 0. 0. 0. 0. 0. 0. 0. 0. 0. 0. 0. 0. 0. 0. 0. 0. 0. 0. 0.
    0. 0. 0. 0. 0. 0. 0. 0. 0. 0. 0. 0. 0. 0. 0. 0. 0. 0. 0. 0. 0. 0. 0.
    0. 0. 0. 0. 0. 0. 0. 0. 0. 0. 0. 0. 0. 0. 0. 0. 0. 0. 0. 0. 0. 0. 0.
    0. 0. 0. 0. 0. 0. 0. 0. 0. 0. 0. 0. 0. 0. 0. 0. 0. 0. 0. 0. 0. 0. 0.
    0. 0. 0. 0. 0. 0. 0. 0. 0. 0. 0. 0. 0. 0. 0. 0. 0. 0. 0. 0. 0. 0. 0.
    0. 0. 0.</missing_subst>
  <ntrees>100</ntrees>
  <trees>
    <_>
      <nodes>
        <_>
          <depth>0</depth>
          <value>-1.6105333333333351e+00</value>
          <splits>
            <_><var>211</var>
              <quality>2.7624309062957764e+00</quality>
              <le>1.9607844296842813e-03</le></_></splits></_>
        <_>
          <depth>1</depth>
          <value>-9.6549731260476812e-01</value>
          <splits>
            <_><var>400</var>
              <quality>4.5183405280113220e-01</quality>
              <le>2.9411766678094864e-02</le></_></splits></_>
        <_>
          <depth>2</depth>
          <value>-1.7038788009025558e+00</value></_>
        <_>
          <depth>2</depth>
          <value>-1.0605302651326388e-01</value></_>
        <_>
          <depth>1</depth>
          <value>-1.8719347963557167e+00</value>
          <splits>
            <_><var>401</var>
              <quality>2.5034449100494385e+00</quality>
              <le>4.4509807229042053e-01</le></_></splits></_>
        <_>
          <depth>2</depth>
          <value>-1.9596209912536446e+00</value></_>
        <_>
          <depth>2</depth>
          <value>-1.7142295339844060e+00</value></_></nodes></_>
    <_>
      <nodes>
        <_>
          <depth>0</depth>
          <value>-6.2516307976319940e-01</value>
          <splits>
            <_><var>569</var>
              <quality>6.3581377267837524e-01</quality>
              <le>1.9607844296842813e-03</le></_></splits></_>
        <_>
          <depth>1</depth>
          <value>-1.9060500653258308e-01</value>
          <splits>
            <_><var>429</var>
              <quality>2.9128631949424744e-01</quality>
              <le>1.7843137681484222e-01</le></_></splits></_>
        <_>
          <depth>2</depth>
          <value>-8.6011932567837979e-01</value></_>
        <_>
          <depth>2</depth>
          <value>5.2556654103053813e-01</value></_>
        <_>
          <depth>1</depth>
          <value>-1.1889194836659951e+00</value>
          <splits>
            <_><var>164</var>
              <quality>6.2381362915039062e-01</quality>
              <le>5.6862749159336090e-02</le></_></splits></_>
        <_>
          <depth>2</depth>
          <value>-1.2147368967668319e+00</value></_>
        <_>
          <depth>2</depth>
          <value>-4.3115306360379846e-01</value></_></nodes></_>
    <_>
      <nodes>
        <_>
          <depth>0</depth>
          <value>-4.0411621137083609e-01</value>
          <splits>
            <_><var>464</var>
              <quality>4.1081482172012329e-01</quality>
              <le>5.0784313678741455e-01</le></_></splits></_>
        <_>
          <depth>1</depth>
          <value>-9.5906756505441870e-01</value>
          <splits>
            <_><var>603</var>
              <quality>4.4003343582153320e-01</quality>
              <le>1.9607844296842813e-03</le></_></splits></_>
        <_>
          <depth>2</depth>
          <value>-6.0087791088145925e-01</value></_>
        <_>
          <depth>2</depth>
          <value>-1.1482343974040390e+00</value></_>
        <_>
          <depth>1</depth>
          <value>4.1877689975303584e-02</value>
          <splits>
            <_><var>210</var>
              <quality>2.7637743949890137e-01</quality>
              <le>1.7647059634327888e-02</le></_></splits></_>
        <_>
          <depth>2</depth>
          <value>8.6653983758002318e-01</value></_>
        <_>
          <depth>2</depth>
          <value>-5.6047571925678286e-01</value></_></nodes></_>
    <_>
      <nodes>
        <_>
          <depth>0</depth>
          <value>-2.0229828395488117e-01</value>
          <splits>
            <_><var>125</var>
              <quality>2.3094405233860016e-01</quality>
              <le>5.8823535218834877e-03</le></_></splits></_>
        <_>
          <depth>1</depth>
          <value>2.3606221743391461e-03</value>
          <splits>
            <_><var>239</var>
              <quality>3.3722737431526184e-01</quality>
              <le>5.8823535218834877e-03</le></_></splits></_>
        <_>
          <depth>2</depth>
          <value>7.6296166686594658e-01</value></_>
        <_>
          <depth>2</depth>
          <value>-5.5714572664757356e-01</value></_>
        <_>
          <depth>1</depth>
          <value>-1.1798458522116266e+00</value>
          <splits>
            <_><var>572</var>
              <quality>2.5056406855583191e-01</quality>
              <le>1.9607844296842813e-03</le></_></splits></_>
        <_>
          <depth>2</depth>
          <value>-5.4912401631409857e-01</value></_>
        <_>
          <depth>2</depth>
          <value>-1.3673932923430361e+00</value></_></nodes></_>
    <_>
      <nodes>
        <_>
          <depth>0</depth>
          <value>-1.7016794015148026e-01</value>
          <splits>
            <_><var>461</var>
              <quality>2.2453294694423676e-01</quality>
              <le>9.6078440546989441e-02</le></_></splits></_>
        <_>
          <depth>1</depth>
          <value>-7.4570106634538214e-01</value>
          <splits>
            <_><var>294</var>
              <quality>2.6407057046890259e-01</quality>
              <le>1.3921569287776947e-01</le></_></splits></_>
        <_>
          <depth>2</depth>
          <value>-4.0468593810525300e-01</value></_>
        <_>
          <depth>2</depth>
          <value>-1.2302915040006155e+00</value></_>
        <_>
          <depth>1</depth>
          <value>1.8903139494871862e-01</value>
          <splits>
            <_><var>437</var>
              <quality>2.3322014510631561e-01</quality>
              <le>1.1176471412181854e-01</le></_></splits></_>
        <_>
          <depth>2</depth>
          <value>-8.3775835474582927e-01</value></_>
        <_>
          <depth>2</depth>
          <value>5.4145223489979022e-01</value></_></nodes></_>
    <_>
      <nodes>
        <_>
          <depth>0</depth>
          <value>-1.1619076547498028e-01</value>
          <splits>
            <_><var>570</var>
              <quality>1.9200837612152100e-01</quality>
              <le>1.9607844296842813e-03</le></_></splits></_>
        <_>
          <depth>1</depth>
          <value>1.7613845084675822e-01</value>
          <splits>
            <_><var>625</var>
              <quality>1.8260161578655243e-01</quality>
              <le>2.5490198284387589e-02</le></_></splits></_>
        <_>
          <depth>2</depth>
          <value>3.6915290188967653e-01</value></_>
        <_>
          <depth>2</depth>
          <value>-1.1094078284746622e+00</value></_>
        <_>
          <depth>1</depth>
          <value>-7.6086115269890153e-01</value>
          <splits>
            <_><var>191</var>
              <quality>2.4283100664615631e-01</quality>
              <le>2.9411766678094864e-02</le></_></splits></_>
        <_>
          <depth>2</depth>
          <value>-9.5602613033772443e-01</value></_>
        <_>
          <depth>2</depth>
          <value>4.6763610446045167e-01</value></_></nodes></_>
    <_>
      <nodes>
        <_>
          <depth>0</depth>
          <value>-1.0738487844970965e-01</value>
          <splits>
            <_><var>374</var>
              <quality>2.0785562694072723e-01</quality>
              <le>5.7843136787414551e-01</le></_></splits></_>
        <_>
          <depth>1</depth>
          <value>-5.1905045910159675e-01</value>
          <splits>
            <_><var>426</var>
              <quality>2.2889569401741028e-01</quality>
              <le>7.7450990676879883e-01</le></_></splits></_>
        <_>
          <depth>2</depth>
          <value>-6.9512690487294293e-01</value></_>
        <_>
          <depth>2</depth>
          <value>4.3707035132162336e-01</value></_>
        <_>
          <depth>1</depth>
          <value>3.9566362931455312e-01</value>
          <splits>
            <_><var>552</var>
              <quality>1.9313925504684448e-01</quality>
              <le>1.9607844296842813e-03</le></_></splits></_>
        <_>
          <depth>2</depth>
          <value>6.6208914963963617e-01</value></_>
        <_>
          <depth>2</depth>
          <value>-7.1093394577119462e-01</value></_></nodes></_>
    <_>
      <nodes>
        <_>
          <depth>0</depth>
          <value>-5.9429289050007286e-02</value>
          <splits>
            <_><var>712</var>
              <quality>1.6631302237510681e-01</quality>
              <le>5.8823535218834877e-03</le></_></splits></_>
        <_>
          <depth>1</depth>
          <value>1.3523590638978203e-01</value>
          <splits>
            <_><var>208</var>
              <quality>1.6891647875308990e-01</quality>
              <le>3.3921569585800171e-01</le></_></splits></_>
        <_>
          <depth>2</depth>
          <value>5.1384905199160669e-01</value></_>
        <_>
          <depth>2</depth>
          <value>-3.8806874412797965e-01</value></_>
        <_>
          <depth>1</depth>
          <value>-9.3721094721187215e-01</value>
          <splits>
            <_><var>240</var>
              <quality>1.9595620036125183e-01</quality>
              <le>1.3725491240620613e-02</le></_></splits></_>
        <_>
          <depth>2</depth>
          <value>7.4237612046924153e-02</value></_>
        <_>
          <depth>2</depth>
          <value>-1.1880625071015587e+00</value></_></nodes></_>
    <_>
      <nodes>
        <_>
          <depth>0</depth>
          <value>-6.7355347524121978e-02</value>
          <splits>
            <_><var>595</var>
              <quality>1.4141421020030975e-01</quality>
              <le>5.2941180765628815e-02</le></_></splits></_>
        <_>
          <depth>1</depth>
          <value>6.6709744988819139e-02</value>
          <splits>
            <_><var>94</var>
              <quality>1.2923449277877808e-01</quality>
              <le>1.9607844296842813e-03</le></_></splits></_>
        <_>
          <depth>2</depth>
          <value>1.4290767618759712e-01</value></_>
        <_>
          <depth>2</depth>
          <value>-1.8825249552685335e+00</value></_>
        <_>
          <depth>1</depth>
          <value>-1.1438478710110289e+00</value>
          <splits>
            <_><var>381</var>
              <quality>1.4751760661602020e-01</quality>
              <le>6.5294122695922852e-01</le></_></splits></_>
        <_>
          <depth>2</depth>
          <value>-1.3667454799170939e+00</value></_>
        <_>
          <depth>2</depth>
          <value>-7.2327257056581740e-01</value></_></nodes></_>
    <_>
      <nodes>
        <_>
          <depth>0</depth>
          <value>-4.9910230532221544e-02</value>
          <splits>
            <_><var>294</var>
              <quality>1.2216490507125854e-01</quality>
              <le>6.6862750053405762e-01</le></_></splits></_>
        <_>
          <depth>1</depth>
          <value>1.2622622721302570e-01</value>
          <splits>
            <_><var>211</var>
              <quality>1.5459471940994263e-01</quality>
              <le>4.7254905104637146e-01</le></_></splits></_>
        <_>
          <depth>2</depth>
          <value>4.6231687827671947e-01</value></_>
        <_>
          <depth>2</depth>
          <value>-4.2967619828676623e-01</value></_>
        <_>
          <depth>1</depth>
          <value>-7.6585372186334477e-01</value>
          <splits>
            <_><var>211</var>
              <quality>2.3484337329864502e-01</quality>
              <le>9.8039228469133377e-03</le></_></splits></_>
        <_>
          <depth>2</depth>
          <value>-1.5228381704484655e+00</value></_>
        <_>
          <depth>2</depth>
          <value>1.1327085102603732e-01</value></_></nodes></_>
    <_>
      <nodes>
        <_>
          <depth>0</depth>
          <value>-7.1785353835327706e-02</value>
          <splits>
            <_><var>427</var>
              <quality>1.1498709022998810e-01</quality>
              <le>2.7647060155868530e-01</le></_></splits></_>
        <_>
          <depth>1</depth>
          <value>-3.3071499352275430e-01</value>
          <splits>
            <_><var>375</var>
              <quality>1.6188219189643860e-01</quality>
              <le>6.5686273574829102e-01</le></_></splits></_>
        <_>
          <depth>2</depth>
          <value>-6.5810450259390629e-01</value></_>
        <_>
          <depth>2</depth>
          <value>1.5672508274681013e-01</value></_>
        <_>
          <depth>1</depth>
          <value>3.7568328874383922e-01</value>
          <splits>
            <_><var>346</var>
              <quality>1.7435555160045624e-01</quality>
              <le>2.6862746477127075e-01</le></_></splits></_>
        <_>
          <depth>2</depth>
          <value>-2.4063620321036688e-01</value></_>
        <_>
          <depth>2</depth>
          <value>9.5893550407427708e-01</value></_></nodes></_>
    <_>
      <nodes>
        <_>
          <depth>0</depth>
          <value>-4.0861330919098333e-02</value>
          <splits>
            <_><var>542</var>
              <quality>8.6326465010643005e-02</quality>
              <le>9.6078440546989441e-02</le></_></splits></_>
        <_>
          <depth>1</depth>
          <value>1.3108891072436035e-01</value>
          <splits>
            <_><var>237</var>
              <quality>1.1108565330505371e-01</quality>
              <le>2.5490198284387589e-02</le></_></splits></_>
        <_>
          <depth>2</depth>
          <value>5.7713130843676763e-01</value></_>
        <_>
          <depth>2</depth>
          <value>-1.7939650403511942e-01</value></_>
        <_>
          <depth>1</depth>
          <value>-5.5953880598107308e-01</value>
          <splits>
            <_><var>652</var>
              <quality>1.2772227823734283e-01</quality>
              <le>3.7254903465509415e-02</le></_></splits></_>
        <_>
          <depth>2</depth>
          <value>-7.4402642760934112e-01</value></_>
        <_>
          <depth>2</depth>
          <value>6.6994059293966135e-01</value></_></nodes></_>
    <_>
      <nodes>
        <_>
          <depth>0</depth>
          <value>-3.7692741085958707e-02</value>
          <splits>
            <_><var>490</var>
              <quality>1.1108218878507614e-01</quality>
              <le>2.8823530673980713e-01</le></_></splits></_>
        <_>
          <depth>1</depth>
          <value>-4.3159570973205252e-01</value>
          <splits>
            <_><var>628</var>
              <quality>1.5748301148414612e-01</quality>
              <le>2.5490198284387589e-02</le></_></splits></_>
        <_>
          <depth>2</depth>
          <value>-1.2853847865964541e-01</value></_>
        <_>
          <depth>2</depth>
          <value>-1.0984607097602868e+00</value></_>
        <_>
          <depth>1</depth>
          <value>2.5540770397047929e-01</value>
          <splits>
            <_><var>352</var>
              <quality>1.0226642340421677e-01</quality>
              <le>4.4901964068412781e-01</le></_></splits></_>
        <_>
          <depth>2</depth>
          <value>-9.2054062905502262e-02</value></_>
        <_>
          <depth>2</depth>
          <value>6.0775910926142473e-01</value></_></nodes></_>
    <_>
      <nodes>
        <_>
          <depth>0</depth>
          <value>-4.2447456695129553e-02</value>
          <splits>
            <_><var>322</var>
              <quality>9.1439284384250641e-02</quality>
              <le>4.6470591425895691e-01</le></_></splits></_>
        <_>
          <depth>1</depth>
          <value>1.0251351084218460e-01</value>
          <splits>
            <_><var>213</var>
              <quality>9.7240291535854340e-02</quality>
              <le>4.9607846140861511e-01</le></_></splits></_>
        <_>
          <depth>2</depth>
          <value>3.7178986786100371e-01</value></_>
        <_>
          <depth>2</depth>
          <value>-3.2315075828580103e-01</value></_>
        <_>
          <depth>1</depth>
          <value>-6.9399650218984110e-01</value>
          <splits>
            <_><var>239</var>
              <quality>1.5353560447692871e-01</quality>
              <le>1.9607844296842813e-03</le></_></splits></_>
        <_>
          <depth>2</depth>
          <value>-1.5002596443345964e+00</value></_>
        <_>
          <depth>2</depth>
          <value>-1.8995957036347302e-01</value></_></nodes></_>
    <_>
      <nodes>
        <_>
          <depth>0</depth>
          <value>-2.6957949322073137e-02</value>
          <splits>
            <_><var>234</var>
              <quality>8.0124832689762115e-02</quality>
              <le>3.6666667461395264e-01</le></_></splits></_>
        <_>
          <depth>1</depth>
          <value>1.9463824233118726e-01</value>
          <splits>
            <_><var>567</var>
              <quality>9.6199952065944672e-02</quality>
              <le>1.2745098769664764e-01</le></_></splits></_>
        <_>
          <depth>2</depth>
          <value>3.0204563932495637e-01</value></_>
        <_>
          <depth>2</depth>
          <value>-9.4909441043003984e-01</value></_>
        <_>
          <depth>1</depth>
          <value>-4.0427904741263809e-01</value>
          <splits>
            <_><var>209</var>
              <quality>1.3666118681430817e-01</quality>
              <le>4.1176471859216690e-02</le></_></splits></_>
        <_>
          <depth>2</depth>
          <value>1.6422404162748469e-01</value></_>
        <_>
          <depth>2</depth>
          <value>-8.0066711870069007e-01</value></_></nodes></_>
    <_>
      <nodes>
        <_>
          <depth>0</depth>
          <value>-3.8697600478121118e-02</value>
          <splits>
            <_><var>743</var>
              <quality>8.9120574295520782e-02</quality>
              <le>5.8823535218834877e-03</le></_></splits></_>
        <_>
          <depth>1</depth>
          <value>2.9545817253948944e-02</value>
          <splits>
            <_><var>572</var>
              <quality>9.8123699426651001e-02</quality>
              <le>1.9607844296842813e-03</le></_></splits></_>
        <_>
          <depth>2</depth>
          <value>3.2213302102331531e-01</value></_>
        <_>
          <depth>2</depth>
          <value>-3.3829863274650307e-01</value></_>
        <_>
          <depth>1</depth>
          <value>-1.3914167949585177e+00</value>
          <splits>
            <_><var>376</var>
              <quality>9.3160621821880341e-02</quality>
              <le>9.9803924560546875e-01</le></_></splits></_>
        <_>
          <depth>2</depth>
          <value>-1.3786405184083375e+00</value></_>
        <_>
          <depth>2</depth>
          <value>-9.6765737749789054e+00</value></_></nodes></_>
    <_>
      <nodes>
        <_>
          <depth>0</depth>
          <value>-3.3472063526794889e-02</value>
          <splits>
            <_><var>190</var>
              <quality>8.8491916656494141e-02</quality>
              <le>5.8823535218834877e-03</le></_></splits></_>
        <_>
          <depth>1</depth>
          <value>-1.5615735971252004e-01</value>
          <splits>
            <_><var>403</var>
              <quality>9.1627627611160278e-02</quality>
              <le>5.6274509429931641e-01</le></_></splits></_>
        <_>
          <depth>2</depth>
          <value>-4.2073511028944377e-01</value></_>
        <_>
          <depth>2</depth>
          <value>1.7584087059530856e-01</value></_>
        <_>
          <depth>1</depth>
          <value>7.1664703371733252e-01</value>
          <splits>
            <_><var>186</var>
              <quality>2.2402898967266083e-01</quality>
              <le>1.3725491240620613e-02</le></_></splits></_>
        <_>
          <depth>2</depth>
          <value>1.4293666288249571e+00</value></_>
        <_>
          <depth>2</depth>
          <value>-9.1663689349877553e-01</value></_></nodes></_>
    <_>
      <nodes>
        <_>
          <depth>0</depth>
          <value>-8.8163789206895983e-04</value>
          <splits>
            <_><var>554</var>
              <quality>7.5690172612667084e-02</quality>
              <le>1.9607844296842813e-03</le></_></splits></_>
        <_>
          <depth>1</depth>
          <value>7.7998387051946838e-02</value>
          <splits>
            <_><var>439</var>
              <quality>7.4606783688068390e-02</quality>
              <le>5.6862749159336090e-02</le></_></splits></_>
        <_>
          <depth>2</depth>
          <value>-1.8177686423000800e-01</value></_>
        <_>
          <depth>2</depth>
          <value>3.8049975876618991e-01</value></_>
        <_>
          <depth>1</depth>
          <value>-1.0109304809682216e+00</value>
          <splits>
            <_><var>271</var>
              <quality>9.4055183231830597e-02</quality>
              <le>1.0980392992496490e-01</le></_></splits></_>
        <_>
          <depth>2</depth>
          <value>-1.4261549495568504e+00</value></_>
        <_>
          <depth>2</depth>
          <value>-1.8060737198574359e-01</value></_></nodes></_>
    <_>
      <nodes>
        <_>
          <depth>0</depth>
          <value>-2.0350946313962053e-02</value>
          <splits>
            <_><var>551</var>
              <quality>7.2841361165046692e-02</quality>
              <le>4.5098043978214264e-02</le></_></splits></_>
        <_>
          <depth>1</depth>
          <value>1.5239872646324559e-01</value>
          <splits>
            <_><var>266</var>
              <quality>9.1656222939491272e-02</quality>
              <le>9.5098042488098145e-01</le></_></splits></_>
        <_>
          <depth>2</depth>
          <value>3.3371498991629334e-01</value></_>
        <_>
          <depth>2</depth>
          <value>-4.5983335141206694e-01</value></_>
        <_>
          <depth>1</depth>
          <value>-4.6179580946840648e-01</value>
          <splits>
            <_><var>483</var>
              <quality>1.1450650542974472e-01</quality>
              <le>3.2745099067687988e-01</le></_></splits></_>
        <_>
          <depth>2</depth>
          <value>-7.4851997693540095e-01</value></_>
        <_>
          <depth>2</depth>
          <value>2.8903065330596722e-01</value></_></nodes></_>
    <_>
      <nodes>
        <_>
          <depth>0</depth>
          <value>-3.2255771474398925e-02</value>
          <splits>
            <_><var>714</var>
              <quality>5.5750384926795959e-02</quality>
              <le>3.3333335071802139e-02</le></_></splits></_>
        <_>
          <depth>1</depth>
          <value>6.8677869590379387e-02</value>
          <splits>
            <_><var>409</var>
              <quality>6.7919217050075531e-02</quality>
              <le>5.6862749159336090e-02</le></_></splits></_>
        <_>
          <depth>2</depth>
          <value>-5.5022746691505453e-01</value></_>
        <_>
          <depth>2</depth>
          <value>1.9695653398715962e-01</value></_>
        <_>
          <depth>1</depth>
          <value>-6.0320056025015090e-01</value>
          <splits>
            <_><var>263</var>
              <quality>7.7128812670707703e-02</quality>
              <le>1.0784314572811127e-01</le></_></splits></_>
        <_>
          <depth>2</depth>
          <value>2.8723937280217071e-01</value></_>
        <_>
          <depth>2</depth>
          <value>-8.0134553037925627e-01</value></_></nodes></_>
    <_>
      <nodes>
        <_>
          <depth>0</depth>
          <value>-2.7074300427610522e-02</value>
          <splits>
            <_><var>717</var>
              <quality>6.0387253761291504e-02</quality>
              <le>1.2352941930294037e-01</le></_></splits></_>
        <_>
          <depth>1</depth>
          <value>5.8674004766534810e-02</value>
          <splits>
            <_><var>100</var>
              <quality>7.2422564029693604e-02</quality>
              <le>1.9607844296842813e-03</le></_></splits></_>
        <_>
          <depth>2</depth>
          <value>1.3089713701798109e-01</value></_>
        <_>
          <depth>2</depth>
          <value>-1.0727210688873341e+00</value></_>
        <_>
          <depth>1</depth>
          <value>-7.5983127155143804e-01</value>
          <splits>
            <_><var>236</var>
              <quality>8.6981780827045441e-02</quality>
              <le>1.5490196645259857e-01</le></_></splits></_>
        <_>
          <depth>2</depth>
          <value>1.8809597534140571e-01</value></_>
        <_>
          <depth>2</depth>
          <value>-1.0727633323297634e+00</value></_></nodes></_>
    <_>
      <nodes>
        <_>
          <depth>0</depth>
          <value>-3.2519232159572732e-02</value>
          <splits>
            <_><var>738</var>
              <quality>5.7806167751550674e-02</quality>
              <le>1.9607844296842813e-03</le></_></splits></_>
        <_>
          <depth>1</depth>
          <value>1.2763530817869646e-02</value>
          <splits>
            <_><var>594</var>
              <quality>5.5770948529243469e-02</quality>
              <le>1.9607844296842813e-03</le></_></splits></_>
        <_>
          <depth>2</depth>
          <value>6.2245618583854419e-02</value></_>
        <_>
          <depth>2</depth>
          <value>-1.2110514759160911e+00</value></_>
        <_>
          <depth>1</depth>
          <value>-1.3529190426747864e+00</value>
          <splits>
            <_><var>268</var>
              <quality>6.6118896007537842e-02</quality>
              <le>8.8235296308994293e-02</le></_></splits></_>
        <_>
          <depth>2</depth>
          <value>1.2897870458491226e-01</value></_>
        <_>
          <depth>2</depth>
          <value>-1.5342066968354329e+00</value></_></nodes></_>
    <_>
      <nodes>
        <_>
          <depth>0</depth>
          <value>-2.3129040606684134e-02</value>
          <splits>
            <_><var>179</var>
              <quality>4.9864731729030609e-02</quality>
              <le>5.1176476478576660e-01</le></_></splits></_>
        <_>
          <depth>1</depth>
          <value>8.3723772446660696e-02</value>
          <splits>
            <_><var>272</var>
              <quality>7.2367928922176361e-02</quality>
              <le>1.7450980842113495e-01</le></_></splits></_>
        <_>
          <depth>2</depth>
          <value>3.0335837243042468e-01</value></_>
        <_>
          <depth>2</depth>
          <value>-3.0741821843858164e-01</value></_>
        <_>
          <depth>1</depth>
          <value>-5.0935485969050287e-01</value>
          <splits>
            <_><var>263</var>
              <quality>1.1717393994331360e-01</quality>
              <le>1.8235294520854950e-01</le></_></splits></_>
        <_>
          <depth>2</depth>
          <value>-1.1904210846024084e+00</value></_>
        <_>
          <depth>2</depth>
          <value>1.1489771973451765e-01</value></_></nodes></_>
    <_>
      <nodes>
        <_>
          <depth>0</depth>
          <value>-3.1018819771201966e-02</value>
          <splits>
            <_><var>93</var>
              <quality>5.0323948264122009e-02</quality>
              <le>3.9215688593685627e-03</le></_></splits></_>
        <_>
          <depth>1</depth>
          <value>1.1403521654075044e-03</value>
          <splits>
            <_><var>400</var>
              <quality>4.2097199708223343e-02</quality>
              <le>5.0392162799835205e-01</le></_></splits></_>
        <_>
          <depth>2</depth>
          <value>-1.9546747722748356e-01</value></_>
        <_>
          <depth>2</depth>
          <value>2.3098219299697559e-01</value></_>
        <_>
          <depth>1</depth>
          <value>-1.6481514263130119e+00</value>
          <splits>
            <_><var>638</var>
              <quality>6.9157280027866364e-02</quality>
              <le>3.5294121503829956e-01</le></_></splits></_>
        <_>
          <depth>2</depth>
          <value>-1.8053204029874552e+00</value></_>
        <_>
          <depth>2</depth>
          <value>4.8205668029841684e+00</value></_></nodes></_>
    <_>
      <nodes>
        <_>
          <depth>0</depth>
          <value>-1.8245882740636703e-02</value>
          <splits>
            <_><var>347</var>
              <quality>4.6238645911216736e-02</quality>
              <le>5.4313731193542480e-01</le></_></splits></_>
        <_>
          <depth>1</depth>
          <value>-2.1079949496317690e-01</value>
          <splits>
            <_><var>265</var>
              <quality>8.8217571377754211e-02</quality>
              <le>1.9607844296842813e-03</le></_></splits></_>
        <_>
          <depth>2</depth>
          <value>8.6350232680744946e-02</value></_>
        <_>
          <depth>2</depth>
          <value>-6.1345885065608718e-01</value></_>
        <_>
          <depth>1</depth>
          <value>2.3279955764638366e-01</value>
          <splits>
            <_><var>463</var>
              <quality>6.6816844046115875e-02</quality>
              <le>1.3921569287776947e-01</le></_></splits></_>
        <_>
          <depth>2</depth>
          <value>-6.2608079536347616e-01</value></_>
        <_>
          <depth>2</depth>
          <value>3.5835575008471482e-01</value></_></nodes></_>
    <_>
      <nodes>
        <_>
          <depth>0</depth>
          <value>-2.7895377505148474e-02</value>
          <splits>
            <_><var>96</var>
              <quality>4.4434811919927597e-02</quality>
              <le>1.9607844296842813e-03</le></_></splits></_>
        <_>
          <depth>1</depth>
          <value>1.3488137838017831e-02</value>
          <splits>
            <_><var>214</var>
              <quality>4.3504472821950912e-02</quality>
              <le>8.2549023628234863e-01</le></_></splits></_>
        <_>
          <depth>2</depth>
          <value>1.3570946264952477e-01</value></_>
        <_>
          <depth>2</depth>
          <value>-3.7365945886574498e-01</value></_>
        <_>
          <depth>1</depth>
          <value>-1.1393446435115118e+00</value>
          <splits>
            <_><var>244</var>
              <quality>5.2180569618940353e-02</quality>
              <le>1.6666667163372040e-01</le></_></splits></_>
        <_>
          <depth>2</depth>
          <value>-1.2551229836321065e+00</value></_>
        <_>
          <depth>2</depth>
          <value>8.6465920652767347e-01</value></_></nodes></_>
    <_>
      <nodes>
        <_>
          <depth>0</depth>
          <value>-1.2948553649004161e-02</value>
          <splits>
            <_><var>359</var>
              <quality>3.2486200332641602e-02</quality>
              <le>5.0000000000000000e-01</le></_></splits></_>
        <_>
          <depth>1</depth>
          <value>1.3987705178843781e-02</value>
          <splits>
            <_><var>398</var>
              <quality>3.2450702041387558e-02</quality>
              <le>6.1372554302215576e-01</le></_></splits></_>
        <_>
          <depth>2</depth>
          <value>-6.1239691340950260e-02</value></_>
        <_>
          <depth>2</depth>
          <value>4.7500092111510289e-01</value></_>
        <_>
          <depth>1</depth>
          <value>-1.2758496020692254e+00</value>
          <splits>
            <_><var>304</var>
              <quality>4.7675635665655136e-02</quality>
              <le>9.9019610881805420e-01</le></_></splits></_>
        <_>
          <depth>2</depth>
          <value>-1.4781493760434887e+00</value></_>
        <_>
          <depth>2</depth>
          <value>2.5529359267772946e+00</value></_></nodes></_>
    <_>
      <nodes>
        <_>
          <depth>0</depth>
          <value>-3.3667843592663266e-03</value>
          <splits>
            <_><var>294</var>
              <quality>3.5336375236511230e-02</quality>
              <le>6.4509809017181396e-01</le></_></splits></_>
        <_>
          <depth>1</depth>
          <value>9.0594011708384312e-02</value>
          <splits>
            <_><var>183</var>
              <quality>8.8132217526435852e-02</quality>
              <le>4.3333336710929871e-01</le></_></splits></_>
        <_>
          <depth>2</depth>
          <value>3.3725879795498970e-01</value></_>
        <_>
          <depth>2</depth>
          <value>-3.4152994737235792e-01</value></_>
        <_>
          <depth>1</depth>
          <value>-3.9911594378451248e-01</value>
          <splits>
            <_><var>183</var>
              <quality>1.0992442816495895e-01</quality>
              <le>1.9607844296842813e-03</le></_></splits></_>
        <_>
          <depth>2</depth>
          <value>-9.5024844999629954e-01</value></_>
        <_>
          <depth>2</depth>
          <value>4.0608170480523559e-01</value></_></nodes></_>
    <_>
      <nodes>
        <_>
          <depth>0</depth>
          <value>-3.0690476714489372e-02</value>
          <splits>
            <_><var>491</var>
              <quality>4.5136146247386932e-02</quality>
              <le>2.4117648601531982e-01</le></_></splits></_>
        <_>
          <depth>1</depth>
          <value>-3.8311373317105596e-01</value>
          <splits>
            <_><var>409</var>
              <quality>6.9046080112457275e-02</quality>
              <le>4.6862748265266418e-01</le></_></splits></_>
        <_>
          <depth>2</depth>
          <value>-8.7017642780471616e-01</value></_>
        <_>
          <depth>2</depth>
          <value>-1.3726769937165359e-01</value></_>
        <_>
          <depth>1</depth>
          <value>1.0145132828891495e-01</value>
          <splits>
            <_><var>569</var>
              <quality>4.2295057326555252e-02</quality>
              <le>5.1960790157318115e-01</le></_></splits></_>
        <_>
          <depth>2</depth>
          <value>1.6532764719468002e-01</value></_>
        <_>
          <depth>2</depth>
          <value>-6.9574617768793756e-01</value></_></nodes></_>
    <_>
      <nodes>
        <_>
          <depth>0</depth>
          <value>-2.3272187467855972e-02</value>
          <splits>
            <_><var>602</var>
              <quality>3.8158658891916275e-02</quality>
              <le>4.7254905104637146e-01</le></_></splits></_>
        <_>
          <depth>1</depth>
          <value>1.2913132166492733e-01</value>
          <splits>
            <_><var>658</var>
              <quality>5.4977383464574814e-02</quality>
              <le>5.3137254714965820e-01</le></_></splits></_>
        <_>
          <depth>2</depth>
          <value>2.1356509682185004e-01</value></_>
        <_>
          <depth>2</depth>
          <value>-7.6053512883713159e-01</value></_>
        <_>
          <depth>1</depth>
          <value>-2.8327661431431894e-01</value>
          <splits>
            <_><var>577</var>
              <quality>6.8640671670436859e-02</quality>
              <le>2.2941178083419800e-01</le></_></splits></_>
        <_>
          <depth>2</depth>
          <value>-7.7928365392521404e-02</value></_>
        <_>
          <depth>2</depth>
          <value>-8.4463835187375558e-01</value></_></nodes></_>
    <_>
      <nodes>
        <_>
          <depth>0</depth>
          <value>-8.5927288282157815e-03</value>
          <splits>
            <_><var>348</var>
              <quality>4.3761633336544037e-02</quality>
              <le>7.9019618034362793e-01</le></_></splits></_>
        <_>
          <depth>1</depth>
          <value>-1.0945712295879366e-01</value>
          <splits>
            <_><var>345</var>
              <quality>7.9777829349040985e-02</quality>
              <le>1.9607844296842813e-03</le></_></splits></_>
        <_>
          <depth>2</depth>
          <value>-6.2963550371868937e-01</value></_>
        <_>
          <depth>2</depth>
          <value>6.4661081059902759e-02</value></_>
        <_>
          <depth>1</depth>
          <value>4.4737820165972897e-01</value>
          <splits>
            <_><var>408</var>
              <quality>8.9975401759147644e-02</quality>
              <le>3.8235297799110413e-01</le></_></splits></_>
        <_>
          <depth>2</depth>
          <value>-6.6131454418043467e-01</value></_>
        <_>
          <depth>2</depth>
          <value>7.3845911548915910e-01</value></_></nodes></_>
    <_>
      <nodes>
        <_>
          <depth>0</depth>
          <value>-1.1948501469461543e-02</value>
          <splits>
            <_><var>266</var>
              <quality>5.4486304521560669e-02</quality>
              <le>6.2549018859863281e-01</le></_></splits></_>
        <_>
          <depth>1</depth>
          <value>1.5622012789723869e-01</value>
          <splits>
            <_><var>268</var>
              <quality>7.0342518389225006e-02</quality>
              <le>9.6666669845581055e-01</le></_></splits></_>
        <_>
          <depth>2</depth>
          <value>2.0883081885881331e-02</value></_>
        <_>
          <depth>2</depth>
          <value>7.9346014860311109e-01</value></_>
        <_>
          <depth>1</depth>
          <value>-3.5215154246597025e-01</value>
          <splits>
            <_><var>241</var>
              <quality>1.5800961852073669e-01</quality>
              <le>2.6666668057441711e-01</le></_></splits></_>
        <_>
          <depth>2</depth>
          <value>4.4710735815263686e-01</value></_>
        <_>
          <depth>2</depth>
          <value>-8.2608128741561082e-01</value></_></nodes></_>
    <_>
      <nodes>
        <_>
          <depth>0</depth>
          <value>-1.9804613504867216e-02</value>
          <splits>
            <_><var>717</var>
              <quality>3.4746207296848297e-02</quality>
              <le>1.9607844296842813e-03</le></_></splits></_>
        <_>
          <depth>1</depth>
          <value>4.7958875727832508e-02</value>
          <splits>
            <_><var>466</var>
              <quality>3.9923701435327530e-02</quality>
              <le>5.2352941036224365e-01</le></_></splits></_>
        <_>
          <depth>2</depth>
          <value>-1.3351554573429925e-01</value></_>
        <_>
          <depth>2</depth>
          <value>2.9624856515392006e-01</value></_>
        <_>
          <depth>1</depth>
          <value>-5.5376097033195237e-01</value>
          <splits>
            <_><var>187</var>
              <quality>5.8587428182363510e-02</quality>
              <le>2.3529414087533951e-02</le></_></splits></_>
        <_>
          <depth>2</depth>
          <value>-7.5502992935228297e-01</value></_>
        <_>
          <depth>2</depth>
          <value>6.4348848526144709e-01</value></_></nodes></_>
    <_>
      <nodes>
        <_>
          <depth>0</depth>
          <value>-1.1250188158669796e-02</value>
          <splits>
            <_><var>101</var>
              <quality>4.1502971202135086e-02</quality>
              <le>1.9607844296842813e-03</le></_></splits></_>
        <_>
          <depth>1</depth>
          <value>3.3446651051290563e-02</value>
          <splits>
            <_><var>234</var>
              <quality>4.1689764708280563e-02</quality>
              <le>9.2352950572967529e-01</le></_></splits></_>
        <_>
          <depth>2</depth>
          <value>1.2524352326614058e-01</value></_>
        <_>
          <depth>2</depth>
          <value>-4.5434883110222679e-01</value></_>
        <_>
          <depth>1</depth>
          <value>-9.8583714212584672e-01</value>
          <splits>
            <_><var>259</var>
              <quality>6.3017085194587708e-02</quality>
              <le>7.1372550725936890e-01</le></_></splits></_>
        <_>
          <depth>2</depth>
          <value>-1.0430316773815040e+00</value></_>
        <_>
          <depth>2</depth>
          <value>8.4701748989122088e+00</value></_></nodes></_>
    <_>
      <nodes>
        <_>
          <depth>0</depth>
          <value>-2.1828793013257089e-02</value>
          <splits>
            <_><var>98</var>
              <quality>3.6892943084239960e-02</quality>
              <le>9.8039228469133377e-03</le></_></splits></_>
        <_>
          <depth>1</depth>
          <value>1.5213170191700518e-02</value>
          <splits>
            <_><var>710</var>
              <quality>3.4586444497108459e-02</quality>
              <le>5.8823535218834877e-03</le></_></splits></_>
        <_>
          <depth>2</depth>
          <value>8.2732226183760874e-02</value></_>
        <_>
          <depth>2</depth>
          <value>-5.3985669325834518e-01</value></_>
        <_>
          <depth>1</depth>
          <value>-1.0573660853060940e+00</value>
          <splits>
            <_><var>313</var>
              <quality>5.9458751231431961e-02</quality>
              <le>3.4901961684226990e-01</le></_></splits></_>
        <_>
          <depth>2</depth>
          <value>-9.3266479537746194e-01</value></_>
        <_>
          <depth>2</depth>
          <value>-6.6248602769007618e+00</value></_></nodes></_>
    <_>
      <nodes>
        <_>
          <depth>0</depth>
          <value>-1.2589068789396696e-02</value>
          <splits>
            <_><var>92</var>
              <quality>3.6085672676563263e-02</quality>
              <le>2.5882354378700256e-01</le></_></splits></_>
        <_>
          <depth>1</depth>
          <value>5.6217569402186212e-03</value>
          <splits>
            <_><var>350</var>
              <quality>3.6118391901254654e-02</quality>
              <le>6.4509809017181396e-01</le></_></splits></_>
        <_>
          <depth>2</depth>
          <value>9.4785247947218002e-02</value></_>
        <_>
          <depth>2</depth>
          <value>-4.2416617212510194e-01</value></_>
        <_>
          <depth>1</depth>
          <value>-2.0897460107726720e+00</value>
          <splits>
            <_><var>577</var>
              <quality>4.1633166372776031e-02</quality>
              <le>9.8039224743843079e-02</le></_></splits></_>
        <_>
          <depth>2</depth>
          <value>-4.6378530696372433e+00</value></_>
        <_>
          <depth>2</depth>
          <value>-1.8246436420644008e+00</value></_></nodes></_>
    <_>
      <nodes>
        <_>
          <depth>0</depth>
          <value>-1.4248808476812272e-02</value>
          <splits>
            <_><var>720</var>
              <quality>3.4678403288125992e-02</quality>
              <le>7.0588238537311554e-02</le></_></splits></_>
        <_>
          <depth>1</depth>
          <value>2.1903810297751757e-02</value>
          <splits>
            <_><var>184</var>
              <quality>4.1540287435054779e-02</quality>
              <le>7.1176469326019287e-01</le></_></splits></_>
        <_>
          <depth>2</depth>
          <value>1.5064734077280789e-01</value></_>
        <_>
          <depth>2</depth>
          <value>-3.2623991929333079e-01</value></_>
        <_>
          <depth>1</depth>
          <value>-1.0183412534757117e+00</value>
          <splits>
            <_><var>235</var>
              <quality>4.8541378229856491e-02</quality>
              <le>1.9607844296842813e-03</le></_></splits></_>
        <_>
          <depth>2</depth>
          <value>4.6965101815157612e-01</value></_>
        <_>
          <depth>2</depth>
          <value>-1.3094777672993394e+00</value></_></nodes></_>
    <_>
      <nodes>
        <_>
          <depth>0</depth>
          <value>-1.0753779595788918e-02</value>
          <splits>
            <_><var>740</var>
              <quality>3.6204945296049118e-02</quality>
              <le>5.0980396568775177e-02</le></_></splits></_>
        <_>
          <depth>1</depth>
          <value>2.0965076437714458e-02</value>
          <splits>
            <_><var>347</var>
              <quality>2.9404459521174431e-02</quality>
              <le>8.4313727915287018e-02</le></_></splits></_>
        <_>
          <depth>2</depth>
          <value>-2.0628081632488374e-01</value></_>
        <_>
          <depth>2</depth>
          <value>1.5884406917606247e-01</value></_>
        <_>
          <depth>1</depth>
          <value>-1.2086282264971153e+00</value>
          <splits>
            <_><var>740</var>
              <quality>4.0513508021831512e-02</quality>
              <le>5.6862749159336090e-02</le></_></splits></_>
        <_>
          <depth>2</depth>
          <value>-5.4335171860586540e+00</value></_>
        <_>
          <depth>2</depth>
          <value>-1.1630851106072631e+00</value></_></nodes></_>
    <_>
      <nodes>
        <_>
          <depth>0</depth>
          <value>-6.4463078237756346e-03</value>
          <splits>
            <_><var>399</var>
              <quality>2.6638813316822052e-02</quality>
              <le>5.2745103836059570e-01</le></_></splits></_>
        <_>
          <depth>1</depth>
          <value>-1.1179303217799980e-01</value>
          <splits>
            <_><var>286</var>
              <quality>3.2284263521432877e-02</quality>
              <le>3.1568628549575806e-01</le></_></splits></_>
        <_>
          <depth>2</depth>
          <value>-6.7821565630084790e-02</value></_>
        <_>
          <depth>2</depth>
          <value>-9.0676238163135681e-01</value></_>
        <_>
          <depth>1</depth>
          <value>2.5933905778167043e-01</value>
          <splits>
            <_><var>327</var>
              <quality>4.9919750541448593e-02</quality>
              <le>7.7058827877044678e-01</le></_></splits></_>
        <_>
          <depth>2</depth>
          <value>5.6037854157780187e-01</value></_>
        <_>
          <depth>2</depth>
          <value>-1.3219295931306141e-01</value></_></nodes></_>
    <_>
      <nodes>
        <_>
          <depth>0</depth>
          <value>-8.1804451773528127e-03</value>
          <splits>
            <_><var>500</var>
              <quality>3.1481277197599411e-02</quality>
              <le>5.3921568393707275e-01</le></_></splits></_>
        <_>
          <depth>1</depth>
          <value>1.3775895745887343e-02</value>
          <splits>
            <_><var>332</var>
              <quality>2.6331188157200813e-02</quality>
              <le>1.8235294520854950e-01</le></_></splits></_>
        <_>
          <depth>2</depth>
          <value>3.5279825739443542e-02</value></_>
        <_>
          <depth>2</depth>
          <value>-1.2851306231714250e+00</value></_>
        <_>
          <depth>1</depth>
          <value>-1.5144251860287077e+00</value>
          <splits>
            <_><var>345</var>
              <quality>5.3039476275444031e-02</quality>
              <le>1.5098039805889130e-01</le></_></splits></_>
        <_>
          <depth>2</depth>
          <value>-2.7826376547661349e+00</value></_>
        <_>
          <depth>2</depth>
          <value>-2.5872169982721532e-01</value></_></nodes></_>
    <_>
      <nodes>
        <_>
          <depth>0</depth>
          <value>-6.0251292073845424e-03</value>
          <splits>
            <_><var>418</var>
              <quality>2.4325517937541008e-02</quality>
              <le>5.2941180765628815e-02</le></_></splits></_>
        <_>
          <depth>1</depth>
          <value>1.9783553780400045e-03</value>
          <splits>
            <_><var>67</var>
              <quality>2.3877760395407677e-02</quality>
              <le>3.9215688593685627e-03</le></_></splits></_>
        <_>
          <depth>2</depth>
          <value>1.9246686719136569e-02</value></_>
        <_>
          <depth>2</depth>
          <value>-1.4569814570183843e+00</value></_>
        <_>
          <depth>1</depth>
          <value>-3.2008555493472701e+00</value>
          <splits>
            <_><var>288</var>
              <quality>3.7453539669513702e-02</quality>
              <le>6.0980391502380371e-01</le></_></splits></_>
        <_>
          <depth>2</depth>
          <value>-2.3633706380170643e+00</value></_>
        <_>
          <depth>2</depth>
          <value>-9.8059826631932374e+00</value></_></nodes></_>
    <_>
      <nodes>
        <_>
          <depth>0</depth>
          <value>-5.3325278226478067e-03</value>
          <splits>
            <_><var>412</var>
              <quality>2.5644298642873764e-02</quality>
              <le>7.6470591127872467e-02</le></_></splits></_>
        <_>
          <depth>1</depth>
          <value>-1.1194751769899350e-01</value>
          <splits>
            <_><var>468</var>
              <quality>4.2304191738367081e-02</quality>
              <le>4.9019612371921539e-02</le></_></splits></_>
        <_>
          <depth>2</depth>
          <value>-2.0133931243198630e-01</value></_>
        <_>
          <depth>2</depth>
          <value>4.5599636359769241e-01</value></_>
        <_>
          <depth>1</depth>
          <value>2.4759253069480980e-01</value>
          <splits>
            <_><var>383</var>
              <quality>5.0869826227426529e-02</quality>
              <le>7.1960783004760742e-01</le></_></splits></_>
        <_>
          <depth>2</depth>
          <value>7.2179790750857986e-01</value></_>
        <_>
          <depth>2</depth>
          <value>-3.9367880136555317e-03</value></_></nodes></_>
    <_>
      <nodes>
        <_>
          <depth>0</depth>
          <value>1.5353914691163004e-03</value>
          <splits>
            <_><var>130</var>
              <quality>2.9736172407865524e-02</quality>
              <le>5.7450985908508301e-01</le></_></splits></_>
        <_>
          <depth>1</depth>
          <value>3.7788657550826027e-02</value>
          <splits>
            <_><var>154</var>
              <quality>2.8162259608507156e-02</quality>
              <le>9.3137264251708984e-01</le></_></splits></_>
        <_>
          <depth>2</depth>
          <value>8.3167023546643112e-02</value></_>
        <_>
          <depth>2</depth>
          <value>-6.1145083671711409e-01</value></_>
        <_>
          <depth>1</depth>
          <value>-8.6180698071128903e-01</value>
          <splits>
            <_><var>269</var>
              <quality>5.6258708238601685e-02</quality>
              <le>8.7647068500518799e-01</le></_></splits></_>
        <_>
          <depth>2</depth>
          <value>-1.2165122536827813e+00</value></_>
        <_>
          <depth>2</depth>
          <value>1.1871691713745975e+00</value></_></nodes></_>
    <_>
      <nodes>
        <_>
          <depth>0</depth>
          <value>-1.7383156860584507e-02</value>
          <splits>
            <_><var>269</var>
              <quality>2.4753456935286522e-02</quality>
              <le>7.3529410362243652e-01</le></_></splits></_>
        <_>
          <depth>1</depth>
          <value>9.9788504598987693e-02</value>
          <splits>
            <_><var>185</var>
              <quality>1.1917009949684143e-01</quality>
              <le>2.2156864404678345e-01</le></_></splits></_>
        <_>
          <depth>2</depth>
          <value>3.7253496421594146e-01</value></_>
        <_>
          <depth>2</depth>
          <value>-5.6880466978352773e-01</value></_>
        <_>
          <depth>1</depth>
          <value>-2.3718154931941574e-01</value>
          <splits>
            <_><var>186</var>
              <quality>1.4014014601707458e-01</quality>
              <le>1.7647059634327888e-02</le></_></splits></_>
        <_>
          <depth>2</depth>
          <value>-7.7193073849301452e-01</value></_>
        <_>
          <depth>2</depth>
          <value>4.5095760140195329e-01</value></_></nodes></_>
    <_>
      <nodes>
        <_>
          <depth>0</depth>
          <value>-2.4912882023327192e-02</value>
          <splits>
            <_><var>156</var>
              <quality>3.1940933316946030e-02</quality>
              <le>1.9607844296842813e-03</le></_></splits></_>
        <_>
          <depth>1</depth>
          <value>-1.3253456808592914e-01</value>
          <splits>
            <_><var>240</var>
              <quality>7.8696198761463165e-02</quality>
              <le>2.7254903316497803e-01</le></_></splits></_>
        <_>
          <depth>2</depth>
          <value>1.4388850672947595e-01</value></_>
        <_>
          <depth>2</depth>
          <value>-4.7384693918070181e-01</value></_>
        <_>
          <depth>1</depth>
          <value>2.8173117724099550e-01</value>
          <splits>
            <_><var>239</var>
              <quality>1.6914907097816467e-01</quality>
              <le>2.5490198284387589e-02</le></_></splits></_>
        <_>
          <depth>2</depth>
          <value>-7.2120618645828749e-01</value></_>
        <_>
          <depth>2</depth>
          <value>8.8595751822058799e-01</value></_></nodes></_>
    <_>
      <nodes>
        <_>
          <depth>0</depth>
          <value>-3.6883079581924695e-02</value>
          <splits>
            <_><var>374</var>
              <quality>3.1144168227910995e-02</quality>
              <le>2.1568629890680313e-02</le></_></splits></_>
        <_>
          <depth>1</depth>
          <value>-3.4539217217239082e-01</value>
          <splits>
            <_><var>350</var>
              <quality>7.4240334331989288e-02</quality>
              <le>1.6666667163372040e-01</le></_></splits></_>
        <_>
          <depth>2</depth>
          <value>-5.2704098380569428e-02</value></_>
        <_>
          <depth>2</depth>
          <value>-1.0135295577740420e+00</value></_>
        <_>
          <depth>1</depth>
          <value>6.4971559865961481e-02</value>
          <splits>
            <_><var>353</var>
              <quality>4.6912673860788345e-02</quality>
              <le>5.6862749159336090e-02</le></_></splits></_>
        <_>
          <depth>2</depth>
          <value>-3.7790715681524856e-01</value></_>
        <_>
          <depth>2</depth>
          <value>2.0375475597957604e-01</value></_></nodes></_>
    <_>
      <nodes>
        <_>
          <depth>0</depth>
          <value>-1.7929504555996251e-02</value>
          <splits>
            <_><var>97</var>
              <quality>2.4639500305056572e-02</quality>
              <le>4.7058828175067902e-02</le></_></splits></_>
        <_>
          <depth>1</depth>
          <value>1.0085419651983027e-02</value>
          <splits>
            <_><var>554</var>
              <quality>3.2793022692203522e-02</quality>
              <le>8.2549023628234863e-01</le></_></splits></_>
        <_>
          <depth>2</depth>
          <value>3.6139875972794215e-02</value></_>
        <_>
          <depth>2</depth>
          <value>-1.3514916671766022e+00</value></_>
        <_>
          <depth>1</depth>
          <value>-9.3226466404493902e-01</value>
          <splits>
            <_><var>536</var>
              <quality>4.8226501792669296e-02</quality>
              <le>3.5882353782653809e-01</le></_></splits></_>
        <_>
          <depth>2</depth>
          <value>-1.0656930956147752e+00</value></_>
        <_>
          <depth>2</depth>
          <value>5.3519271244896292e+00</value></_></nodes></_>
    <_>
      <nodes>
        <_>
          <depth>0</depth>
          <value>-1.4623568927865122e-02</value>
          <splits>
            <_><var>185</var>
              <quality>2.6141699403524399e-02</quality>
              <le>9.4705891609191895e-01</le></_></splits></_>
        <_>
          <depth>1</depth>
          <value>5.2672051274306131e-02</value>
          <splits>
            <_><var>432</var>
              <quality>3.0617976561188698e-02</quality>
              <le>4.1176471859216690e-02</le></_></splits></_>
        <_>
          <depth>2</depth>
          <value>-2.1246688535468092e-01</value></_>
        <_>
          <depth>2</depth>
          <value>1.8392771631459212e-01</value></_>
        <_>
          <depth>1</depth>
          <value>-4.2035408603936536e-01</value>
          <splits>
            <_><var>469</var>
              <quality>6.4600318670272827e-02</quality>
              <le>2.2745099663734436e-01</le></_></splits></_>
        <_>
          <depth>2</depth>
          <value>-6.5026764051516339e-01</value></_>
        <_>
          <depth>2</depth>
          <value>8.9007234412377201e-01</value></_></nodes></_>
    <_>
      <nodes>
        <_>
          <depth>0</depth>
          <value>-1.0241129433463622e-02</value>
          <splits>
            <_><var>238</var>
              <quality>2.5939229875802994e-02</quality>
              <le>3.1568628549575806e-01</le></_></splits></_>
        <_>
          <depth>1</depth>
          <value>1.4176005207705869e-01</value>
          <splits>
            <_><var>240</var>
              <quality>9.3928895890712738e-02</quality>
              <le>3.6274510622024536e-01</le></_></splits></_>
        <_>
          <depth>2</depth>
          <value>-1.3328947224049070e-01</value></_>
        <_>
          <depth>2</depth>
          <value>7.3352102391087881e-01</value></_>
        <_>
          <depth>1</depth>
          <value>-1.8918585324033504e-01</value>
          <splits>
            <_><var>240</var>
              <quality>7.3250845074653625e-02</quality>
              <le>1.6274510324001312e-01</le></_></splits></_>
        <_>
          <depth>2</depth>
          <value>3.1554247851773032e-01</value></_>
        <_>
          <depth>2</depth>
          <value>-4.5089142200612831e-01</value></_></nodes></_>
    <_>
      <nodes>
        <_>
          <depth>0</depth>
          <value>-4.5064122948401484e-03</value>
          <splits>
            <_><var>72</var>
              <quality>2.5098945945501328e-02</quality>
              <le>3.9215688593685627e-03</le></_></splits></_>
        <_>
          <depth>1</depth>
          <value>1.8313956776014859e-02</value>
          <splits>
            <_><var>679</var>
              <quality>2.1682037040591240e-02</quality>
              <le>7.0588238537311554e-02</le></_></splits></_>
        <_>
          <depth>2</depth>
          <value>4.7133023394780003e-02</value></_>
        <_>
          <depth>2</depth>
          <value>-7.7761831097738099e-01</value></_>
        <_>
          <depth>1</depth>
          <value>-1.1613521927789889e+00</value>
          <splits>
            <_><var>271</var>
              <quality>3.2249733805656433e-02</quality>
              <le>4.0196081995964050e-01</le></_></splits></_>
        <_>
          <depth>2</depth>
          <value>-1.2388845056184998e+00</value></_>
        <_>
          <depth>2</depth>
          <value>4.0765650751013940e+00</value></_></nodes></_>
    <_>
      <nodes>
        <_>
          <depth>0</depth>
          <value>-1.5002426125489198e-02</value>
          <splits>
            <_><var>182</var>
              <quality>2.0369842648506165e-02</quality>
              <le>4.5686277747154236e-01</le></_></splits></_>
        <_>
          <depth>1</depth>
          <value>8.3684799553109951e-02</value>
          <splits>
            <_><var>207</var>
              <quality>6.3003636896610260e-02</quality>
              <le>1.9607844296842813e-03</le></_></splits></_>
        <_>
          <depth>2</depth>
          <value>-1.3662709136447906e-01</value></_>
        <_>
          <depth>2</depth>
          <value>4.9110612953761223e-01</value></_>
        <_>
          <depth>1</depth>
          <value>-2.2999549260858976e-01</value>
          <splits>
            <_><var>265</var>
              <quality>1.4662148058414459e-01</quality>
              <le>2.2941178083419800e-01</le></_></splits></_>
        <_>
          <depth>2</depth>
          <value>-9.3159835449660744e-01</value></_>
        <_>
          <depth>2</depth>
          <value>3.9382741939387000e-01</value></_></nodes></_>
    <_>
      <nodes>
        <_>
          <depth>0</depth>
          <value>-2.6605751391201860e-02</value>
          <splits>
            <_><var>264</var>
              <quality>3.4857414662837982e-02</quality>
              <le>9.9019610881805420e-01</le></_></splits></_>
        <_>
          <depth>1</depth>
          <value>6.2553346439714969e-02</value>
          <splits>
            <_><var>239</var>
              <quality>2.8330361470580101e-02</quality>
              <le>9.9019610881805420e-01</le></_></splits></_>
        <_>
          <depth>2</depth>
          <value>-7.9223811963843125e-03</value></_>
        <_>
          <depth>2</depth>
          <value>5.2365963656490133e-01</value></_>
        <_>
          <depth>1</depth>
          <value>-4.3020562882880897e-01</value>
          <splits>
            <_><var>260</var>
              <quality>7.3126815259456635e-02</quality>
              <le>1.9607844296842813e-03</le></_></splits></_>
        <_>
          <depth>2</depth>
          <value>-2.0797727021354517e-01</value></_>
        <_>
          <depth>2</depth>
          <value>-1.5117610890277238e+00</value></_></nodes></_>
    <_>
      <nodes>
        <_>
          <depth>0</depth>
          <value>-1.2696014260524042e-02</value>
          <splits>
            <_><var>406</var>
              <quality>2.3059800267219543e-02</quality>
              <le>2.1568629890680313e-02</le></_></splits></_>
        <_>
          <depth>1</depth>
          <value>2.1089097200051743e-01</value>
          <splits>
            <_><var>484</var>
              <quality>8.4989055991172791e-02</quality>
              <le>2.0980393886566162e-01</le></_></splits></_>
        <_>
          <depth>2</depth>
          <value>-2.1012815967928575e-01</value></_>
        <_>
          <depth>2</depth>
          <value>7.5829146312622342e-01</value></_>
        <_>
          <depth>1</depth>
          <value>-1.2053923858006821e-01</value>
          <splits>
            <_><var>486</var>
              <quality>9.6475563943386078e-02</quality>
              <le>8.4313727915287018e-02</le></_></splits></_>
        <_>
          <depth>2</depth>
          <value>2.0041799696370544e-01</value></_>
        <_>
          <depth>2</depth>
          <value>-5.4429123026630366e-01</value></_></nodes></_>
    <_>
      <nodes>
        <_>
          <depth>0</depth>
          <value>-6.9966843416573183e-03</value>
          <splits>
            <_><var>430</var>
              <quality>2.6638250797986984e-02</quality>
              <le>9.9411773681640625e-01</le></_></splits></_>
        <_>
          <depth>1</depth>
          <value>-7.5939431765515458e-02</value>
          <splits>
            <_><var>321</var>
              <quality>2.7677116915583611e-02</quality>
              <le>8.8823533058166504e-01</le></_></splits></_>
        <_>
          <depth>2</depth>
          <value>-1.3912302162069300e-02</value></_>
        <_>
          <depth>2</depth>
          <value>-5.3242341878028387e-01</value></_>
        <_>
          <depth>1</depth>
          <value>3.9901523239915770e-01</value>
          <splits>
            <_><var>573</var>
              <quality>4.2494956403970718e-02</quality>
              <le>9.2941182851791382e-01</le></_></splits></_>
        <_>
          <depth>2</depth>
          <value>6.0230823759365015e-01</value></_>
        <_>
          <depth>2</depth>
          <value>-3.3367369861740387e-01</value></_></nodes></_>
    <_>
      <nodes>
        <_>
          <depth>0</depth>
          <value>-6.8089091099726093e-03</value>
          <splits>
            <_><var>135</var>
              <quality>2.5213908404111862e-02</quality>
              <le>5.0784313678741455e-01</le></_></splits></_>
        <_>
          <depth>1</depth>
          <value>-1.9386999958339157e-02</value>
          <splits>
            <_><var>444</var>
              <quality>2.2156789898872375e-02</quality>
              <le>4.9803924560546875e-01</le></_></splits></_>
        <_>
          <depth>2</depth>
          <value>3.8292761472232721e-03</value></_>
        <_>
          <depth>2</depth>
          <value>-1.0138011003558276e+00</value></_>
        <_>
          <depth>1</depth>
          <value>2.0996212156745511e+00</value>
          <splits>
            <_><var>327</var>
              <quality>3.8458157330751419e-02</quality>
              <le>9.9411773681640625e-01</le></_></splits></_>
        <_>
          <depth>2</depth>
          <value>1.5918511902771082e+00</value></_>
        <_>
          <depth>2</depth>
          <value>6.8490866970484161e+00</value></_></nodes></_>
    <_>
      <nodes>
        <_>
          <depth>0</depth>
          <value>-4.5321574835642132e-03</value>
          <splits>
            <_><var>372</var>
              <quality>2.3032026365399361e-02</quality>
              <le>9.8235297203063965e-01</le></_></splits></_>
        <_>
          <depth>1</depth>
          <value>-8.2920361291940622e-02</value>
          <splits>
            <_><var>348</var>
              <quality>3.4859213978052139e-02</quality>
              <le>2.0980393886566162e-01</le></_></splits></_>
        <_>
          <depth>2</depth>
          <value>-2.4309417436598721e-01</value></_>
        <_>
          <depth>2</depth>
          <value>1.6135381739062246e-01</value></_>
        <_>
          <depth>1</depth>
          <value>3.0449205235564059e-01</value>
          <splits>
            <_><var>571</var>
              <quality>4.1363760828971863e-02</quality>
              <le>4.4509807229042053e-01</le></_></splits></_>
        <_>
          <depth>2</depth>
          <value>1.3018985661041224e-01</value></_>
        <_>
          <depth>2</depth>
          <value>1.0071484535731197e+00</value></_></nodes></_>
    <_>
      <nodes>
        <_>
          <depth>0</depth>
          <value>9.5516159500665088e-04</value>
          <splits>
            <_><var>332</var>
              <quality>2.2568665444850922e-02</quality>
              <le>6.1372554302215576e-01</le></_></splits></_>
        <_>
          <depth>1</depth>
          <value>1.3520828531296729e-02</value>
          <splits>
            <_><var>73</var>
              <quality>2.1902721375226974e-02</quality>
              <le>1.9607844296842813e-03</le></_></splits></_>
        <_>
          <depth>2</depth>
          <value>3.0743966923131052e-02</value></_>
        <_>
          <depth>2</depth>
          <value>-1.3234111717471704e+00</value></_>
        <_>
          <depth>1</depth>
          <value>-1.8895791481241602e+00</value>
          <splits>
            <_><var>342</var>
              <quality>2.5254115462303162e-02</quality>
              <le>9.8627460002899170e-01</le></_></splits></_>
        <_>
          <depth>2</depth>
          <value>-1.6080510296974899e+00</value></_>
        <_>
          <depth>2</depth>
          <value>-3.5080070988680538e+00</value></_></nodes></_>
    <_>
      <nodes>
        <_>
          <depth>0</depth>
          <value>-5.9869132619259427e-03</value>
          <splits>
            <_><var>179</var>
              <quality>2.2207058966159821e-02</quality>
              <le>7.8627455234527588e-01</le></_></splits></_>
        <_>
          <depth>1</depth>
          <value>4.4624126848932494e-02</value>
          <splits>
            <_><var>664</var>
              <quality>3.4715682268142700e-02</quality>
              <le>4.0588238835334778e-01</le></_></splits></_>
        <_>
          <depth>2</depth>
          <value>-8.6274431491409620e-03</value></_>
        <_>
          <depth>2</depth>
          <value>7.6877753220386180e-01</value></_>
        <_>
          <depth>1</depth>
          <value>-4.6715584540660265e-01</value>
          <splits>
            <_><var>181</var>
              <quality>6.0738891363143921e-02</quality>
              <le>2.7058824896812439e-01</le></_></splits></_>
        <_>
          <depth>2</depth>
          <value>2.7594453820082426e-01</value></_>
        <_>
          <depth>2</depth>
          <value>-1.0435124013335950e+00</value></_></nodes></_>
    <_>
      <nodes>
        <_>
          <depth>0</depth>
          <value>-1.1019100732210844e-02</value>
          <splits>
            <_><var>720</var>
              <quality>2.6290407404303551e-02</quality>
              <le>5.6862747669219971e-01</le></_></splits></_>
        <_>
          <depth>1</depth>
          <value>8.5307271987368639e-03</value>
          <splits>
            <_><var>150</var>
              <quality>2.4945197626948357e-02</quality>
              <le>9.1960787773132324e-01</le></_></splits></_>
        <_>
          <depth>2</depth>
          <value>3.5622638064596007e-02</value></_>
        <_>
          <depth>2</depth>
          <value>-9.7145284278718103e-01</value></_>
        <_>
          <depth>1</depth>
          <value>-1.4203796743661035e+00</value>
          <splits>
            <_><var>205</var>
              <quality>4.1952870786190033e-02</quality>
              <le>9.2156869173049927e-01</le></_></splits></_>
        <_>
          <depth>2</depth>
          <value>-4.6888736702389783e-01</value></_>
        <_>
          <depth>2</depth>
          <value>-2.6923613738350567e+00</value></_></nodes></_>
    <_>
      <nodes>
        <_>
          <depth>0</depth>
          <value>-8.2804047474203789e-03</value>
          <splits>
            <_><var>237</var>
              <quality>1.8304217606782913e-02</quality>
              <le>9.1568636894226074e-01</le></_></splits></_>
        <_>
          <depth>1</depth>
          <value>7.6910623023624322e-02</value>
          <splits>
            <_><var>321</var>
              <quality>4.8199176788330078e-02</quality>
              <le>3.9411768317222595e-01</le></_></splits></_>
        <_>
          <depth>2</depth>
          <value>2.2900367400378155e-01</value></_>
        <_>
          <depth>2</depth>
          <value>-3.4388616953895818e-01</value></_>
        <_>
          <depth>1</depth>
          <value>-2.3364760555354722e-01</value>
          <splits>
            <_><var>153</var>
              <quality>7.0934735238552094e-02</quality>
              <le>3.3333335071802139e-02</le></_></splits></_>
        <_>
          <depth>2</depth>
          <value>-4.7646216057574853e-01</value></_>
        <_>
          <depth>2</depth>
          <value>6.6254993788646699e-01</value></_></nodes></_>
    <_>
      <nodes>
        <_>
          <depth>0</depth>
          <value>-1.5010477481567494e-02</value>
          <splits>
            <_><var>96</var>
              <quality>1.9629735499620438e-02</quality>
              <le>1.5882353484630585e-01</le></_></splits></_>
        <_>
          <depth>1</depth>
          <value>4.5331997557646704e-03</value>
          <splits>
            <_><var>130</var>
              <quality>1.7860056832432747e-02</quality>
              <le>9.0392160415649414e-01</le></_></splits></_>
        <_>
          <depth>2</depth>
          <value>2.3802188739076413e-02</value></_>
        <_>
          <depth>2</depth>
          <value>-9.8829884141794033e-01</value></_>
        <_>
          <depth>1</depth>
          <value>-1.0607488496283324e+00</value>
          <splits>
            <_><var>633</var>
              <quality>2.4932093918323517e-02</quality>
              <le>8.0784320831298828e-01</le></_></splits></_>
        <_>
          <depth>2</depth>
          <value>-1.1974809754546578e+00</value></_>
        <_>
          <depth>2</depth>
          <value>1.1723104306229730e+00</value></_></nodes></_>
    <_>
      <nodes>
        <_>
          <depth>0</depth>
          <value>-8.5167750166721679e-03</value>
          <splits>
            <_><var>127</var>
              <quality>1.7720429226756096e-02</quality>
              <le>9.9019610881805420e-01</le></_></splits></_>
        <_>
          <depth>1</depth>
          <value>8.9227058264049024e-03</value>
          <splits>
            <_><var>430</var>
              <quality>1.7697783187031746e-02</quality>
              <le>4.5098043978214264e-02</le></_></splits></_>
        <_>
          <depth>2</depth>
          <value>-2.0858172587401866e-01</value></_>
        <_>
          <depth>2</depth>
          <value>9.5608969979700018e-02</value></_>
        <_>
          <depth>1</depth>
          <value>-1.0739517140267043e+00</value>
          <splits>
            <_><var>126</var>
              <quality>3.0855037271976471e-02</quality>
              <le>2.7254903316497803e-01</le></_></splits></_>
        <_>
          <depth>2</depth>
          <value>9.4799949559962438e-01</value></_>
        <_>
          <depth>2</depth>
          <value>-1.5009468669213224e+00</value></_></nodes></_>
    <_>
      <nodes>
        <_>
          <depth>0</depth>
          <value>-7.4510909363348869e-03</value>
          <splits>
            <_><var>745</var>
              <quality>1.7842218279838562e-02</quality>
              <le>3.9215688593685627e-03</le></_></splits></_>
        <_>
          <depth>1</depth>
          <value>1.1406801394676203e-02</value>
          <splits>
            <_><var>181</var>
              <quality>1.7767999321222305e-02</quality>
              <le>7.5882363319396973e-01</le></_></splits></_>
        <_>
          <depth>2</depth>
          <value>7.7854679442628125e-02</value></_>
        <_>
          <depth>2</depth>
          <value>-2.7345361037521537e-01</value></_>
        <_>
          <depth>1</depth>
          <value>-1.0004518845792170e+00</value>
          <splits>
            <_><var>349</var>
              <quality>4.2553588747978210e-02</quality>
              <le>6.5294122695922852e-01</le></_></splits></_>
        <_>
          <depth>2</depth>
          <value>-1.4751924729354706e+00</value></_>
        <_>
          <depth>2</depth>
          <value>1.9539764805816255e+00</value></_></nodes></_>
    <_>
      <nodes>
        <_>
          <depth>0</depth>
          <value>-9.8146629691694392e-03</value>
          <splits>
            <_><var>312</var>
              <quality>1.9565617665648460e-02</quality>
              <le>7.5098043680191040e-01</le></_></splits></_>
        <_>
          <depth>1</depth>
          <value>6.4517586444665775e-03</value>
          <splits>
            <_><var>736</var>
              <quality>1.7700277268886566e-02</quality>
              <le>9.8039219155907631e-03</le></_></splits></_>
        <_>
          <depth>2</depth>
          <value>2.2192054934663762e-02</value></_>
        <_>
          <depth>2</depth>
          <value>-1.1898999398126879e+00</value></_>
        <_>
          <depth>1</depth>
          <value>-1.2700346714268931e+00</value>
          <splits>
            <_><var>317</var>
              <quality>4.6193860471248627e-02</quality>
              <le>9.9411773681640625e-01</le></_></splits></_>
        <_>
          <depth>2</depth>
          <value>-9.1567474322665010e-01</value></_>
        <_>
          <depth>2</depth>
          <value>-7.4864370499033539e+00</value></_></nodes></_>
    <_>
      <nodes>
        <_>
          <depth>0</depth>
          <value>-3.7520309016138985e-03</value>
          <splits>
            <_><var>528</var>
              <quality>1.7059471458196640e-02</quality>
              <le>9.2156869173049927e-01</le></_></splits></_>
        <_>
          <depth>1</depth>
          <value>3.3171379753957940e-03</value>
          <splits>
            <_><var>171</var>
              <quality>1.4740921556949615e-02</quality>
              <le>9.9411773681640625e-01</le></_></splits></_>
        <_>
          <depth>2</depth>
          <value>5.5405372721771236e-03</value></_>
        <_>
          <depth>2</depth>
          <value>-6.9900548716667235e+00</value></_>
        <_>
          <depth>1</depth>
          <value>-2.5420080991233149e+00</value>
          <splits>
            <_><var>258</var>
              <quality>2.4274898692965508e-02</quality>
              <le>7.7450984716415405e-01</le></_></splits></_>
        <_>
          <depth>2</depth>
          <value>-2.1747926619404003e+00</value></_>
        <_>
          <depth>2</depth>
          <value>-10.</value></_></nodes></_>
    <_>
      <nodes>
        <_>
          <depth>0</depth>
          <value>1.2733295804936927e-03</value>
          <splits>
            <_><var>742</var>
              <quality>1.4746767468750477e-02</quality>
              <le>5.7058823108673096e-01</le></_></splits></_>
        <_>
          <depth>1</depth>
          <value>1.5181065895725971e-02</value>
          <splits>
            <_><var>92</var>
              <quality>1.4616533182561398e-02</quality>
              <le>5.4901961237192154e-02</le></_></splits></_>
        <_>
          <depth>2</depth>
          <value>2.6599344749523798e-02</value></_>
        <_>
          <depth>2</depth>
          <value>-1.3289091309244447e+00</value></_>
        <_>
          <depth>1</depth>
          <value>-1.1147524919397060e+00</value>
          <splits>
            <_><var>267</var>
              <quality>1.7539875581860542e-02</quality>
              <le>9.9411773681640625e-01</le></_></splits></_>
        <_>
          <depth>2</depth>
          <value>-1.2681544018753581e+00</value></_>
        <_>
          <depth>2</depth>
          <value>5.6296254797808476e-01</value></_></nodes></_>
    <_>
      <nodes>
        <_>
          <depth>0</depth>
          <value>-7.0693260032816596e-03</value>
          <splits>
            <_><var>316</var>
              <quality>1.4017209410667419e-02</quality>
              <le>1.1176471412181854e-01</le></_></splits></_>
        <_>
          <depth>1</depth>
          <value>-1.0180713546181429e-01</value>
          <splits>
            <_><var>292</var>
              <quality>4.1420504450798035e-02</quality>
              <le>2.5490198284387589e-02</le></_></splits></_>
        <_>
          <depth>2</depth>
          <value>-4.8941368967637477e-01</value></_>
        <_>
          <depth>2</depth>
          <value>5.2596311086315878e-02</value></_>
        <_>
          <depth>1</depth>
          <value>1.4814893667693732e-01</value>
          <splits>
            <_><var>235</var>
              <quality>3.8707681000232697e-02</quality>
              <le>1.7647059634327888e-02</le></_></splits></_>
        <_>
          <depth>2</depth>
          <value>5.5376361564305399e-01</value></_>
        <_>
          <depth>2</depth>
          <value>-6.2774514007335844e-02</value></_></nodes></_>
    <_>
      <nodes>
        <_>
          <depth>0</depth>
          <value>-1.6957431272610602e-03</value>
          <splits>
            <_><var>260</var>
              <quality>1.9014062359929085e-02</quality>
              <le>9.1960787773132324e-01</le></_></splits></_>
        <_>
          <depth>1</depth>
          <value>4.2884781139311920e-02</value>
          <splits>
            <_><var>552</var>
              <quality>2.2882919758558273e-02</quality>
              <le>8.7254905700683594e-01</le></_></splits></_>
        <_>
          <depth>2</depth>
          <value>1.3762660862732994e-02</value></_>
        <_>
          <depth>2</depth>
          <value>8.8899595571015078e-01</value></_>
        <_>
          <depth>1</depth>
          <value>-4.5059369244613501e-01</value>
          <splits>
            <_><var>208</var>
              <quality>3.8908582180738449e-02</quality>
              <le>7.6470591127872467e-02</le></_></splits></_>
        <_>
          <depth>2</depth>
          <value>-4.6612114842488693e-02</value></_>
        <_>
          <depth>2</depth>
          <value>-1.0702534276923970e+00</value></_></nodes></_>
    <_>
      <nodes>
        <_>
          <depth>0</depth>
          <value>-6.1820151086959488e-03</value>
          <splits>
            <_><var>286</var>
              <quality>1.9472770392894745e-02</quality>
              <le>9.9803924560546875e-01</le></_></splits></_>
        <_>
          <depth>1</depth>
          <value>-1.3867755615106210e-02</value>
          <splits>
            <_><var>368</var>
              <quality>1.7195839434862137e-02</quality>
              <le>9.9803924560546875e-01</le></_></splits></_>
        <_>
          <depth>2</depth>
          <value>-1.1398836094083599e-02</value></_>
        <_>
          <depth>2</depth>
          <value>-7.2886915564574037e+00</value></_>
        <_>
          <depth>1</depth>
          <value>2.6558355724917533e+00</value>
          <splits>
            <_><var>184</var>
              <quality>3.7382204085588455e-02</quality>
              <le>5.7647061347961426e-01</le></_></splits></_>
        <_>
          <depth>2</depth>
          <value>1.7224007595963720e+00</value></_>
        <_>
          <depth>2</depth>
          <value>9.7426291147523365e+00</value></_></nodes></_>
    <_>
      <nodes>
        <_>
          <depth>0</depth>
          <value>-1.4726154312050415e-03</value>
          <splits>
            <_><var>183</var>
              <quality>1.8307657912373543e-02</quality>
              <le>9.1960787773132324e-01</le></_></splits></_>
        <_>
          <depth>1</depth>
          <value>6.0433141499073466e-02</value>
          <splits>
            <_><var>267</var>
              <quality>3.5724878311157227e-02</quality>
              <le>6.2549018859863281e-01</le></_></splits></_>
        <_>
          <depth>2</depth>
          <value>1.9718346251032282e-01</value></_>
        <_>
          <depth>2</depth>
          <value>-2.4254382698764002e-01</value></_>
        <_>
          <depth>1</depth>
          <value>-3.1273798828515914e-01</value>
          <splits>
            <_><var>214</var>
              <quality>7.0234231650829315e-02</quality>
              <le>3.5294118523597717e-01</le></_></splits></_>
        <_>
          <depth>2</depth>
          <value>5.7938225555979682e-02</value></_>
        <_>
          <depth>2</depth>
          <value>-1.2511717336692090e+00</value></_></nodes></_>
    <_>
      <nodes>
        <_>
          <depth>0</depth>
          <value>-1.1408956354729695e-02</value>
          <splits>
            <_><var>210</var>
              <quality>2.4298241361975670e-02</quality>
              <le>1.9607844296842813e-03</le></_></splits></_>
        <_>
          <depth>1</depth>
          <value>-1.8936256989396152e-01</value>
          <splits>
            <_><var>186</var>
              <quality>1.0978697240352631e-01</quality>
              <le>1.9607844296842813e-03</le></_></splits></_>
        <_>
          <depth>2</depth>
          <value>-5.2185542475460600e-01</value></_>
        <_>
          <depth>2</depth>
          <value>4.8290372160263728e-01</value></_>
        <_>
          <depth>1</depth>
          <value>1.3159019392893878e-01</value>
          <splits>
            <_><var>212</var>
              <quality>6.8038217723369598e-02</quality>
              <le>2.8431373834609985e-01</le></_></splits></_>
        <_>
          <depth>2</depth>
          <value>5.3901321188298801e-01</value></_>
        <_>
          <depth>2</depth>
          <value>-1.4295501637821778e-01</value></_></nodes></_>
    <_>
      <nodes>
        <_>
          <depth>0</depth>
          <value>-1.5754018012477809e-02</value>
          <splits>
            <_><var>99</var>
              <quality>2.5207739323377609e-02</quality>
              <le>2.2745099663734436e-01</le></_></splits></_>
        <_>
          <depth>1</depth>
          <value>1.1076429271795285e-02</value>
          <splits>
            <_><var>457</var>
              <quality>2.4790579453110695e-02</quality>
              <le>9.0784323215484619e-01</le></_></splits></_>
        <_>
          <depth>2</depth>
          <value>-9.3056213616136085e-02</value></_>
        <_>
          <depth>2</depth>
          <value>2.6735922491736314e-01</value></_>
        <_>
          <depth>1</depth>
          <value>-9.9547588308042068e-01</value>
          <splits>
            <_><var>101</var>
              <quality>3.7463586777448654e-02</quality>
              <le>9.9803924560546875e-01</le></_></splits></_>
        <_>
          <depth>2</depth>
          <value>-9.1307559376921277e-01</value></_>
        <_>
          <depth>2</depth>
          <value>-6.9234004596118437e+00</value></_></nodes></_>
    <_>
      <nodes>
        <_>
          <depth>0</depth>
          <value>-6.5042151463718511e-03</value>
          <splits>
            <_><var>186</var>
              <quality>2.7633223682641983e-02</quality>
              <le>4.6470591425895691e-01</le></_></splits></_>
        <_>
          <depth>1</depth>
          <value>8.4659633240392829e-02</value>
          <splits>
            <_><var>185</var>
              <quality>4.1790243238210678e-02</quality>
              <le>1.1568628251552582e-01</le></_></splits></_>
        <_>
          <depth>2</depth>
          <value>-2.9249507784493135e-02</value></_>
        <_>
          <depth>2</depth>
          <value>5.1842256447935908e-01</value></_>
        <_>
          <depth>1</depth>
          <value>-3.2511061317348439e-01</value>
          <splits>
            <_><var>296</var>
              <quality>7.2717055678367615e-02</quality>
              <le>1.7450980842113495e-01</le></_></splits></_>
        <_>
          <depth>2</depth>
          <value>-8.1303028323135862e-01</value></_>
        <_>
          <depth>2</depth>
          <value>1.6341482955938860e-01</value></_></nodes></_>
    <_>
      <nodes>
        <_>
          <depth>0</depth>
          <value>-8.3083263627764595e-03</value>
          <splits>
            <_><var>209</var>
              <quality>2.4503504857420921e-02</quality>
              <le>9.0784323215484619e-01</le></_></splits></_>
        <_>
          <depth>1</depth>
          <value>7.8568529803782733e-02</value>
          <splits>
            <_><var>242</var>
              <quality>4.2123056948184967e-02</quality>
              <le>9.6274518966674805e-01</le></_></splits></_>
        <_>
          <depth>2</depth>
          <value>1.8415989168007010e-01</value></_>
        <_>
          <depth>2</depth>
          <value>-4.0609872548093040e-01</value></_>
        <_>
          <depth>1</depth>
          <value>-3.0440738190103128e-01</value>
          <splits>
            <_><var>246</var>
              <quality>9.2120461165904999e-02</quality>
              <le>1.4509804546833038e-01</le></_></splits></_>
        <_>
          <depth>2</depth>
          <value>-5.1772950482372815e-01</value></_>
        <_>
          <depth>2</depth>
          <value>1.2650538324414977e+00</value></_></nodes></_>
    <_>
      <nodes>
        <_>
          <depth>0</depth>
          <value>1.9505472919130020e-03</value>
          <splits>
            <_><var>492</var>
              <quality>2.2143851965665817e-02</quality>
              <le>9.8235297203063965e-01</le></_></splits></_>
        <_>
          <depth>1</depth>
          <value>-1.1241760267760192e-01</value>
          <splits>
            <_><var>128</var>
              <quality>3.4370966255664825e-02</quality>
              <le>1.1960785090923309e-01</le></_></splits></_>
        <_>
          <depth>2</depth>
          <value>-5.0456518427140426e-02</value></_>
        <_>
          <depth>2</depth>
          <value>-8.2009497432853384e-01</value></_>
        <_>
          <depth>1</depth>
          <value>2.0572923226139148e-01</value>
          <splits>
            <_><var>495</var>
              <quality>6.0500975698232651e-02</quality>
              <le>1.0392157733440399e-01</le></_></splits></_>
        <_>
          <depth>2</depth>
          <value>-5.8993352292970452e-02</value></_>
        <_>
          <depth>2</depth>
          <value>7.1507678257756246e-01</value></_></nodes></_>
    <_>
      <nodes>
        <_>
          <depth>0</depth>
          <value>-6.6277523459633576e-03</value>
          <splits>
            <_><var>50</var>
              <quality>2.4636249989271164e-02</quality>
              <le>6.3725495338439941e-01</le></_></splits></_>
        <_>
          <depth>1</depth>
          <value>-3.9649591597292130e-03</value>
          <splits>
            <_><var>282</var>
              <quality>2.3464281111955643e-02</quality>
              <le>9.9411773681640625e-01</le></_></splits></_>
        <_>
          <depth>2</depth>
          <value>-1.4949456856971112e-03</value></_>
        <_>
          <depth>2</depth>
          <value>-9.9999999999999982e+00</value></_>
        <_>
          <depth>1</depth>
          <value>-9.7291339723587491e+00</value></_></nodes></_>
    <_>
      <nodes>
        <_>
          <depth>0</depth>
