<?xml version="1.0"?>
<opencv_storage>
<opencv_ml_boost>
  <format>3</format>
  <is_classifier>1</is_classifier>
  <var_all>785</var_all>
  <var_count>784</var_count>
  <ord_var_count>784</ord_var_count>
  <cat_var_count>1</cat_var_count>
  <training_params>
    <boosting_type>LogitBoost</boosting_type>
    <use_surrogates>0</use_surrogates>
    <max_categories>10</max_categories>
    <regression_accuracy>9.9999997764825821e-03</regression_accuracy>
    <max_depth>2</max_depth>
    <min_sample_count>10</min_sample_count>
    <cross_validation_folds>0</cross_validation_folds>
    <weight_trimming_rate>9.4999999999999996e-01</weight_trimming_rate></training_params>
  <global_var_idx>1</global_var_idx>
  <var_idx>
    0 1 2 3 4 5 6 7 8 9 10 11 12 13 14 15 16 17 18 19 20 21 22 23 24 25
    26 27 28 29 30 31 32 33 34 35 36 37 38 39 40 41 42 43 44 45 46 47 48
    49 50 51 52 53 54 55 56 57 58 59 60 61 62 63 64 65 66 67 68 69 70 71
    72 73 74 75 76 77 78 79 80 81 82 83 84 85 86 87 88 89 90 91 92 93 94
    95 96 97 98 99 100 101 102 103 104 105 106 107 108 109 110 111 112
    113 114 115 116 117 118 119 120 121 122 123 124 125 126 127 128 129
    130 131 132 133 134 135 136 137 138 139 140 141 142 143 144 145 146
    147 148 149 150 151 152 153 154 155 156 157 158 159 160 161 162 163
    164 165 166 167 168 169 170 171 172 173 174 175 176 177 178 179 180
    181 182 183 184 185 186 187 188 189 190 191 192 193 194 195 196 197
    198 199 200 201 202 203 204 205 206 207 208 209 210 211 212 213 214
    215 216 217 218 219 220 221 222 223 224 225 226 227 228 229 230 231
    232 233 234 235 236 237 238 239 240 241 242 243 244 245 246 247 248
    249 250 251 252 253 254 255 256 257 258 259 260 261 262 263 264 265
    266 267 268 269 270 271 272 273 274 275 276 277 278 279 280 281 282
    283 284 285 286 287 288 289 290 291 292 293 294 295 296 297 298 299
    300 301 302 303 304 305 306 307 308 309 310 311 312 313 314 315 316
    317 318 319 320 321 322 323 324 325 326 327 328 329 330 331 332 333
    334 335 336 337 338 339 340 341 342 343 344 345 346 347 348 349 350
    351 352 353 354 355 356 357 358 359 360 361 362 363 364 365 366 367
    368 369 370 371 372 373 374 375 376 377 378 379 380 381 382 383 384
    385 386 387 388 389 390 391 392 393 394 395 396 397 398 399 400 401
    402 403 404 405 406 407 408 409 410 411 412 413 414 415 416 417 418
    419 420 421 422 423 424 425 426 427 428 429 430 431 432 433 434 435
    436 437 438 439 440 441 442 443 444 445 446 447 448 449 450 451 452
    453 454 455 456 457 458 459 460 461 462 463 464 465 466 467 468 469
    470 471 472 473 474 475 476 477 478 479 480 481 482 483 484 485 486
    487 488 489 490 491 492 493 494 495 496 497 498 499 500 501 502 503
    504 505 506 507 508 509 510 511 512 513 514 515 516 517 518 519 520
    521 522 523 524 525 526 527 528 529 530 531 532 533 534 535 536 537
    538 539 540 541 542 543 544 545 546 547 548 549 550 551 552 553 554
    555 556 557 558 559 560 561 562 563 564 565 566 567 568 569 570 571
    572 573 574 575 576 577 578 579 580 581 582 583 584 585 586 587 588
    589 590 591 592 593 594 595 596 597 598 599 600 601 602 603 604 605
    606 607 608 609 610 611 612 613 614 615 616 617 618 619 620 621 622
    623 624 625 626 627 628 629 630 631 632 633 634 635 636 637 638 639
    640 641 642 643 644 645 646 647 648 649 650 651 652 653 654 655 656
    657 658 659 660 661 662 663 664 665 666 667 668 669 670 671 672 673
    674 675 676 677 678 679 680 681 682 683 684 685 686 687 688 689 690
    691 692 693 694 695 696 697 698 699 700 701 702 703 704 705 706 707
    708 709 710 711 712 713 714 715 716 717 718 719 720 721 722 723 724
    725 726 727 728 729 730 731 732 733 734 735 736 737 738 739 740 741
    742 743 744 745 746 747 748 749 750 751 752 753 754 755 756 757 758
    759 760 761 762 763 764 765 766 767 768 769 770 771 772 773 774 775
    776 777 778 779 780 781 782 783</var_idx>
  <var_type>
    0 0 0 0 0 0 0 0 0 0 0 0 0 0 0 0 0 0 0 0 0 0 0 0 0 0 0 0 0 0 0 0 0 0
    0 0 0 0 0 0 0 0 0 0 0 0 0 0 0 0 0 0 0 0 0 0 0 0 0 0 0 0 0 0 0 0 0 0
    0 0 0 0 0 0 0 0 0 0 0 0 0 0 0 0 0 0 0 0 0 0 0 0 0 0 0 0 0 0 0 0 0 0
    0 0 0 0 0 0 0 0 0 0 0 0 0 0 0 0 0 0 0 0 0 0 0 0 0 0 0 0 0 0 0 0 0 0
    0 0 0 0 0 0 0 0 0 0 0 0 0 0 0 0 0 0 0 0 0 0 0 0 0 0 0 0 0 0 0 0 0 0
    0 0 0 0 0 0 0 0 0 0 0 0 0 0 0 0 0 0 0 0 0 0 0 0 0 0 0 0 0 0 0 0 0 0
    0 0 0 0 0 0 0 0 0 0 0 0 0 0 0 0 0 0 0 0 0 0 0 0 0 0 0 0 0 0 0 0 0 0
    0 0 0 0 0 0 0 0 0 0 0 0 0 0 0 0 0 0 0 0 0 0 0 0 0 0 0 0 0 0 0 0 0 0
    0 0 0 0 0 0 0 0 0 0 0 0 0 0 0 0 0 0 0 0 0 0 0 0 0 0 0 0 0 0 0 0 0 0
    0 0 0 0 0 0 0 0 0 0 0 0 0 0 0 0 0 0 0 0 0 0 0 0 0 0 0 0 0 0 0 0 0 0
    0 0 0 0 0 0 0 0 0 0 0 0 0 0 0 0 0 0 0 0 0 0 0 0 0 0 0 0 0 0 0 0 0 0
    0 0 0 0 0 0 0 0 0 0 0 0 0 0 0 0 0 0 0 0 0 0 0 0 0 0 0 0 0 0 0 0 0 0
    0 0 0 0 0 0 0 0 0 0 0 0 0 0 0 0 0 0 0 0 0 0 0 0 0 0 0 0 0 0 0 0 0 0
    0 0 0 0 0 0 0 0 0 0 0 0 0 0 0 0 0 0 0 0 0 0 0 0 0 0 0 0 0 0 0 0 0 0
    0 0 0 0 0 0 0 0 0 0 0 0 0 0 0 0 0 0 0 0 0 0 0 0 0 0 0 0 0 0 0 0 0 0
    0 0 0 0 0 0 0 0 0 0 0 0 0 0 0 0 0 0 0 0 0 0 0 0 0 0 0 0 0 0 0 0 0 0
    0 0 0 0 0 0 0 0 0 0 0 0 0 0 0 0 0 0 0 0 0 0 0 0 0 0 0 0 0 0 0 0 0 0
    0 0 0 0 0 0 0 0 0 0 0 0 0 0 0 0 0 0 0 0 0 0 0 0 0 0 0 0 0 0 0 0 0 0
    0 0 0 0 0 0 0 0 0 0 0 0 0 0 0 0 0 0 0 0 0 0 0 0 0 0 0 0 0 0 0 0 0 0
    0 0 0 0 0 0 0 0 0 0 0 0 0 0 0 0 0 0 0 0 0 0 0 0 0 0 0 0 0 0 0 0 0 0
    0 0 0 0 0 0 0 0 0 0 0 0 0 0 0 0 0 0 0 0 0 0 0 0 0 0 0 0 0 0 0 0 0 0
    0 0 0 0 0 0 0 0 0 0 0 0 0 0 0 0 0 0 0 0 0 0 0 0 0 0 0 0 0 0 0 0 0 0
    0 0 0 0 0 0 0 0 0 0 0 0 0 0 0 0 0 0 0 0 0 0 0 0 0 0 0 0 0 0 0 0 0 0
    0 0 1</var_type>
  <cat_ofs>
    0 0 0 0 0 0 0 0 0 0 0 0 0 0 0 0 0 0 0 0 0 0 0 0 0 0 0 0 0 0 0 0 0 0
    0 0 0 0 0 0 0 0 0 0 0 0 0 0 0 0 0 0 0 0 0 0 0 0 0 0 0 0 0 0 0 0 0 0
    0 0 0 0 0 0 0 0 0 0 0 0 0 0 0 0 0 0 0 0 0 0 0 0 0 0 0 0 0 0 0 0 0 0
    0 0 0 0 0 0 0 0 0 0 0 0 0 0 0 0 0 0 0 0 0 0 0 0 0 0 0 0 0 0 0 0 0 0
    0 0 0 0 0 0 0 0 0 0 0 0 0 0 0 0 0 0 0 0 0 0 0 0 0 0 0 0 0 0 0 0 0 0
    0 0 0 0 0 0 0 0 0 0 0 0 0 0 0 0 0 0 0 0 0 0 0 0 0 0 0 0 0 0 0 0 0 0
    0 0 0 0 0 0 0 0 0 0 0 0 0 0 0 0 0 0 0 0 0 0 0 0 0 0 0 0 0 0 0 0 0 0
    0 0 0 0 0 0 0 0 0 0 0 0 0 0 0 0 0 0 0 0 0 0 0 0 0 0 0 0 0 0 0 0 0 0
    0 0 0 0 0 0 0 0 0 0 0 0 0 0 0 0 0 0 0 0 0 0 0 0 0 0 0 0 0 0 0 0 0 0
    0 0 0 0 0 0 0 0 0 0 0 0 0 0 0 0 0 0 0 0 0 0 0 0 0 0 0 0 0 0 0 0 0 0
    0 0 0 0 0 0 0 0 0 0 0 0 0 0 0 0 0 0 0 0 0 0 0 0 0 0 0 0 0 0 0 0 0 0
    0 0 0 0 0 0 0 0 0 0 0 0 0 0 0 0 0 0 0 0 0 0 0 0 0 0 0 0 0 0 0 0 0 0
    0 0 0 0 0 0 0 0 0 0 0 0 0 0 0 0 0 0 0 0 0 0 0 0 0 0 0 0 0 0 0 0 0 0
    0 0 0 0 0 0 0 0 0 0 0 0 0 0 0 0 0 0 0 0 0 0 0 0 0 0 0 0 0 0 0 0 0 0
    0 0 0 0 0 0 0 0 0 0 0 0 0 0 0 0 0 0 0 0 0 0 0 0 0 0 0 0 0 0 0 0 0 0
    0 0 0 0 0 0 0 0 0 0 0 0 0 0 0 0 0 0 0 0 0 0 0 0 0 0 0 0 0 0 0 0 0 0
    0 0 0 0 0 0 0 0 0 0 0 0 0 0 0 0 0 0 0 0 0 0 0 0 0 0 0 0 0 0 0 0 0 0
    0 0 0 0 0 0 0 0 0 0 0 0 0 0 0 0 0 0 0 0 0 0 0 0 0 0 0 0 0 0 0 0 0 0
    0 0 0 0 0 0 0 0 0 0 0 0 0 0 0 0 0 0 0 0 0 0 0 0 0 0 0 0 0 0 0 0 0 0
    0 0 0 0 0 0 0 0 0 0 0 0 0 0 0 0 0 0 0 0 0 0 0 0 0 0 0 0 0 0 0 0 0 0
    0 0 0 0 0 0 0 0 0 0 0 0 0 0 0 0 0 0 0 0 0 0 0 0 0 0 0 0 0 0 0 0 0 0
    0 0 0 0 0 0 0 0 0 0 0 0 0 0 0 0 0 0 0 0 0 0 0 0 0 0 0 0 0 0 0 0 0 0
    0 0 0 0 0 0 0 0 0 0 0 0 0 0 0 0 0 0 0 0 0 0 0 0 0 0 0 0 0 0 0 0 0 0
    0 0 0 0 0 0 0 0 0 0 0 0 0 0 0 0 0 0 0 0 0 0 0 0 0 0 0 0 0 0 0 0 0 0
    0 0 0 0 0 0 0 0 0 0 0 0 0 0 0 0 0 0 0 0 0 0 0 0 0 0 0 0 0 0 0 0 0 0
    0 0 0 0 0 0 0 0 0 0 0 0 0 0 0 0 0 0 0 0 0 0 0 0 0 0 0 0 0 0 0 0 0 0
    0 0 0 0 0 0 0 0 0 0 0 0 0 0 0 0 0 0 0 0 0 0 0 0 0 0 0 0 0 0 0 0 0 0
    0 0 0 0 0 0 0 0 0 0 0 0 0 0 0 0 0 0 0 0 0 0 0 0 0 0 0 0 0 0 0 0 0 0
    0 0 0 0 0 0 0 0 0 0 0 0 0 0 0 0 0 0 0 0 0 0 0 0 0 0 0 0 0 0 0 0 0 0
    0 0 0 0 0 0 0 0 0 0 0 0 0 0 0 0 0 0 0 0 0 0 0 0 0 0 0 0 0 0 0 0 0 0
    0 0 0 0 0 0 0 0 0 0 0 0 0 0 0 0 0 0 0 0 0 0 0 0 0 0 0 0 0 0 0 0 0 0
    0 0 0 0 0 0 0 0 0 0 0 0 0 0 0 0 0 0 0 0 0 0 0 0 0 0 0 0 0 0 0 0 0 0
    0 0 0 0 0 0 0 0 0 0 0 0 0 0 0 0 0 0 0 0 0 0 0 0 0 0 0 0 0 0 0 0 0 0
    0 0 0 0 0 0 0 0 0 0 0 0 0 0 0 0 0 0 0 0 0 0 0 0 0 0 0 0 0 0 0 0 0 0
    0 0 0 0 0 0 0 0 0 0 0 0 0 0 0 0 0 0 0 0 0 0 0 0 0 0 0 0 0 0 0 0 0 0
    0 0 0 0 0 0 0 0 0 0 0 0 0 0 0 0 0 0 0 0 0 0 0 0 0 0 0 0 0 0 0 0 0 0
    0 0 0 0 0 0 0 0 0 0 0 0 0 0 0 0 0 0 0 0 0 0 0 0 0 0 0 0 0 0 0 0 0 0
    0 0 0 0 0 0 0 0 0 0 0 0 0 0 0 0 0 0 0 0 0 0 0 0 0 0 0 0 0 0 0 0 0 0
    0 0 0 0 0 0 0 0 0 0 0 0 0 0 0 0 0 0 0 0 0 0 0 0 0 0 0 0 0 0 0 0 0 0
    0 0 0 0 0 0 0 0 0 0 0 0 0 0 0 0 0 0 0 0 0 0 0 0 0 0 0 0 0 0 0 0 0 0
    0 0 0 0 0 0 0 0 0 0 0 0 0 0 0 0 0 0 0 0 0 0 0 0 0 0 0 0 0 0 0 0 0 0
    0 0 0 0 0 0 0 0 0 0 0 0 0 0 0 0 0 0 0 0 0 0 0 0 0 0 0 0 0 0 0 0 0 0
    0 0 0 0 0 0 0 0 0 0 0 0 0 0 0 0 0 0 0 0 0 0 0 0 0 0 0 0 0 0 0 0 0 0
    0 0 0 0 0 0 0 0 0 0 0 0 0 0 0 0 0 0 0 0 0 0 0 0 0 0 0 0 0 0 0 0 0 0
    0 0 0 0 0 0 0 0 0 0 0 0 0 0 0 0 0 0 0 0 0 0 0 0 0 0 0 0 0 0 0 0 0 0
    0 0 0 0 0 0 0 0 0 0 0 0 0 0 0 0 0 0 0 0 0 0 0 0 0 0 0 0 0 0 0 0 0 0
    0 0 0 0</cat_ofs>
  <class_labels>
    0 1</class_labels>
  <missing_subst>
    0. 0. 0. 0. 0. 0. 0. 0. 0. 0. 0. 0. 0. 0. 0. 0. 0. 0. 0. 0. 0. 0. 0.
    0. 0. 0. 0. 0. 0. 0. 0. 0. 0. 0. 0. 0. 0. 0. 0. 0. 0. 0. 0. 0. 0. 0.
    0. 0. 0. 0. 0. 0. 0. 0. 0. 0. 0. 0. 0. 0. 0. 0. 0. 0. 0. 0. 0. 0. 0.
    0. 0. 0. 0. 0. 0. 0. 0. 0. 0. 0. 0. 0. 0. 0. 0. 0. 0. 0. 0. 0. 0. 0.
    0. 0. 0. 0. 0. 0. 0. 0. 0. 0. 0. 0. 0. 0. 0. 0. 0. 0. 0. 0. 0. 0. 0.
    0. 0. 0. 0. 0. 0. 0. 0. 0. 0. 0. 0. 0. 0. 0. 0. 0. 0. 0. 0. 0. 0. 0.
    0. 0. 0. 0. 0. 0. 0. 0. 0. 0. 0. 0. 0. 0. 0. 0. 0. 0. 0. 0. 0. 0. 0.
    0. 0. 0. 0. 0. 0. 0. 0. 0. 0. 0. 0. 0. 0. 0. 0. 0. 0. 0. 0. 0. 0. 0.
    0. 0. 0. 0. 0. 0. 0. 0. 0. 0. 0. 0. 0. 0. 0. 0. 0. 0. 0. 0. 0. 0. 0.
    0. 0. 0. 0. 0. 0. 0. 0. 0. 0. 0. 0. 0. 0. 0. 0. 0. 0. 0. 0. 0. 0. 0.
    0. 0. 0. 0. 0. 0. 0. 0. 0. 0. 0. 0. 0. 0. 0. 0. 0. 0. 0. 0. 0. 0. 0.
    0. 0. 0. 0. 0. 0. 0. 0. 0. 0. 0. 0. 0. 0. 0. 0. 0. 0. 0. 0. 0. 0. 0.
    0. 0. 0. 0. 0. 0. 0. 0. 0. 0. 0. 0. 0. 0. 0. 0. 0. 0. 0. 0. 0. 0. 0.
    0. 0. 0. 0. 0. 0. 0. 0. 0. 0. 0. 0. 0. 0. 0. 0. 0. 0. 0. 0. 0. 0. 0.
    0. 0. 0. 0. 0. 0. 0. 0. 0. 0. 0. 0. 0. 0. 0. 0. 0. 0. 0. 0. 0. 0. 0.
    0. 0. 0. 0. 0. 0. 0. 0. 0. 0. 0. 0. 0. 0. 0. 0. 0. 0. 0. 0. 0. 0. 0.
    0. 0. 0. 0. 0. 0. 0. 0. 0. 0. 0. 0. 0. 0. 0. 0. 0. 0. 0. 0. 0. 0. 0.
    0. 0. 0. 0. 0. 0. 0. 0. 0. 0. 0. 0. 0. 0. 0. 0. 0. 0. 0. 0. 0. 0. 0.
    0. 0. 0. 0. 0. 0. 0. 0. 0. 0. 0. 0. 0. 0. 0. 0. 0. 0. 0. 0. 0. 0. 0.
    0. 0. 0. 0. 0. 0. 0. 0. 0. 0. 0. 0. 0. 0. 0. 0. 0. 0. 0. 0. 0. 0. 0.
    0. 0. 0. 0. 0. 0. 0. 0. 0. 0. 0. 0. 0. 0. 0. 0. 0. 0. 0. 0. 0. 0. 0.
    0. 0. 0. 0. 0. 0. 0. 0. 0. 0. 0. 0. 0. 0. 0. 0. 0. 0. 0. 0. 0. 0. 0.
    0. 0. 0. 0. 0. 0. 0. 0. 0. 0. 0. 0. 0. 0. 0. 0. 0. 0. 0. 0. 0. 0. 0.
    0. 0. 0. 0. 0. 0. 0. 0. 0. 0. 0. 0. 0. 0. 0. 0. 0. 0. 0. 0. 0. 0. 0.
    0. 0. 0. 0. 0. 0. 0. 0. 0. 0. 0. 0. 0. 0. 0. 0. 0. 0. 0. 0. 0. 0. 0.
    0. 0. 0. 0. 0. 0. 0. 0. 0. 0. 0. 0. 0. 0. 0. 0. 0. 0. 0. 0. 0. 0. 0.
    0. 0. 0. 0. 0. 0. 0. 0. 0. 0. 0. 0. 0. 0. 0. 0. 0. 0. 0. 0. 0. 0. 0.
    0. 0. 0. 0. 0. 0. 0. 0. 0. 0. 0. 0. 0. 0. 0. 0. 0. 0. 0. 0. 0. 0. 0.
    0. 0. 0. 0. 0. 0. 0. 0. 0. 0. 0. 0. 0. 0. 0. 0. 0. 0. 0. 0. 0. 0. 0.
    0. 0. 0. 0. 0. 0. 0. 0. 0. 0. 0. 0. 0. 0. 0. 0. 0. 0. 0. 0. 0. 0. 0.
    0. 0. 0. 0. 0. 0. 0. 0. 0. 0. 0. 0. 0. 0. 0. 0. 0. 0. 0. 0. 0. 0. 0.
    0. 0. 0. 0. 0. 0. 0. 0. 0. 0. 0. 0. 0. 0. 0. 0. 0. 0. 0. 0. 0. 0. 0.
    0. 0. 0. 0. 0. 0. 0. 0. 0. 0. 0. 0. 0. 0. 0. 0. 0. 0. 0. 0. 0. 0. 0.
    0. 0. 0. 0. 0. 0. 0. 0. 0. 0. 0. 0. 0. 0. 0. 0. 0. 0. 0. 0. 0. 0. 0.
    0. 0. 0.</missing_subst>
  <ntrees>100</ntrees>
  <trees>
    <_>
      <nodes>
        <_>
          <depth>0</depth>
          <value>-1.6034000000000019e+00</value>
          <splits>
            <_><var>717</var>
              <quality>2.7074580192565918e+00</quality>
              <le>1.9607844296842813e-03</le></_></splits></_>
        <_>
          <depth>1</depth>
          <value>-1.6909698996655533e+00</value>
          <splits>
            <_><var>713</var>
              <quality>2.8290762901306152e+00</quality>
              <le>1.9607844296842813e-03</le></_></splits></_>
        <_>
          <depth>2</depth>
          <value>-1.8164753304748178e+00</value></_>
        <_>
          <depth>2</depth>
          <value>-6.6666666666672969e-01</value></_>
        <_>
          <depth>1</depth>
          <value>-4.3887147335423968e-02</value>
          <splits>
            <_><var>210</var>
              <quality>5.2646525204181671e-02</quality>
              <le>2.6862746477127075e-01</le></_></splits></_>
        <_>
          <depth>2</depth>
          <value>-1.5796178343949039e+00</value></_>
        <_>
          <depth>2</depth>
          <value>5.9964412811386358e-01</value></_></nodes></_>
    <_>
      <nodes>
        <_>
          <depth>0</depth>
          <value>-5.9622515331377701e-01</value>
          <splits>
            <_><var>569</var>
              <quality>5.2455461025238037e-01</quality>
              <le>1.9607844296842813e-03</le></_></splits></_>
        <_>
          <depth>1</depth>
          <value>-2.5771107253419379e-01</value>
          <splits>
            <_><var>401</var>
              <quality>2.5473862886428833e-01</quality>
              <le>9.8039228469133377e-03</le></_></splits></_>
        <_>
          <depth>2</depth>
          <value>-8.5746634273656563e-01</value></_>
        <_>
          <depth>2</depth>
          <value>3.4416691728504861e-01</value></_>
        <_>
          <depth>1</depth>
          <value>-1.0956731104503699e+00</value>
          <splits>
            <_><var>707</var>
              <quality>4.9825677275657654e-01</quality>
              <le>6.0784317553043365e-02</le></_></splits></_>
        <_>
          <depth>2</depth>
          <value>-1.1198760993733405e+00</value></_>
        <_>
          <depth>2</depth>
          <value>2.6331550517433211e-01</value></_></nodes></_>
    <_>
      <nodes>
        <_>
          <depth>0</depth>
          <value>-3.5650891338470758e-01</value>
          <splits>
            <_><var>211</var>
              <quality>3.5069558024406433e-01</quality>
              <le>2.6470589637756348e-01</le></_></splits></_>
        <_>
          <depth>1</depth>
          <value>-9.5642617535933239e-01</value>
          <splits>
            <_><var>720</var>
              <quality>3.8352817296981812e-01</quality>
              <le>1.1176471412181854e-01</le></_></splits></_>
        <_>
          <depth>2</depth>
          <value>-9.8943702709002612e-01</value></_>
        <_>
          <depth>2</depth>
          <value>1.6518807533528201e+00</value></_>
        <_>
          <depth>1</depth>
          <value>1.6204098003594979e-02</value>
          <splits>
            <_><var>155</var>
              <quality>3.7000778317451477e-01</quality>
              <le>1.9607844296842813e-03</le></_></splits></_>
        <_>
          <depth>2</depth>
          <value>6.5116129736827522e-01</value></_>
        <_>
          <depth>2</depth>
          <value>-9.2814531382024523e-01</value></_></nodes></_>
    <_>
      <nodes>
        <_>
          <depth>0</depth>
          <value>-2.4585467622132290e-01</value>
          <splits>
            <_><var>381</var>
              <quality>2.7489459514617920e-01</quality>
              <le>3.8235297799110413e-01</le></_></splits></_>
        <_>
          <depth>1</depth>
          <value>-8.9854993407112116e-01</value>
          <splits>
            <_><var>721</var>
              <quality>2.9981976747512817e-01</quality>
              <le>1.4901961386203766e-01</le></_></splits></_>
        <_>
          <depth>2</depth>
          <value>-9.2997359675009428e-01</value></_>
        <_>
          <depth>2</depth>
          <value>2.1082264346233295e+00</value></_>
        <_>
          <depth>1</depth>
          <value>1.0195711660456173e-01</value>
          <splits>
            <_><var>205</var>
              <quality>2.3936277627944946e-01</quality>
              <le>1.1960785090923309e-01</le></_></splits></_>
        <_>
          <depth>2</depth>
          <value>5.1197203640014932e-01</value></_>
        <_>
          <depth>2</depth>
          <value>-8.0847723055646936e-01</value></_></nodes></_>
    <_>
      <nodes>
        <_>
          <depth>0</depth>
          <value>-1.6886423030450409e-01</value>
          <splits>
            <_><var>596</var>
              <quality>1.7516393959522247e-01</quality>
              <le>5.6862749159336090e-02</le></_></splits></_>
        <_>
          <depth>1</depth>
          <value>1.0293364358906869e-02</value>
          <splits>
            <_><var>211</var>
              <quality>1.5504443645477295e-01</quality>
              <le>1.9607844296842813e-03</le></_></splits></_>
        <_>
          <depth>2</depth>
          <value>-8.4882033030140502e-01</value></_>
        <_>
          <depth>2</depth>
          <value>2.3773592947473363e-01</value></_>
        <_>
          <depth>1</depth>
          <value>-1.0302947867461274e+00</value>
          <splits>
            <_><var>713</var>
              <quality>1.7932775616645813e-01</quality>
              <le>6.4705885946750641e-02</le></_></splits></_>
        <_>
          <depth>2</depth>
          <value>-9.8880662235554706e-01</value></_>
        <_>
          <depth>2</depth>
          <value>-1.6510660102302521e+00</value></_></nodes></_>
    <_>
      <nodes>
        <_>
          <depth>0</depth>
          <value>-1.1930728678745678e-01</value>
          <splits>
            <_><var>432</var>
              <quality>1.5917891263961792e-01</quality>
              <le>1.9607844296842813e-03</le></_></splits></_>
        <_>
          <depth>1</depth>
          <value>-6.0875726012301290e-01</value>
          <splits>
            <_><var>486</var>
              <quality>2.6129499077796936e-01</quality>
              <le>2.5490198284387589e-02</le></_></splits></_>
        <_>
          <depth>2</depth>
          <value>-9.1644625240435695e-01</value></_>
        <_>
          <depth>2</depth>
          <value>4.6859184861372299e-01</value></_>
        <_>
          <depth>1</depth>
          <value>1.8997064522246659e-01</value>
          <splits>
            <_><var>542</var>
              <quality>1.8592220544815063e-01</quality>
              <le>4.1176471859216690e-02</le></_></splits></_>
        <_>
          <depth>2</depth>
          <value>4.5495825100848913e-01</value></_>
        <_>
          <depth>2</depth>
          <value>-8.6507532401977560e-01</value></_></nodes></_>
    <_>
      <nodes>
        <_>
          <depth>0</depth>
          <value>-7.2432355372125487e-02</value>
          <splits>
            <_><var>203</var>
              <quality>1.4525434374809265e-01</quality>
              <le>4.1176471859216690e-02</le></_></splits></_>
        <_>
          <depth>1</depth>
          <value>7.5628412462462102e-02</value>
          <splits>
            <_><var>190</var>
              <quality>1.4737738668918610e-01</quality>
              <le>2.9411766678094864e-02</le></_></splits></_>
        <_>
          <depth>2</depth>
          <value>2.2986648209185667e-01</value></_>
        <_>
          <depth>2</depth>
          <value>-1.0421139205839085e+00</value></_>
        <_>
          <depth>1</depth>
          <value>-1.0693511695845153e+00</value>
          <splits>
            <_><var>721</var>
              <quality>1.8564318120479584e-01</quality>
              <le>4.9019612371921539e-02</le></_></splits></_>
        <_>
          <depth>2</depth>
          <value>-1.2241120346445156e+00</value></_>
        <_>
          <depth>2</depth>
          <value>1.3032134776845183e+00</value></_></nodes></_>
    <_>
      <nodes>
        <_>
          <depth>0</depth>
          <value>-6.5247314901731246e-02</value>
          <splits>
            <_><var>355</var>
              <quality>1.4014446735382080e-01</quality>
              <le>4.9019612371921539e-02</le></_></splits></_>
        <_>
          <depth>1</depth>
          <value>-4.8149550137836755e-01</value>
          <splits>
            <_><var>467</var>
              <quality>1.6413033008575439e-01</quality>
              <le>1.9607844296842813e-03</le></_></splits></_>
        <_>
          <depth>2</depth>
          <value>-2.1233421257549137e-01</value></_>
        <_>
          <depth>2</depth>
          <value>-1.0381730887918343e+00</value></_>
        <_>
          <depth>1</depth>
          <value>2.7884243549529664e-01</value>
          <splits>
            <_><var>212</var>
              <quality>1.5586113929748535e-01</quality>
              <le>1.3725491240620613e-02</le></_></splits></_>
        <_>
          <depth>2</depth>
          <value>-6.7139304767124397e-01</value></_>
        <_>
          <depth>2</depth>
          <value>5.1232150400795673e-01</value></_></nodes></_>
    <_>
      <nodes>
        <_>
          <depth>0</depth>
          <value>-8.5565816609761980e-02</value>
          <splits>
            <_><var>378</var>
              <quality>1.3799792528152466e-01</quality>
              <le>1.3725491240620613e-02</le></_></splits></_>
        <_>
          <depth>1</depth>
          <value>-4.7504159489841447e-01</value>
          <splits>
            <_><var>460</var>
              <quality>2.3051105439662933e-01</quality>
              <le>2.9411766678094864e-02</le></_></splits></_>
        <_>
          <depth>2</depth>
          <value>-1.0633816369048386e+00</value></_>
        <_>
          <depth>2</depth>
          <value>7.1997618887652617e-03</value></_>
        <_>
          <depth>1</depth>
          <value>2.6845363472185946e-01</value>
          <splits>
            <_><var>461</var>
              <quality>1.8655337393283844e-01</quality>
              <le>6.8431377410888672e-01</le></_></splits></_>
        <_>
          <depth>2</depth>
          <value>7.0439977379312280e-01</value></_>
        <_>
          <depth>2</depth>
          <value>-4.2578662707405729e-01</value></_></nodes></_>
    <_>
      <nodes>
        <_>
          <depth>0</depth>
          <value>-7.5588295182123816e-02</value>
          <splits>
            <_><var>158</var>
              <quality>1.2596008181571960e-01</quality>
              <le>9.8039228469133377e-03</le></_></splits></_>
        <_>
          <depth>1</depth>
          <value>8.3294903003476903e-02</value>
          <splits>
            <_><var>658</var>
              <quality>1.0897811502218246e-01</quality>
              <le>2.1568629890680313e-02</le></_></splits></_>
        <_>
          <depth>2</depth>
          <value>4.8014025558085566e-01</value></_>
        <_>
          <depth>2</depth>
          <value>-2.4579891610069704e-01</value></_>
        <_>
          <depth>1</depth>
          <value>-8.7413377518185664e-01</value>
          <splits>
            <_><var>376</var>
              <quality>1.3185471296310425e-01</quality>
              <le>5.8823535218834877e-03</le></_></splits></_>
        <_>
          <depth>2</depth>
          <value>-4.7601442243116338e-01</value></_>
        <_>
          <depth>2</depth>
          <value>-1.0556393988918467e+00</value></_></nodes></_>
    <_>
      <nodes>
        <_>
          <depth>0</depth>
          <value>-4.1857902320937473e-02</value>
          <splits>
            <_><var>317</var>
              <quality>1.0012338310480118e-01</quality>
              <le>5.8823535218834877e-03</le></_></splits></_>
        <_>
          <depth>1</depth>
          <value>-4.7851027819413855e-01</value>
          <splits>
            <_><var>342</var>
              <quality>1.7022150754928589e-01</quality>
              <le>9.8039228469133377e-03</le></_></splits></_>
        <_>
          <depth>2</depth>
          <value>-6.8603017989092907e-01</value></_>
        <_>
          <depth>2</depth>
          <value>8.6999698542033754e-01</value></_>
        <_>
          <depth>1</depth>
          <value>1.9549599222628494e-01</value>
          <splits>
            <_><var>210</var>
              <quality>9.8297484219074249e-02</quality>
              <le>5.2745103836059570e-01</le></_></splits></_>
        <_>
          <depth>2</depth>
          <value>-2.8347864924937000e-01</value></_>
        <_>
          <depth>2</depth>
          <value>4.4915669987109291e-01</value></_></nodes></_>
    <_>
      <nodes>
        <_>
          <depth>0</depth>
          <value>-3.2738622707199183e-02</value>
          <splits>
            <_><var>470</var>
              <quality>8.7417438626289368e-02</quality>
              <le>1.9607844296842813e-03</le></_></splits></_>
        <_>
          <depth>1</depth>
          <value>5.5328286895933707e-02</value>
          <splits>
            <_><var>248</var>
              <quality>9.1377578675746918e-02</quality>
              <le>5.8823535218834877e-03</le></_></splits></_>
        <_>
          <depth>2</depth>
          <value>1.3067516285311911e-01</value></_>
        <_>
          <depth>2</depth>
          <value>-1.2894502644384225e+00</value></_>
        <_>
          <depth>1</depth>
          <value>-1.0653986528167092e+00</value>
          <splits>
            <_><var>694</var>
              <quality>1.0751851648092270e-01</quality>
              <le>5.2941180765628815e-02</le></_></splits></_>
        <_>
          <depth>2</depth>
          <value>-1.1998017792538433e+00</value></_>
        <_>
          <depth>2</depth>
          <value>1.2050274368592502e+00</value></_></nodes></_>
    <_>
      <nodes>
        <_>
          <depth>0</depth>
          <value>-3.8841171879771805e-02</value>
          <splits>
            <_><var>605</var>
              <quality>7.6478101313114166e-02</quality>
              <le>2.5490198284387589e-02</le></_></splits></_>
        <_>
          <depth>1</depth>
          <value>1.9199353103642960e-01</value>
          <splits>
            <_><var>378</var>
              <quality>9.6942007541656494e-02</quality>
              <le>2.0196080207824707e-01</le></_></splits></_>
        <_>
          <depth>2</depth>
          <value>-1.3063277421478495e-01</value></_>
        <_>
          <depth>2</depth>
          <value>6.0733624321499879e-01</value></_>
        <_>
          <depth>1</depth>
          <value>-3.8100342416936317e-01</value>
          <splits>
            <_><var>371</var>
              <quality>1.2261915951967239e-01</quality>
              <le>7.6470591127872467e-02</le></_></splits></_>
        <_>
          <depth>2</depth>
          <value>-7.5604527415681833e-01</value></_>
        <_>
          <depth>2</depth>
          <value>8.6104381010168915e-02</value></_></nodes></_>
    <_>
      <nodes>
        <_>
          <depth>0</depth>
          <value>-3.4860065481661935e-02</value>
          <splits>
            <_><var>464</var>
              <quality>6.3787080347537994e-02</quality>
              <le>2.1568629890680313e-02</le></_></splits></_>
        <_>
          <depth>1</depth>
          <value>-6.5368404041054928e-01</value>
          <splits>
            <_><var>315</var>
              <quality>8.9407213032245636e-02</quality>
              <le>8.0392159521579742e-02</le></_></splits></_>
        <_>
          <depth>2</depth>
          <value>-9.5806999561138029e-01</value></_>
        <_>
          <depth>2</depth>
          <value>4.7584735959642077e-02</value></_>
        <_>
          <depth>1</depth>
          <value>7.1679532708331523e-02</value>
          <splits>
            <_><var>258</var>
              <quality>6.8633459508419037e-02</quality>
              <le>5.2941180765628815e-02</le></_></splits></_>
        <_>
          <depth>2</depth>
          <value>1.8047074841435140e-01</value></_>
        <_>
          <depth>2</depth>
          <value>-6.5950256584294809e-01</value></_></nodes></_>
    <_>
      <nodes>
        <_>
          <depth>0</depth>
          <value>-3.2280416580016527e-02</value>
          <splits>
            <_><var>216</var>
              <quality>6.5427638590335846e-02</quality>
              <le>3.3333335071802139e-02</le></_></splits></_>
        <_>
          <depth>1</depth>
          <value>1.6965604166820933e-01</value>
          <splits>
            <_><var>236</var>
              <quality>1.0936930775642395e-01</quality>
              <le>5.8823535218834877e-03</le></_></splits></_>
        <_>
          <depth>2</depth>
          <value>-6.3206082439561351e-01</value></_>
        <_>
          <depth>2</depth>
          <value>3.6368405271423754e-01</value></_>
        <_>
          <depth>1</depth>
          <value>-3.6817575829369942e-01</value>
          <splits>
            <_><var>357</var>
              <quality>1.2656813859939575e-01</quality>
              <le>7.2549022734165192e-02</le></_></splits></_>
        <_>
          <depth>2</depth>
          <value>-6.3903216899601989e-01</value></_>
        <_>
          <depth>2</depth>
          <value>4.4143528770978846e-01</value></_></nodes></_>
    <_>
      <nodes>
        <_>
          <depth>0</depth>
          <value>-2.1177361513244692e-02</value>
          <splits>
            <_><var>269</var>
              <quality>5.9634432196617126e-02</quality>
              <le>9.8235297203063965e-01</le></_></splits></_>
        <_>
          <depth>1</depth>
          <value>1.4046724236003827e-01</value>
          <splits>
            <_><var>127</var>
              <quality>7.0046052336692810e-02</quality>
              <le>1.9607844296842813e-03</le></_></splits></_>
        <_>
          <depth>2</depth>
          <value>2.0997302554429548e-01</value></_>
        <_>
          <depth>2</depth>
          <value>-1.0811939350204054e+00</value></_>
        <_>
          <depth>1</depth>
          <value>-4.0673861042291526e-01</value>
          <splits>
            <_><var>459</var>
              <quality>9.4028182327747345e-02</quality>
              <le>5.2941180765628815e-02</le></_></splits></_>
        <_>
          <depth>2</depth>
          <value>-8.0162805998435638e-01</value></_>
        <_>
          <depth>2</depth>
          <value>2.2801776135813731e-02</value></_></nodes></_>
    <_>
      <nodes>
        <_>
          <depth>0</depth>
          <value>-2.2694479689951183e-02</value>
          <splits>
            <_><var>246</var>
              <quality>4.4709831476211548e-02</quality>
              <le>4.5098043978214264e-02</le></_></splits></_>
        <_>
          <depth>1</depth>
          <value>7.1870766275294304e-02</value>
          <splits>
            <_><var>201</var>
              <quality>4.4877000153064728e-02</quality>
              <le>9.6078440546989441e-02</le></_></splits></_>
        <_>
          <depth>2</depth>
          <value>1.0597816028281695e-01</value></_>
        <_>
          <depth>2</depth>
          <value>-1.4277696840827296e+00</value></_>
        <_>
          <depth>1</depth>
          <value>-5.1492489262616381e-01</value>
          <splits>
            <_><var>214</var>
              <quality>9.8666660487651825e-02</quality>
              <le>1.4313726127147675e-01</le></_></splits></_>
        <_>
          <depth>2</depth>
          <value>-1.4540490365532373e+00</value></_>
        <_>
          <depth>2</depth>
          <value>-1.1101573561840655e-01</value></_></nodes></_>
    <_>
      <nodes>
        <_>
          <depth>0</depth>
          <value>-2.6491321697506572e-02</value>
          <splits>
            <_><var>486</var>
              <quality>4.8657342791557312e-02</quality>
              <le>9.2156872153282166e-02</le></_></splits></_>
        <_>
          <depth>1</depth>
          <value>-1.9253688215397338e-01</value>
          <splits>
            <_><var>405</var>
              <quality>9.5106653869152069e-02</quality>
              <le>2.5490198284387589e-02</le></_></splits></_>
        <_>
          <depth>2</depth>
          <value>-6.7875340998046307e-01</value></_>
        <_>
          <depth>2</depth>
          <value>4.9499451040076629e-02</value></_>
        <_>
          <depth>1</depth>
          <value>2.7774274153721867e-01</value>
          <splits>
            <_><var>403</var>
              <quality>1.2921226024627686e-01</quality>
              <le>1.7058824002742767e-01</le></_></splits></_>
        <_>
          <depth>2</depth>
          <value>7.3338325069283394e-01</value></_>
        <_>
          <depth>2</depth>
          <value>-3.9840658395450834e-01</value></_></nodes></_>
    <_>
      <nodes>
        <_>
          <depth>0</depth>
          <value>-2.8369785253912618e-02</value>
          <splits>
            <_><var>594</var>
              <quality>4.8804014921188354e-02</quality>
              <le>1.9607844296842813e-03</le></_></splits></_>
        <_>
          <depth>1</depth>
          <value>1.6443279713129394e-02</value>
          <splits>
            <_><var>409</var>
              <quality>4.0375243872404099e-02</quality>
              <le>1.9607844296842813e-03</le></_></splits></_>
        <_>
          <depth>2</depth>
          <value>-5.6898328534582532e-01</value></_>
        <_>
          <depth>2</depth>
          <value>9.1462002078093102e-02</value></_>
        <_>
          <depth>1</depth>
          <value>-1.1567931592127030e+00</value>
          <splits>
            <_><var>341</var>
              <quality>5.9591758996248245e-02</quality>
              <le>7.2156870365142822e-01</le></_></splits></_>
        <_>
          <depth>2</depth>
          <value>-1.1840505802952002e+00</value></_>
        <_>
          <depth>2</depth>
          <value>10.</value></_></nodes></_>
    <_>
      <nodes>
        <_>
          <depth>0</depth>
          <value>-8.2412584855043103e-02</value>
          <splits>
            <_><var>594</var>
              <quality>1.6367509961128235e-01</quality>
              <le>1.9607844296842813e-03</le></_></splits></_>
        <_>
          <depth>1</depth>
          <value>-6.1508409813421329e-03</value>
          <splits>
            <_><var>238</var>
              <quality>3.6614697426557541e-02</quality>
              <le>5.8823535218834877e-03</le></_></splits></_>
        <_>
          <depth>2</depth>
          <value>-4.1331973683497170e-01</value></_>
        <_>
          <depth>2</depth>
          <value>9.1740821164494890e-02</value></_>
        <_>
          <depth>1</depth>
          <value>-2.2525445258089687e+00</value>
          <splits>
            <_><var>341</var>
              <quality>2.0873847603797913e-01</quality>
              <le>6.4705884456634521e-01</le></_></splits></_>
        <_>
          <depth>2</depth>
          <value>-9.1942858418452078e-01</value></_>
        <_>
          <depth>2</depth>
          <value>-3.3014746024073087e+00</value></_></nodes></_>
    <_>
      <nodes>
        <_>
          <depth>0</depth>
          <value>-3.6759053482694475e-02</value>
          <splits>
            <_><var>443</var>
              <quality>5.8186989277601242e-02</quality>
              <le>2.5490198284387589e-02</le></_></splits></_>
        <_>
          <depth>1</depth>
          <value>1.4775850308060433e-02</value>
          <splits>
            <_><var>685</var>
              <quality>5.1789570599794388e-02</quality>
              <le>3.1568628549575806e-01</le></_></splits></_>
        <_>
          <depth>2</depth>
          <value>1.9823613706487719e-01</value></_>
        <_>
          <depth>2</depth>
          <value>-2.9436189134715929e-01</value></_>
        <_>
          <depth>1</depth>
          <value>-1.1990507294053521e+00</value>
          <splits>
            <_><var>694</var>
              <quality>7.5823679566383362e-02</quality>
              <le>2.9411766678094864e-02</le></_></splits></_>
        <_>
          <depth>2</depth>
          <value>-1.3225801018002132e+00</value></_>
        <_>
          <depth>2</depth>
          <value>2.3806280766243906e+00</value></_></nodes></_>
    <_>
      <nodes>
        <_>
          <depth>0</depth>
          <value>-1.5783456075749595e-02</value>
          <splits>
            <_><var>128</var>
              <quality>3.8083594292402267e-02</quality>
              <le>1.7647059634327888e-02</le></_></splits></_>
        <_>
          <depth>1</depth>
          <value>1.9129233149232237e-02</value>
          <splits>
            <_><var>238</var>
              <quality>4.1881982237100601e-02</quality>
              <le>9.8235297203063965e-01</le></_></splits></_>
        <_>
          <depth>2</depth>
          <value>1.9567150600661998e-01</value></_>
        <_>
          <depth>2</depth>
          <value>-2.3615860171630543e-01</value></_>
        <_>
          <depth>1</depth>
          <value>-1.1568804664545078e+00</value>
          <splits>
            <_><var>174</var>
              <quality>4.3273136019706726e-02</quality>
              <le>3.2352942228317261e-01</le></_></splits></_>
        <_>
          <depth>2</depth>
          <value>-1.1744450484347975e+00</value></_>
        <_>
          <depth>2</depth>
          <value>10.</value></_></nodes></_>
    <_>
      <nodes>
        <_>
          <depth>0</depth>
          <value>-5.0000311114141702e-02</value>
          <splits>
            <_><var>174</var>
              <quality>1.0220567882061005e-01</quality>
              <le>2.8431373834609985e-01</le></_></splits></_>
        <_>
          <depth>1</depth>
          <value>9.4302813271667195e-03</value>
          <splits>
            <_><var>660</var>
              <quality>3.4163270145654678e-02</quality>
              <le>5.0000000000000000e-01</le></_></splits></_>
        <_>
          <depth>2</depth>
          <value>1.2328712415717280e-01</value></_>
        <_>
          <depth>2</depth>
          <value>-3.1625190779514650e-01</value></_>
        <_>
          <depth>1</depth>
          <value>-1.8181978459053212e+00</value>
          <splits>
            <_><var>693</var>
              <quality>1.0805681347846985e-01</quality>
              <le>9.8627460002899170e-01</le></_></splits></_>
        <_>
          <depth>2</depth>
          <value>-1.9014592361818814e+00</value></_>
        <_>
          <depth>2</depth>
          <value>4.8842328661224005e-01</value></_></nodes></_>
    <_>
      <nodes>
        <_>
          <depth>0</depth>
          <value>-3.1192102066558196e-02</value>
          <splits>
            <_><var>124</var>
              <quality>5.5231049656867981e-02</quality>
              <le>8.0392159521579742e-02</le></_></splits></_>
        <_>
          <depth>1</depth>
          <value>1.1353246058453273e-02</value>
          <splits>
            <_><var>572</var>
              <quality>3.7620108574628830e-02</quality>
              <le>7.5098043680191040e-01</le></_></splits></_>
        <_>
          <depth>2</depth>
          <value>1.2119638640301679e-01</value></_>
        <_>
          <depth>2</depth>
          <value>-3.5940406517982099e-01</value></_>
        <_>
          <depth>1</depth>
          <value>-1.3748174776899718e+00</value>
          <splits>
            <_><var>341</var>
              <quality>6.0332838445901871e-02</quality>
              <le>9.1960787773132324e-01</le></_></splits></_>
        <_>
          <depth>2</depth>
          <value>-1.3535340491040402e+00</value></_>
        <_>
          <depth>2</depth>
          <value>-9.7870322605744011e+00</value></_></nodes></_>
    <_>
      <nodes>
        <_>
          <depth>0</depth>
          <value>-1.3753695810498146e-02</value>
          <splits>
            <_><var>351</var>
              <quality>3.4415367990732193e-02</quality>
              <le>7.7843141555786133e-01</le></_></splits></_>
        <_>
          <depth>1</depth>
          <value>-1.2395967663156446e-01</value>
          <splits>
            <_><var>355</var>
              <quality>5.4424233734607697e-02</quality>
              <le>5.9803926944732666e-01</le></_></splits></_>
        <_>
          <depth>2</depth>
          <value>-3.4327195568195756e-01</value></_>
        <_>
          <depth>2</depth>
          <value>1.5523237419736585e-01</value></_>
        <_>
          <depth>1</depth>
          <value>3.1324896397316970e-01</value>
          <splits>
            <_><var>434</var>
              <quality>8.5592687129974365e-02</quality>
              <le>7.2352945804595947e-01</le></_></splits></_>
        <_>
          <depth>2</depth>
          <value>8.2434107555368763e-01</value></_>
        <_>
          <depth>2</depth>
          <value>-1.9411711324840281e-01</value></_></nodes></_>
    <_>
      <nodes>
        <_>
          <depth>0</depth>
          <value>-5.0401788232505816e-03</value>
          <splits>
            <_><var>526</var>
              <quality>3.7651870399713516e-02</quality>
              <le>1.9607844296842813e-03</le></_></splits></_>
        <_>
          <depth>1</depth>
          <value>4.0315304872135228e-02</value>
          <splits>
            <_><var>404</var>
              <quality>3.3131394535303116e-02</quality>
              <le>9.8235297203063965e-01</le></_></splits></_>
        <_>
          <depth>2</depth>
          <value>1.4410068044419758e-01</value></_>
        <_>
          <depth>2</depth>
          <value>-2.9751004048614221e-01</value></_>
        <_>
          <depth>1</depth>
          <value>-8.7832749899663687e-01</value>
          <splits>
            <_><var>695</var>
              <quality>5.5163420736789703e-02</quality>
              <le>4.1176475584506989e-02</le></_></splits></_>
        <_>
          <depth>2</depth>
          <value>-1.0691908848554539e+00</value></_>
        <_>
          <depth>2</depth>
          <value>1.2417650415868917e+00</value></_></nodes></_>
    <_>
      <nodes>
        <_>
          <depth>0</depth>
          <value>-1.1374083502221325e-02</value>
          <splits>
            <_><var>406</var>
              <quality>2.9808513820171356e-02</quality>
              <le>5.8823535218834877e-03</le></_></splits></_>
        <_>
          <depth>1</depth>
          <value>-2.8747870939871539e-01</value>
          <splits>
            <_><var>182</var>
              <quality>9.6475116908550262e-02</quality>
              <le>3.1960785388946533e-01</le></_></splits></_>
        <_>
          <depth>2</depth>
          <value>-6.7541050426690630e-01</value></_>
        <_>
          <depth>2</depth>
          <value>3.9991258475642971e-01</value></_>
        <_>
          <depth>1</depth>
          <value>1.0180100226944072e-01</value>
          <splits>
            <_><var>291</var>
              <quality>8.5307337343692780e-02</quality>
              <le>4.5098043978214264e-02</le></_></splits></_>
        <_>
          <depth>2</depth>
          <value>-4.3417418211643438e-01</value></_>
        <_>
          <depth>2</depth>
          <value>3.1868075979427224e-01</value></_></nodes></_>
    <_>
      <nodes>
        <_>
          <depth>0</depth>
          <value>-1.5712393725507971e-02</value>
          <splits>
            <_><var>240</var>
              <quality>3.7307135760784149e-02</quality>
              <le>1.9607844296842813e-03</le></_></splits></_>
        <_>
          <depth>1</depth>
          <value>-4.0842802561200464e-01</value>
          <splits>
            <_><var>184</var>
              <quality>1.2899418175220490e-01</quality>
              <le>5.9411764144897461e-01</le></_></splits></_>
        <_>
          <depth>2</depth>
          <value>-8.3646547755003831e-01</value></_>
        <_>
          <depth>2</depth>
          <value>7.7277456707761005e-01</value></_>
        <_>
          <depth>1</depth>
          <value>8.3657358597070394e-02</value>
          <splits>
            <_><var>234</var>
              <quality>5.1853932440280914e-02</quality>
              <le>2.3333334922790527e-01</le></_></splits></_>
        <_>
          <depth>2</depth>
          <value>3.4326782495334518e-01</value></_>
        <_>
          <depth>2</depth>
          <value>-1.5283650345119493e-01</value></_></nodes></_>
    <_>
      <nodes>
        <_>
          <depth>0</depth>
          <value>-2.9115445660401564e-02</value>
          <splits>
            <_><var>342</var>
              <quality>4.4347777962684631e-02</quality>
              <le>3.3137255907058716e-01</le></_></splits></_>
        <_>
          <depth>1</depth>
          <value>-1.2071539963714170e-01</value>
          <splits>
            <_><var>440</var>
              <quality>6.9621898233890533e-02</quality>
              <le>1.3725491240620613e-02</le></_></splits></_>
        <_>
          <depth>2</depth>
          <value>1.8766050308345141e-03</value></_>
        <_>
          <depth>2</depth>
          <value>-7.0909255599967724e-01</value></_>
        <_>
          <depth>1</depth>
          <value>4.7125998117839230e-01</value>
          <splits>
            <_><var>485</var>
              <quality>1.0552410781383514e-01</quality>
              <le>1.7647059634327888e-02</le></_></splits></_>
        <_>
          <depth>2</depth>
          <value>-2.0420418270555560e-01</value></_>
        <_>
          <depth>2</depth>
          <value>1.2052319754911682e+00</value></_></nodes></_>
    <_>
      <nodes>
        <_>
          <depth>0</depth>
          <value>-1.4553730378237199e-03</value>
          <splits>
            <_><var>128</var>
              <quality>3.1437076628208160e-02</quality>
              <le>1.7647059634327888e-02</le></_></splits></_>
        <_>
          <depth>1</depth>
          <value>2.2124063693166201e-02</value>
          <splits>
            <_><var>192</var>
              <quality>3.0298499390482903e-02</quality>
              <le>1.9607844296842813e-03</le></_></splits></_>
        <_>
          <depth>2</depth>
          <value>4.5560265749545199e-02</value></_>
        <_>
          <depth>2</depth>
          <value>-1.3406903393603400e+00</value></_>
        <_>
          <depth>1</depth>
          <value>-1.4047608299709813e+00</value>
          <splits>
            <_><var>202</var>
              <quality>3.4748118370771408e-02</quality>
              <le>9.8431378602981567e-01</le></_></splits></_>
        <_>
          <depth>2</depth>
          <value>-1.2985910750966496e+00</value></_>
        <_>
          <depth>2</depth>
          <value>-3.6656471218434046e+00</value></_></nodes></_>
    <_>
      <nodes>
        <_>
          <depth>0</depth>
          <value>-7.1167741529481144e-03</value>
          <splits>
            <_><var>242</var>
              <quality>2.8066504746675491e-02</quality>
              <le>9.7058832645416260e-01</le></_></splits></_>
        <_>
          <depth>1</depth>
          <value>1.0869199604266268e-01</value>
          <splits>
            <_><var>325</var>
              <quality>5.2167065441608429e-02</quality>
              <le>5.3921568393707275e-01</le></_></splits></_>
        <_>
          <depth>2</depth>
          <value>-1.6455639142684478e-01</value></_>
        <_>
          <depth>2</depth>
          <value>3.5780541113932440e-01</value></_>
        <_>
          <depth>1</depth>
          <value>-2.6178729965910469e-01</value>
          <splits>
            <_><var>235</var>
              <quality>5.3104192018508911e-02</quality>
              <le>2.0196080207824707e-01</le></_></splits></_>
        <_>
          <depth>2</depth>
          <value>2.3308413381123166e-01</value></_>
        <_>
          <depth>2</depth>
          <value>-4.8465817675314921e-01</value></_></nodes></_>
    <_>
      <nodes>
        <_>
          <depth>0</depth>
          <value>-5.3612017441599866e-03</value>
          <splits>
            <_><var>316</var>
              <quality>3.3251039683818817e-02</quality>
              <le>7.1176469326019287e-01</le></_></splits></_>
        <_>
          <depth>1</depth>
          <value>-1.2670853458289222e-01</value>
          <splits>
            <_><var>346</var>
              <quality>5.1384821534156799e-02</quality>
              <le>5.8823535218834877e-03</le></_></splits></_>
        <_>
          <depth>2</depth>
          <value>-5.1574872570578956e-01</value></_>
        <_>
          <depth>2</depth>
          <value>2.9597165755045913e-02</value></_>
        <_>
          <depth>1</depth>
          <value>2.8284224764216465e-01</value>
          <splits>
            <_><var>209</var>
              <quality>9.2746920883655548e-02</quality>
              <le>1.3725491240620613e-02</le></_></splits></_>
        <_>
          <depth>2</depth>
          <value>-7.7245076095776355e-01</value></_>
        <_>
          <depth>2</depth>
          <value>5.1927156282256248e-01</value></_></nodes></_>
    <_>
      <nodes>
        <_>
          <depth>0</depth>
          <value>-5.1096346509700600e-03</value>
          <splits>
            <_><var>346</var>
              <quality>3.2421901822090149e-02</quality>
              <le>9.8235297203063965e-01</le></_></splits></_>
        <_>
          <depth>1</depth>
          <value>1.1371406084996417e-01</value>
          <splits>
            <_><var>211</var>
              <quality>5.6670248508453369e-02</quality>
              <le>2.6470589637756348e-01</le></_></splits></_>
        <_>
          <depth>2</depth>
          <value>6.4314432665263632e-01</value></_>
        <_>
          <depth>2</depth>
          <value>-2.1185398704371486e-02</value></_>
        <_>
          <depth>1</depth>
          <value>-2.9210916221076705e-01</value>
          <splits>
            <_><var>399</var>
              <quality>7.2756394743919373e-02</quality>
              <le>9.2156872153282166e-02</le></_></splits></_>
        <_>
          <depth>2</depth>
          <value>-1.9515372774748407e-02</value></_>
        <_>
          <depth>2</depth>
          <value>-9.3863644145732428e-01</value></_></nodes></_>
    <_>
      <nodes>
        <_>
          <depth>0</depth>
          <value>-1.3185136621226466e-02</value>
          <splits>
            <_><var>411</var>
              <quality>3.4154124557971954e-02</quality>
              <le>9.8627460002899170e-01</le></_></splits></_>
        <_>
          <depth>1</depth>
          <value>-9.2569835472671419e-02</value>
          <splits>
            <_><var>350</var>
              <quality>3.8489308208227158e-02</quality>
              <le>2.4901962280273438e-01</le></_></splits></_>
        <_>
          <depth>2</depth>
          <value>-2.1752454594513015e-01</value></_>
        <_>
          <depth>2</depth>
          <value>2.2020367029015600e-01</value></_>
        <_>
          <depth>1</depth>
          <value>4.3750780190647370e-01</value>
          <splits>
            <_><var>356</var>
              <quality>7.8766994178295135e-02</quality>
              <le>2.5490197539329529e-01</le></_></splits></_>
        <_>
          <depth>2</depth>
          <value>-5.1318744132274052e-01</value></_>
        <_>
          <depth>2</depth>
          <value>8.1851918386183276e-01</value></_></nodes></_>
    <_>
      <nodes>
        <_>
          <depth>0</depth>
          <value>3.3029844967256963e-03</value>
          <splits>
            <_><var>175</var>
              <quality>2.4305660277605057e-02</quality>
              <le>7.2549022734165192e-02</le></_></splits></_>
        <_>
          <depth>1</depth>
          <value>2.9560535574161700e-02</value>
          <splits>
            <_><var>657</var>
              <quality>2.6147421449422836e-02</quality>
              <le>1.7647059634327888e-02</le></_></splits></_>
        <_>
          <depth>2</depth>
          <value>2.0469819378637721e-01</value></_>
        <_>
          <depth>2</depth>
          <value>-1.2684142287730096e-01</value></_>
        <_>
          <depth>1</depth>
          <value>-9.7066702822068951e-01</value>
          <splits>
            <_><var>209</var>
              <quality>3.4816868603229523e-02</quality>
              <le>5.2745103836059570e-01</le></_></splits></_>
        <_>
          <depth>2</depth>
          <value>-1.6523000650945012e+00</value></_>
        <_>
          <depth>2</depth>
          <value>-3.0477980192819315e-01</value></_></nodes></_>
    <_>
      <nodes>
        <_>
          <depth>0</depth>
          <value>-8.1239162772548884e-05</value>
          <splits>
            <_><var>661</var>
              <quality>2.6203960180282593e-02</quality>
              <le>6.5294122695922852e-01</le></_></splits></_>
        <_>
          <depth>1</depth>
          <value>7.7581095637619349e-02</value>
          <splits>
            <_><var>212</var>
              <quality>3.3533707261085510e-02</quality>
              <le>2.8823530673980713e-01</le></_></splits></_>
        <_>
          <depth>2</depth>
          <value>-2.4804656018095492e-01</value></_>
        <_>
          <depth>2</depth>
          <value>1.9120364765980266e-01</value></_>
        <_>
          <depth>1</depth>
          <value>-3.5525123286320909e-01</value>
          <splits>
            <_><var>180</var>
              <quality>6.7627780139446259e-02</quality>
              <le>6.0588240623474121e-01</le></_></splits></_>
        <_>
          <depth>2</depth>
          <value>-7.3615348885082621e-01</value></_>
        <_>
          <depth>2</depth>
          <value>3.5502053400327743e-01</value></_></nodes></_>
    <_>
      <nodes>
        <_>
          <depth>0</depth>
          <value>-1.2700858355689182e-02</value>
          <splits>
            <_><var>746</var>
              <quality>2.8503280133008957e-02</quality>
              <le>1.9607844296842813e-03</le></_></splits></_>
        <_>
          <depth>1</depth>
          <value>-4.5088275644567272e-02</value>
          <splits>
            <_><var>567</var>
              <quality>2.2877469658851624e-02</quality>
              <le>1.5098039805889130e-01</le></_></splits></_>
        <_>
          <depth>2</depth>
          <value>-1.5028330093973060e-02</value></_>
        <_>
          <depth>2</depth>
          <value>-8.0674080374716384e-01</value></_>
        <_>
          <depth>1</depth>
          <value>9.0871752741844591e-01</value>
          <splits>
            <_><var>240</var>
              <quality>6.0387011617422104e-02</quality>
              <le>3.5294119268655777e-02</le></_></splits></_>
        <_>
          <depth>2</depth>
          <value>3.2207072659314044e+00</value></_>
        <_>
          <depth>2</depth>
          <value>4.5619107091120698e-01</value></_></nodes></_>
    <_>
      <nodes>
        <_>
          <depth>0</depth>
          <value>-3.1456423851418565e-03</value>
          <splits>
            <_><var>236</var>
              <quality>2.2726811468601227e-02</quality>
              <le>9.8235297203063965e-01</le></_></splits></_>
        <_>
          <depth>1</depth>
          <value>1.0934112132995888e-01</value>
          <splits>
            <_><var>453</var>
              <quality>3.2524757087230682e-02</quality>
              <le>8.8235296308994293e-02</le></_></splits></_>
        <_>
          <depth>2</depth>
          <value>1.6707776814661970e-01</value></_>
        <_>
          <depth>2</depth>
          <value>-5.9033614460015937e-01</value></_>
        <_>
          <depth>1</depth>
          <value>-2.1573176884820214e-01</value>
          <splits>
            <_><var>572</var>
              <quality>4.2438335716724396e-02</quality>
              <le>5.6862749159336090e-02</le></_></splits></_>
        <_>
          <depth>2</depth>
          <value>1.3669418715464982e-02</value></_>
        <_>
          <depth>2</depth>
          <value>-5.7561009059955892e-01</value></_></nodes></_>
    <_>
      <nodes>
        <_>
          <depth>0</depth>
          <value>-8.0928099548404370e-03</value>
          <splits>
            <_><var>354</var>
              <quality>2.1781982854008675e-02</quality>
              <le>8.0392159521579742e-02</le></_></splits></_>
        <_>
          <depth>1</depth>
          <value>-2.5652148213747555e-01</value>
          <splits>
            <_><var>429</var>
              <quality>5.1350403577089310e-02</quality>
              <le>9.9019610881805420e-01</le></_></splits></_>
        <_>
          <depth>2</depth>
          <value>-1.0153811190898181e-01</value></_>
        <_>
          <depth>2</depth>
          <value>-1.1221789685684791e+00</value></_>
        <_>
          <depth>1</depth>
          <value>8.3937825646142300e-02</value>
          <splits>
            <_><var>437</var>
              <quality>2.9192108660936356e-02</quality>
              <le>2.4117648601531982e-01</le></_></splits></_>
        <_>
          <depth>2</depth>
          <value>-3.2724963540514856e-01</value></_>
        <_>
          <depth>2</depth>
          <value>1.6921924029051214e-01</value></_></nodes></_>
    <_>
      <nodes>
        <_>
          <depth>0</depth>
          <value>-1.0632400685314583e-02</value>
          <splits>
            <_><var>520</var>
              <quality>2.4994453415274620e-02</quality>
              <le>6.4705885946750641e-02</le></_></splits></_>
        <_>
          <depth>1</depth>
          <value>2.4901126447804936e-01</value>
          <splits>
            <_><var>715</var>
              <quality>5.1643975079059601e-02</quality>
              <le>1.4313726127147675e-01</le></_></splits></_>
        <_>
          <depth>2</depth>
          <value>3.7987912582793887e-01</value></_>
        <_>
          <depth>2</depth>
          <value>-7.6155500841174362e-01</value></_>
        <_>
          <depth>1</depth>
          <value>-1.1152871821220911e-01</value>
          <splits>
            <_><var>262</var>
              <quality>3.3588036894798279e-02</quality>
              <le>1.9607844296842813e-03</le></_></splits></_>
        <_>
          <depth>2</depth>
          <value>-4.5083372690406737e-01</value></_>
        <_>
          <depth>2</depth>
          <value>-3.4942633586120386e-03</value></_></nodes></_>
    <_>
      <nodes>
        <_>
          <depth>0</depth>
          <value>-8.1535585894415372e-03</value>
          <splits>
            <_><var>256</var>
              <quality>2.1621689200401306e-02</quality>
              <le>3.3529412746429443e-01</le></_></splits></_>
        <_>
          <depth>1</depth>
          <value>1.0657392691233359e-02</value>
          <splits>
            <_><var>490</var>
              <quality>2.2779574617743492e-02</quality>
              <le>9.8627460002899170e-01</le></_></splits></_>
        <_>
          <depth>2</depth>
          <value>1.1068471516308562e-01</value></_>
        <_>
          <depth>2</depth>
          <value>-2.3166491656369695e-01</value></_>
        <_>
          <depth>1</depth>
          <value>-1.2145374400252487e+00</value>
          <splits>
            <_><var>286</var>
              <quality>3.0399130657315254e-02</quality>
              <le>5.8823535218834877e-03</le></_></splits></_>
        <_>
          <depth>2</depth>
          <value>1.5785772211643718e+00</value></_>
        <_>
          <depth>2</depth>
          <value>-1.4325973809149226e+00</value></_></nodes></_>
    <_>
      <nodes>
        <_>
          <depth>0</depth>
          <value>-5.1411253802766971e-03</value>
          <splits>
            <_><var>357</var>
              <quality>2.2559285163879395e-02</quality>
              <le>9.8627460002899170e-01</le></_></splits></_>
        <_>
          <depth>1</depth>
          <value>-3.6584506442313626e-02</value>
          <splits>
            <_><var>415</var>
              <quality>2.1996727213263512e-02</quality>
              <le>3.9607846736907959e-01</le></_></splits></_>
        <_>
          <depth>2</depth>
          <value>-2.1454367499177680e-02</value></_>
        <_>
          <depth>2</depth>
          <value>-1.5422652734603484e+00</value></_>
        <_>
          <depth>1</depth>
          <value>7.4923754634950579e-01</value>
          <splits>
            <_><var>242</var>
              <quality>6.4867079257965088e-02</quality>
              <le>1.9607844296842813e-03</le></_></splits></_>
        <_>
          <depth>2</depth>
          <value>-1.1762545499689376e+00</value></_>
        <_>
          <depth>2</depth>
          <value>1.3439446111058451e+00</value></_></nodes></_>
    <_>
      <nodes>
        <_>
          <depth>0</depth>
          <value>-3.1853195187813740e-03</value>
          <splits>
            <_><var>132</var>
              <quality>1.7891146242618561e-02</quality>
              <le>1.9607844296842813e-03</le></_></splits></_>
        <_>
          <depth>1</depth>
          <value>1.2046871988392976e-02</value>
          <splits>
            <_><var>262</var>
              <quality>1.7858317121863365e-02</quality>
              <le>9.9019610881805420e-01</le></_></splits></_>
        <_>
          <depth>2</depth>
          <value>8.2506571708090767e-02</value></_>
        <_>
          <depth>2</depth>
          <value>-2.5597895572731727e-01</value></_>
        <_>
          <depth>1</depth>
          <value>-1.2389128931106159e+00</value>
          <splits>
            <_><var>152</var>
              <quality>1.8068585544824600e-02</quality>
              <le>2.1568629145622253e-01</le></_></splits></_>
        <_>
          <depth>2</depth>
          <value>-1.2082615095501397e+00</value></_>
        <_>
          <depth>2</depth>
          <value>-2.1234755915462205e+00</value></_></nodes></_>
    <_>
      <nodes>
        <_>
          <depth>0</depth>
          <value>-5.0308930502997173e-03</value>
          <splits>
            <_><var>621</var>
              <quality>1.6964668408036232e-02</quality>
              <le>8.0392159521579742e-02</le></_></splits></_>
        <_>
          <depth>1</depth>
          <value>9.4868259754802512e-03</value>
          <splits>
            <_><var>407</var>
              <quality>1.6917668282985687e-02</quality>
              <le>4.3725493550300598e-01</le></_></splits></_>
        <_>
          <depth>2</depth>
          <value>-1.7997087379852222e-01</value></_>
        <_>
          <depth>2</depth>
          <value>1.0411805514289520e-01</value></_>
        <_>
          <depth>1</depth>
          <value>-1.2333437157110685e+00</value>
          <splits>
            <_><var>428</var>
              <quality>2.4400118738412857e-02</quality>
              <le>9.9411773681640625e-01</le></_></splits></_>
        <_>
          <depth>2</depth>
          <value>-1.3405544316923266e+00</value></_>
        <_>
          <depth>2</depth>
          <value>5.0874026718485492e+00</value></_></nodes></_>
    <_>
      <nodes>
        <_>
          <depth>0</depth>
          <value>-1.1762606240626404e-02</value>
          <splits>
            <_><var>210</var>
              <quality>1.8258403986692429e-02</quality>
              <le>2.1568629890680313e-02</le></_></splits></_>
        <_>
          <depth>1</depth>
          <value>-3.1153135188370079e-01</value>
          <splits>
            <_><var>266</var>
              <quality>1.7249974608421326e-01</quality>
              <le>3.0000001192092896e-01</le></_></splits></_>
        <_>
          <depth>2</depth>
          <value>-1.0826692594075198e+00</value></_>
        <_>
          <depth>2</depth>
          <value>9.0701164483806596e-01</value></_>
        <_>
          <depth>1</depth>
          <value>5.1889848195250256e-02</value>
          <splits>
            <_><var>238</var>
              <quality>5.4916381835937500e-02</quality>
              <le>1.9607844296842813e-03</le></_></splits></_>
        <_>
          <depth>2</depth>
          <value>8.2474958924819286e-01</value></_>
        <_>
          <depth>2</depth>
          <value>-3.5304188428482867e-02</value></_></nodes></_>
    <_>
      <nodes>
        <_>
          <depth>0</depth>
          <value>-2.8109355873067232e-02</value>
          <splits>
            <_><var>655</var>
              <quality>2.5473477318882942e-02</quality>
              <le>1.9607844296842813e-03</le></_></splits></_>
        <_>
          <depth>1</depth>
          <value>1.1681008671722178e-01</value>
          <splits>
            <_><var>209</var>
              <quality>4.3425694108009338e-02</quality>
              <le>2.9411766678094864e-02</le></_></splits></_>
        <_>
          <depth>2</depth>
          <value>-4.0231212981120690e-01</value></_>
        <_>
          <depth>2</depth>
          <value>2.4964293197898321e-01</value></_>
        <_>
          <depth>1</depth>
          <value>-2.0768709388170359e-01</value>
          <splits>
            <_><var>319</var>
              <quality>6.4780488610267639e-02</quality>
              <le>5.8823535218834877e-03</le></_></splits></_>
        <_>
          <depth>2</depth>
          <value>-7.6978558794745733e-01</value></_>
        <_>
          <depth>2</depth>
          <value>-1.2782609231372612e-02</value></_></nodes></_>
    <_>
      <nodes>
        <_>
          <depth>0</depth>
          <value>-1.1500278646560584e-02</value>
          <splits>
            <_><var>659</var>
              <quality>2.7854340150952339e-02</quality>
              <le>3.1960785388946533e-01</le></_></splits></_>
        <_>
          <depth>1</depth>
          <value>1.2188059282065868e-01</value>
          <splits>
            <_><var>186</var>
              <quality>3.7656836211681366e-02</quality>
              <le>4.0196081995964050e-01</le></_></splits></_>
        <_>
          <depth>2</depth>
          <value>-2.6914544867039390e-02</value></_>
        <_>
          <depth>2</depth>
          <value>4.5081991787681991e-01</value></_>
        <_>
          <depth>1</depth>
          <value>-2.3033540197342336e-01</value>
          <splits>
            <_><var>573</var>
              <quality>4.9033083021640778e-02</quality>
              <le>5.2352941036224365e-01</le></_></splits></_>
        <_>
          <depth>2</depth>
          <value>-9.6813569322365525e-02</value></_>
        <_>
          <depth>2</depth>
          <value>-8.5377241637772405e-01</value></_></nodes></_>
    <_>
      <nodes>
        <_>
          <depth>0</depth>
          <value>-9.7956334940394081e-03</value>
          <splits>
            <_><var>598</var>
              <quality>2.3296754807233810e-02</quality>
              <le>2.8431373834609985e-01</le></_></splits></_>
        <_>
          <depth>1</depth>
          <value>6.0276163458813835e-02</value>
          <splits>
            <_><var>514</var>
              <quality>3.3657323569059372e-02</quality>
              <le>7.9019618034362793e-01</le></_></splits></_>
        <_>
          <depth>2</depth>
          <value>-2.6055232167642890e-03</value></_>
        <_>
          <depth>2</depth>
          <value>6.7917555576716826e-01</value></_>
        <_>
          <depth>1</depth>
          <value>-3.5839801015064315e-01</value>
          <splits>
            <_><var>680</var>
              <quality>6.3500002026557922e-02</quality>
              <le>1.2352941930294037e-01</le></_></splits></_>
        <_>
          <depth>2</depth>
          <value>-8.7976232672807730e-01</value></_>
        <_>
          <depth>2</depth>
          <value>1.6126149228098619e-01</value></_></nodes></_>
    <_>
      <nodes>
        <_>
          <depth>0</depth>
          <value>-1.6970728050467385e-02</value>
          <splits>
            <_><var>351</var>
              <quality>2.5869356468319893e-02</quality>
              <le>1.8235294520854950e-01</le></_></splits></_>
        <_>
          <depth>1</depth>
          <value>-1.6843108751799529e-01</value>
          <splits>
            <_><var>412</var>
              <quality>5.4455865174531937e-02</quality>
              <le>6.0588240623474121e-01</le></_></splits></_>
        <_>
          <depth>2</depth>
          <value>-2.8401081278319423e-01</value></_>
        <_>
          <depth>2</depth>
          <value>5.0434388638280925e-01</value></_>
        <_>
          <depth>1</depth>
          <value>1.6091683890463088e-01</value>
          <splits>
            <_><var>513</var>
              <quality>5.1342658698558807e-02</quality>
              <le>2.1568629890680313e-02</le></_></splits></_>
        <_>
          <depth>2</depth>
          <value>2.8405061146247812e-01</value></_>
        <_>
          <depth>2</depth>
          <value>-5.8319718146219535e-01</value></_></nodes></_>
    <_>
      <nodes>
        <_>
          <depth>0</depth>
          <value>2.8852381199547723e-03</value>
          <splits>
            <_><var>459</var>
              <quality>2.4738477542996407e-02</quality>
              <le>7.2352945804595947e-01</le></_></splits></_>
        <_>
          <depth>1</depth>
          <value>-1.0944563753324638e-01</value>
          <splits>
            <_><var>265</var>
              <quality>4.9626708030700684e-02</quality>
              <le>9.8235297203063965e-01</le></_></splits></_>
        <_>
          <depth>2</depth>
          <value>4.4602137328860064e-02</value></_>
        <_>
          <depth>2</depth>
          <value>-5.3516911832679359e-01</value></_>
        <_>
          <depth>1</depth>
          <value>2.3463314043446487e-01</value>
          <splits>
            <_><var>344</var>
              <quality>5.5785153061151505e-02</quality>
              <le>5.2352941036224365e-01</le></_></splits></_>
        <_>
          <depth>2</depth>
          <value>-6.4439624964001907e-02</value></_>
        <_>
          <depth>2</depth>
          <value>6.5197996265689018e-01</value></_></nodes></_>
    <_>
      <nodes>
        <_>
          <depth>0</depth>
          <value>-1.0668463689328740e-03</value>
          <splits>
            <_><var>717</var>
              <quality>2.2883569821715355e-02</quality>
              <le>9.8039228469133377e-03</le></_></splits></_>
        <_>
          <depth>1</depth>
          <value>6.0455465590644679e-02</value>
          <splits>
            <_><var>550</var>
              <quality>2.6745354756712914e-02</quality>
              <le>4.6470591425895691e-01</le></_></splits></_>
        <_>
          <depth>2</depth>
          <value>1.4117562969176570e-01</value></_>
        <_>
          <depth>2</depth>
          <value>-2.9784968609660917e-01</value></_>
        <_>
          <depth>1</depth>
          <value>-3.9258554748481628e-01</value>
          <splits>
            <_><var>211</var>
              <quality>6.3922323286533356e-02</quality>
              <le>3.0000001192092896e-01</le></_></splits></_>
        <_>
          <depth>2</depth>
          <value>6.1760524105467496e-01</value></_>
        <_>
          <depth>2</depth>
          <value>-7.3051347360969066e-01</value></_></nodes></_>
    <_>
      <nodes>
        <_>
          <depth>0</depth>
          <value>-1.8846499241686387e-03</value>
          <splits>
            <_><var>286</var>
              <quality>1.8247675150632858e-02</quality>
              <le>8.6862754821777344e-01</le></_></splits></_>
        <_>
          <depth>1</depth>
          <value>-3.4689679649041114e-02</value>
          <splits>
            <_><var>742</var>
              <quality>2.2143851965665817e-02</quality>
              <le>1.3725490868091583e-01</le></_></splits></_>
        <_>
          <depth>2</depth>
          <value>-7.5422076483885631e-02</value></_>
        <_>
          <depth>2</depth>
          <value>5.4009685525296069e-01</value></_>
        <_>
          <depth>1</depth>
          <value>5.8353691949984221e-01</value>
          <splits>
            <_><var>207</var>
              <quality>8.1967122852802277e-02</quality>
              <le>2.9215687513351440e-01</le></_></splits></_>
        <_>
          <depth>2</depth>
          <value>-1.1783891555030914e+00</value></_>
        <_>
          <depth>2</depth>
          <value>1.3131452054874233e+00</value></_></nodes></_>
    <_>
      <nodes>
        <_>
          <depth>0</depth>
          <value>2.1116012121174615e-03</value>
          <splits>
            <_><var>499</var>
              <quality>1.6809195280075073e-02</quality>
              <le>8.8235296308994293e-02</le></_></splits></_>
        <_>
          <depth>1</depth>
          <value>1.9840268172169960e-02</value>
          <splits>
            <_><var>249</var>
              <quality>1.5056685544550419e-02</quality>
              <le>6.4705885946750641e-02</le></_></splits></_>
        <_>
          <depth>2</depth>
          <value>3.0317848338928220e-02</value></_>
        <_>
          <depth>2</depth>
          <value>-1.4821495621052077e+00</value></_>
        <_>
          <depth>1</depth>
          <value>-9.9568180869203826e-01</value>
          <splits>
            <_><var>317</var>
              <quality>2.5445928797125816e-02</quality>
              <le>9.9803924560546875e-01</le></_></splits></_>
        <_>
          <depth>2</depth>
          <value>-1.0450575330381477e+00</value></_>
        <_>
          <depth>2</depth>
          <value>10.</value></_></nodes></_>
    <_>
      <nodes>
        <_>
          <depth>0</depth>
          <value>-2.3133212650572551e-02</value>
          <splits>
            <_><var>497</var>
              <quality>3.2612640410661697e-02</quality>
              <le>9.9803924560546875e-01</le></_></splits></_>
        <_>
          <depth>1</depth>
          <value>-7.5637263875085901e-03</value>
          <splits>
            <_><var>612</var>
              <quality>1.8190070986747742e-02</quality>
              <le>6.7254900932312012e-01</le></_></splits></_>
        <_>
          <depth>2</depth>
          <value>-1.2849105955960852e-02</value></_>
        <_>
          <depth>2</depth>
          <value>3.6303298568540532e+00</value></_>
        <_>
          <depth>1</depth>
          <value>-2.1936653112667162e+00</value>
          <splits>
            <_><var>527</var>
              <quality>4.3546617031097412e-02</quality>
              <le>9.6862745285034180e-01</le></_></splits></_>
        <_>
          <depth>2</depth>
          <value>-1.5272897390425746e+00</value></_>
        <_>
          <depth>2</depth>
          <value>-4.6307530334755418e+00</value></_></nodes></_>
    <_>
      <nodes>
        <_>
          <depth>0</depth>
          <value>-1.0237068949562427e-02</value>
          <splits>
            <_><var>428</var>
              <quality>1.7705950886011124e-02</quality>
              <le>9.9019610881805420e-01</le></_></splits></_>
        <_>
          <depth>1</depth>
          <value>4.5401992100730433e-02</value>
          <splits>
            <_><var>374</var>
              <quality>2.7278153225779533e-02</quality>
              <le>1.2352941930294037e-01</le></_></splits></_>
        <_>
          <depth>2</depth>
          <value>-1.9294376778907774e-01</value></_>
        <_>
          <depth>2</depth>
          <value>1.7734905689316047e-01</value></_>
        <_>
          <depth>1</depth>
          <value>-3.4333406949910078e-01</value>
          <splits>
            <_><var>515</var>
              <quality>4.6517319977283478e-02</quality>
              <le>3.5490196943283081e-01</le></_></splits></_>
        <_>
          <depth>2</depth>
          <value>-6.1391479124817161e-01</value></_>
        <_>
          <depth>2</depth>
          <value>4.8538310592676948e-01</value></_></nodes></_>
    <_>
      <nodes>
        <_>
          <depth>0</depth>
          <value>-3.5917216458181251e-03</value>
          <splits>
            <_><var>369</var>
              <quality>1.8989011645317078e-02</quality>
              <le>9.0000009536743164e-01</le></_></splits></_>
        <_>
          <depth>1</depth>
          <value>-3.0598949298523616e-02</value>
          <splits>
            <_><var>525</var>
              <quality>1.9411848857998848e-02</quality>
              <le>6.0784317553043365e-02</le></_></splits></_>
        <_>
          <depth>2</depth>
          <value>3.5392115730268382e-03</value></_>
        <_>
          <depth>2</depth>
          <value>-6.2358995682145180e-01</value></_>
        <_>
          <depth>1</depth>
          <value>7.3605497532879194e-01</value>
          <splits>
            <_><var>372</var>
              <quality>4.9003470689058304e-02</quality>
              <le>9.5882356166839600e-01</le></_></splits></_>
        <_>
          <depth>2</depth>
          <value>1.2283826621695755e+00</value></_>
        <_>
          <depth>2</depth>
          <value>-1.1377335811647677e+00</value></_></nodes></_>
    <_>
      <nodes>
        <_>
          <depth>0</depth>
          <value>-4.3777180597926865e-03</value>
          <splits>
            <_><var>771</var>
              <quality>1.8490593880414963e-02</quality>
              <le>5.5686277151107788e-01</le></_></splits></_>
        <_>
          <depth>1</depth>
          <value>-6.8841861801680563e-03</value>
          <splits>
            <_><var>603</var>
              <quality>1.6489638015627861e-02</quality>
              <le>7.6470591127872467e-02</le></_></splits></_>
        <_>
          <depth>2</depth>
          <value>1.3760864737435630e-01</value></_>
        <_>
          <depth>2</depth>
          <value>-1.2672248342092893e-01</value></_>
        <_>
          <depth>1</depth>
          <value>7.7534187926037150e+00</value></_></nodes></_>
    <_>
      <nodes>
        <_>
          <depth>0</depth>
          <value>-2.2687433753070394e-02</value>
          <splits>
            <_><var>771</var>
              <quality>4.3212462216615677e-02</quality>
              <le>6.6078436374664307e-01</le></_></splits></_>
        <_>
          <depth>1</depth>
          <value>1.8701965831339993e-04</value>
          <splits>
            <_><var>240</var>
              <quality>1.5669887885451317e-02</quality>
              <le>1.9607844296842813e-03</le></_></splits></_>
        <_>
          <depth>2</depth>
          <value>-2.7857574468717139e-01</value></_>
        <_>
          <depth>2</depth>
          <value>6.0046488023141373e-02</value></_>
        <_>
          <depth>1</depth>
          <value>-1.9887385585520003e+00</value>
          <splits>
            <_><var>369</var>
              <quality>4.9885354936122894e-02</quality>
              <le>4.4901964068412781e-01</le></_></splits></_>
        <_>
          <depth>2</depth>
          <value>-1.6410896769976209e+00</value></_>
        <_>
          <depth>2</depth>
          <value>-3.7455378786986810e+00</value></_></nodes></_>
    <_>
      <nodes>
        <_>
          <depth>0</depth>
          <value>-9.6111780079390745e-03</value>
          <splits>
            <_><var>326</var>
              <quality>1.5429443679749966e-02</quality>
              <le>9.9803924560546875e-01</le></_></splits></_>
        <_>
          <depth>1</depth>
          <value>-3.0830601152401316e-02</value>
          <splits>
            <_><var>438</var>
              <quality>1.6210610046982765e-02</quality>
              <le>8.7254905700683594e-01</le></_></splits></_>
        <_>
          <depth>2</depth>
          <value>-1.1502083538769499e-01</value></_>
        <_>
          <depth>2</depth>
          <value>1.6621431795896857e-01</value></_>
        <_>
          <depth>1</depth>
          <value>7.5145343809008935e-01</value>
          <splits>
            <_><var>431</var>
              <quality>2.5392433628439903e-02</quality>
              <le>9.9803924560546875e-01</le></_></splits></_>
        <_>
          <depth>2</depth>
          <value>2.7835076663438085e-01</value></_>
        <_>
          <depth>2</depth>
          <value>1.6407491292632879e+00</value></_></nodes></_>
    <_>
      <nodes>
        <_>
          <depth>0</depth>
          <value>-2.4763601119731533e-03</value>
          <splits>
            <_><var>301</var>
              <quality>1.6337979584932327e-02</quality>
              <le>9.8235297203063965e-01</le></_></splits></_>
        <_>
          <depth>1</depth>
          <value>3.4502441087752196e-02</value>
          <splits>
            <_><var>188</var>
              <quality>1.6488170251250267e-02</quality>
              <le>6.4705885946750641e-02</le></_></splits></_>
        <_>
          <depth>2</depth>
          <value>9.3260516132225788e-02</value></_>
        <_>
          <depth>2</depth>
          <value>-2.6411350938976713e-01</value></_>
        <_>
          <depth>1</depth>
          <value>-4.6738585312819653e-01</value>
          <splits>
            <_><var>215</var>
              <quality>3.2336678355932236e-02</quality>
              <le>2.5490198284387589e-02</le></_></splits></_>
        <_>
          <depth>2</depth>
          <value>-1.3103362588452125e+00</value></_>
        <_>
          <depth>2</depth>
          <value>-1.7847800978298561e-01</value></_></nodes></_>
    <_>
      <nodes>
        <_>
          <depth>0</depth>
          <value>-2.6488434883407937e-03</value>
          <splits>
            <_><var>268</var>
              <quality>1.7929827794432640e-02</quality>
              <le>9.5882356166839600e-01</le></_></splits></_>
        <_>
          <depth>1</depth>
          <value>8.1022100127482996e-02</value>
          <splits>
            <_><var>374</var>
              <quality>2.7990136295557022e-02</quality>
              <le>8.8431382179260254e-01</le></_></splits></_>
        <_>
          <depth>2</depth>
          <value>2.1478872136628252e-01</value></_>
        <_>
          <depth>2</depth>
          <value>-1.7189685946945898e-01</value></_>
        <_>
          <depth>1</depth>
          <value>-2.2813611940138831e-01</value>
          <splits>
            <_><var>376</var>
              <quality>5.8148857206106186e-02</quality>
              <le>1.9019609689712524e-01</le></_></splits></_>
        <_>
          <depth>2</depth>
          <value>-5.6834691662206971e-01</value></_>
        <_>
          <depth>2</depth>
          <value>2.8366712523472931e-01</value></_></nodes></_>
    <_>
      <nodes>
        <_>
          <depth>0</depth>
          <value>-4.6917404659860976e-03</value>
          <splits>
            <_><var>408</var>
              <quality>1.6500527039170265e-02</quality>
              <le>3.3333335071802139e-02</le></_></splits></_>
        <_>
          <depth>1</depth>
          <value>-3.9273133454071757e-01</value>
          <splits>
            <_><var>440</var>
              <quality>3.9567440748214722e-02</quality>
              <le>3.9215688593685627e-03</le></_></splits></_>
        <_>
          <depth>2</depth>
          <value>-8.1343075256166930e-01</value></_>
        <_>
          <depth>2</depth>
          <value>1.9900087463426083e-01</value></_>
        <_>
          <depth>1</depth>
          <value>4.0012920043722304e-02</value>
          <splits>
            <_><var>692</var>
              <quality>1.8936363980174065e-02</quality>
              <le>9.9411773681640625e-01</le></_></splits></_>
        <_>
          <depth>2</depth>
          <value>3.0088323519817495e-02</value></_>
        <_>
          <depth>2</depth>
          <value>2.1185524218214558e+00</value></_></nodes></_>
    <_>
      <nodes>
        <_>
          <depth>0</depth>
          <value>-7.3191322403437194e-04</value>
          <splits>
            <_><var>284</var>
              <quality>1.5093030408024788e-02</quality>
              <le>8.0392159521579742e-02</le></_></splits></_>
        <_>
          <depth>1</depth>
          <value>1.8461918677083876e-02</value>
          <splits>
            <_><var>184</var>
              <quality>1.4278143644332886e-02</quality>
              <le>7.5098043680191040e-01</le></_></splits></_>
        <_>
          <depth>2</depth>
          <value>-6.0013008347978042e-02</value></_>
        <_>
          <depth>2</depth>
          <value>2.1008166200913569e-01</value></_>
        <_>
          <depth>1</depth>
          <value>-8.2844078993790904e-01</value>
          <splits>
            <_><var>316</var>
              <quality>2.9640810564160347e-02</quality>
              <le>2.9411766678094864e-02</le></_></splits></_>
        <_>
          <depth>2</depth>
          <value>1.0928181733303305e-01</value></_>
        <_>
          <depth>2</depth>
          <value>-1.5646778986243477e+00</value></_></nodes></_>
    <_>
      <nodes>
        <_>
          <depth>0</depth>
          <value>-2.2046720713238344e-03</value>
          <splits>
            <_><var>489</var>
              <quality>1.3360039331018925e-02</quality>
              <le>9.9019610881805420e-01</le></_></splits></_>
        <_>
          <depth>1</depth>
          <value>4.6533300615176375e-02</value>
          <splits>
            <_><var>621</var>
              <quality>1.9595503807067871e-02</quality>
              <le>1.1764707043766975e-02</le></_></splits></_>
        <_>
          <depth>2</depth>
          <value>6.3003988545890302e-02</value></_>
        <_>
          <depth>2</depth>
          <value>-1.2859514797154410e+00</value></_>
        <_>
          <depth>1</depth>
          <value>-2.9065474040813755e-01</value>
          <splits>
            <_><var>209</var>
              <quality>3.7842143326997757e-02</quality>
              <le>1.3725490868091583e-01</le></_></splits></_>
        <_>
          <depth>2</depth>
          <value>4.2227413403172293e-01</value></_>
        <_>
          <depth>2</depth>
          <value>-5.5871545415310020e-01</value></_></nodes></_>
    <_>
      <nodes>
        <_>
          <depth>0</depth>
          <value>-4.7854753253697918e-03</value>
          <splits>
            <_><var>388</var>
              <quality>1.3803195208311081e-02</quality>
              <le>6.6666670143604279e-02</le></_></splits></_>
        <_>
          <depth>1</depth>
          <value>7.4323770875656375e-03</value>
          <splits>
            <_><var>459</var>
              <quality>1.4604763127863407e-02</quality>
              <le>5.3137254714965820e-01</le></_></splits></_>
        <_>
          <depth>2</depth>
          <value>-8.9522159928079090e-02</value></_>
        <_>
          <depth>2</depth>
          <value>1.6705795008950919e-01</value></_>
        <_>
          <depth>1</depth>
          <value>-1.1921309382959795e+00</value>
          <splits>
            <_><var>329</var>
              <quality>1.8597772344946861e-02</quality>
              <le>1.9607844948768616e-01</le></_></splits></_>
        <_>
          <depth>2</depth>
          <value>-1.6407485516245737e+00</value></_>
        <_>
          <depth>2</depth>
          <value>-7.5629032438924909e-02</value></_></nodes></_>
    <_>
      <nodes>
        <_>
          <depth>0</depth>
          <value>-7.5876675536019718e-03</value>
          <splits>
            <_><var>149</var>
              <quality>1.3408661819994450e-02</quality>
              <le>5.3921568393707275e-01</le></_></splits></_>
        <_>
          <depth>1</depth>
          <value>4.0129103204325023e-03</value>
          <splits>
            <_><var>327</var>
              <quality>1.1386263184249401e-02</quality>
              <le>1.2352941930294037e-01</le></_></splits></_>
        <_>
          <depth>2</depth>
          <value>-1.1466093555377790e-01</value></_>
        <_>
          <depth>2</depth>
          <value>1.0583991616036729e-01</value></_>
        <_>
          <depth>1</depth>
          <value>-1.2193232744673967e+00</value>
          <splits>
            <_><var>257</var>
              <quality>1.5413931570947170e-02</quality>
              <le>4.2156863212585449e-01</le></_></splits></_>
        <_>
          <depth>2</depth>
          <value>-1.3137482686052697e+00</value></_>
        <_>
          <depth>2</depth>
          <value>1.1558692135523334e+00</value></_></nodes></_>
    <_>
      <nodes>
        <_>
          <depth>0</depth>
          <value>-7.3595566590826753e-03</value>
          <splits>
            <_><var>271</var>
              <quality>1.3202985748648643e-02</quality>
              <le>8.6862754821777344e-01</le></_></splits></_>
        <_>
          <depth>1</depth>
          <value>6.6130034458343229e-02</value>
          <splits>
            <_><var>358</var>
              <quality>2.1988272666931152e-02</quality>
              <le>3.3333335071802139e-02</le></_></splits></_>
        <_>
          <depth>2</depth>
          <value>1.1253340017162602e-01</value></_>
        <_>
          <depth>2</depth>
          <value>-5.3301016257452427e-01</value></_>
        <_>
          <depth>1</depth>
          <value>-1.9573773257251056e-01</value>
          <splits>
            <_><var>185</var>
              <quality>3.6914106458425522e-02</quality>
              <le>6.2549018859863281e-01</le></_></splits></_>
        <_>
          <depth>2</depth>
          <value>-4.1194216903813852e-01</value></_>
        <_>
          <depth>2</depth>
          <value>2.6747258989536288e-01</value></_></nodes></_>
    <_>
      <nodes>
        <_>
          <depth>0</depth>
          <value>1.9567949135433755e-03</value>
          <splits>
            <_><var>186</var>
              <quality>1.7043842002749443e-02</quality>
              <le>5.8823535218834877e-03</le></_></splits></_>
        <_>
          <depth>1</depth>
          <value>1.1555245390649245e-01</value>
          <splits>
            <_><var>268</var>
              <quality>4.4643905013799667e-02</quality>
              <le>1.3725491240620613e-02</le></_></splits></_>
        <_>
          <depth>2</depth>
          <value>-4.0856186135727407e-01</value></_>
        <_>
          <depth>2</depth>
          <value>2.4424357260360313e-01</value></_>
        <_>
          <depth>1</depth>
          <value>-1.5594692232470758e-01</value>
          <splits>
            <_><var>265</var>
              <quality>5.6623775511980057e-02</quality>
              <le>5.3921568393707275e-01</le></_></splits></_>
        <_>
          <depth>2</depth>
          <value>-4.8789505895072915e-01</value></_>
        <_>
          <depth>2</depth>
          <value>1.9994611567126816e-01</value></_></nodes></_>
    <_>
      <nodes>
        <_>
          <depth>0</depth>
          <value>-8.8394786386536712e-03</value>
          <splits>
            <_><var>239</var>
              <quality>2.2800555452704430e-02</quality>
              <le>8.8823533058166504e-01</le></_></splits></_>
        <_>
          <depth>1</depth>
          <value>1.3572048676351231e-01</value>
          <splits>
            <_><var>432</var>
              <quality>5.0324145704507828e-02</quality>
              <le>9.3137264251708984e-01</le></_></splits></_>
        <_>
          <depth>2</depth>
          <value>3.1862670135733845e-01</value></_>
        <_>
          <depth>2</depth>
          <value>-3.0618857726244819e-01</value></_>
        <_>
          <depth>1</depth>
          <value>-1.7432569983937513e-01</value>
          <splits>
            <_><var>432</var>
              <quality>4.7697618603706360e-02</quality>
              <le>3.7254903465509415e-02</le></_></splits></_>
        <_>
          <depth>2</depth>
          <value>-4.9758023468084872e-01</value></_>
        <_>
          <depth>2</depth>
          <value>6.4791348282662933e-02</value></_></nodes></_>
    <_>
      <nodes>
        <_>
          <depth>0</depth>
          <value>-2.3219391694391553e-03</value>
          <splits>
            <_><var>344</var>
              <quality>2.2665603086352348e-02</quality>
              <le>1.4313726127147675e-01</le></_></splits></_>
        <_>
          <depth>1</depth>
          <value>-1.5308274870407931e-01</value>
          <splits>
            <_><var>319</var>
              <quality>6.1985462903976440e-02</quality>
              <le>1.0784314572811127e-01</le></_></splits></_>
        <_>
          <depth>2</depth>
          <value>-6.3013657747076490e-01</value></_>
        <_>
          <depth>2</depth>
          <value>6.4893029546367317e-02</value></_>
        <_>
          <depth>1</depth>
          <value>1.5589710336317766e-01</value>
          <splits>
            <_><var>512</var>
              <quality>4.4291269034147263e-02</quality>
              <le>3.3921569585800171e-01</le></_></splits></_>
        <_>
          <depth>2</depth>
          <value>6.3904961689864717e-02</value></_>
        <_>
          <depth>2</depth>
          <value>9.3039451445512944e-01</value></_></nodes></_>
    <_>
      <nodes>
        <_>
          <depth>0</depth>
          <value>-6.3075465223239330e-03</value>
          <splits>
            <_><var>320</var>
              <quality>1.9613191485404968e-02</quality>
              <le>9.5490205287933350e-01</le></_></splits></_>
        <_>
          <depth>1</depth>
          <value>5.7817386758960011e-02</value>
          <splits>
            <_><var>740</var>
              <quality>1.8986500799655914e-02</quality>
              <le>2.4117648601531982e-01</le></_></splits></_>
        <_>
          <depth>2</depth>
          <value>1.9441445196630488e-02</value></_>
        <_>
          <depth>2</depth>
          <value>5.9542739670192757e-01</value></_>
        <_>
          <depth>1</depth>
          <value>-3.2764477629063943e-01</value>
          <splits>
            <_><var>241</var>
              <quality>4.7656331211328506e-02</quality>
              <le>2.6666668057441711e-01</le></_></splits></_>
        <_>
          <depth>2</depth>
          <value>-1.0672998813556362e+00</value></_>
        <_>
          <depth>2</depth>
          <value>-6.5097549011359404e-02</value></_></nodes></_>
    <_>
      <nodes>
        <_>
          <depth>0</depth>
          <value>-7.8402936433096242e-03</value>
          <splits>
            <_><var>264</var>
              <quality>1.8919868394732475e-02</quality>
              <le>9.5882356166839600e-01</le></_></splits></_>
        <_>
          <depth>1</depth>
          <value>9.4082736847861170e-02</value>
          <splits>
            <_><var>401</var>
              <quality>2.9700767248868942e-02</quality>
              <le>9.9019610881805420e-01</le></_></splits></_>
        <_>
          <depth>2</depth>
          <value>1.9255287709508495e-01</value></_>
        <_>
          <depth>2</depth>
          <value>-2.9964794679469253e-01</value></_>
        <_>
          <depth>1</depth>
          <value>-2.0263652197461970e-01</value>
          <splits>
            <_><var>403</var>
              <quality>4.8966482281684875e-02</quality>
              <le>1.0392157733440399e-01</le></_></splits></_>
        <_>
          <depth>2</depth>
          <value>-5.8469062767180957e-01</value></_>
        <_>
          <depth>2</depth>
          <value>8.2645434764390652e-02</value></_></nodes></_>
    <_>
      <nodes>
        <_>
          <depth>0</depth>
          <value>-3.4804856572172847e-04</value>
          <splits>
            <_><var>412</var>
              <quality>1.6034677624702454e-02</quality>
              <le>9.9019610881805420e-01</le></_></splits></_>
        <_>
          <depth>1</depth>
          <value>-2.9330158029494086e-02</value>
          <splits>
            <_><var>522</var>
              <quality>2.2163521498441696e-02</quality>
              <le>4.1176471859216690e-02</le></_></splits></_>
        <_>
          <depth>2</depth>
          <value>9.1115102056705422e-02</value></_>
        <_>
          <depth>2</depth>
          <value>-2.2552716195225528e-01</value></_>
        <_>
          <depth>1</depth>
          <value>5.8203326018133805e-01</value>
          <splits>
            <_><var>410</var>
              <quality>4.7431182116270065e-02</quality>
              <le>9.0392160415649414e-01</le></_></splits></_>
        <_>
          <depth>2</depth>
          <value>1.5592344322623652e+00</value></_>
        <_>
          <depth>2</depth>
          <value>-1.4907943579625238e-01</value></_></nodes></_>
    <_>
      <nodes>
        <_>
          <depth>0</depth>
          <value>-1.8771033265623429e-03</value>
          <splits>
            <_><var>437</var>
              <quality>2.0497757941484451e-02</quality>
              <le>8.0588245391845703e-01</le></_></splits></_>
        <_>
          <depth>1</depth>
          <value>-1.6585666436867885e-01</value>
          <splits>
            <_><var>345</var>
              <quality>3.5219471901655197e-02</quality>
              <le>2.8431373834609985e-01</le></_></splits></_>
        <_>
          <depth>2</depth>
          <value>6.2194320106951501e-02</value></_>
        <_>
          <depth>2</depth>
          <value>-4.1042541110068725e-01</value></_>
        <_>
          <depth>1</depth>
          <value>1.2968385489711745e-01</value>
          <splits>
            <_><var>235</var>
              <quality>3.5744126886129379e-02</quality>
              <le>6.8627454340457916e-02</le></_></splits></_>
        <_>
          <depth>2</depth>
          <value>-2.5059394411333591e-01</value></_>
        <_>
          <depth>2</depth>
          <value>2.6378360077656804e-01</value></_></nodes></_>
    <_>
      <nodes>
        <_>
          <depth>0</depth>
          <value>-3.5888450391813619e-03</value>
          <splits>
            <_><var>713</var>
              <quality>1.8557488918304443e-02</quality>
              <le>1.9607844296842813e-03</le></_></splits></_>
        <_>
          <depth>1</depth>
          <value>9.0081300772919370e-02</value>
          <splits>
            <_><var>602</var>
              <quality>3.4740716218948364e-02</quality>
              <le>3.1960785388946533e-01</le></_></splits></_>
        <_>
          <depth>2</depth>
          <value>2.4180848923990544e-01</value></_>
        <_>
          <depth>2</depth>
          <value>-2.0578546104662165e-01</value></_>
        <_>
          <depth>1</depth>
          <value>-2.1199396869569209e-01</value>
          <splits>
            <_><var>630</var>
              <quality>5.2522003650665283e-02</quality>
              <le>5.8823535218834877e-03</le></_></splits></_>
        <_>
          <depth>2</depth>
          <value>-1.2658248825219622e+00</value></_>
        <_>
          <depth>2</depth>
          <value>-8.5455035735291757e-02</value></_></nodes></_>
    <_>
      <nodes>
        <_>
          <depth>0</depth>
          <value>-6.8676372190697617e-03</value>
          <splits>
            <_><var>556</var>
              <quality>1.5283619053661823e-02</quality>
              <le>3.2352942228317261e-01</le></_></splits></_>
        <_>
          <depth>1</depth>
          <value>2.7537268195353330e-03</value>
          <splits>
            <_><var>381</var>
              <quality>1.2351847253739834e-02</quality>
              <le>4.0196081995964050e-01</le></_></splits></_>
        <_>
          <depth>2</depth>
          <value>1.9847692450603729e-01</value></_>
        <_>
          <depth>2</depth>
          <value>-6.4021414691928236e-02</value></_>
        <_>
          <depth>1</depth>
          <value>-1.6740861572254286e+00</value>
          <splits>
            <_><var>371</var>
              <quality>1.8706483766436577e-02</quality>
              <le>9.9411773681640625e-01</le></_></splits></_>
        <_>
          <depth>2</depth>
          <value>-1.5011491945492439e+00</value></_>
        <_>
          <depth>2</depth>
          <value>-5.3127569003149340e+00</value></_></nodes></_>
    <_>
      <nodes>
        <_>
          <depth>0</depth>
          <value>1.5127591939856184e-03</value>
